437 200
president 0.197041 0.072939 -0.106393 0.091264 -0.394375 -0.032115 0.135196 -0.095129 -0.130913 0.270523 -0.233912 -0.192565 0.070174 -0.039264 -0.082146 -0.204024 0.126954 0.1948 -0.12273 -0.153651 -0.110248 0.233911 0.105382 -0.29418 0.106728 -0.008547 0.119096 -0.379714 -0.018586 0.163815 -0.026603 -0.163746 0.029248 -0.143523 -0.06519 -0.073649 -0.136776 0.266625 0.107019 0.333569 -0.20469 0.264717 -0.044286 -0.38224 0.162113 0.0739 -0.163968 -0.044535 -0.090341 -0.00402 0.217969 -0.034512 0.067782 -0.118511 -0.177964 0.028212 0.045431 -0.034219 -0.098307 -0.130218 -0.24824 0.057217 0.16115 0.109336 -0.114135 -0.139566 -0.21349 0.062398 -0.148718 -0.384649 -0.002327 0.18554 -0.084254 -0.197356 0.083836 -0.05929 0.012578 -0.029713 -0.26757 0.07654 0.325745 0.215002 0.025241 -0.209846 -0.208608 0.171572 0.358243 0.09663 -0.229104 -0.288196 0.092918 0.068369 0.059357 -0.232143 0.00715 -0.16805 -0.058714 0.214321 0.207042 0.218665 -0.156552 -0.210197 0.101381 -0.033446 -0.047702 -0.097081 -0.091527 -0.140476 0.111615 -0.094265 0.283748 -0.069193 -0.135436 0.339326 -0.052973 0.067385 0.072387 -0.060003 0.084616 -0.029738 0.259415 0.129301 -0.381224 0.071219 -0.237304 0.016716 -0.169162 -0.073981 0.088526 -0.185356 -0.137444 0.101188 0.275 0.023175 0.017149 0.010683 -0.137526 0.355586 -0.247257 -0.022107 -0.148385 0.253307 -0.125682 -0.251226 0.052059 0.202656 0.499934 -0.085524 -0.055028 -0.158135 -0.021038 0.188856 0.199265 -0.132531 -0.120783 -0.01491 -0.09476 0.110465 -0.262796 0.00739 -0.030425 0.020876 -0.003324 0.02782 -0.209495 0.213176 0.2539 -0.205368 0.080057 0.061464 -0.039471 -0.13559 -0.018472 0.108339 -0.262654 0.01037 0.204603 -0.297737 0.040506 -0.022452 0.019978 0.018971 0.02657 0.112469 0.030265 0.010562 -0.477004 0.064954 0.096947 -0.166055 0.124491 -0.306134 0.167085 -0.051076 0.141491 -0.004807 -0.032987 0.031393 -0.19071 0.316715
monk 0.28606 0.205216 0.226556 0.047759 0.025303 -0.193823 -0.06505 -0.216299 0.194621 -0.184052 -0.09713 -0.010978 -0.106995 -0.106149 0.261086 0.041982 -0.260319 -0.334497 -0.057658 -0.008435 -0.160359 -0.038187 0.021302 0.324586 -0.145487 -0.222416 0.291774 -0.208208 -0.329705 -0.104897 -0.403484 -0.227969 -0.019643 -0.1761 -0.024128 -0.169982 -0.192671 0.297911 -0.341686 0.065736 0.038014 0.119299 -0.05942 0.12105 0.288929 -0.039597 0.071858 0.185413 0.105338 -0.076883 -0.218854 0.125873 0.585451 -0.041292 -0.410107 0.086918 0.181611 -0.356697 0.216751 -0.357864 0.030465 -0.116697 0.17079 0.135117 -0.229615 -0.025054 -0.322621 -0.089629 -0.06345 -0.095602 -0.283776 -0.262043 -0.00849 0.002626 0.09001 0.419811 -0.102509 0.039536 0.311442 -0.187868 0.035371 0.156792 0.107526 0.082549 -0.112338 0.084177 0.061278 -0.323374 0.10017 -0.022658 -0.046234 -0.001338 -0.177744 0.036279 0.211286 -0.233755 -0.143302 0.237277 0.074715 -0.026955 0.00206 -0.199137 -0.302573 0.03822 0.101882 -0.577013 -0.177401 -0.005382 0.089087 0.005476 0.04352 -0.361193 0.222678 0.159651 -0.247445 -0.064017 -0.261578 -0.375486 0.277947 -0.14157 0.1101 -0.272125 0.11014 -0.142367 0.058258 -0.336747 -0.323625 -0.057034 0.137492 -0.079084 0.452094 0.260513 -0.037978 0.291015 0.09465 0.212423 -0.191491 0.144655 -0.35401 0.141182 0.126813 0.360929 -0.160196 -0.332738 -0.167376 0.385816 -0.042982 0.009007 0.017046 0.435392 0.126341 0.040424 -0.204501 -0.27646 -0.199426 0.013499 -0.023829 -0.09642 0.513435 0.418705 0.131543 -0.213272 0.350219 -0.149596 -0.296236 -0.011063 0.040051 -0.250799 -0.241882 -0.314441 -0.198695 0.005572 0.315904 0.142147 -0.250391 -0.238042 -0.186227 -0.03596 -0.501025 0.054846 -0.080795 -0.337948 -0.026256 0.171913 -0.078145 -0.251701 0.04622 0.036958 -0.032487 0.54359 -0.254418 -0.148407 0.109323 0.103627 -0.366548 0.419906 0.443295 0.271823 0.050138 0.216683
chance -0.007695 -0.016692 -0.214987 -0.108764 -0.018169 0.007311 -0.059342 -0.023373 -0.015967 -0.024629 -0.144492 -0.147102 -0.134538 -0.082479 0.169907 -0.272582 -0.015575 0.133952 -0.064068 -0.133958 -0.257215 -0.031339 -0.09633 -0.076389 0.312072 0.237987 -0.298303 0.147901 -0.006032 0.00591 -0.245382 0.024085 0.099833 0.153438 0.065402 0.002462 0.003162 0.20544 -0.044629 0.117595 -0.022785 -0.070022 0.026393 -0.020906 0.061973 0.094356 0.011598 -0.061917 -0.016153 -0.254149 0.121269 -0.053736 -0.165086 -0.017941 -0.0739 0.01901 0.039777 -0.289645 0.255842 0.203982 0.05176 0.308688 0.168731 -0.189485 -0.32846 -0.135295 0.145692 0.036761 0.046461 0.10901 0.13269 0.109379 -0.263601 0.11692 0.203177 0.1424 -0.106819 -0.177068 -0.098641 0.151034 0.101002 0.141752 0.008786 -0.059374 0.16691 0.261485 0.007589 0.06963 -0.035978 -0.051858 -0.233348 -0.122138 -0.026803 -0.092336 -0.104007 0.091518 -0.086853 -0.028297 -0.265787 0.171783 -0.116594 -0.145469 -0.159629 -0.045192 0.104028 0.107419 0.104779 0.175318 -0.096569 -0.05095 -0.0991 -0.159365 -0.0825 -0.180458 -0.02734 -0.092895 -0.035372 -0.070041 -0.127573 0.014122 0.08984 0.021612 0.035606 0.103098 0.100525 -0.151705 -0.150493 0.128134 -0.060826 -0.024157 -0.208881 0.081058 -0.252066 -0.022658 0.01552 0.184085 0.167836 0.076505 -0.251439 0.028105 0.005681 -0.192478 -0.017555 -0.05684 0.089411 0.04308 -0.044021 -0.077066 -0.004592 -0.09371 -0.025207 -0.069743 0.017455 -0.048642 0.222134 0.177219 0.1547 0.073283 0.086422 -0.091562 0.068141 0.021405 0.12963 0.048518 -0.142024 -0.149534 0.076679 -0.03235 0.122696 0.023228 -0.029639 -0.076741 0.335017 -0.010934 -0.174099 -0.081609 -0.031891 -0.127164 0.135069 0.155226 0.09672 -0.236368 0.144593 0.028785 -0.24911 0.013177 -0.042525 0.014536 0.055491 -0.020557 -0.160416 -0.113255 0.063918 0.18796 0.258438 -0.156933 0.074563 0.047618 0.271464 -0.038771
party 0.116416 -0.033235 -0.337102 0.131423 -0.236214 0.070351 -0.023101 -4.64E-4 -0.037911 0.094552 -0.157719 -0.191633 0.035005 -0.09482 0.007407 0.144773 0.084769 -0.224716 -0.354783 -0.055249 -0.092853 -0.130289 0.225854 -0.068904 0.003755 0.294498 -0.251402 0.080661 0.068431 -0.045829 -0.280374 -0.039858 0.192235 -0.089443 0.090888 0.106855 -0.042935 0.123409 0.045142 0.176098 -0.156733 0.146254 0.116228 0.070878 -0.154521 0.153433 0.011699 -0.161718 0.242494 0.034675 0.004719 -0.074413 0.123417 -0.528599 -0.115503 0.285812 -0.213367 -0.411148 -0.118771 0.120489 0.056301 -0.137191 0.0136 0.118712 -0.054223 -0.165473 -0.334711 -0.143135 -0.120185 0.15511 -0.223829 0.164119 0.068996 0.034816 0.217919 0.009922 -0.148933 0.074023 0.29462 -0.011196 0.245449 0.168565 0.089312 0.014257 -0.048664 0.091699 -0.090099 0.069418 -0.266763 -0.056089 -0.039381 0.048606 -0.342885 0.07074 -0.226796 -0.04854 0.108878 -0.046756 -0.128605 0.021177 -0.108147 -0.047704 -0.152446 -0.044312 0.078096 -0.240127 -0.047785 0.370078 0.151486 -0.094149 -0.002179 -0.270604 -0.154895 0.104096 -0.042276 -0.172201 0.062406 -0.049796 0.290467 -0.081024 -0.033109 0.089067 0.094613 0.187779 -0.094557 -0.160572 -0.336778 0.00682 -0.2175 -0.168352 0.019413 -0.206683 -0.057014 -0.138915 -0.155614 -0.129282 -0.29043 0.153179 -0.136902 -0.211343 0.058887 0.146254 0.035055 -0.09949 0.245173 0.106115 -0.010723 0.140102 0.048558 0.057788 -0.021242 0.248884 -0.115664 -0.055166 -0.093626 0.123821 -0.072605 0.02004 -0.244033 0.058888 -0.077964 0.031498 0.187859 0.176581 0.071056 0.217633 -0.20958 -0.099138 -0.006727 0.032556 -0.090267 -0.116447 0.007445 -0.039299 -0.138371 0.27817 -0.030057 -0.052428 0.090376 -0.196593 0.126877 0.165672 0.122207 -0.553549 0.10819 -0.032348 -0.236313 0.161262 0.017597 0.080992 0.033877 0.029807 -0.062831 0.223285 -0.01172 -0.086003 -0.122083 0.173845 0.172403 0.19578
fuck 0.079362 0.102426 0.003147 0.172364 -0.087183 -0.12868 -0.04073 0.294376 -0.121594 -0.11508 -0.345822 0.009666 -0.067758 -0.190826 0.124716 0.090225 -0.109068 0.423256 0.026994 0.079481 0.237174 0.066157 0.059045 -0.109431 -0.165696 0.185637 -0.27888 -0.171166 -0.120153 0.075594 -0.279617 -0.26436 0.142284 0.025269 -0.228307 0.149101 -0.11055 0.276965 0.241479 0.091859 -0.060459 -0.069182 -0.197097 0.432223 -0.040098 0.185165 0.214228 -0.208136 0.297337 0.256315 -0.013285 0.119093 -0.199064 -0.106498 0.242156 0.159036 -0.038933 -0.0529 0.10796 -0.449125 -0.012789 0.025417 -0.001015 -0.168801 0.002467 0.248955 -0.290274 0.049143 -0.062084 -0.068785 0.127259 0.270033 -0.295099 0.131302 0.261127 -0.113076 -0.126892 -0.370355 -0.228627 0.101795 -0.363595 0.203202 -0.466691 -0.263795 0.147358 0.476702 -0.119605 0.080678 0.105349 -0.088032 0.361248 0.178909 -0.151714 0.181654 -0.006576 0.161978 0.087517 0.189273 -0.004672 -0.08216 0.025569 -0.310686 -0.105395 -0.168551 0.073537 0.05808 -0.072954 0.103454 -0.149222 -0.185869 -0.274057 -0.15656 -0.121262 -0.037917 0.12356 0.007945 -0.452314 -0.104984 -0.063932 -0.074733 -0.202361 -0.338142 -0.100718 0.102391 0.085138 -0.258993 0.175936 0.039734 0.020629 0.274143 -0.137092 0.028354 -0.226406 0.123827 -0.137964 0.379092 0.28428 0.134655 -0.056165 0.322816 -0.128388 0.091161 -0.373385 -0.139748 -0.025082 0.107786 0.071908 0.171475 0.015471 0.222075 -0.051636 -0.144837 0.037932 -0.147568 0.065691 0.077911 -0.204794 0.147788 0.58145 0.346019 0.074955 -0.005228 0.160161 0.167389 0.079916 0.001836 0.026511 -0.186293 -0.275679 -0.37777 0.316732 0.020846 0.340324 -0.102439 0.272825 -0.435516 -0.164467 -0.034479 0.102722 -0.234183 -0.166304 -0.331413 -0.122444 0.28975 -0.044048 0.236623 -0.127741 0.002551 -0.304391 -0.303092 0.134456 -0.012707 0.035356 0.064337 -0.400081 0.06746 -0.240696 0.128084 -0.059464 -0.174051
psychology 0.007657 0.106423 -0.24468 -0.59074 -0.444495 0.362538 -0.076262 0.240495 -0.098053 0.017286 0.062103 0.120645 0.115211 0.410232 -0.371335 0.018225 -0.454307 0.20511 0.090503 0.121899 -0.247287 -0.06541 -0.165564 -0.022378 -0.078182 0.019581 0.37564 0.088782 0.291782 0.043549 0.313713 -0.241049 0.322945 -0.297666 0.063766 -0.105437 0.179906 0.414439 -0.294284 0.096253 0.178548 -0.115906 -0.357975 -0.268984 -0.041596 0.185736 -0.071038 0.03605 0.035789 -0.201532 0.228521 -0.003036 0.233195 0.287399 -0.129331 -0.017394 -0.250937 -0.27109 -0.159848 -0.281507 -0.030161 -0.130086 0.058408 0.193171 -0.16757 -0.315031 0.35195 -0.045587 0.246939 0.061121 0.663158 0.129119 0.080613 0.307379 0.090719 0.41314 -0.195917 -0.348746 0.175996 -0.16563 0.014864 -0.354712 0.179463 -0.074084 0.064638 0.285932 0.022859 -0.288693 -0.220385 -0.088499 -0.117581 0.277859 0.0413 0.277613 -0.094583 -0.273489 0.14411 0.293507 0.050926 -0.199949 -4.9E-5 0.036565 0.123318 0.086948 -0.166371 -0.258273 0.37183 0.212728 0.418351 0.266928 0.056178 0.077264 -0.23997 0.212619 0.183997 0.081901 0.364425 -0.218159 0.250112 -0.277371 -0.100111 -0.38033 -0.499266 -0.636083 0.077608 0.205259 0.046787 -0.316566 0.175885 0.339116 -0.252509 -0.203029 -0.113522 0.098421 -0.353949 -0.245959 0.08072 0.083751 -0.203571 0.031933 -0.196819 0.044399 0.113666 0.292356 0.046148 0.022967 0.270323 -0.22452 0.112705 -0.112886 -0.054299 0.334817 0.498537 0.218562 0.061955 0.046744 -0.007822 0.119305 -0.088716 0.20586 -0.036106 0.115863 0.189603 0.06198 -0.176011 -0.172098 0.379886 0.058912 -0.047039 0.201776 -0.002767 -0.084036 -0.164004 -0.362805 -0.378941 0.12719 -0.336061 -0.217928 0.124168 0.266433 0.108983 -0.161141 -0.223066 0.683355 -0.210367 0.16423 -0.112501 -0.11475 0.14826 0.269968 -0.140763 0.004218 0.056944 0.474725 -0.262863 -0.094063 -0.0854 0.084141 0.189863 -0.124409
government 0.04658 0.076635 -0.042949 0.103176 -0.332293 0.059142 0.260552 -0.067113 0.168254 0.176262 -0.138283 -0.186838 -0.155016 0.020525 0.014775 0.147323 -0.095333 -0.023993 -0.080933 -0.023543 -0.094627 0.147327 0.017505 -0.110398 -0.070101 -0.080189 0.049016 -0.092805 -0.05221 0.077362 0.121872 0.057418 0.003814 0.111157 -0.196664 0.055213 -0.05131 -0.06292 -0.094622 -0.023155 0.029213 0.102501 -0.073861 0.119633 -0.043088 -0.130379 0.151011 -0.032199 0.141663 0.031798 0.401074 -0.043165 0.086732 -0.086595 -0.150494 -0.012591 -0.042792 -0.060645 -0.016678 0.302013 0.062815 -0.050691 -0.072885 0.119303 -0.015832 0.018678 0.033525 -0.112961 -0.245382 -0.036353 0.111885 -2.16E-4 0.283284 0.234595 0.221881 -0.015677 0.039902 0.080221 0.083588 -0.038977 0.068492 0.125732 -0.11679 0.054755 -0.083508 -0.029233 0.124446 0.123797 -0.162216 -0.155213 -0.157249 0.195528 -0.162318 0.059212 -0.026518 0.050806 0.254962 -0.020411 0.031476 0.134409 -0.109166 -0.173593 0.031348 0.153352 -0.077227 -0.282523 -0.065805 0.084446 0.116148 -0.186388 0.011679 -0.110378 0.101109 -0.183592 -0.075087 -0.193475 0.007847 0.163126 0.171522 -0.132115 0.338369 0.025409 -0.083306 -0.03732 -0.297909 -0.109048 -0.049754 0.13082 0.085684 -0.162481 -0.094631 0.029676 -0.289117 0.061038 0.133206 0.086312 -0.21455 0.088421 -0.237948 -0.291741 -0.030688 0.127191 0.240041 0.104037 0.262514 -0.102365 0.093681 0.270845 -0.224109 0.230437 -0.08542 0.081875 -0.128357 -0.210887 0.048882 -0.006917 -0.286821 -0.009996 0.055175 -0.032905 -0.093324 -0.072527 -0.044189 0.039268 0.10452 -0.07245 0.101295 -0.186878 0.012626 -0.018883 -0.108147 -0.174281 4.79E-4 -2.72E-4 -0.237009 0.259012 0.037259 -0.194502 8.53E-4 -0.184318 -0.121083 0.09368 0.119675 -0.074103 0.209453 -0.119002 -0.187741 0.25974 -0.005591 -0.127113 -0.171064 0.025838 0.167431 0.008965 0.116545 0.120144 0.042049 -0.057232 -0.013367 -0.178511
madhouse 0.026335 0.067589 0.030384 -0.069 -0.028658 -0.020803 0.097534 0.078408 0.039107 0.005825 0.061462 0.123765 -0.014333 0.093622 -0.016782 -0.030112 -0.087518 0.117244 -0.03084 -0.160144 -0.0153 -0.072338 0.12713 -0.017382 0.079274 -0.066334 -0.055368 -0.070172 -0.030489 0.006969 -0.124981 -0.032065 0.019574 -0.053461 -0.013375 0.070445 -0.00646 0.015841 0.05319 0.041943 0.047834 -0.058749 -0.071949 -0.021253 0.055536 -0.020596 0.054548 0.017137 0.036941 -0.01917 -0.043525 0.027974 -0.136274 -0.017062 0.028823 0.152884 0.086581 0.013601 0.104297 -0.014749 0.105154 0.01621 0.050342 -0.005292 0.025432 -0.020592 -0.069597 0.095931 -0.098147 -0.020032 0.081248 0.01884 -0.094369 0.098471 -0.103306 0.056248 -0.077842 -0.068502 0.043722 -0.136104 -0.029491 0.048471 0.007394 -0.014688 0.081339 0.132297 0.116838 0.073564 -0.001432 -0.005528 -0.020063 0.026071 0.084592 -0.038244 -0.177348 -0.106835 -0.061724 -0.051881 0.04718 -0.09861 -0.032531 -0.107296 -0.15985 0.085631 0.098468 -0.118229 0.049186 -0.014285 0.121521 0.070445 0.121729 -0.090186 -0.077875 0.067676 -0.157573 0.029273 0.008309 0.006724 0.110368 0.057689 -0.078232 0.01702 -0.091606 -0.084954 0.060372 -0.199181 0.019386 -0.087049 0.095814 0.131958 0.137247 -0.03365 -0.055009 -0.034838 -0.00822 -0.087426 0.01 0.019295 -0.014989 -0.007344 0.08761 -0.101062 -0.005421 -0.022929 0.105525 -0.016128 0.044448 0.095344 -0.015873 0.02814 0.049423 0.14838 -0.066697 -0.082844 -0.105294 0.013722 -0.065256 0.023376 0.081302 0.129024 0.019595 -0.084772 -0.026272 -0.078384 -0.073965 0.074561 -0.05395 -0.077719 0.025332 0.012456 0.046019 -0.001392 -0.042536 -0.088952 0.04262 -0.13903 -0.121658 0.012242 -0.005927 -0.007471 -0.023767 -0.092877 -0.052099 -0.001779 -0.017749 -0.087953 0.046768 0.013808 0.053232 -0.014501 0.007519 -0.03961 -0.072804 0.154282 -0.031059 5.48E-4 -0.051623 -0.021934 0.112879 0.189401
video 0.026779 0.077132 -0.120057 -0.096487 -0.01258 -0.072492 0.044086 0.01123 -0.150751 -0.175293 0.141354 0.068177 -0.101497 -0.280786 0.13145 0.195054 0.261983 -0.030055 0.057107 -0.087732 0.070015 0.027377 0.360589 0.235811 -0.085821 -0.023361 0.087772 -0.174557 -0.235258 -0.141754 0.017751 -0.324691 0.12165 0.264882 0.07869 0.167306 0.193348 0.2139 -0.348843 -0.093314 -0.057917 0.203623 -0.166008 0.193079 -0.172846 0.262605 0.101525 0.126507 0.303676 0.043096 -0.186186 -0.097036 0.054811 0.249432 0.083996 -0.072628 0.157923 -0.036029 0.313934 0.173947 -0.290643 0.025469 0.100028 -0.588167 0.071786 0.024869 0.150952 -0.057992 0.014551 -0.233487 0.231671 -0.261772 0.13419 -0.025119 -0.146549 -0.062471 0.144 -0.081534 0.101592 0.069883 0.025352 -0.090994 -0.227563 0.072545 -0.024783 -0.070304 0.174279 0.171852 -0.112912 0.017915 0.08222 0.014484 0.185822 0.070952 0.091074 0.175632 0.336393 -0.00222 0.007758 1.97E-4 0.2087 -0.034302 -0.150596 0.033663 -0.407554 0.164045 0.199073 0.053445 0.017555 -0.007238 0.108401 -0.185453 0.344186 -0.008667 -0.069661 -0.252156 0.155589 -0.1187 -0.031868 -0.16441 -0.108334 0.134383 -0.304965 0.273997 -0.146627 -0.257667 -0.017994 0.009689 -0.057757 0.057539 -0.152404 0.263074 0.046781 -0.003358 -0.23107 -0.024832 0.04464 0.147735 -0.032381 -0.137507 -0.108719 -0.129553 0.042173 -0.166262 0.175854 -0.024637 0.053841 -0.157272 -0.298234 -0.079303 -0.079084 0.119401 0.168784 -0.002873 -0.136489 -0.295943 -0.100907 -0.082581 0.029418 -0.075941 0.217423 0.036195 -0.098654 -0.280089 -0.001524 0.251681 0.047139 -0.056513 0.183681 -0.098996 -0.084711 -0.272946 -0.119313 0.155691 -0.314939 -0.27545 0.046473 -0.093604 0.13689 0.145098 0.48616 -0.053224 0.001321 0.043679 0.181645 -0.089415 0.307809 -0.00738 0.345195 -0.214918 0.013554 -0.022208 -0.375158 0.45761 -0.10297 -0.20327 -0.294108 -0.032824 0.291777 0.273137
defeating -0.407395 0.073696 -0.030308 -0.13178 -0.124987 -0.04193 0.208348 -0.12756 0.061915 0.086895 -0.083764 -0.15168 0.513319 -0.237211 -0.20814 -0.036048 0.055138 0.109539 0.133031 -0.100465 -0.52867 -0.116188 -0.133937 -0.096126 0.262836 -0.258448 -0.067277 0.01417 0.330708 0.072436 -0.210521 0.273498 0.248632 0.015042 -0.22836 -0.056263 0.110178 -0.108552 -0.050466 -0.028527 -0.238204 0.46168 0.012993 -0.083025 -0.084773 0.054089 0.005725 0.103432 -0.351485 0.001335 -0.180075 0.044409 0.025587 -0.191205 0.124309 0.086148 -0.034863 -0.16686 -0.080278 0.16771 -0.043603 0.214669 0.059183 -0.088888 0.06828 -0.097804 0.073217 -0.216201 -0.004534 0.303163 0.021742 0.384868 -0.065183 -0.385877 0.180542 -0.084723 0.016605 -0.123939 0.023738 -0.409204 0.274712 0.20784 -0.029629 0.005377 -0.130122 0.39335 0.366009 -0.339697 -0.266416 0.044113 -0.010062 -0.117799 -0.210794 -0.162224 -0.601544 -1.9E-4 -0.076321 -0.143346 -0.055509 0.115419 0.077655 0.129242 -0.188765 -0.261786 -0.179047 -0.352171 0.111968 0.401953 0.270378 0.246043 0.120667 -0.374674 -0.160318 0.239449 -0.019744 -0.017192 -0.412275 0.354124 -0.017892 -0.460386 -0.204038 0.265393 -0.097733 0.151176 -0.074117 -0.046017 -0.448126 0.488624 0.138324 -0.099943 0.019737 0.287788 -0.153143 0.166298 0.121065 -0.062345 -0.139721 -0.215755 -0.040845 0.222645 0.057513 -0.092874 -0.043495 -0.026364 -0.00938 0.175297 -0.055509 -0.409881 0.066159 -0.113614 -0.109979 0.259953 0.215223 0.372055 0.247247 0.200077 0.023189 -0.179758 -0.265415 -0.085569 0.106086 0.159147 0.153158 0.291661 -0.020673 0.1251 -0.089992 0.290383 -0.123422 0.076189 0.227397 -0.398215 -0.04527 0.221117 -0.143573 0.091582 0.458805 0.004825 0.077363 -0.028467 0.121773 -0.04407 0.164274 0.060086 -0.249752 0.044653 -0.283675 0.455335 -0.021047 -0.015103 -0.055977 -0.201135 -0.41887 0.201092 0.054426 -0.102546 -0.048941 0.041517 -0.035682 0.14489
death -0.238446 -0.206898 -0.058119 0.283187 0.168583 -0.158825 0.19807 0.168779 0.176494 0.097885 -0.031286 -0.026439 -0.24549 -0.068893 -0.057661 0.343006 0.064058 0.090633 -0.562359 -0.0992 -0.016959 -0.06947 0.099517 0.263751 -0.170448 0.266829 -0.109927 0.115651 0.160479 -0.145472 -0.079344 -0.100303 0.30897 -0.034597 -0.115065 0.08848 0.050283 -0.005261 -0.260045 0.023109 -0.111993 0.216565 -0.09987 -0.182964 -0.16146 0.077773 -0.027128 0.0201 -0.254155 -0.055166 -0.057166 -0.121649 -0.077325 -0.057761 -0.126694 0.188576 -0.333755 0.11118 -0.275561 0.136391 0.083553 0.22368 0.025676 0.215001 -0.128055 -0.164288 -0.068733 -0.170117 0.12209 0.287688 0.018076 0.006377 0.142124 0.222545 -0.021829 0.171347 -0.37451 0.092969 0.097754 -0.174133 -0.17753 0.055578 -0.086137 0.090469 -0.107209 -0.027897 0.187994 0.113695 -0.188611 -0.095471 0.15598 -0.120163 -0.134592 -0.002168 0.163819 0.288041 -0.044131 0.30441 0.325646 -0.173829 -0.131951 -0.314893 0.089225 0.06559 -0.144448 -0.312724 0.090692 0.019257 -0.455547 0.505205 0.13474 -0.004915 0.092839 -0.053496 0.103574 -0.029165 -0.079152 -0.071942 0.039855 0.123048 -0.214492 -0.087258 -0.109543 0.104283 -0.069243 0.028564 -0.086964 0.206338 -0.377316 0.170782 -0.23223 0.20654 0.101049 0.050107 0.005659 0.162015 0.038897 -0.323928 -0.276848 -0.137609 -0.205422 0.082759 0.03963 -0.06683 0.109658 0.028309 0.096344 -0.464653 0.072289 0.239038 0.036622 -0.364487 -0.056691 -0.206446 0.157706 -0.141714 -0.00592 -0.134779 -0.110113 -0.08724 0.176136 -0.011038 0.170806 0.166933 -0.305751 -0.133708 0.104616 -0.156843 0.352437 0.282209 -0.110537 -0.017224 0.184524 -0.143169 -0.321382 -0.101002 0.204973 0.128301 -0.242772 -0.07065 0.071763 -0.49322 -0.109721 0.082108 0.011835 -0.214791 0.033094 0.140277 0.022214 -0.265765 -0.207622 0.132703 0.204473 -0.215439 -0.024707 0.351331 0.023511 0.171545 0.142197 0.334762
image 0.056878 0.013033 0.089849 -0.219732 -0.165079 -0.193057 0.010538 -0.050185 0.007219 0.001466 0.035381 0.083784 0.041181 -0.058986 0.027693 0.153701 -0.025844 0.087401 0.019207 0.085142 0.07012 -0.094007 0.150262 -0.015283 0.368334 0.064794 -0.099971 0.016182 -0.085776 -0.100975 -0.103394 -0.119956 -0.004938 0.091634 0.080467 0.092273 -0.038374 -0.078027 -0.212417 -0.043779 -0.028244 0.266001 0.025683 -0.068672 -0.12762 -0.053407 0.02788 -0.118738 0.088236 -0.223288 -0.034604 0.051814 -0.047202 0.12673 -0.016711 0.201923 0.125806 -0.219806 0.129389 -0.084444 -0.046582 2.18E-4 0.048414 -0.11397 -0.050388 0.080603 -0.084075 0.145018 -0.098583 -0.043111 0.032102 -0.24662 -0.097538 0.063418 0.226308 -0.049529 0.047822 -0.100134 0.096544 0.033923 -0.11746 -0.095324 -0.202931 0.136847 0.116491 0.025074 0.078473 0.090523 -0.290951 0.116567 0.172497 -0.042589 -0.169187 0.066443 -0.034998 0.29557 -0.02535 0.060617 0.082881 -0.019828 -0.010826 -0.056984 -0.203823 -0.121326 -0.21467 -0.088258 -0.102095 0.127584 0.149632 0.050251 0.035614 -0.03816 0.044914 -0.153438 -0.18087 -0.047629 0.028463 -0.095649 -0.031612 -0.023915 -0.063826 0.252727 -0.07114 0.034449 0.051274 -0.223016 0.108695 0.075486 -0.035559 -0.059796 0.043042 0.036391 -0.136346 -0.109892 0.090085 -0.080968 0.043244 0.10122 -0.183486 -0.123466 -0.105383 -0.008823 0.102057 0.071842 0.048964 0.081194 -0.048474 0.006446 -0.256605 0.053043 0.142324 0.03781 0.08519 -0.233438 -0.261303 -0.13974 0.139801 0.024764 -0.098739 0.09083 0.206636 -0.201801 -0.012296 -0.155734 -0.272668 0.193585 -0.003131 -0.165806 0.150524 -0.080726 -0.040548 0.023441 -0.214331 -0.012963 -0.260755 -0.057751 -0.166304 0.120398 -0.133188 0.100025 0.127738 -0.204666 -0.087314 0.075804 0.105746 -0.034328 0.036985 0.073078 0.259201 0.114703 -0.115997 -0.23718 -0.118867 0.160645 0.036081 -0.190647 -0.150397 -0.022052 0.28438 0.290515
theater 0.069168 0.258392 -0.113266 -0.035013 -0.235469 -0.216515 0.23766 0.011714 -0.199744 -0.069854 0.275504 -0.108676 -0.086511 0.054122 0.053386 -0.015076 0.085043 -0.030164 -0.10617 -0.323126 -0.119374 -0.167896 0.258783 0.054386 0.146977 -0.048955 -0.133584 -0.034701 -0.153489 -0.343025 0.095635 -0.218882 0.129432 0.024379 0.143158 -0.047486 -0.065319 0.01331 0.06022 -0.091532 0.203728 -0.082748 -0.253179 -0.12646 -0.041052 0.092184 0.201513 -0.19107 0.144669 -0.174472 -0.19138 -0.166653 -0.064626 0.064932 0.064853 -0.216224 -0.170236 -0.111169 0.169288 0.091262 0.09877 0.057138 0.084867 0.078083 -0.19184 -0.02306 0.210508 0.144655 0.020166 -0.234217 0.140075 0.103386 -0.334568 0.027044 -0.005719 0.102024 -0.045006 -0.262171 0.166581 0.030833 -0.130371 -0.05986 0.030674 0.122644 0.078592 0.227116 0.124028 0.200966 -0.076987 -0.003237 0.239933 -0.207684 -0.035982 -0.076264 -0.224569 0.158549 -0.092835 0.114342 0.135292 -0.153861 -0.132637 0.004056 -0.177476 0.281212 -0.047864 0.009625 0.179636 0.134136 0.005239 -0.110478 0.40674 -0.149974 -0.205697 0.006183 -0.325983 -0.127788 0.233461 -0.012299 0.188383 -0.075007 0.101691 -0.132093 -0.253851 -0.017358 0.135008 -0.083131 0.114014 0.137661 0.220317 0.238566 0.001178 0.008999 0.059121 0.175915 -0.128784 -0.207315 0.110199 -0.01427 -0.030816 -0.134464 0.008106 0.025058 0.093285 -0.048438 0.167088 -0.064347 0.14632 -0.175514 0.089947 0.002406 -0.021665 0.228814 -0.036155 -0.037041 -0.007826 0.133992 0.046661 0.094948 0.164655 0.110182 -0.178714 -0.195864 -0.068572 -0.300643 0.006888 0.115226 -0.110754 -0.002411 -0.193773 0.387481 -0.042499 -0.189663 -0.002735 -0.139138 0.031452 -0.045164 -0.188764 -0.058494 -0.219113 0.343652 0.105401 -0.163341 0.136127 -0.148783 0.146578 0.009949 -0.197253 0.029279 0.044319 0.034519 -0.026627 0.43807 -0.107669 0.130735 0.048274 -0.074039 -0.289076 0.103554 0.125905 -0.081541
number 0.193103 -0.074982 -0.208658 -0.320143 0.094488 -0.147576 0.05296 -0.234419 0.027962 -0.052895 -0.003416 -0.039771 -0.12751 0.02814 -0.26543 -0.002257 0.195318 -0.103667 0.018269 -0.053126 -0.278647 0.088337 0.04523 -0.129088 0.157379 -0.156628 -0.099905 0.080652 -0.0776 0.007213 0.096976 0.049609 0.197612 -0.046541 -0.112799 0.23624 0.051425 0.15599 -0.159701 0.082211 -0.045723 -0.299055 -0.175535 -0.080739 -0.097824 0.005373 0.096149 0.035157 0.084409 0.103638 0.031122 0.017776 -0.19657 0.183736 -0.05687 -0.095598 -0.074016 -0.226559 -0.066966 0.269712 -0.187605 -0.044306 0.149993 -0.034621 -0.167115 -0.158317 0.070501 -0.080102 0.020733 0.07509 0.284121 -0.240848 0.017418 -0.092962 0.140541 -0.170951 0.06472 0.074081 0.104364 0.138469 0.075177 0.246715 -0.24754 -0.036753 0.082355 0.069054 0.137516 0.014502 0.12906 -0.085692 0.274382 0.085216 -0.13002 -0.043765 -0.14737 -0.028773 0.201006 -0.168564 0.003609 -0.117765 -0.14904 -0.111185 0.196834 -0.004341 -0.154385 -0.100042 -0.267877 -0.097905 -0.146012 -0.147158 -0.168623 -0.014564 -0.061367 -0.10137 -0.26878 -0.257512 -0.098497 -0.004102 0.138439 -0.15056 0.238716 -0.006556 -0.067314 -0.001378 0.086273 0.062363 -0.24682 -0.044907 -0.113171 0.03362 0.079159 0.048419 -0.179163 -0.144517 0.144744 -0.05875 -0.002316 -0.166157 -0.03225 -0.287212 -0.0399 -0.012389 -0.060193 0.082572 -0.188828 -0.31758 -0.10605 -0.182027 -0.041577 -0.044876 0.045281 -0.007961 -0.31324 -0.126862 0.194792 0.096187 0.266469 0.003792 -0.213592 -0.161064 -0.026195 -0.09815 -0.312174 0.146353 -0.20536 -0.033162 0.091249 0.101054 0.091394 0.203528 -0.388666 -0.039343 0.049846 -0.071831 -0.129822 0.140537 -0.091266 -0.094287 -0.146341 -0.145038 0.07924 0.058624 -0.109791 -0.230895 0.148485 0.27376 0.100552 -0.010389 -0.062189 0.150686 -0.016507 0.130408 -0.140686 -0.100905 -0.100273 0.095872 0.048405 0.190184 0.038722 0.122224
astronomer -0.023938 0.144631 0.030524 -0.215713 -0.285706 0.034923 0.46825 -0.156307 0.174772 -0.0179 0.345051 0.444878 0.210857 0.415246 0.112644 -0.025176 -0.119877 0.106471 -0.244788 0.174043 -0.113427 0.074048 0.325076 -0.170981 -0.226991 0.076172 0.085853 -0.130362 -0.353571 0.007333 -0.234887 -0.507768 -0.187925 -0.181974 0.300389 0.009709 0.172245 -0.107653 -0.250104 0.206086 0.216823 0.062244 -0.17472 -0.499945 -0.046458 -0.045321 -0.01274 0.01105 -0.252999 0.174916 0.201147 -0.115405 0.236536 0.138336 -0.735126 -0.427606 -0.122462 -0.170388 -0.012234 -0.429027 0.102156 0.084929 0.173281 -0.007398 -0.303989 -0.180684 -0.051681 0.416118 0.09683 0.152384 0.29142 -0.16499 -0.248675 0.087684 -0.082441 0.358169 0.196543 0.223181 -0.037587 -0.39096 0.080501 -0.096993 0.045321 0.255567 0.005819 0.322742 0.508576 -0.085671 0.009776 -0.133762 0.08198 -0.080015 -0.03394 -0.137174 0.005018 -0.040732 -0.245007 -0.065262 0.105001 0.077945 -0.445492 0.191542 -0.283434 -0.155866 -0.053562 -0.038747 0.486567 0.228317 0.245818 -0.111008 -0.007534 0.103831 -0.316099 0.407962 0.074419 0.081724 0.165498 0.030435 0.324328 -0.327907 0.023885 -0.107974 -0.144689 -0.370959 -0.005803 0.183161 -0.575015 -0.164126 0.184822 -0.036325 -0.120117 -0.16468 -0.342432 -0.268247 -0.164371 -0.342053 -0.243956 0.056057 -0.048751 0.156014 -0.233577 0.055235 0.115056 0.186615 0.260271 -0.138776 0.052096 -0.132407 -0.008642 -0.197082 -0.1659 -4.98E-4 0.440131 -0.117413 0.11511 0.128793 -0.362534 -0.207217 -0.216663 0.163388 0.156762 -0.302836 -0.052499 0.107255 -0.164751 -0.415338 0.353821 -0.377441 -0.080025 0.092627 0.20632 0.240107 -0.186039 -0.213029 -0.395154 -0.225456 -0.08476 0.249032 -0.235587 0.214204 0.309892 -0.388909 -0.17997 0.581041 0.016838 0.077854 0.096953 -0.232092 0.211848 0.375595 -0.117231 -0.176224 -0.179238 0.241606 -0.353468 0.226631 -0.364008 0.151235 0.19664 0.001146
project -0.028711 -0.067233 0.115309 -0.073606 -0.186132 0.001887 0.00924 -0.077067 0.306237 -0.059448 0.025832 -0.164898 0.104287 0.061231 0.215127 -0.205327 0.205242 -0.066933 -0.134111 0.142676 -0.124333 0.009244 0.15661 -0.219819 0.082641 -0.041909 0.008948 -0.014146 0.129921 0.048594 0.098191 -0.265576 -0.208246 -0.065737 0.050858 -0.076467 0.097845 0.168516 0.017292 -0.030924 0.126503 0.167596 0.047221 -0.182258 -0.078604 0.022578 -0.021164 -0.067669 -0.030084 0.077302 -0.070806 -0.095669 0.176447 0.156549 -0.18228 -0.039488 0.109926 -0.066619 -0.146658 0.109435 0.410762 -0.126472 -0.285128 0.168858 -0.420396 -0.116993 0.081359 -0.104769 -0.038311 -0.222602 0.167059 -0.093583 -0.223794 0.167635 -0.159221 0.073055 0.089141 0.150775 0.087998 -0.078682 0.006622 0.05979 -0.054171 -0.022603 0.075864 0.171511 0.081906 0.261208 -0.041747 0.217159 -0.048108 0.180298 -0.095855 0.074473 0.045505 0.119055 -0.005113 -0.234401 0.189974 0.177194 0.227254 0.073261 -0.158126 0.221134 0.041016 0.020188 0.047928 0.135042 -0.026968 -0.20413 -0.042898 -0.016718 0.065123 0.230906 -0.162019 -0.179051 0.154305 -0.027541 0.092107 0.091327 0.284198 0.005874 -0.187017 -0.213835 -0.114806 -0.10719 0.192545 -0.030141 0.032499 0.142363 0.016076 -0.010505 -0.268601 -0.00729 0.023246 -0.01629 -0.013719 0.016237 0.162221 -0.006958 -0.365427 0.158658 0.146765 -0.111211 0.124408 -0.123369 0.048048 0.217293 -0.044782 -0.096439 0.026204 -0.056049 0.033071 -0.08011 0.046087 -0.173645 -0.010068 -0.1219 0.170787 0.111335 0.017411 0.077843 -0.040992 -0.043009 -0.081095 -0.06656 -0.043625 0.015558 -0.018865 0.108241 0.103088 0.005184 -0.039246 -0.137558 -0.061606 0.075753 0.102079 -0.037239 -0.149747 -0.029931 0.004164 -0.123256 0.090591 0.137319 0.093095 0.006838 -0.026852 -0.051715 0.083489 0.154255 -0.04261 -0.015713 0.188592 -0.034653 0.334501 -0.02957 -0.15571 0.193481 -0.019896 0.04354
dawn 0.072847 -0.120181 -0.089823 -0.116584 -0.071386 -0.183856 0.26289 -0.271371 0.210292 -0.045068 -0.008899 -0.127596 -0.239595 0.052707 0.007776 0.064805 -0.230909 -0.217857 0.120953 -0.024917 0.065118 0.085701 0.22018 0.052732 0.130821 -0.046323 0.088739 -0.14471 -0.272137 0.165922 -0.061226 -0.265906 -0.108569 -0.131694 0.166616 0.055818 0.099714 5.3E-5 -0.150476 -0.238387 0.206018 0.158388 -0.149984 0.26251 -0.14143 -0.273046 0.187767 -0.087104 -0.009899 0.168378 -0.206996 -0.022489 -0.00675 -0.220112 0.046251 0.217977 0.093591 -0.136143 -0.053272 -0.061656 0.040595 0.219387 -0.151544 0.018065 -0.162996 -0.13427 0.164912 0.007552 0.090556 -0.001742 -0.212014 0.254964 0.109901 0.138681 -0.125705 0.128066 -0.005325 -0.012085 -0.109739 -0.084401 -0.136611 0.245554 -0.151249 -0.322519 0.096264 0.202274 0.155599 0.063399 -0.035915 -0.107833 -0.261552 -0.052672 -0.185752 0.080371 -0.30486 -0.060379 -0.097484 0.202422 -0.167133 0.034985 0.065556 -0.028517 -0.010125 0.189688 0.151133 0.08 0.026649 0.073685 -0.185066 0.177485 0.338814 0.101406 0.010735 -0.200513 0.085137 0.202751 -0.02616 0.077598 0.145622 0.006645 -0.047426 -0.396193 -0.191404 -0.023208 -0.170521 0.011486 -0.087756 0.055655 0.232321 0.281231 0.073285 0.079141 0.116305 -0.225188 -0.315005 0.121285 -0.024112 -0.025285 -0.00324 -0.332342 -0.100853 -0.166225 -0.077771 0.082225 0.10424 0.110093 0.02228 -0.228701 -0.057418 0.176019 -0.013971 0.196945 -0.296079 -0.0856 0.120523 0.033063 -0.091216 0.227728 0.045235 0.010705 -0.185868 -0.404075 -0.121903 0.128973 0.182041 -0.257145 0.259864 -0.045064 -0.033787 0.044265 0.073206 -0.143243 -0.057386 0.026503 0.075984 -0.194574 0.014863 0.127497 -0.282026 -0.243938 0.209009 -0.065419 0.287259 -0.14751 -0.165584 -0.068472 0.072393 0.250622 0.146312 -7.4E-5 0.281939 0.027931 -0.079072 -0.027637 -0.216499 -0.030718 -0.204918 -0.21593 0.140947 0.141973
ear -0.062092 0.198268 0.009058 0.059703 0.094452 0.03167 0.406369 0.058071 0.134327 0.06013 -0.278236 0.003594 -0.07586 0.0157 -0.066233 0.217151 -0.109283 0.317172 0.090982 -0.29072 0.12141 0.058589 0.210963 0.020909 0.157731 0.320876 -0.250128 -0.159794 -0.195374 -0.330685 -0.147765 0.020885 -0.168969 0.162819 0.0896 0.325669 -0.178698 -0.041714 0.024249 -0.087485 -0.121545 -0.024465 0.234964 0.255605 -0.236912 -0.1162 -0.030581 -0.17101 -0.05741 -0.080211 0.078863 -0.17583 0.096084 0.032933 0.122789 0.012613 -0.268833 -0.26521 0.062183 -0.255044 -0.032076 -0.148785 -0.130304 -0.067815 0.214113 -0.169672 0.101481 0.426513 0.043367 0.005842 0.19224 -0.094114 0.066262 -0.102859 -0.057784 -0.008838 -0.111342 -0.193377 0.077291 0.356245 -0.119077 -0.186554 -0.059692 -0.178344 0.087901 -0.01216 0.031676 0.198813 0.028261 0.121581 0.26816 0.165467 -0.024418 0.018211 -0.185184 -0.02735 0.018344 0.216972 -0.090737 -0.108249 0.249218 0.184362 0.060556 0.059318 -0.068893 -0.064776 -0.012178 -0.006582 -0.082781 -0.046471 -0.117642 0.076703 -0.071869 -0.212409 -0.106424 -0.189039 0.041078 -0.201494 0.129622 0.077683 0.033178 -0.051151 0.166933 -0.071825 -0.074119 -0.355766 0.029925 -0.079148 -0.089335 0.040325 -0.118381 0.150925 0.098085 -0.081943 -0.260495 0.028487 0.274102 -0.110471 -0.253519 0.088061 0.021496 -0.36831 -0.1882 0.103653 -0.258881 0.357964 0.030727 -0.127579 -0.157965 0.061994 -0.047398 -0.258286 -0.069686 0.062431 -0.153117 0.111889 0.052039 0.056555 0.105982 0.379832 0.053242 -0.031949 0.051121 -0.252003 -0.330017 0.154533 0.075864 -0.031645 0.101835 -0.125793 -0.296815 -0.153786 -0.010673 -0.012471 -0.237749 -0.049012 -0.055028 0.012207 -0.154331 0.188612 -0.273293 -0.239442 -0.003537 0.14486 0.063318 0.271664 -0.075414 0.224411 -0.028823 0.098687 -0.094602 -0.352263 0.132732 -0.352897 -0.31109 -0.252976 0.117636 0.271167 0.065394 0.117692
voyage 0.079695 -0.087766 0.070403 -0.117779 -0.018285 -0.213174 0.19325 -0.123062 0.28588 0.048218 0.434884 -0.109197 0.216551 0.108627 0.246055 -0.113988 -0.27629 -0.346562 0.169449 -0.01465 0.045179 0.040612 0.226086 -0.06829 -0.154416 0.401887 0.341784 -0.290915 -0.223439 0.267324 0.023047 -0.460362 0.008901 -0.078606 0.233396 0.369364 0.359368 0.250263 0.273271 -0.319248 -0.229747 -0.099224 0.183389 -0.547447 0.1468 -0.287357 0.045432 -0.168007 -0.409362 -0.147525 -0.030764 0.240511 0.418371 0.05398 -0.135024 0.209327 0.280387 -0.157403 -0.130656 0.119676 -0.014803 0.166961 0.126198 -0.106612 -0.347995 0.011716 0.139827 -0.047479 -0.037222 -0.124899 -0.010703 -0.063307 -0.422695 0.119236 -0.424567 0.108913 -0.113785 -0.182351 0.163106 -0.078178 -0.233882 0.256876 0.01488 0.094168 0.028353 0.234548 0.219854 0.069729 0.139243 -0.096495 -0.097174 -0.29033 -0.025262 0.037497 -0.126666 -0.012712 -0.088789 -0.232852 0.19515 -0.172662 0.280315 0.28441 -0.221236 0.005979 0.06456 0.232268 0.028377 -0.087879 -0.120777 -0.078299 0.112277 0.02429 -0.005894 0.08572 0.334442 -0.053152 0.147188 -0.105052 0.328324 0.022781 0.028578 -0.137135 0.20617 -0.122611 -0.08549 0.149671 -0.292042 0.399976 0.282786 0.023182 -0.028534 -0.162477 -0.064835 -0.092613 0.220844 -0.34095 -0.145079 -0.279567 0.301606 0.105982 -0.002088 0.028864 -0.054811 -0.144413 0.070808 0.204853 0.183454 -0.186379 -0.414423 0.232267 0.097516 -0.197824 -0.102068 -0.091965 -0.220242 0.022279 0.038405 -0.134058 0.070707 0.206165 -0.011057 -0.170606 0.168524 0.03072 0.125665 -0.220475 0.205916 -0.119351 0.384347 0.336393 0.449255 -0.284623 0.127852 -0.137175 0.320091 -0.130067 0.085273 -0.026603 -0.065327 -0.345979 -0.015126 -0.242763 -0.009282 0.198023 0.060838 -0.157293 -0.113534 0.151124 0.056177 0.37844 0.26265 -0.289045 -0.157372 0.297179 0.067068 -0.049827 0.079584 -0.042266 -0.046039 0.192623
valor 0.062473 -0.210926 -0.139522 -0.096431 -0.12261 -0.242876 -0.136673 -0.204121 -0.225367 0.38109 -0.073669 0.209892 -0.16465 0.123565 0.096798 -0.089075 -0.052844 -0.048294 -0.16034 0.036849 3.1E-5 -0.043193 0.156456 0.10409 -0.240089 -0.049455 0.334114 0.116926 -0.17243 -0.301699 -0.192838 -0.446295 0.28341 -0.013486 -0.110032 -0.05272 0.121504 0.04831 -0.095338 -0.130367 -0.036757 0.260271 0.057667 0.078269 -0.196626 0.020008 -0.198828 -0.030453 0.062107 0.17508 0.188744 1.35E-4 -0.084025 0.163134 0.021736 0.270364 0.116935 -0.298653 -0.125454 -0.083604 0.203645 0.033623 -0.218205 0.096205 -0.023386 0.075619 -0.139368 -0.035791 -0.006127 0.123105 0.106584 -0.080976 -0.311999 -0.020607 0.158372 -0.049116 -0.061638 0.12431 -0.341831 0.089172 0.267075 0.107297 -0.055665 0.129135 -0.086499 0.217009 0.093867 -0.019789 -0.173654 0.127602 0.065968 0.075094 0.115344 -0.106886 -0.018498 -0.030878 -0.183501 0.037703 -0.106328 -0.292585 -0.293596 0.30916 -0.338438 -0.176979 -0.035254 -0.206787 0.085827 -0.086078 -0.086044 0.042044 0.158342 0.008894 0.021945 0.251515 -0.070132 0.10871 -0.217585 -0.038483 0.001499 0.154858 -0.112843 0.186212 0.022052 -0.019791 0.013507 -0.310708 0.059385 0.130059 0.144141 -0.10931 -0.124098 0.331659 -0.043456 0.121039 0.237697 0.21204 0.310281 -0.251885 0.027945 -0.286019 -0.283092 -0.118727 0.337949 -0.036278 0.001309 -0.150971 0.098143 -0.227953 0.146017 0.120601 -0.245032 -0.086859 -0.186777 -0.448819 0.225173 0.291449 0.066172 0.010025 0.255486 -0.214295 0.035301 -0.01543 0.538003 -0.218576 -0.011573 -0.045307 0.245914 0.104433 -0.061214 -0.129733 0.063006 0.041164 0.245243 0.115183 0.044379 -0.008796 0.092618 0.058905 0.115557 0.207441 -0.148075 -0.296654 0.026887 -0.15958 0.171638 0.138313 0.05651 0.17329 0.03407 0.150578 0.044381 0.093052 -0.115826 -0.096729 -0.283687 0.106763 -0.276092 -0.098744 0.090906 -0.001793
butter 0.038203 0.328666 0.376846 0.207284 -0.398515 0.230912 0.339781 0.281483 -0.088287 -0.150197 0.041101 -0.230208 0.157152 0.558425 0.133089 0.333675 -0.099566 0.052862 -0.207128 0.158024 0.312649 -0.092562 -0.359038 -0.145432 0.295539 0.420678 -0.782223 -0.327308 -0.279124 0.142408 -0.591779 0.167386 -0.254956 0.009123 0.285997 0.124016 -0.389337 0.540596 0.466436 -0.017362 0.197186 -0.392937 -0.657283 -0.405733 -0.470132 0.367841 0.21899 -0.180024 -0.1173 0.3959 0.493057 -0.358958 -0.061612 0.052434 0.257841 -0.039846 0.122407 -0.476286 -0.076895 -0.4395 -0.024535 -0.435372 -0.313591 0.368313 -0.127127 -0.227565 -0.338306 -0.162892 0.082519 0.175181 0.389759 -0.389181 0.270861 -0.076629 0.045659 -0.066093 -0.430241 0.23206 -0.026659 -0.375558 -0.27926 -0.213733 -0.559886 -0.027346 0.046733 0.506998 -0.335098 0.066901 -0.164735 -0.610244 0.082315 0.290946 -0.187475 -0.663643 -0.264703 -0.070286 -0.075536 -0.046221 0.060179 -0.4684 0.142051 0.428698 -0.320781 -0.020586 -0.054236 -0.079087 0.286276 -0.341371 -0.261777 -0.367599 0.120785 0.178515 0.088452 -0.725403 -0.097088 0.091615 -0.013783 0.26494 -0.541423 -0.119312 0.380537 -0.157337 0.063046 -0.199734 -0.160713 0.256294 0.204384 0.240602 -0.225672 -0.001911 -0.065258 0.308332 0.111656 -0.066952 -0.147861 0.100738 -0.109904 -0.039147 0.190637 0.253527 0.215923 0.10287 0.040225 0.057283 -0.04668 0.452891 -0.005053 0.202483 0.046744 0.035587 0.179602 -0.506324 0.002812 0.151966 -0.330606 -0.085595 0.179997 -0.070398 0.049024 -0.311692 -0.16575 0.169388 0.422935 0.02441 -0.282442 0.209949 -0.200519 0.134321 -0.510658 0.228359 0.511019 0.099541 0.142872 0.320569 0.002571 -0.781599 -0.165687 -0.311894 0.108177 0.444467 -0.065576 -0.012431 0.376125 -0.049458 -0.133364 -0.260626 0.285549 -0.119173 -0.386567 0.186533 0.394867 -0.262558 -0.536691 -0.515372 -0.464868 -0.110244 -0.211073 -0.200732 0.604035 0.215499
gin 0.054293 0.107826 0.205286 0.00785 0.17011 0.083044 0.075778 0.173963 0.021363 0.124787 0.18856 -0.165359 -0.073001 0.066098 0.227686 0.080907 -0.176711 0.174361 -0.050131 0.171447 0.080997 -0.002764 0.041419 0.103754 0.099055 0.206521 -0.251562 -0.250015 -0.231065 0.023984 -0.472318 0.010453 -0.132208 -0.024417 0.220954 0.217505 -0.088843 0.279236 0.261237 -0.175988 0.015888 -0.128546 -0.238934 -0.065799 -0.021287 0.243962 0.175826 -0.241049 -0.002316 0.198435 0.257019 -0.262561 -0.041506 -0.161396 0.316351 0.393019 0.115002 -0.478285 0.239797 -0.125764 -0.122313 -0.16139 -0.163632 0.232118 0.282646 -0.097967 -0.2342 -0.023046 0.050239 0.258646 0.115449 -0.26089 0.013082 0.070914 0.030251 0.077085 -0.332899 0.045988 0.134028 -0.034807 -0.273275 -0.04467 -0.049828 0.057544 0.05794 0.247957 -0.045859 0.039719 -0.321906 -0.28665 -0.032083 0.13954 -0.159879 -0.259042 -0.096147 -0.148934 -0.092448 -0.063773 -0.254008 -0.016359 0.019525 -0.014261 -0.049675 -0.107666 -0.156653 -0.017463 -0.0453 -0.082372 -0.142495 -0.206797 0.06113 -0.025559 -0.184446 -0.393248 0.033122 0.173335 0.110616 0.144165 -0.106853 0.10793 0.141347 -0.055067 -0.138936 -0.061451 0.280173 0.17146 -0.141442 0.137586 -0.039081 -0.132912 -0.083974 5.79E-4 0.085473 0.28556 -0.049354 0.107647 0.155847 0.052879 0.017866 -0.075482 -0.035203 -0.079388 0.105641 0.129549 0.067307 0.096415 -0.165981 -0.092752 0.031158 0.028663 0.147311 0.048541 -0.128853 -0.080633 -0.267216 -0.002198 -0.052941 -0.019445 0.468887 0.259507 -0.09952 -0.010859 0.061457 -0.027945 -0.029617 0.22611 -0.191312 -0.224058 -0.229297 0.350407 0.181066 0.330825 -0.036727 0.180294 0.037141 -0.595966 -0.233685 -0.026484 -0.172925 -0.052087 -0.486662 0.033963 0.263604 -0.173272 -0.093785 -0.117284 -0.334417 0.151471 0.067364 0.210856 0.416545 -0.362848 -0.233636 0.119412 -0.426785 -0.02308 -0.162773 -0.037187 0.085459 0.138846
reservation 0.158673 -0.077004 -0.077478 0.127735 -0.11044 -0.142998 -0.179027 -0.002736 0.213088 -0.301619 -0.040983 -0.176765 0.019281 0.054091 0.489559 -0.019255 0.018181 0.088946 0.052495 0.097594 -0.04096 -0.012933 -0.014291 -0.199476 -0.170376 0.023703 0.008738 -0.231696 0.017318 0.098311 -0.0403 -0.133095 0.120138 0.074262 0.237368 -0.093782 0.181796 0.301529 0.310307 -0.045538 -0.028726 0.213113 0.138707 -0.130341 0.106664 -0.060152 0.22309 -0.041018 0.182799 0.102063 0.01205 -0.211784 -0.015131 0.246235 0.13665 -0.040892 -0.056619 -0.272694 0.175335 0.177876 0.058176 -0.030433 0.297685 -0.205311 -0.346369 0.096266 0.100694 0.221925 0.202248 -0.188607 0.119401 -0.231486 -0.099054 0.110046 -0.169516 -0.037914 -0.010928 -0.107958 0.19859 0.149159 0.060361 0.117646 0.062322 0.053222 0.217955 0.099645 0.189467 0.080516 -0.155404 -0.096647 -0.17074 0.038682 -0.22889 0.051495 0.00488 0.078244 0.043338 0.416297 -0.00872 -0.107465 -0.08309 -0.191363 0.143918 0.222351 0.211425 -0.076172 0.107581 -0.138834 -8.63E-4 0.037575 0.133138 -0.051818 -0.048287 -0.067201 0.058673 -0.345087 0.055927 -0.121031 0.069183 0.003924 -0.069499 -0.116756 0.089817 -0.046663 0.184142 0.116331 -0.048014 0.095288 -0.028321 0.049725 0.144464 0.206629 -0.258924 0.17301 0.01339 0.049392 -0.080685 -0.107413 0.512286 -0.120318 0.276839 0.06636 0.419155 0.112009 0.258339 -0.051761 -0.038049 -0.052861 0.085874 0.01509 0.170487 0.267174 -0.099648 0.164098 0.094702 -0.064808 0.102961 -0.134558 0.081161 -0.113276 0.026276 0.018949 -0.261496 0.103405 0.100869 0.055114 -0.358739 0.009189 -0.049224 -0.099054 -0.109592 -0.25836 0.12882 0.208207 -0.025611 -0.209396 -0.149672 0.013971 0.046372 -0.048493 0.202498 0.052831 0.01334 -0.139827 0.387632 0.117083 -0.071853 0.194518 0.113487 0.122681 0.228145 0.05207 -0.239343 -0.204625 -0.04101 0.060842 0.04343 0.037535 -0.128159 -0.211133
wealth 0.058434 0.005966 -0.020566 -0.176644 -0.093968 0.14739 -0.043738 -0.191576 0.168567 0.111065 0.054003 0.050285 0.201645 0.115317 0.188804 -0.072136 -0.013606 0.086953 0.133544 0.128689 -0.237688 -0.101896 -0.274147 0.002071 0.064988 -0.065339 0.117394 -0.005549 -0.026278 -0.175302 0.285898 -0.189195 0.320351 0.114715 -0.205371 -0.138411 -0.008812 0.099483 -0.179605 0.018466 -0.102892 0.026933 -0.066201 0.246493 0.155537 0.198216 -0.085908 -0.080967 -0.00392 -0.206096 -0.009381 -0.130909 0.102779 0.343854 -0.071275 0.066615 0.102638 -0.068995 -0.028408 0.138827 0.195684 -0.273424 -0.006678 0.095503 -0.125433 -0.389158 0.039449 -0.147603 -0.304576 -0.041734 0.34995 -0.225037 -0.001123 0.360145 0.17793 0.277269 -0.344158 -0.053159 -0.145944 -0.028525 -0.001176 0.029365 0.008569 -0.128165 0.395631 0.056187 -0.114775 0.2863 -0.167354 -0.201003 -0.092075 0.130213 0.123113 0.106297 -0.201539 0.027053 0.061396 -0.022016 0.209966 -0.2941 -0.287108 -0.116448 0.151832 -0.016513 0.095039 -0.090293 -0.0328 -0.152746 -0.1587 0.097503 -0.232297 -0.02422 -0.296669 0.003303 0.051228 0.027783 0.142236 0.150875 -0.106271 -0.313824 0.040483 0.052484 0.017369 -0.248847 -0.11145 -0.278119 -0.047859 0.028593 0.045705 0.237962 -0.042004 -0.477615 -0.269814 -0.071066 0.290329 -0.036261 -0.248267 -0.199796 -0.205661 -0.015729 -0.143305 -0.089005 0.261242 -0.02508 -0.187089 0.064193 0.051037 0.233447 -0.151396 -0.032278 0.286829 0.045344 -0.017253 -0.202042 0.135875 0.179032 0.010529 -0.043292 -0.103775 -0.072929 -0.051485 -0.096213 -0.12903 -0.011149 -0.186009 0.318154 -0.1159 -0.178549 0.174061 0.280536 0.035034 0.030637 -0.219084 -0.070737 0.031251 0.153029 -0.430521 -0.04764 -0.122585 -0.08019 -0.178426 -0.280656 0.200843 -0.085973 0.161632 -0.096804 -0.155546 0.070539 0.232592 0.115033 0.075189 -0.228568 -0.129217 -0.117591 0.165982 -0.112601 0.047184 -0.078195 -0.059014 0.095788
eat 0.063831 0.194025 0.225082 -0.039117 0.147186 -0.148825 -0.012394 0.179199 -0.113101 -0.126691 -0.037201 -0.14789 0.089589 0.092681 0.116201 0.107589 0.134667 -0.086863 -0.220113 -0.016161 0.29917 0.120001 -0.154986 -0.062352 -0.08061 0.062726 -0.208793 -0.078701 -0.13219 0.212984 -0.601258 -0.07568 -0.097789 -0.074109 -0.069306 0.16507 -0.112457 0.345271 0.341984 0.102075 0.049418 -0.21365 -0.274037 0.169163 0.011916 0.443831 0.110513 -0.209969 0.313097 0.104652 0.152034 -0.039005 -0.248314 0.092178 0.231263 -0.01815 -0.007547 -0.511533 0.182772 -0.301252 -0.257732 -0.198412 0.007614 0.141574 -0.277841 -0.023794 -0.260201 -0.050921 0.062612 0.144551 -0.073529 0.214885 0.071731 0.197017 0.265033 0.091975 -0.471224 -0.103815 0.288886 -0.174333 -0.265812 -0.21801 -0.043333 -0.032113 0.130947 0.338902 0.04351 -0.021409 0.226781 -0.465973 -0.138566 0.075627 0.021774 -0.047707 -0.112647 -0.03213 -0.124818 0.398243 -0.207637 0.037125 0.037877 0.103014 -0.150256 -0.015044 -0.252128 0.153249 0.048 -0.092844 4.6E-5 -0.247911 -0.290639 -0.171733 0.087795 -0.327215 0.359144 -0.062348 -0.249622 0.225338 -0.017064 -0.027715 0.166969 -0.230032 0.013774 -0.025682 0.051429 0.239359 -0.12925 -0.008006 0.102128 0.005716 -0.271217 0.222663 -0.162685 -0.282433 -0.130772 0.019508 0.303525 -0.078676 -0.141785 0.093143 0.16237 0.078146 0.086759 0.064994 -0.198047 0.330703 0.152149 0.194975 -0.212891 0.228823 -0.031387 -0.362311 -0.067429 0.023047 0.028456 -0.302035 0.006746 0.001333 0.209097 -0.073672 -0.05888 0.007076 0.016647 0.014237 -0.002273 0.248447 -0.058799 0.054572 -0.076166 0.180635 0.351919 0.140694 0.443552 0.09274 0.187106 -0.361228 -0.161077 -0.507823 0.094106 0.210325 -0.163285 -0.071031 0.158551 -0.160643 0.25648 -0.206868 -0.078054 -0.101869 -0.034019 0.157545 0.040426 -0.120335 -0.147257 0.021911 -0.273051 0.013929 -0.036976 0.006785 0.373357 0.17662
soap -0.122969 -0.099183 0.354487 -0.196328 -0.114722 0.130821 0.273023 0.249622 -0.022415 -0.07366 0.228667 -0.017308 -0.090793 0.054139 0.456939 0.244536 0.022095 0.282857 -0.321545 0.067761 0.092489 -0.151508 0.083049 -0.104839 -0.186825 0.133655 -0.076724 -0.110865 -0.212552 -0.332044 -0.22362 0.026872 -0.21551 -0.15347 -0.022464 -0.046582 -0.10255 0.105638 0.104782 0.137958 0.126136 0.195161 0.095305 -0.170014 -0.111627 -0.185119 0.228127 0.26175 0.260288 0.126485 0.020432 0.19301 -0.278109 -0.379162 0.331439 -0.182011 0.108182 -0.235377 0.106602 -0.109884 -0.120199 -0.108538 0.082704 -0.032646 0.023116 -0.237556 0.059529 0.166385 -0.126174 -0.212087 0.008433 -0.29735 -0.062386 -0.263336 0.126362 -0.069205 -0.078127 -0.069425 0.135645 0.159636 0.119091 0.316423 -0.420498 0.267157 -0.323481 0.128643 0.162569 -0.043347 0.265591 0.130156 -0.132352 -0.054632 0.061861 -0.23922 -0.084654 0.178714 -0.324552 -0.287473 0.069975 -0.10245 0.176138 0.03472 -0.1773 0.415649 -0.059422 0.078835 0.009512 -0.049095 -0.2472 0.010496 -9.22E-4 -0.204095 -0.315036 -0.450224 -0.11071 -0.162513 -0.03484 0.081383 -0.011478 -0.07763 0.142375 0.145632 -0.075014 0.062263 0.044036 0.082215 0.225008 -0.124686 0.135312 -0.105943 0.008037 0.036293 0.339543 -0.079459 -0.029049 -0.013345 0.128835 -0.475383 -0.323314 -0.218665 0.259705 -0.2343 -0.06717 -0.097584 -0.27692 0.137799 0.192992 0.162182 0.279373 0.222948 0.020459 0.231194 -0.199762 0.14676 -0.443792 -0.098016 -0.180561 0.056522 0.393882 0.21259 -0.032921 -0.019458 -0.034783 -0.499232 -0.127781 0.007485 -0.20631 -0.023562 -0.209662 0.205692 0.201983 -0.063661 0.060591 -0.164541 -0.04888 -0.392234 -0.386252 -0.080126 -0.299433 0.292679 -0.347375 -0.361315 0.016591 -0.239779 0.020444 -0.19543 -0.355729 0.053313 0.10589 0.163441 0.366223 0.221755 0.33384 0.270952 -0.47084 -0.212545 0.030974 -0.106001 0.424745 0.22022
discovery -0.012553 -0.290818 0.111705 -0.144365 0.024186 -0.197645 0.047514 -0.118249 0.10744 0.04297 0.29529 0.204693 0.022617 0.201791 0.028304 -0.097392 -0.113858 0.012952 -0.313664 0.057565 0.004148 -0.006432 -0.012727 -0.17906 -0.18509 -0.035761 -0.115532 0.095593 0.012934 -0.004686 0.037164 -0.384729 -0.32041 -0.001477 0.00253 0.056538 0.253008 0.139585 -0.09013 -0.252331 -0.17649 0.114835 0.020031 -0.084115 -0.332738 -0.333419 -0.103102 0.092019 -0.226958 -0.037392 -0.115499 0.035637 0.053616 0.14444 -0.268148 -0.044749 0.129517 -0.304662 -0.198495 -0.031566 -0.037735 0.22269 0.043162 -0.059359 -0.195714 -0.181359 0.057278 -0.04926 4.15E-4 0.036432 0.329237 -0.161782 0.1712 0.360809 -0.099684 0.356361 0.172916 0.306011 0.166091 0.033462 -0.090006 0.11304 -0.074202 -0.245291 -0.151925 0.383161 0.001338 0.186492 -0.134836 0.03796 -0.120902 -0.161449 0.117969 -0.183155 -0.12558 0.141022 0.12047 -0.047191 0.306783 -0.052755 -0.116073 0.143493 0.005398 0.145719 0.115131 -0.029698 -0.047062 -0.072095 0.028911 0.135973 0.110265 0.234725 0.178891 0.08345 0.051836 0.146076 0.014412 0.02216 0.198296 0.080371 0.073167 0.073991 -0.145285 -0.287567 -0.132042 -0.10116 0.250777 -0.016905 0.091428 0.140155 0.229478 0.066841 -0.20394 0.133779 -0.32577 -0.074618 -0.165642 -0.222526 -0.038814 -0.145039 -0.396995 0.10357 0.020565 -0.202489 0.033043 0.082059 0.020318 -0.168641 -0.095611 0.259718 -0.022316 -0.335411 -0.291393 -0.01585 -0.016245 -0.035426 0.119095 -0.045546 -0.223112 -0.035354 0.299057 -0.218204 -0.09185 0.1458 -0.22215 -9.7E-5 0.03642 0.002847 0.079522 0.163801 0.302257 0.033466 -0.190848 -0.03302 0.069868 -0.27118 0.125557 -0.126533 -0.313966 -0.163384 0.153954 -0.168131 -0.05108 0.286561 0.194656 0.081104 -0.018639 0.076051 0.19728 0.256813 0.020606 -0.130384 -0.228259 -0.016482 0.120892 0.011396 -0.083572 0.294098 0.127796 -0.217599
Jerusalem 0.810495 -0.09439 0.216132 0.35016 -0.16648 0.357521 0.01077 -0.571556 -0.055771 0.013861 -0.253662 0.275094 0.201762 0.481804 0.15136 0.081991 -0.201463 0.047903 -0.319629 0.069039 0.053037 -0.247219 4.53E-4 -0.411399 -0.368747 -0.381264 -0.003133 0.12482 -0.23231 0.18341 -0.301672 0.191341 -0.506746 0.053532 0.352467 0.053957 -0.171219 -0.644277 -0.191168 -0.64093 0.09572 0.035337 -0.400085 -0.045527 -0.196591 0.148675 0.091403 -0.168626 -0.145458 0.241849 -0.03355 0.306496 -0.069664 0.081066 0.517119 0.231036 0.176441 -0.285006 -0.711135 -0.14967 0.247203 -0.09916 -0.05194 0.471218 -0.535515 -0.067849 0.037783 -0.133971 0.333526 -0.111141 -0.244571 0.272889 -0.203199 0.393015 -0.085345 -0.187274 0.172079 -0.175441 0.412856 -0.305839 0.313224 0.269275 -0.321208 0.224571 0.161788 -0.088661 0.103594 0.4738 0.64503 -0.107843 0.061666 0.057225 -0.548437 0.541555 -0.12005 0.472494 -0.024596 0.173641 0.373722 0.027406 0.076398 -0.037733 -0.251246 0.117138 -0.014176 -0.615129 0.05029 -0.468859 -0.353695 -0.824704 0.441706 -0.242606 0.04951 0.497354 0.382506 -0.029986 0.331528 0.036583 0.12673 -0.097949 -0.112822 -0.17835 -0.292377 0.219209 0.33114 -0.228005 0.263793 -0.306246 -0.284017 0.03642 0.231833 0.064003 0.178435 -0.213045 0.042288 0.015404 -0.129854 0.387122 -0.843093 0.22118 -0.100686 -0.109877 0.360201 -0.410043 0.267454 -0.123259 -0.013016 0.192443 0.135671 -0.125778 -0.053197 0.446549 -0.74148 0.330597 0.19341 0.200351 0.007821 -0.093809 0.44723 -0.442553 0.50146 0.214569 0.686407 -0.306826 0.211545 0.055236 -0.214336 0.5036 0.044088 -0.320354 -0.49233 -0.348691 -0.521048 -0.166063 -0.121717 0.04066 -0.158151 -0.070671 -0.358519 0.34694 -0.138481 0.172659 0.399571 0.287012 -0.052851 -0.285793 -3.18E-4 0.468288 -0.113659 0.786411 -0.04884 -0.095839 -0.189964 -0.315514 0.636885 0.214761 -0.338705 -0.168686 0.247457 -0.07
hospital 0.356627 -0.110593 0.026858 -0.08426 -0.050096 0.055452 0.221411 -0.137319 0.380395 0.276719 7.09E-4 0.14232 -0.189412 -0.005869 -0.170713 0.187162 0.02223 0.113858 -0.534961 -0.33195 0.124189 -0.282958 -0.007233 0.012237 -0.232493 0.170343 0.236794 0.08788 -0.224443 -0.016703 -0.284956 -0.007385 0.0895 0.081891 0.04441 0.356063 0.01207 0.232718 0.23309 -0.057154 -0.319575 0.149934 0.228157 -0.159841 0.092225 -0.200699 0.383431 -0.080765 0.06103 -0.208795 -0.26911 0.035297 0.172661 0.150229 0.037828 0.033661 -0.509933 0.258865 -0.299089 -0.107239 0.052265 0.203879 0.03193 -0.086371 0.038612 0.068711 0.120979 0.02671 0.235074 0.130022 0.147228 -0.054647 -0.034975 0.119653 0.094732 0.001396 -0.311583 -0.064047 0.001401 0.254593 0.051076 -0.108093 -0.042924 0.147948 0.229185 -0.125977 0.153689 0.13614 0.002538 -0.05561 0.021445 0.240644 0.184194 -0.135315 -0.248604 0.191759 -0.011786 0.150356 0.131799 0.058261 -0.361446 0.127256 0.046969 -0.17406 -0.257108 -0.395447 -0.073047 0.012056 0.05333 -0.24105 0.290205 0.126483 0.138574 -0.1965 0.212132 -0.361595 -0.226398 -0.16856 0.202282 0.128667 0.157101 -0.244865 0.015513 0.004664 -0.250918 0.141615 -0.186702 -0.150052 -0.16173 -0.056549 -0.024832 0.214762 0.136705 -0.240058 0.126216 0.096003 -0.008848 -0.065962 0.031483 -0.001902 0.063316 -0.126533 -0.205029 0.194193 0.031066 0.00678 0.103405 -0.189378 -0.153528 0.229756 0.175679 0.21657 -0.145018 0.21343 0.052471 -0.409634 -0.259511 -0.315568 0.267612 0.121883 -0.249373 -0.043875 0.012771 0.312825 -0.032542 -0.357507 0.088713 0.078059 0.114043 -0.078175 -0.070516 -0.097536 8.5E-4 -0.113758 -0.035973 0.182165 -0.173581 0.125895 -0.430273 -0.153815 0.15861 -0.2753 0.188331 -0.193607 0.142972 0.110646 -0.081709 0.201795 0.076951 -0.108578 -0.157168 -0.009176 0.245969 -0.144073 -0.186381 -0.289931 0.112953 0.333538 -0.089787 0.094464
computer 0.072639 0.269889 -0.076105 -0.151394 -0.236688 0.229116 0.079421 -0.355925 -0.284826 -0.280022 0.257975 -0.196768 -0.215469 -0.027049 -0.058451 0.279579 -0.046463 0.224557 -0.074443 -0.079814 0.160189 0.092535 0.049771 -0.158713 0.214166 -0.149934 0.228732 0.056974 -0.128352 0.01167 0.008322 -0.102334 0.015318 0.144792 0.048111 0.152059 0.175705 0.150214 -0.019292 0.042121 -0.036088 0.292944 0.117233 0.174015 0.033903 0.285387 0.268105 -0.012952 0.08946 -0.052108 -0.050601 -0.224213 -0.007693 0.248847 -0.08382 -0.21566 0.169604 -0.251827 0.20341 -0.095647 0.025149 -0.085501 -0.035595 -0.402943 -0.157532 -0.161543 0.234067 0.224299 0.008291 -0.23296 0.308744 -0.319608 0.389097 -0.078393 -0.096861 0.116116 0.134316 -0.159829 -0.124311 0.095975 -0.062546 -0.205073 -0.16749 -0.006944 -0.150907 0.095445 0.180851 -0.12817 -0.065501 0.19256 0.190736 0.137934 -0.013797 -0.044057 0.168305 0.071652 0.301256 0.051168 0.002485 -0.273333 0.036353 -0.027754 0.17794 -0.078169 -0.073773 -0.148819 0.022367 0.131611 0.287996 -0.103522 -0.054265 -0.202989 0.242719 0.046173 0.111542 -0.293284 0.408203 0.008296 0.327907 -0.277368 -0.079342 0.166993 0.010513 -0.032197 -0.104724 -0.261823 0.246581 -0.003012 -0.193474 0.207923 0.01393 -0.154087 -0.065968 -0.164364 -0.294301 -0.008031 0.00362 -0.065681 -0.083862 -0.111354 0.025953 0.06178 0.257409 0.032782 0.099044 0.309324 -0.069842 1.4E-5 -0.237481 -0.059482 0.046732 0.099028 0.018356 0.015619 -0.141742 -0.015522 0.049107 -0.044827 -0.067858 3.2E-5 -0.014 -0.111518 -0.282655 -0.146309 -0.138049 0.055871 0.035995 -0.278758 -0.137772 0.062914 -0.18515 -0.224019 -0.241327 -0.050391 -0.187826 -0.142679 -0.120586 -0.136036 -0.015399 0.031549 0.198313 -0.293729 -0.276638 -0.022213 0.0657 -0.010698 0.322276 -0.25285 0.458795 0.159107 0.299432 0.039392 -0.135454 0.333252 -0.145504 -0.018799 -0.145618 0.067985 -0.044899 -0.189252
queen -0.191058 0.114539 -0.052855 -0.08298 -0.324102 -0.145573 0.160945 0.015115 -0.054588 0.146237 -0.013106 0.20616 -0.013221 0.165037 0.172131 0.112405 -0.085803 0.155199 0.112523 -0.323224 -0.262576 -0.118596 0.163747 0.240371 -0.234872 0.19871 0.090822 -0.132319 0.176861 -0.194151 -0.245892 -0.080178 -0.051639 0.237087 0.057089 0.421793 0.240538 0.272194 -0.164507 -0.030987 0.046092 -0.06479 0.021145 -0.164188 -0.073736 -0.113016 -0.040957 -0.089172 0.046987 0.162632 0.031159 0.119615 0.223235 0.300621 0.097309 -0.02086 0.070416 -0.349264 0.012292 -0.14343 -0.087131 -0.018958 0.033295 -0.031608 -0.031908 -0.027695 -0.082653 -0.176725 -0.11375 0.104812 0.134069 0.036975 -0.226905 0.089761 0.320891 0.10425 -0.002196 -0.394246 -0.08387 -0.208391 0.10301 0.284715 -0.104473 -0.298561 0.045457 0.148699 0.078514 0.090624 0.107537 0.342218 0.280021 -0.164077 -0.27583 0.068779 -0.155171 -0.068875 -0.159969 -0.342819 -0.016011 -0.055157 -0.029113 -0.026312 -0.384937 0.144825 0.146863 0.016225 -0.256203 0.283241 0.035458 -0.149673 0.074069 -0.093976 -0.255928 0.031538 -0.037369 0.23581 0.193978 -0.052127 0.062501 0.111565 -0.007159 -0.122924 -0.090854 -0.075791 0.126111 -0.122667 -0.089957 0.090507 -0.090854 0.161561 0.061355 0.271508 -0.263498 0.250011 0.056876 0.033693 -0.147536 -0.24733 -0.204518 -0.133681 0.145635 -0.024757 -0.043766 -0.212632 0.143509 -0.040735 -0.051041 -0.028837 -0.061017 0.251314 -0.062944 0.278086 0.030327 -0.264427 -0.011519 0.029716 -0.016224 -8.62E-4 0.039496 0.253389 0.291152 -0.206166 -0.067078 -0.252483 0.076308 0.150148 -0.302479 -0.357215 -0.003889 -0.069734 0.131316 -0.088658 0.179061 -0.258987 -0.013818 -0.1215 -0.029652 0.13988 -0.343164 0.149385 -0.227034 -0.305867 -0.232679 0.02783 -0.011402 -0.072546 -0.13522 0.144691 0.107661 -0.125109 -0.134194 -0.386791 0.086835 0.184794 -0.318766 -0.032979 0.0675 0.186423 0.318105 0.458279
wizard 0.162078 0.210878 0.107755 -0.218127 -0.202169 -0.27845 0.150061 0.241896 0.226481 0.020861 0.376542 -0.053394 -0.187872 -0.18275 0.008017 0.030218 -0.194026 -0.194701 0.00538 -0.060729 0.038633 -0.120908 -0.028005 -0.028851 -0.069871 0.214055 -0.037459 0.07183 -0.009962 -0.537568 0.345873 -0.060365 -0.08238 0.116203 -0.07317 -0.083569 0.025775 0.172323 -0.199352 -0.137072 -0.490826 -0.085406 0.019983 0.067903 0.049848 0.305231 0.298087 -0.075558 -0.039179 0.168599 -0.257496 -0.142983 0.364663 -0.263851 -0.086755 -0.190736 -0.017441 -0.098322 -0.020914 -0.282303 -0.095115 0.150593 -0.0044 0.021613 -0.099211 0.043025 0.2722 0.016064 -0.064298 -0.04509 0.111417 -0.373155 -0.048943 -0.044036 0.16178 0.423676 -0.240374 -0.257498 0.245792 -0.587237 -0.177303 0.309862 -0.111139 -0.159519 -0.051482 -0.11744 0.290311 0.20208 0.026442 0.016692 0.535094 -0.265473 -0.133988 -0.002188 -0.058444 0.090847 0.070249 -0.123092 -0.076098 -0.092037 0.119801 -0.127616 -0.031753 0.092376 0.041206 0.234645 0.00578 0.227021 0.081656 -0.008931 -0.191152 -0.136073 0.008936 -0.018681 -0.333291 -8.02E-4 0.116827 0.089401 0.205913 -0.099663 -0.139047 0.116558 -0.018534 -0.019297 -0.111877 -0.193224 0.009048 0.264643 0.010071 -0.064306 -0.049289 -0.131459 0.226434 -0.01279 0.091126 -0.157931 0.265688 0.027636 -0.242508 0.213428 0.16626 -0.305604 -0.167926 0.102704 0.17517 0.209066 0.215849 0.14717 0.179826 0.122763 0.006845 0.204885 -0.155125 -0.273158 0.153105 0.073647 0.125491 0.218547 0.211206 0.408737 0.222383 -0.100804 0.081748 -0.220934 0.028588 0.04278 0.111493 -0.095125 0.030068 0.027459 -0.386257 0.042448 -0.004864 0.25112 0.009053 -0.358122 -0.022241 0.0611 -0.672769 0.583531 -0.170255 -0.347799 -0.190721 0.010539 -0.147575 0.050633 -0.144269 -0.322481 0.208186 0.079663 0.092335 0.061994 -0.025806 0.218423 -0.139339 0.012156 -0.067672 0.207696 -0.056449 -0.067751
oil -0.204933 -0.138667 0.228904 0.023793 -0.522239 0.262925 0.084703 0.425726 -0.319063 0.035888 0.368184 0.006402 0.011181 0.028009 0.383987 -0.223985 0.206217 0.101099 -0.078457 0.335233 -0.06643 0.271888 -0.06248 -0.15883 0.099843 -0.24577 -0.156371 -0.376856 0.100278 -0.169263 0.245611 -0.330632 -0.206025 0.158922 0.1775 -0.073051 0.15599 0.390548 -0.012574 -0.101434 0.068658 -0.001515 0.047789 -0.210226 -0.130553 -0.395116 -0.146553 0.158381 0.106628 -0.056437 -0.139715 -0.012067 0.100568 0.192526 -0.090469 -0.152305 -0.00733 -0.13828 -0.067858 0.309733 -0.0667 0.041435 -0.246282 -0.0349 0.292324 -0.085636 -0.08128 -0.222723 0.279144 0.415772 0.021526 -0.191168 0.021691 0.060697 0.167746 0.048132 -0.475667 -0.025332 -0.294579 0.038758 0.147283 0.187977 -0.300542 -0.183546 0.017112 0.060327 -0.114754 0.269013 0.054312 -0.297966 -0.012026 0.335605 -0.24652 -0.253928 -0.424898 0.159684 0.105215 -0.109 0.21117 -0.048611 0.015009 0.269891 -0.04324 0.052365 -0.115746 0.285943 0.233709 0.305531 -0.324459 -0.202566 -0.040405 0.141904 -0.21326 -0.130037 0.348077 0.007486 0.042202 0.306977 0.067545 0.291124 0.538411 0.178292 -0.079251 -0.139477 -0.54162 -0.276203 -0.129056 -0.100763 0.09764 0.083915 0.23056 -0.37551 -0.098689 0.111857 0.189042 0.339703 -0.398309 -0.349476 -0.22786 0.096254 -0.343221 0.465184 -0.032195 0.023225 -0.036253 0.205477 -0.106409 -0.306255 -0.434057 0.342812 0.125065 -0.052635 -0.441207 0.371476 -0.328961 -0.010964 0.376071 -0.128284 0.054104 -0.339375 0.057302 4.89E-4 -0.152121 -0.065098 0.202108 0.232264 -0.201792 0.443817 -0.030398 0.463352 0.32059 -0.122826 -0.278785 -0.280021 -0.119486 0.135507 -0.308077 -0.111634 -0.376179 -0.056069 -0.352271 -0.298334 0.246819 0.051716 0.334666 -0.204274 -7.23E-4 -0.107057 0.108638 0.068713 0.062443 -0.028854 0.258201 -0.323571 0.114054 0.400354 -0.292205 0.137292 -0.06269 -0.334079
currency 0.14342 -0.023432 0.068876 0.120391 -0.269612 0.200316 0.230713 0.225048 0.101753 0.151833 -0.012409 -0.097332 0.055466 0.005253 0.136912 0.012013 0.30041 -0.007836 -0.078747 0.17651 0.008971 0.267242 -0.204648 0.065619 -0.439503 -0.190215 0.138423 -0.166895 0.06758 -0.561158 0.173212 0.229451 -0.081284 -0.062574 -0.286492 0.316417 -0.065629 -0.262191 -0.009031 0.310418 -0.289935 -0.169864 0.198968 0.147292 0.087561 -0.352069 -0.175958 -0.195059 0.1499 0.022212 0.260358 0.385592 0.343923 0.364309 0.167266 0.002375 0.275354 -0.180465 -0.113504 -0.099126 -0.369573 -0.040241 -0.25268 -0.18108 -0.310762 -0.266431 -0.099866 0.259814 0.002346 0.179594 -0.073217 0.391202 0.63688 0.064759 0.056998 -0.119066 -0.241367 0.26939 -5.85E-4 0.246479 -0.173045 -0.148682 -0.108043 -0.195176 -0.179227 0.150916 -0.097936 0.04036 -0.179256 0.005194 -0.600629 -0.028626 -0.242544 0.382465 0.061216 -0.125025 -0.099232 -0.088377 0.045057 -0.39742 -0.357221 -0.079439 0.24998 -0.210393 -0.229849 -0.16203 0.126794 0.004524 0.008443 0.097743 0.068389 -0.324415 -0.076181 0.052844 -0.143902 -0.137068 -0.229427 -0.291066 -0.379506 -0.2418 0.014708 -0.03442 0.095123 0.057624 -0.184123 -0.03295 -0.033351 0.023012 -0.028396 0.318911 0.25061 -0.525338 0.19753 -0.067588 0.111306 -0.094265 -0.207763 0.151168 -0.107524 -0.193433 0.150156 0.271416 0.367618 0.078339 0.312758 0.265278 -0.112826 0.452095 -0.404404 -0.012253 0.447365 0.336852 -0.028973 0.001975 -0.061218 0.106744 -0.236935 -0.235921 0.101322 -0.189014 0.101728 -0.349517 -0.247731 -0.27256 0.117534 0.026063 -0.041772 -0.089832 -0.148782 0.305248 -0.239323 -0.427872 0.254905 0.196178 -0.155422 0.501268 -0.211451 0.10143 -0.118564 0.24981 -0.314397 0.019619 -0.098865 -0.071175 0.216463 -0.031642 -0.233142 0.035121 0.167038 0.233354 -0.121831 -0.296959 0.336264 -0.077913 0.230072 0.294426 -0.046546 -0.106583 0.372617 -0.571757
laundering 0.28576 -0.075797 -0.099259 -0.056606 -0.099817 0.094874 -0.556983 0.484261 -0.145905 -0.075738 0.203284 -0.831048 0.04181 -0.213483 0.086632 -0.122885 -0.032334 -0.125189 -0.140576 0.025065 -0.402362 -0.355716 0.449342 0.401272 -0.447516 0.387973 -0.495965 0.18621 -0.325937 0.460604 0.204138 -0.502283 0.179945 0.822447 -0.29953 -0.137629 0.08397 -0.333707 0.208744 -0.243521 -0.003107 -0.040852 0.291985 0.704102 0.310475 -0.17896 0.005567 -0.501766 -0.536586 -0.151032 -0.175478 0.531254 0.420837 -0.211025 0.390479 -0.073224 0.488892 0.238419 -0.383323 0.335879 -0.187164 -0.132698 0.072998 -0.817927 0.379975 -0.201482 0.297401 -0.045554 -0.25461 -0.341746 0.244273 -0.356281 0.423937 -0.321937 0.686116 0.09696 -0.13213 -0.078068 0.05305 -0.814619 -0.088348 -0.291486 -0.067066 -0.067519 -0.2715 0.376566 -0.077849 -0.067862 -0.109867 0.009636 0.013766 0.654912 -0.372869 -0.323078 -0.062356 -0.345116 0.266191 -0.179358 0.206766 -0.054383 -0.666347 -0.091917 -0.767917 -0.030201 -0.271216 -0.543019 0.213742 -0.086751 -0.077355 0.792679 -0.643537 -0.263403 0.060152 0.880438 -0.149206 0.41322 0.230711 -0.278381 -0.277496 -0.669163 0.183226 -0.175985 0.386373 0.167421 -0.169425 0.067319 -0.136693 0.319033 -0.004464 0.394434 0.103915 -0.239926 0.156297 0.094843 -0.458567 0.295012 0.160917 0.387534 0.297819 -0.065082 0.025679 0.094635 0.698393 0.388785 -0.111106 0.131359 0.309206 -0.18523 -0.388069 0.865718 -0.146047 -0.135959 -0.650215 -0.31841 0.272999 0.305861 -0.755852 0.370475 0.001944 0.038068 -0.113971 0.495588 -0.498481 -0.341947 0.440865 0.517922 0.269726 0.246545 0.068826 0.16509 0.145588 0.576805 0.041176 -0.182105 0.198105 0.141469 0.212211 0.162238 -0.170202 -0.582846 -0.209266 -0.397202 0.55599 -0.330154 0.363355 0.469952 -0.002894 0.487409 0.167476 0.019914 0.428377 -0.255881 0.265185 -0.45578 0.195871 -0.395438 0.188563 -0.441109 -0.594062 -0.330537
midday -0.115521 -0.100482 0.133875 -0.052063 -0.156182 -0.058649 0.172252 -0.013182 0.077482 0.086619 -0.086447 0.144338 -0.248226 0.299768 -0.092632 0.374324 0.216675 -0.118379 0.05274 -0.610494 -0.151647 0.570899 0.028034 0.031676 0.032081 -0.03575 -0.36671 -0.145243 -0.57761 0.327939 0.055032 0.156186 -0.258519 -0.320389 0.065217 0.336055 0.126734 0.090714 0.196824 -0.1479 0.16202 -0.004241 0.13142 0.107017 -0.060137 -0.5965 0.108535 0.211353 0.301752 -0.329449 -0.21276 0.026746 -0.090376 -0.470619 -0.094936 -0.219649 0.069405 -0.311259 -0.131091 -0.056698 0.076065 0.227172 -0.542238 -0.435609 -0.112722 -0.607808 -0.3076 0.122835 0.40503 0.154685 -0.182556 0.167917 0.095774 0.048129 -0.208006 -0.101353 -0.407731 0.179847 -0.37737 0.201668 -0.252924 0.010951 -0.099064 0.307245 0.023734 0.414117 0.091042 0.053843 -0.0665 -0.138596 -0.583771 -0.346881 -0.323351 0.168957 0.232082 -0.358405 -0.217977 0.095199 0.277376 0.200277 -0.20808 0.139707 0.063425 0.263551 -0.082265 -0.144738 0.159724 0.108317 -0.359519 0.044451 0.42699 0.147582 -0.574949 -0.179077 0.339912 0.320044 -0.157614 -0.248678 0.33897 0.185201 0.091541 -0.052833 0.252892 -0.108121 -0.378379 -0.014957 0.048147 0.180652 0.004749 0.106195 0.292253 0.08352 0.220925 -0.230613 0.099372 0.288773 0.284948 0.068175 0.332403 -0.044745 0.007178 -0.247294 0.135863 2.88E-4 -0.090298 0.115392 -0.017841 -0.331789 0.127522 0.227842 0.099961 0.087384 -0.155847 0.189146 0.130784 0.005547 -0.135251 0.281367 0.227479 0.191895 0.10308 -0.249781 -0.2182 0.209823 0.07526 0.125783 0.126909 0.056638 -0.013412 0.204095 -0.353792 -0.289 -0.255708 0.186939 0.33119 0.317001 -0.078761 0.078052 0.05746 -0.142415 0.161518 0.089173 0.613266 0.053715 -0.450179 -0.024495 0.346779 0.096326 0.46454 -0.356123 0.553661 -0.021501 -0.261678 0.374994 -0.252026 0.162657 0.064065 -0.24808 0.160465 -0.215241
Arafat 0.255484 -0.0458 0.092078 0.294506 0.1029 -0.099049 0.444903 -0.432174 -0.120071 0.045062 0.033618 0.17325 0.115809 -0.01592 0.239228 0.45548 -0.295862 0.062465 -0.243477 -0.220144 -0.178715 -0.394246 0.06957 -0.142046 -0.213579 -0.095325 0.04713 -0.322742 -0.230999 -0.146316 0.203114 -0.047559 0.178796 -0.0769 0.063763 0.262704 -0.048374 -0.180815 -0.051091 0.007322 -0.191347 0.089545 -0.203616 -0.19589 0.033068 -0.030197 0.051458 0.163252 0.002004 0.03089 -0.197982 0.317083 0.078871 -0.442071 -0.192356 0.073938 -0.300526 -0.425652 -0.659659 0.380929 0.427275 -0.135591 -0.268781 0.133571 -0.235587 0.237324 -0.445934 -0.114589 -0.045495 0.16439 0.074743 0.546386 -0.179982 -0.080742 0.208574 0.165467 -0.573619 0.408435 -0.332555 -0.834585 0.344878 -0.204313 -0.27843 0.032163 0.162874 -0.352456 0.299415 -0.17895 0.549862 -0.193959 -0.304685 0.133333 -0.335343 -0.260186 -0.359432 0.032517 0.14633 0.408704 0.131914 0.149064 0.129413 -0.189989 -0.004504 -0.493507 -0.112607 -0.562229 0.115459 -0.136344 -0.121048 0.047845 0.535908 0.088411 0.005341 0.543603 -0.07891 -0.110294 0.139485 0.150816 0.185301 -0.066492 -0.332121 -0.096284 0.183042 0.26522 0.19584 -0.145075 0.147515 0.04676 -0.566657 0.049644 -0.249489 0.038477 -0.366289 -0.366001 -0.048174 0.186716 -0.423808 0.382109 -0.603274 0.241976 -0.126307 -0.311455 0.070775 -0.424995 0.221879 0.253879 -0.285035 0.200904 0.192272 0.060449 -0.300685 0.652512 -0.415492 0.133302 0.371813 -0.155563 -0.18688 -0.14291 0.559982 -0.432245 0.284921 -0.218089 0.4303 -0.528858 -0.120885 0.207635 0.404899 0.098772 0.016591 -0.269796 -0.212507 -0.15662 0.50084 -0.094866 -0.146757 -0.524179 -0.172566 0.091231 -0.562173 -0.027408 0.399126 0.362702 0.184282 0.003001 -0.171717 -0.178209 -0.20928 0.175767 -0.002896 0.21853 0.212284 -0.251266 -0.067986 0.06347 0.163296 0.150475 0.406808 0.312989 0.188748 0.736279
man 0.152392 0.115714 -0.042272 -0.107678 0.04931 -0.072164 0.198398 0.117745 -0.047618 0.129476 -0.038407 0.028776 -0.19149 -0.055507 -0.193468 0.135172 0.042497 -0.073368 -0.397243 -0.153216 -0.151507 0.00725 -0.072101 -0.045324 -0.130918 0.122102 -0.101704 0.012323 -0.257247 -0.310135 -0.280003 -0.200025 -0.130294 -0.198714 0.064987 0.085158 0.118117 0.293437 -0.175973 -0.089914 -0.074431 0.069624 0.088617 -0.020655 -0.183782 0.004255 0.019233 0.003149 -0.028033 0.214893 -0.374183 -0.185691 0.266293 0.014397 0.053435 0.215303 0.031563 0.027135 -0.036319 -0.025585 -0.036658 0.09412 0.157345 -0.079356 -0.042536 -8.82E-4 0.066415 0.054963 0.029987 -0.038081 -0.023244 -0.298107 -0.099614 0.015789 0.169978 -0.062815 -0.112116 0.027836 -0.102238 -0.109746 0.083149 0.118681 -0.080874 -0.114807 0.190274 0.026152 0.211468 -0.008445 -0.123782 -0.110935 0.0987 0.210619 -0.163654 0.298448 0.192205 0.172618 0.065363 0.108906 0.059205 0.158481 -0.058205 -0.165995 0.002994 -0.178605 0.004347 -0.389501 0.008647 0.156567 0.03784 0.064621 0.07026 0.09919 0.081155 -0.215517 -0.05913 -0.045816 -0.428318 -0.24839 -0.014833 0.020912 -0.027144 0.010639 0.128549 -0.059669 0.145463 -0.189771 -0.234329 0.171723 0.082349 0.036635 0.043195 0.215163 -0.102508 -0.120992 -0.18975 0.099562 0.008357 0.205992 -0.266091 0.136772 -0.100769 0.11771 0.001449 0.061436 0.17273 -0.039298 0.132911 -0.068323 0.079182 0.070406 0.084447 -0.068314 -0.152407 -0.190331 -0.023268 -0.092635 -0.143683 0.267286 0.143382 -0.010374 0.217099 0.026486 0.161288 0.004522 -0.304868 0.168231 0.10747 -0.275625 -0.011497 0.126417 0.140491 0.151049 0.123651 0.073112 -0.00194 -0.246998 -0.001971 0.195649 -0.30627 -0.234792 -0.007561 -0.376537 -0.117125 0.054426 0.130099 0.074441 -0.056273 0.046448 0.304964 -0.082522 -0.006046 -0.095852 -0.025125 0.119941 -0.118771 0.014019 0.020471 0.020148 -0.087147 0.033718
keyboard 0.036551 0.402433 -0.358873 0.035789 -0.177005 0.084783 0.294191 -0.006195 -0.306996 -0.173982 0.217665 -0.068596 -0.039057 -0.081076 0.061781 0.415908 0.032466 0.355455 0.290459 -0.376052 0.255136 0.230742 0.011932 0.196021 0.176756 0.070367 0.012044 -0.067372 -0.176494 -0.102202 -0.227368 0.13371 -0.083698 0.40623 0.131521 0.432124 -0.053863 0.136825 -0.034797 0.474698 -0.055067 -0.028593 0.061546 0.341855 -0.017048 0.136108 0.313505 -0.181413 0.169567 -0.014397 -0.029574 -0.138991 -0.188729 0.142164 0.106112 -0.116179 0.328969 -0.253162 0.047377 -0.080236 -0.077351 -0.015828 -0.237974 -0.145863 -0.177048 -0.189288 0.234877 0.224404 -0.02693 -0.267779 0.256323 -0.117079 0.086798 -0.003506 -0.339419 -0.230215 0.197489 -0.199905 -0.373812 0.034941 -0.13614 -0.039116 -0.082734 -0.285644 0.086 0.081568 0.28415 0.36994 -0.087265 0.310145 0.527665 0.130037 -0.050929 0.139539 -0.057208 0.268956 0.121686 0.177288 -0.246242 -0.406285 0.247756 0.174973 0.236483 -0.282951 0.113857 -0.076436 0.22474 0.118209 -0.239645 -0.473593 -0.120002 -0.252723 0.092146 -0.158541 -0.112064 -0.397106 0.37952 0.013101 0.031424 0.061333 0.104135 0.079819 0.183745 0.109664 -0.060906 -0.405749 0.242226 0.088069 -0.078104 0.248513 0.334074 0.141737 -0.125074 -0.232209 -0.389996 -0.468745 -0.187748 -0.285074 0.080291 -0.145428 0.255473 0.048808 0.130596 0.154757 0.038566 0.265245 -0.242604 -0.149768 -0.24793 -0.050591 -0.061743 -0.072195 -0.052279 -0.143124 -0.09808 -0.293782 0.146551 0.157472 0.180985 0.006249 0.030674 -0.091645 -0.092283 -0.544751 -0.296397 0.132215 -0.073073 -0.135869 -0.180887 -0.230114 -0.283678 -0.151197 -0.068145 0.11113 -0.167903 -0.351518 -0.224138 -0.07602 0.110076 0.183329 0.130428 -0.200594 -0.391878 -0.044605 0.067289 0.163052 0.065051 -0.158071 0.3414 0.204792 0.470799 -0.348445 -0.039602 0.562734 -0.164224 -0.05145 -0.073031 0.334229 -0.178276 0.212519
announcement -0.103438 -0.208609 -0.060311 0.190126 -0.141651 -0.128013 0.213182 -0.04762 0.367483 0.020773 -0.478391 0.053256 0.043831 0.111492 -0.121065 -0.001148 0.21701 -0.260481 -0.249455 0.290505 0.191305 0.049177 0.119148 -0.270406 -0.081187 0.231547 -0.009978 0.179233 0.117009 0.064633 0.144573 0.229863 -0.044356 0.066307 -0.175657 0.144261 0.116617 0.220447 -0.350346 -0.133645 -0.145477 0.318137 -0.185591 -0.066834 -0.052994 -0.01001 -0.063446 -0.005761 -0.160604 -0.114692 -0.12498 -0.025444 -0.107528 0.050496 -0.18081 -0.038823 0.368658 -0.253721 0.017582 -0.134529 0.032407 0.110543 0.001671 -0.10304 -0.297758 -0.058652 -0.21403 0.070945 0.085789 0.027371 0.003741 0.075939 0.07776 0.248904 0.140547 0.094883 0.170183 -0.008991 0.290982 -0.02437 0.22322 0.401093 -0.226477 -0.081832 0.104487 0.12158 0.043543 0.419399 -0.161938 0.128414 -0.205767 -0.246241 0.149478 0.002611 0.236877 -0.06714 -0.005129 -0.265788 0.316931 0.035354 -0.124138 0.027275 -0.002714 0.424446 -0.051783 -0.069804 -0.263188 -0.243551 -0.175977 -0.299034 0.167443 0.068403 0.217887 0.068694 0.048256 -0.165451 0.257129 -0.11604 -0.051965 0.072002 0.238426 0.030245 -0.171317 0.107447 -0.012878 0.186402 0.231339 -0.030911 0.153927 -0.00501 0.337775 0.290287 0.017208 -0.146333 -0.136853 -0.072943 -0.380932 0.389037 0.039955 0.049167 -0.201787 -0.134225 0.132488 0.102545 0.329023 0.176217 -0.070505 -0.167402 -0.112751 0.002414 -0.124 0.112263 0.04068 -0.132036 0.02203 -0.331529 0.164132 -0.07967 -0.148706 0.077259 0.128262 -0.142847 0.064545 0.174535 0.29066 -0.141634 -0.113512 0.061163 0.246343 -0.167005 -0.205042 -0.459389 -0.047715 -0.063141 -0.217281 0.070505 0.141477 -0.253931 0.027943 -0.073009 0.009484 0.134799 0.170141 0.241757 0.080651 -0.142235 0.057161 0.018493 0.119169 0.21566 0.319696 -0.230087 -0.080474 -0.04197 0.256473 0.127141 -0.018917 -0.084629 0.214601 0.106132
racket -0.083032 0.10017 0.112025 -0.058107 -0.17952 0.02741 0.067424 0.194072 0.078362 -0.166878 -0.291717 -0.209636 0.075484 0.063016 0.018156 -0.004649 -0.27589 0.293524 0.216994 -0.179531 -0.025094 0.160715 0.168706 0.082691 0.211191 0.387213 -0.239772 -0.201569 -0.00179 -0.212344 -0.009962 0.074826 0.207456 0.089595 -0.138535 -0.028113 -0.074507 0.079782 0.01283 0.264091 -0.169882 0.041923 0.164133 0.080822 -0.480146 -0.261692 -0.003089 0.072267 -0.118813 0.134291 -0.233974 -0.257647 0.123084 0.256487 0.426942 0.158116 0.097724 -0.186673 0.183619 -0.135916 -0.500913 0.061406 0.139583 -0.306562 0.033105 0.262421 0.156563 -0.112247 -0.23892 -0.084511 0.204983 0.027459 -0.174231 -0.077663 -0.102007 -0.148327 0.009623 -0.250278 -0.027352 0.061732 -0.039113 0.042467 -0.206184 -0.261889 0.254769 0.362427 -0.100856 -0.161757 -0.137154 0.034295 -0.089145 0.152125 -0.20667 -0.042186 0.093602 0.044126 -0.012692 -0.135204 -0.128164 -0.376878 0.088238 -0.121221 -0.302483 -0.300703 -0.129434 -0.20927 -0.14901 0.376734 0.037475 0.13222 0.134939 -0.166685 0.176324 -0.099076 0.104016 -0.318277 0.113631 -0.041869 0.015938 -0.088366 -0.093698 0.18512 0.174716 0.062264 0.261683 -0.14491 0.075462 0.168152 0.331024 0.09898 0.254088 -0.218253 -0.233831 -0.127315 -0.455284 0.391902 0.115405 -0.378895 -0.057734 0.032964 0.288796 -0.219773 -0.339367 0.156077 0.058192 -0.006948 0.046223 -0.194902 -0.097169 0.019407 -0.134101 -0.303062 -0.485711 -0.002831 0.1475 0.325145 -0.053757 0.317284 0.204516 0.237028 -0.060009 -0.081596 -0.033177 -0.234534 -0.060932 0.05298 0.108896 0.070441 -0.288249 -0.009497 -0.142725 0.100215 -0.124801 0.054853 -0.102279 0.077598 -0.102672 -0.067933 -0.012292 -0.153767 -0.16359 -0.039 0.019323 -0.308613 -0.314499 0.102818 -0.152766 0.451843 -0.208657 0.057056 0.007993 -0.374984 -0.093469 -0.104253 -0.108227 0.068926 0.107761 -0.022451 0.008337 0.125359
Maradona 0.064936 0.187977 0.193418 -0.318248 -0.209462 0.121199 0.152357 -0.214861 -0.045243 -0.298585 -0.325283 0.168552 0.010791 -0.377525 0.146182 -0.274556 -0.370956 0.280275 -0.076053 -0.430203 0.424624 -0.078388 0.25824 0.044899 0.473151 0.245198 0.047356 0.05389 -0.054674 0.010112 0.094541 -0.39772 -0.200942 0.063 -0.001679 0.405099 0.167807 -0.166892 -0.062491 0.027404 -0.431627 -0.225459 -0.087421 -0.264403 0.074544 -0.055951 -0.1049 0.076846 -0.40994 0.335091 -0.090609 -0.099671 0.119996 0.039887 0.266252 -0.067568 0.326542 0.157757 -0.121147 -0.086237 -0.496111 0.189827 0.087929 -0.023566 -0.064828 0.030275 -0.215133 -0.046549 -0.047948 0.170776 0.336376 -0.351441 -0.523147 0.173531 0.218604 -0.01889 0.065432 -0.091972 -0.068136 -0.254532 0.14918 0.291969 0.072013 -0.156628 0.267081 -0.060546 0.015255 -0.183962 0.184179 0.227694 -0.198598 -0.292639 -0.077818 -0.122645 -0.127773 0.15867 0.333915 0.1158 -0.161751 0.116381 -0.106487 0.24934 -0.158107 -0.199628 0.687296 0.061891 0.305669 0.145978 -0.077151 0.010216 0.086487 -0.460454 0.16693 0.430775 -0.536295 0.171162 0.066517 -0.351737 -0.238007 -0.172272 -0.058978 -0.332947 -0.094329 -0.148 0.133748 -0.09448 0.27298 0.145366 -0.013359 0.453418 0.124852 -0.03102 -0.237309 0.049612 -0.088798 -0.005302 0.115695 0.017774 -0.347081 -0.074474 -0.01501 -0.39889 -0.094774 0.031679 0.1042 0.105762 -0.051776 -0.177455 0.156266 -0.120424 0.091809 -0.186912 0.131798 0.212755 -0.77455 -0.343276 0.088632 0.134963 0.137298 0.249097 0.280978 0.119117 -0.192802 0.285152 0.0561 0.404278 -0.182697 0.0822 0.029331 -0.093227 0.222818 0.079412 0.148084 0.044295 -0.236559 0.15599 0.154312 0.041434 -0.28768 -0.30319 -0.326374 -0.243294 0.114892 -0.073325 0.018741 0.052996 -0.26181 0.35366 0.182341 -0.660473 -0.066809 -0.027568 -0.097649 -0.077723 -0.056587 0.307276 0.015125 0.082845 0.290282 0.093544
anxiety 0.174301 0.111042 -0.080738 0.164507 -0.056955 0.097282 0.331502 -0.138578 0.155473 -0.072699 -0.200128 0.098756 -0.047595 0.048128 -0.1781 0.075319 -0.024879 0.052459 0.056203 -0.002391 -0.098708 -0.174842 0.020169 0.29449 0.100889 0.16816 0.146576 0.222104 0.217392 -0.134622 -0.012996 -0.190739 0.132908 -0.149162 -0.159043 0.202799 0.397812 -0.125566 0.041516 0.082573 0.040516 -0.089541 -0.279468 0.208651 -0.245529 0.264092 -0.127128 -0.085318 -0.052943 -0.580546 0.16921 -0.125364 -0.162634 0.055714 0.01159 0.25078 -0.054081 -0.221997 -0.150042 -0.264477 0.110259 0.007343 -0.480295 0.169699 0.009323 -0.115126 0.021594 0.113021 0.087144 -0.150217 0.253918 0.129214 0.119251 0.224221 0.151661 -0.116079 0.144077 -0.031757 0.380005 0.235628 -0.046442 -0.045637 0.037433 -0.059092 0.281734 0.170857 0.03314 0.299267 -0.018757 -0.019687 -0.078721 0.098257 0.133305 0.04234 -0.349887 -0.21319 0.004524 -0.084003 -0.022238 -0.356403 0.112652 -0.362223 0.198868 0.049189 -0.062003 0.030479 0.044252 -0.014871 0.059482 0.306752 -0.107014 0.028106 0.132463 -0.185223 0.218846 -0.380246 -0.229275 -0.147596 0.202455 0.167906 0.007195 0.080557 -0.095264 -0.068447 -0.033431 0.034913 -0.048628 -0.058995 0.151549 0.120434 -0.11954 -0.304196 -0.063421 0.083456 0.10811 -0.090929 0.092573 0.1762 -0.139035 -0.254989 0.20768 -0.466893 0.210555 0.425514 -0.145671 -0.075675 -0.428911 -0.012843 -0.045395 -0.13035 0.253135 0.137006 -0.176244 -0.01209 -0.058258 -0.199925 0.248756 0.178624 -0.05396 0.073733 -0.013685 -0.028571 0.178501 -0.07269 -0.091115 0.166779 0.049372 -0.119196 0.232289 0.295614 0.023346 -0.284021 0.09801 -0.066349 0.246607 0.016116 0.366018 -0.107624 0.074513 0.259212 -0.17876 -0.124047 0.297484 0.078518 0.137413 0.06694 0.040333 0.13065 0.233167 0.087842 -0.320426 -0.291 0.162692 -0.133629 -0.104437 0.102989 0.036958 -0.039875 0.04463 0.023806
jazz -0.052563 -0.089089 -0.038585 0.317572 -0.269869 -0.112618 0.283386 0.205096 -0.135252 0.066871 0.13738 0.226142 0.001637 -0.016783 0.148568 0.263995 -0.039832 0.007324 0.150493 -0.399928 -0.155001 -0.172533 0.11642 0.268447 0.066412 0.203301 -0.044514 -0.662339 -0.222234 -0.546804 -0.173139 -0.350408 0.034267 0.093343 0.223773 0.285799 -0.109848 0.269922 -0.067989 0.053217 0.120347 0.055823 -0.417046 0.062611 0.22855 -0.015185 0.255531 0.137514 -0.035286 0.091731 -0.027481 0.137025 0.003055 -0.218003 0.11535 -0.192974 -0.040839 -0.212118 0.12478 0.034666 -0.214023 -0.423663 -0.013028 0.317246 -0.036325 -0.179759 -0.044987 0.103192 0.03907 -0.137943 0.30546 0.275413 -0.168765 0.101021 -0.406579 0.164596 0.205551 -0.159212 -0.107606 -0.567426 0.073358 -0.015869 0.157968 0.008377 -0.008261 0.237589 0.44847 0.080147 -0.351169 0.057802 0.211286 -0.022908 0.1184 0.012541 -0.327828 -0.050056 -0.224594 -0.111002 0.087421 -0.237541 -0.00572 0.060541 0.171921 0.08167 0.063227 0.17709 0.151261 0.175613 -0.089399 -0.122637 0.233863 -0.389055 -0.536853 -0.399485 -0.459521 -0.031802 0.440793 -0.295026 0.126351 0.170907 0.174882 -0.21328 0.031843 -0.290494 0.2334 0.049422 -0.24619 -0.035924 0.186263 0.146669 -0.00801 0.106604 -0.076845 0.078427 -0.146212 -0.096341 -0.047826 -0.231445 0.011507 -0.088867 0.121938 -0.275767 -3.0E-5 -0.230758 0.052813 -0.136907 0.181917 -0.120095 0.068741 -0.006339 0.077928 0.073849 0.09109 -0.208424 -0.015401 0.220042 0.063005 0.360298 0.166021 -0.00562 -0.007935 -0.109565 -0.086166 -0.408519 -0.177329 -0.09296 -0.332045 0.090594 -0.361546 0.380669 0.020528 8.5E-4 0.045048 -0.422572 0.026882 -0.139247 -0.04525 0.10176 -0.330974 0.271321 0.168218 -0.370474 0.228634 -0.297279 -0.040896 -0.051591 -0.046907 0.189675 0.156186 0.144 -0.064852 -0.132565 0.040064 0.239894 -0.253433 0.011578 -0.058935 0.10735 0.040089 0.085705
gain -0.044152 0.122692 -0.302727 -0.136341 -0.343732 -0.041826 0.131875 -0.032691 -0.026703 0.341469 -0.211182 -0.336574 -0.364033 0.1323 0.042767 -0.205632 0.338591 -0.26909 0.050129 0.168767 -0.0991 0.006793 0.035745 0.039841 0.111453 0.022716 -0.109724 0.096171 0.220223 0.015541 -0.212104 0.13883 -0.074978 0.054223 -0.101088 -0.222741 -0.041206 0.086241 0.02688 -0.08216 -0.527096 0.293407 0.001814 0.089926 -0.019582 0.077317 -0.280306 -0.111184 0.220743 -0.055795 -0.044425 0.118406 -0.04542 0.158359 0.213872 -0.124454 -0.127573 -0.174906 -0.270684 0.342658 0.127081 -0.289108 -0.134298 -0.282225 -0.240934 -0.303583 0.040749 -0.071545 -0.251645 -0.109078 0.142952 -0.044867 0.261029 0.14217 0.063401 -0.039029 -0.337445 0.062965 0.036401 0.345116 0.059103 -0.092709 0.196803 -0.106673 -0.00274 0.084375 0.07184 -0.07641 0.097712 -0.064002 -0.451732 -0.200584 -0.120651 0.215346 0.0227 -0.144191 -0.043279 -0.038647 -0.08435 0.034069 -0.022581 -0.12387 0.032034 -0.098331 0.118016 -0.067506 -0.042479 0.041733 0.173434 0.075667 -0.237887 -0.142355 -0.138859 0.114633 0.069117 -2.9E-4 -0.155708 0.230754 -0.152866 -0.103548 0.007616 0.120336 0.127515 -0.188073 0.156472 0.079206 0.096697 0.298261 -0.178377 0.282453 0.136051 0.035516 -0.098864 0.028373 0.035284 -0.079725 -0.093442 -0.179999 -0.012781 0.035117 -0.054296 -0.169316 0.1442 -0.025632 -0.18696 -0.093084 -0.064979 -0.23925 -0.078784 -0.246512 0.024644 0.049022 -0.013776 -0.063773 0.236013 -0.037257 0.013381 -0.034674 0.15845 -0.060857 0.101469 0.00389 -0.0664 -0.147393 -0.225635 0.139732 -0.118006 -0.12975 0.207917 0.253637 -0.073332 0.04669 -0.127911 -0.052483 -0.191224 0.050954 -0.073922 -0.408975 0.253305 -0.077353 0.235803 0.003084 0.178051 -0.064683 0.003223 0.024689 -0.042977 -0.111508 0.275239 0.130686 -0.298124 -0.132893 -0.217471 0.147509 0.186784 -0.030854 0.065962 -0.001415 0.181637 -0.06356
history 0.06878 -0.113768 -0.044774 -0.28712 -0.044399 -0.185043 -0.01784 -0.198236 0.008686 0.01498 -0.164291 -0.107535 -0.019429 0.146621 -0.004206 -0.148247 -0.177538 -0.021337 -0.068061 -0.022916 -0.160041 -0.196488 0.009465 0.200387 0.155093 0.132993 0.18223 0.071728 0.063442 -0.294335 -0.080137 -0.127651 0.151129 -0.040181 0.157517 -0.053486 0.144523 0.178927 -0.20756 -0.107208 0.030407 0.103725 0.015073 -0.09608 -0.018016 -0.012126 -0.084438 0.069857 -0.199115 -0.188427 0.013132 0.007931 0.001446 0.048637 0.024839 0.072457 -0.084874 -0.274503 -0.134224 -0.032769 -0.153208 -0.103671 -0.008601 -0.103052 -0.064396 -0.174346 -0.082603 0.172851 0.073193 -0.222831 0.21788 0.029501 -0.200082 0.014525 0.125682 0.149298 -0.04725 0.012794 0.071751 -0.192927 -0.017126 0.008273 -0.115668 0.096536 0.114913 0.18631 0.327781 -0.08857 -0.106039 -0.108576 0.08892 0.020652 0.09513 -0.113776 -0.097215 -0.016209 -0.186783 0.034736 -0.016029 0.072782 0.055098 -0.018141 0.06417 0.034624 0.030553 -0.105099 0.045061 0.09869 0.078107 0.30406 0.026183 -0.245121 0.030871 -0.056566 -0.092621 -0.043372 0.020213 0.05096 -0.006441 -0.10105 0.161246 0.068678 -0.222519 -0.285081 -0.058624 -0.022403 0.175251 -0.140913 0.134952 0.196606 0.112285 0.034187 -0.112906 0.046157 0.145104 -0.077797 0.148179 -0.159646 -0.124131 0.106531 -0.110178 -0.015231 0.157211 0.026473 0.061803 -0.051247 0.119293 -0.003223 0.05709 0.014785 0.009749 -0.04165 0.019071 -0.195315 -0.223304 0.137245 -0.068808 0.067212 -0.245751 0.123203 -0.022004 -0.011744 0.043509 -0.192662 -0.180359 0.117886 0.114545 0.090266 0.114198 0.170323 0.144181 -0.24373 -0.010149 -0.111123 -0.11643 -0.111939 -0.002246 -0.111651 0.006807 0.21245 0.091427 -0.273336 -0.073777 0.072361 0.068816 0.027375 0.029957 0.060545 0.080667 0.234482 -0.132362 6.81E-4 -0.137803 0.158975 0.054486 0.02661 0.007933 -0.079195 0.334104 -0.148487
bird -0.10832 0.05507 0.156039 -0.074981 0.11958 0.016329 0.293494 -0.170387 -0.050872 -0.170002 -0.060999 0.09444 0.193769 0.013904 0.43652 0.109091 -0.062556 0.10526 -0.143112 -0.226682 0.289357 0.19408 -0.020398 -0.106253 0.232519 -0.159746 -0.155883 0.033202 -0.378045 0.069308 -0.406616 -0.452802 -0.281056 -0.162605 0.316221 0.191717 0.052864 0.139954 0.119187 -0.069912 -0.011252 -0.17281 -0.090822 -0.171876 -0.251138 -0.292305 -0.18319 -0.1296 0.162001 0.00872 0.17229 0.063156 0.199019 0.183329 -0.134793 -0.136869 -0.028949 -0.30649 0.305396 -0.329181 0.069291 -0.142759 0.323009 -0.093849 -0.270967 -0.089124 0.034873 -0.31365 -0.109142 0.370346 0.05112 -0.194188 0.336871 0.207584 -0.017249 -0.134154 -0.130235 -0.176954 -0.006014 -0.083581 -0.304194 -0.001516 0.18441 -0.070757 0.256801 0.158262 0.071385 0.013524 0.09382 -0.161643 -0.017993 -0.235046 0.011055 -0.085008 -0.114326 -0.164969 0.134173 0.235649 0.117739 -0.192441 0.066184 0.164781 -0.039001 0.02167 -0.157447 -0.13822 -0.050854 0.081164 -0.253085 0.282512 -0.1837 0.216541 -0.089336 -0.052628 -0.207418 -0.066995 -0.27122 -0.261005 0.27602 0.111004 0.185304 -0.047534 0.017873 -0.173153 -0.01823 -0.443951 -0.210361 -0.182201 0.22374 0.103761 -0.118146 -0.009751 0.059812 -0.145476 -0.30454 -0.024621 0.034703 -0.315162 -0.138255 -0.05499 0.049692 0.181913 0.073802 -0.0024 0.082401 0.142495 -0.057592 -0.137612 -0.09285 0.163248 -0.030567 -0.110206 0.017689 -0.288982 0.215941 0.239699 0.189142 -0.17941 0.155762 -0.067531 0.044199 0.022206 -0.262301 0.006153 -0.213444 -0.149077 0.107228 0.148559 -0.205088 0.017881 0.174388 0.126524 0.110166 0.250125 -0.081464 -0.20907 -0.208214 -0.037816 -0.078609 -0.158132 0.094616 -0.191074 -0.293204 0.092421 0.321258 0.108117 0.240295 0.049067 0.075335 0.306832 0.077593 -0.265112 -0.061369 -0.096565 -0.002979 -0.261292 0.3848 0.219634 0.21877 0.079128
possession 0.168043 -0.22033 -0.249651 0.074185 0.121501 0.042847 -0.196956 -0.026469 -0.267513 -0.003154 0.115515 -0.36936 -0.10341 -0.372336 0.13927 -0.194023 -0.224563 -0.15673 -0.282251 -0.162951 -0.119663 -0.356584 -0.180267 0.197668 -0.231435 0.078506 -0.452122 0.212003 -0.368531 -0.289979 -0.112633 0.183139 0.226305 0.171937 -0.501477 -0.022892 -0.3185 -0.270289 -0.234415 -0.057153 -0.100008 0.043137 0.009093 -0.05098 -0.022382 -0.07263 -0.071155 -0.617664 -0.405183 -0.039908 0.287955 -0.157401 -0.109957 -0.189481 0.282227 -0.057321 0.214832 -0.001691 -0.500013 0.027261 -0.459645 -0.055299 0.436568 -0.32705 -0.132552 0.03431 0.33159 0.140245 0.159607 -0.324924 -0.147997 -0.252179 0.401135 -0.055992 0.145301 -0.307244 -0.271926 -0.068182 0.037183 0.039092 -0.10004 0.068234 0.382415 -0.143341 0.14108 0.452854 -0.059881 -0.417896 -0.029628 0.250918 -0.220543 0.077302 -0.34421 -0.222854 -0.230203 0.011637 0.141817 -0.158255 0.033287 -0.07049 -0.17474 0.131781 -0.163779 -0.187955 0.012988 -0.204419 0.355906 0.204674 -0.215623 0.40235 -0.047658 -0.084096 0.069717 0.090111 0.092263 0.105088 -0.006885 0.032038 0.024253 -0.274942 0.153545 0.040281 0.043877 0.269277 0.214473 0.133914 0.064503 0.246081 -0.405653 0.418063 0.24833 -0.166209 -0.120043 -0.251067 -0.257436 -0.122281 0.165745 -0.026839 -0.009222 0.074852 -0.19748 -0.185574 0.17775 0.035328 0.136748 -0.035894 0.140158 -0.30865 0.010461 0.203311 -0.141756 -0.213231 -0.244289 -0.015675 -0.074464 0.007666 0.081629 0.262477 0.353459 0.006508 0.156937 0.25276 -0.16213 0.007958 -0.130779 -0.16225 0.185817 0.052026 -0.010596 0.240539 0.050069 0.051835 -0.002666 -0.298916 -0.017503 -0.300981 -0.071775 -0.216272 0.025325 -0.105591 0.005288 -0.583145 0.100494 -0.03168 0.185959 0.372825 0.38017 0.152185 0.317056 -0.206826 -0.023541 0.005826 -0.262018 0.368273 0.431886 -0.053681 -0.045078 0.108384 -0.232866 -0.120496
chemistry -0.158977 0.218461 0.021105 -0.515087 -0.154768 0.133681 -0.256372 0.013484 0.04345 0.04376 0.243908 0.052648 0.052217 0.25234 -0.066203 0.005234 -0.133623 0.120634 -0.191947 -0.117042 0.006637 -0.03956 0.147801 -0.335721 0.116976 -0.160424 0.203526 -0.004251 0.004772 -0.032826 -0.012432 -0.120344 0.182671 -0.153889 0.037269 -0.089085 0.057156 0.089549 -0.106307 -0.001319 0.013178 0.00548 -0.205557 -0.044867 -0.046935 0.175413 0.078513 0.080941 -0.02998 -0.153694 0.033385 0.04711 0.151253 0.093352 -0.08879 -0.182264 0.05861 -0.466808 -0.166678 -0.227606 0.218075 -0.037913 -0.166314 0.19666 -0.21268 -0.184486 0.206835 0.024022 0.018506 0.084797 0.607347 0.104292 -0.090258 0.160546 0.23938 0.192643 0.089984 -0.198567 -0.004738 0.039267 0.00125 -0.396087 -0.12367 -0.103551 -0.097051 0.318792 -0.203621 -0.178735 -0.249173 0.145712 -0.101639 0.044392 0.038188 0.047251 -0.07648 -0.229943 -0.015346 0.273261 0.010478 -0.376746 0.061639 0.0751 0.039448 0.203324 0.082256 0.047736 0.276967 0.23959 0.484857 0.005252 -0.236847 0.112054 -0.170092 0.203081 0.162724 0.032059 0.137209 -0.142927 0.217419 -0.053972 -0.119216 -0.294081 -0.218709 -0.451415 -0.028596 -0.00267 -0.03184 -0.110702 0.214268 0.108742 -0.129567 -0.071965 -0.048436 -0.023017 -0.310022 -0.132908 0.015199 -0.02498 -0.083974 0.027814 -0.011228 -0.115304 0.111188 0.053889 0.045024 0.205295 0.005021 0.103695 -0.060636 0.126886 -0.051457 -0.122228 0.005535 0.13089 0.016484 -0.023766 -0.094942 0.06797 -0.120605 0.19088 0.025125 -0.222874 0.199735 -0.050116 -0.131593 -0.13439 0.090609 -0.036214 -0.165198 0.146898 0.222517 -0.083208 -0.122235 -0.500398 -0.017577 0.024548 -0.14532 0.042031 0.060882 0.38941 -0.176589 -0.436295 -0.244843 0.354737 -0.100711 0.399302 0.126555 -0.169819 0.283299 0.305311 0.026478 0.167634 0.039142 0.37997 -0.127593 0.102654 -0.151922 0.425481 0.280133 -0.021296
yen -0.155164 0.158812 0.240516 0.026595 -0.420331 0.543348 0.209101 0.002238 0.269569 -0.175343 -0.181098 -0.560641 0.018928 0.224731 -0.139027 -0.061266 0.100916 -0.509312 -0.147325 -0.260708 -0.052591 0.92791 -0.146714 0.213326 -0.355015 -0.33193 0.256684 -0.27525 0.023015 -0.505766 0.72616 -0.020341 -0.431381 -0.435681 0.006211 0.444417 -0.23433 -0.27892 0.224955 -0.07863 -1.153265 -0.571248 -0.180542 0.038968 -0.033304 -0.737602 -0.034143 -0.107896 0.442126 0.140688 -0.383723 0.823124 -0.116025 0.169093 0.060407 -0.118434 0.453206 -0.418759 -0.348126 0.268836 -0.272983 -0.335884 -0.685464 -0.117155 -0.384274 -0.828847 -0.336087 0.055842 -0.026011 0.328919 0.002285 0.752889 0.663783 0.01322 -0.371145 -0.193437 -0.312512 -0.337624 -0.565199 0.389121 -0.492619 0.293696 0.220051 -0.155144 -0.094267 0.103837 -0.368851 0.206857 -0.343989 0.019746 -0.633606 -0.076848 -0.186509 0.071804 0.28136 0.308769 -0.083079 -0.420984 0.316806 -0.287582 -0.559812 0.045067 0.182906 -0.639166 -1.157629 -0.218928 0.456788 0.444016 -0.223943 -0.076127 -0.279651 -0.395527 -0.242124 0.09799 0.068081 0.245301 0.01003 -0.067413 -0.337824 0.321189 -0.106137 0.252788 0.471945 -0.12938 -0.486662 0.569906 0.530219 0.169246 0.441661 0.61581 0.633037 -0.360262 -0.053306 -0.132187 0.32449 -0.059223 -0.240632 0.519996 -0.176807 0.053198 -0.061408 -0.337581 0.344157 -0.219198 0.220491 0.271952 -0.267919 0.294224 -0.267288 0.076077 0.410658 0.293273 -7.66E-4 -0.603491 0.278259 -0.393075 -0.333813 -0.525158 -0.015598 0.616172 0.067816 0.482833 -0.346441 0.027664 0.230085 -0.079637 0.117534 -0.135094 -0.408432 0.036559 -0.026671 -0.556128 0.034101 0.791081 0.220564 -0.017164 -0.268574 -0.326337 0.229512 0.287668 -0.004165 -0.123221 0.561789 -0.098596 -0.442428 0.002974 -0.195912 0.093333 0.14731 0.014038 0.002686 -0.410802 -0.023455 -0.093094 0.038222 0.327089 -0.106674 -0.395202 0.079308 -0.145602
library -0.150968 0.080767 -0.062096 -0.180749 -0.036943 0.044988 0.043263 -0.264383 -0.051608 -0.146405 0.125865 -0.028317 -0.025599 0.250854 0.198797 0.054623 0.079691 0.023323 -0.060304 -0.010746 -0.114384 -0.111629 0.204584 -0.056014 -0.00647 -0.264137 0.016504 -0.014115 -0.185069 0.042408 -0.043602 -0.04912 0.124164 0.052585 0.131238 0.092842 -0.075768 0.117767 -0.102717 0.128536 -0.028398 0.190595 -0.164021 0.090496 0.209242 0.2027 -0.038895 -0.090255 0.002451 0.246979 -0.181716 -0.200756 0.141361 0.200035 0.040505 -0.115569 -0.282763 -0.064875 0.115414 -0.078193 0.086404 0.25413 0.160409 -0.040131 -0.142271 -0.080485 0.254574 0.180587 0.046077 -0.264214 0.193509 -0.085795 0.139277 -0.025648 -0.098134 0.046687 0.061827 0.088743 0.290958 0.160532 -0.229534 -0.224181 0.01854 0.100369 0.186353 0.176015 0.236256 -0.0335 -0.221377 0.063778 0.14426 0.003518 0.012254 -0.116514 -0.216075 0.2812 0.321636 0.044051 0.302372 -0.012003 0.088087 -0.052669 -0.108996 0.134944 -0.124676 -0.066378 0.037191 -0.043727 0.086324 0.058894 0.110166 -0.167858 -0.12617 0.020746 -0.097723 -0.322606 0.258763 0.059022 0.271198 0.002433 0.126389 0.158142 -0.182916 -0.070308 0.001341 -0.266465 0.189049 -0.062165 0.17032 0.163946 0.097943 0.064698 -0.044308 0.006657 -0.111713 0.093729 0.191495 -0.077049 0.106531 -0.093088 -0.030082 0.136413 0.215493 -0.052487 0.211869 -0.047042 0.145034 -0.121818 -0.023057 0.046959 0.01269 0.258824 -0.003266 -0.139183 -0.020423 -0.147181 -0.057237 -0.069865 0.240619 0.067275 -0.046874 -0.191527 -0.179285 -0.092754 -0.133496 0.087442 -0.08072 -0.162097 0.172744 0.033754 -0.152326 -0.315695 -0.090609 0.239617 0.075492 -0.278022 -0.20213 -0.138191 -0.052525 0.112612 0.091383 -0.089212 -0.136913 -0.139297 0.032388 0.068023 0.054856 -0.110461 0.232905 0.020234 0.223045 0.115231 -0.143786 0.27556 0.251667 -0.087831 -0.204374 0.265485 0.040907 -0.008831
virtuoso 0.099472 0.065809 -0.103896 0.220975 -0.222663 -0.273576 0.165896 0.020681 -0.12052 0.042331 0.189197 0.076682 -0.012031 -0.01915 -0.048193 0.070241 -0.074551 0.159309 0.255454 -0.447131 -0.128444 -0.116828 0.101398 0.148122 -0.131449 0.210242 -0.067551 -0.367063 -0.349933 -0.47136 -0.206579 -0.299732 0.14576 0.081842 -0.019052 0.098955 -0.031562 0.166558 -0.164228 -0.006246 0.020973 0.038305 -0.334872 0.02053 -0.071614 -0.028205 0.355205 0.174065 0.014517 0.040043 0.11137 -0.047322 -0.017081 -0.132386 0.031719 -0.189028 0.233519 -0.191889 0.028671 -0.004359 -0.082935 -0.203905 -0.068532 0.04145 -0.079708 0.03535 0.060428 0.012343 0.046795 -0.233469 0.300618 0.059889 -0.160817 0.254477 -0.49991 0.049077 0.25452 -0.137485 0.031411 -0.422816 -0.022125 0.062435 0.122743 -0.323199 0.248197 0.201842 0.291766 0.227483 -0.362051 0.216566 0.23671 -0.10603 0.109916 0.014655 -0.238662 -0.030073 -0.389337 -0.024976 0.004498 -0.303375 -0.090227 0.094239 0.09597 -0.245447 0.154087 0.079929 0.234884 0.119934 0.123597 0.061833 0.105514 -0.226036 -0.196998 -0.219116 -0.494343 0.208354 0.18163 -0.2952 0.224235 -0.075163 -0.036651 -0.053325 -0.070565 -0.037269 0.305517 -0.117632 -0.115872 0.19023 -0.014227 -0.007664 -0.068444 -0.066154 0.089058 0.212321 -0.008741 0.088226 -0.053196 -0.072695 -0.049022 -0.035255 0.24647 -0.512421 -0.092897 0.108017 0.126744 0.216902 -0.010544 -0.030971 0.219475 -0.076397 -0.124691 0.03213 0.069955 -0.079824 -0.205554 0.153948 0.083803 0.182697 0.086314 0.089046 -0.075114 -0.109053 -0.008494 -0.290129 -0.121314 -0.119901 0.050593 0.050636 -0.231787 0.199815 -0.095286 -0.01358 -0.083762 -0.229028 -0.195252 -0.114348 -0.194097 0.04099 -0.424834 0.360013 0.04675 -0.409638 0.108408 0.164524 -0.283353 -0.037259 -0.272342 0.312317 0.133267 0.110772 -0.190381 -0.079847 -0.139333 0.277282 -0.217844 0.162135 -0.115434 0.133253 -0.037289 0.170808
psychiatry 0.272238 0.218729 -0.210291 -0.656434 -0.499858 0.467576 0.098831 -0.019548 -0.28609 0.555155 0.065428 -0.053581 0.206679 0.463613 -0.493603 0.012053 -0.497507 0.064502 -0.083838 0.080182 -0.337658 -0.062903 -0.027996 0.032063 -0.49118 0.157712 0.412697 -0.03976 0.274604 0.370285 0.253618 -0.054553 0.549664 -0.252363 0.158287 -0.01484 0.251776 0.132052 -0.205646 0.149073 0.537385 -0.057982 -0.211243 -0.42105 -0.028812 0.200824 0.005312 -0.091471 0.019733 -0.221453 0.18818 -0.244308 0.084752 0.105671 -0.236923 -0.159335 -0.558741 -0.182888 -0.484347 -0.644091 -0.215305 0.233602 0.074443 0.365365 0.009269 -0.297109 0.322376 -0.132399 0.226688 -0.118387 0.519743 0.349057 0.261892 0.349073 0.312712 0.269604 -0.355744 -0.563037 0.239501 -0.101962 -0.07932 -0.630563 0.046866 0.020094 0.200418 0.300081 0.163373 -0.288003 -0.07366 0.239781 -0.007112 0.373714 0.207343 0.072574 0.193552 -0.29495 0.04427 0.497331 0.135118 0.100966 -0.405252 0.019718 -0.258804 -0.233486 -0.440398 -0.476207 0.303136 0.016298 0.72262 0.151578 0.069971 0.172167 -0.178613 0.32854 0.512958 -0.01528 0.350815 -0.167105 0.315607 -0.287195 -0.039547 -0.598337 -0.573701 -0.510646 0.057896 0.3001 -0.111439 -0.630813 0.360572 0.507613 -0.536483 -0.151157 0.332487 -0.105783 -0.206882 -0.513302 0.031318 -0.035152 -0.067792 -0.170556 -0.256386 -0.066671 0.06076 0.160441 0.383635 -0.213943 0.213216 -0.533406 0.387009 -0.260225 -0.347455 0.423901 0.406242 0.360073 -0.154839 -0.209001 0.046941 -0.145866 0.024539 0.364784 -0.085811 0.227616 0.37256 -0.256543 -0.397551 -0.450848 0.638957 0.119593 -0.115352 -0.127342 -0.12153 0.0501 -0.165227 -0.108367 -0.279298 -0.181124 -0.561553 -0.205725 -0.219741 0.041724 -0.080229 -0.337605 -0.022425 0.712213 -0.377149 0.138874 0.025035 -0.122711 0.232306 0.386363 -0.313839 -0.042507 0.122904 0.351998 -0.466017 -0.248345 -0.348949 0.258234 -0.065529 -0.188938
