437 200
president -0.12166 0.332914 0.026559 -0.17819 0.157613 0.194295 -0.083231 -0.086482 -0.127127 0.135114 0.084348 -0.198568 0.125905 -0.064547 0.080192 -0.324577 -0.122313 0.057575 0.219732 -0.011464 0.112764 -0.077548 0.286876 0.119625 -0.057315 -0.162087 -0.52 0.006179 -0.185242 0.062584 0.198221 -0.171881 -0.309977 -0.149827 0.085932 0.043497 0.074506 -0.300492 -0.085267 -0.126018 -0.184729 -0.196207 -0.174434 -0.391736 -0.116983 0.219014 -0.082938 -0.174688 -0.364794 -0.032986 -0.274015 0.442551 0.086806 0.180209 -0.029852 0.227683 0.317097 -0.072647 0.073535 -0.007832 0.035028 -0.16324 0.002184 -0.004073 0.038083 0.184323 0.337597 -0.063915 0.191693 0.00958 0.170626 0.204668 -0.117346 -0.066956 0.249558 0.416083 -0.152705 -0.189867 0.050966 -0.14141 0.021909 -0.212911 -0.028104 0.175829 -0.101002 -0.078861 -0.035843 -0.116847 0.138157 -0.037739 -0.492588 0.262149 -0.137567 -0.089947 0.15536 -0.357927 -0.231537 -0.137894 -0.28926 -0.299799 -0.223404 0.200017 -0.021321 0.003731 0.017514 0.10631 0.004968 0.016077 -0.229417 0.020708 -0.185494 -0.1171 0.112881 0.153283 0.027503 -0.088314 -0.076328 0.056703 0.057064 -0.157399 -0.545125 0.055171 -0.120328 -0.026251 -0.199332 -0.028532 0.130781 0.194866 -0.179338 -0.110327 0.234052 -0.354481 0.047848 0.321908 -0.027012 0.005389 0.159316 -0.081123 -0.180411 0.177321 0.155528 0.223469 -0.140454 -0.122349 0.232786 -0.342498 0.100282 0.031785 -0.039769 -0.109022 -0.166192 -0.325499 0.119771 0.129197 0.307769 0.131124 0.207744 -0.009847 0.012174 0.343453 -0.060616 -0.16829 0.022801 0.10672 -0.144015 0.475459 0.251285 -0.244017 -0.102299 0.310784 -0.130252 -0.331074 0.067921 -0.018739 0.028129 -0.053246 0.065881 1.2E-5 -0.167928 0.003144 -0.139663 -0.467469 -0.10615 -0.043921 0.131868 0.09173 -0.234255 -0.057242 0.230433 -0.129674 0.292938 0.240925 -0.194436 -0.008361 0.042411 -0.075484 -0.186548 -0.261912 -0.131154 0.150525
monk -0.022222 0.401092 0.367182 -0.195269 -0.242878 -0.710976 -0.207335 -0.063569 0.083499 0.618359 -0.112309 -0.050374 0.020216 -0.241875 -0.046474 0.114803 0.052298 0.194694 0.009751 0.220874 0.027628 0.17453 -0.396733 0.165479 -0.02551 -0.35379 0.03255 0.04439 0.123994 0.529229 -0.346626 0.19808 0.493598 -0.441772 -0.267338 0.059481 0.107281 0.290967 0.262168 -0.439386 -0.394676 -0.417847 0.082298 -0.325152 -0.266666 -0.195256 -0.440869 0.047123 -0.107317 0.71606 0.182368 0.186161 -0.142385 0.125802 -0.360714 0.246017 -0.037528 -0.257608 0.301999 0.218905 -0.262115 0.104918 -0.385237 -0.024267 0.157602 0.335118 -0.397995 -0.184678 -0.197324 -0.178743 -0.104031 0.151813 0.110536 0.123356 0.144933 0.160965 -0.127833 0.347241 -0.262698 0.037553 -0.218173 -0.38911 0.005651 0.014107 0.025289 -0.248932 0.316555 -0.030395 -0.026417 0.095274 0.175447 -0.145631 0.255245 -0.082782 -0.399391 -0.052949 -0.159141 0.150388 -0.377527 -0.069994 0.03004 -0.262639 -0.499127 -0.270661 0.024375 0.243063 -0.38397 -0.091732 0.054149 0.12802 -0.327187 0.202375 0.145133 0.21263 -0.065514 0.016557 0.136971 0.023963 -0.038758 -0.106211 0.001614 -0.385275 0.076778 -0.350862 -0.003599 0.312384 -0.019261 0.030404 -0.128581 -0.209444 0.487301 -0.3925 0.00834 -0.201152 -0.418665 -0.280756 0.41049 -0.137744 -0.034572 -0.169941 -0.185848 0.107017 -0.108856 -0.192059 0.039042 0.245835 0.089513 0.170369 -0.149934 -0.191127 0.125545 -0.025521 -0.164843 -0.081331 0.190895 -4.27E-4 0.385064 0.071379 -0.072888 0.060888 -0.155869 0.042711 -0.08116 0.274293 0.191681 -0.062315 -0.020678 -0.196368 -0.184327 -0.060018 0.032934 -0.082421 0.071107 -0.288379 -0.207147 0.097298 0.297173 0.321532 0.490758 -0.385987 0.03931 -0.115611 0.036286 -0.242482 0.210964 -0.318379 -0.131755 -0.224367 0.280822 -0.290365 0.278965 0.089077 -0.268425 0.003131 0.034523 0.007759 -0.061524 0.050907 -0.354841 0.094635
chance -0.139103 0.316177 0.383338 -0.241564 -0.104108 0.032682 0.112367 0.215402 0.201133 -0.232901 0.116145 -0.142836 -0.211228 -0.098329 -0.102697 -0.290848 -0.118691 0.067257 0.07108 -0.028055 -0.19173 0.021542 0.070409 0.4355 -0.244096 -0.06405 -0.276144 0.116843 0.184275 -0.195037 0.054553 -0.217135 -0.061313 -0.071176 0.237456 -0.156339 0.263204 0.144806 0.032911 -0.261863 -0.013767 -0.171792 -0.120931 0.219674 -0.03227 0.140492 0.270799 -0.17043 0.124371 0.227434 0.013392 0.026243 0.005266 0.04082 0.010728 0.090905 0.054196 -0.302629 -0.111377 0.285522 -0.480303 0.277326 -0.138545 0.054036 0.239838 -0.130749 -0.174184 0.00104 -0.054894 -0.03905 -0.058129 -0.046113 -0.173462 0.005144 -0.101933 0.205804 -0.257369 0.235814 -0.150458 -0.272433 0.458271 0.147394 -0.30448 -0.253676 0.158281 0.135671 0.166248 -0.045493 -0.174658 0.294282 -0.090907 0.068733 -0.154239 -0.222214 -0.182827 -0.407477 -0.05513 -0.213863 -0.077306 -0.061514 -0.131531 0.098336 0.309497 0.100986 0.278715 0.139117 -0.053706 0.120243 -0.125868 0.17491 -0.298033 -0.292686 0.033501 0.008104 -0.00198 0.01994 0.067454 0.229092 -0.322653 -0.245703 -0.33611 -0.199831 0.212842 0.144235 -0.017494 0.220611 -0.027665 0.032331 0.129547 -0.011125 -0.089265 0.16972 -0.017722 0.056667 0.188786 -0.010649 -0.008996 0.034351 -0.031076 0.10903 0.11439 -0.008131 -0.176235 0.109355 -0.026394 0.077972 -0.005235 0.25975 0.267843 0.320119 0.048961 0.331411 0.174913 -0.098641 -0.074023 0.313276 -0.093812 -0.089727 -0.205732 0.188179 -0.131538 -0.266494 0.029921 0.363289 0.057299 0.182183 0.079914 -0.18394 0.049715 0.008266 -0.184347 0.336745 0.082936 0.127288 -0.167899 -0.074872 0.246032 0.190215 -0.299261 -0.058151 -0.229658 0.304117 0.040763 0.219784 -0.064025 -0.161964 -0.257368 -0.022027 -0.116117 0.003538 0.064735 0.133007 0.138278 0.218445 -0.150409 -0.155268 0.209105 0.205981 0.135619 -0.198189
party 0.060354 0.267184 0.051225 0.007491 -0.034403 0.110214 -0.385032 0.021214 0.008769 0.090407 0.215843 0.217279 -0.055611 -0.452995 -0.271702 -0.127449 0.075397 0.120084 0.087722 0.365966 0.363719 -0.08756 0.082814 0.145408 0.131276 -0.119303 -0.037306 -0.04757 0.219215 0.156439 -0.356429 0.031345 -0.098123 0.026137 0.168965 -0.004987 0.023431 -0.088759 0.026963 -0.088494 -0.235135 0.127049 -0.023162 -0.286761 -0.135509 -0.405787 0.260109 -0.283426 0.056641 -0.267593 -0.027913 0.109355 0.028952 -0.02775 -0.161521 0.026726 -0.057016 -0.123168 0.130832 0.096757 0.025093 -0.116002 0.217468 -0.348551 0.257106 0.032469 -0.047906 0.048213 0.211364 -0.203059 0.132601 0.09589 -0.063035 0.203263 -0.082927 -0.047594 -0.034154 -0.158583 -0.168341 -0.219268 -0.018538 -0.160156 0.115592 0.238815 0.241119 0.445495 0.147925 0.066631 -0.05272 -0.025182 0.107016 -0.064836 -0.288827 -0.030726 -0.255448 -0.041468 -0.368788 -0.037388 -0.075108 -0.195557 0.165367 0.028632 0.20267 0.056633 0.237796 0.404759 0.1006 -0.113868 -0.177318 0.122321 -0.167571 -0.208337 0.116904 0.151833 -0.078646 -0.051769 -0.006869 -0.022565 -0.12872 -0.417223 0.12318 0.076446 0.063931 0.271311 -0.233453 0.188631 0.284847 0.211693 -0.199732 -0.127059 0.149023 0.177074 0.034456 -0.27282 0.120628 -0.152343 0.13603 -0.086202 0.169877 0.141338 -0.294076 0.154073 -0.257848 -0.234014 -0.171486 -0.19827 0.040444 -0.031566 -0.064159 0.023854 0.175387 -0.09531 -0.132273 0.117284 0.065462 -0.182933 0.121979 0.048805 -0.324738 0.255044 -0.153876 -0.053107 -0.300246 -0.207437 -0.054376 -0.296842 0.157825 -0.331054 0.045019 0.332929 -0.109279 0.150846 0.012382 -0.093083 0.031915 -0.079257 0.057054 -0.014257 -0.246275 -0.108614 0.008386 0.148687 -0.116209 0.228723 0.179312 -0.212365 -0.222469 -0.188551 0.156682 -0.185768 0.320477 -0.05997 0.058467 0.013647 0.168226 -0.215737 -0.156946 0.032033 -0.246044 0.084711
fuck -0.074261 0.235607 -0.54091 -0.237483 -0.274927 0.03725 0.256773 0.445479 -0.07053 -0.255471 -0.142643 -0.402282 -0.436875 -0.180055 0.086048 0.083341 0.285186 -0.098977 -0.18732 -0.287458 0.380681 -0.227911 -0.075353 -0.014569 0.339987 -0.032125 0.142033 -0.417053 -0.265203 0.319874 0.113978 -0.27339 -0.271772 0.422871 0.353616 0.406917 0.441369 0.180852 0.445986 -0.414903 0.188311 0.234081 0.577839 -0.189282 -0.326191 0.078815 -0.505374 -0.394937 -0.068094 0.181321 0.573491 -0.33715 -0.010074 -0.024129 0.047871 0.554727 -0.107368 0.070647 -0.091083 0.141191 0.42973 0.26872 -0.466644 0.175361 -0.065325 0.405409 0.053708 -0.180821 0.100307 0.094152 -0.371896 -0.367428 -0.42329 0.352101 -0.081781 0.279682 -0.214095 0.155715 -0.345807 0.248618 -0.122793 -0.108898 -0.444298 -0.42524 0.606351 -0.066674 0.312618 -0.190038 -0.57206 0.523394 0.206518 0.432084 0.403053 0.078206 0.351943 0.347236 -0.012601 0.387027 -0.055306 -0.143699 -0.136626 -0.349078 -0.443015 -0.321674 0.558452 -0.228253 -0.218317 0.138407 0.417005 0.337421 0.39017 -0.115955 -0.154451 -0.451645 0.102182 0.092834 -0.240555 0.097625 0.181348 0.360873 -0.031654 -0.169502 -0.351084 0.222416 -0.135305 -0.212631 -0.240507 -0.222162 -0.404667 0.205303 0.112963 -0.531992 -0.172336 0.394673 0.199898 -3.44E-4 0.112572 -0.209794 0.100523 0.342852 -0.03283 0.135814 0.269102 -0.574939 0.141112 0.190322 -0.263997 0.041612 -0.20241 -0.142313 -0.234304 -0.203534 0.372567 0.166565 0.147791 -0.011161 0.298675 0.253286 -0.184275 -0.095232 0.560906 -0.155008 0.151256 -0.246394 -0.122117 -0.330078 -0.167249 0.004063 0.563174 0.239849 -0.176344 0.422635 0.363745 -0.101577 -0.193052 -0.289127 0.375383 -0.282967 0.375677 0.167802 -0.26656 -0.20249 -0.109926 -0.078587 -0.276911 0.108273 -0.42189 -0.137692 -0.371932 0.124918 -0.234471 -0.249875 -0.217973 -0.016832 -0.618945 0.085355 -0.031721 0.16363 -0.183585 -0.26481
psychology 0.430065 -0.491691 0.061948 -0.164644 0.199849 -0.189124 -0.341131 -0.157028 -0.425242 0.064722 -0.162099 -0.135281 -0.005093 0.083579 -0.092045 0.476568 0.184697 -0.299487 -0.033948 0.389396 -0.319089 0.439018 -0.064129 0.017182 0.027563 0.136613 0.159407 0.057656 0.219709 -0.41576 -0.197087 -0.070549 -0.055839 -0.1012 0.235034 -0.08726 -0.12834 -0.543469 -0.003013 0.04195 0.255114 0.377712 -0.23008 -0.149692 -0.162304 -0.110856 -0.222797 -0.281563 -0.375198 0.230132 0.521761 0.15334 0.309802 0.152721 -0.373068 0.033266 0.293945 -0.235917 0.056699 -0.178669 -0.396209 0.328301 0.134616 0.129664 0.025663 0.297331 0.244785 0.291049 -0.048059 -0.259811 0.020727 0.133223 0.376475 0.405444 0.250802 0.179311 -0.563795 -0.112163 -0.125707 -0.116036 0.105065 -0.01219 -0.062669 -0.188023 -0.532903 -0.37395 -0.015081 -0.174266 0.365531 0.001496 0.234632 -0.469737 -0.197543 -0.413232 -0.015166 -0.067865 -0.044748 0.171554 0.02637 -0.101685 0.272037 0.033908 0.005763 0.087811 0.072429 -0.428846 -0.036548 0.178856 0.14298 -0.35704 -0.386193 -0.139879 0.395932 -0.0234 -0.30018 -0.242529 0.2048 0.469551 0.124085 -0.267374 0.310032 -0.343618 -0.222473 0.025718 -0.097323 0.178157 0.039672 -0.141923 -0.079709 -0.106609 0.080369 0.216811 -0.12965 0.180575 0.326457 0.110897 0.229425 -0.541858 -0.110259 -0.419839 0.352829 0.320768 0.033067 0.122114 -0.346495 -0.107445 -0.203189 -0.283087 -0.237196 0.170891 -0.032892 0.146975 -0.226184 0.306389 0.5462 0.525903 -0.057902 0.292719 -0.018709 -0.038302 0.060465 -0.468025 -0.161856 0.539681 -0.125877 0.386604 -0.240222 0.028119 0.043368 -0.237032 -0.031363 0.127621 0.178084 -0.282225 0.316702 -0.397859 0.314788 -0.093649 0.193127 0.008244 -0.301094 -0.139596 -0.149603 -0.355966 0.646952 0.24156 -0.042899 -0.47655 0.346953 -0.063961 0.147391 0.206189 -0.042613 0.121337 -0.158325 -0.147467 0.13285 -0.243663 0.417277 -0.180144
government 0.071729 0.157713 0.070682 -0.019862 0.058812 -0.047629 -0.177877 -0.137041 0.146002 0.092303 -0.146507 0.14857 0.037914 -0.062054 -0.139803 0.166013 -0.219261 0.057768 0.056748 0.091062 0.207418 0.042178 0.143587 -0.164707 0.03223 -0.113605 0.160227 -0.122292 -0.092897 0.317698 -0.129694 -0.198847 0.05126 0.029361 -0.1045 -0.179411 0.013448 -0.087932 0.131299 0.119538 -0.253564 0.046851 -0.097031 -0.337778 0.007778 -0.028442 0.333061 -0.058124 -0.285911 -0.003678 -0.160896 -0.187399 0.109263 -0.049438 -0.100941 0.303277 -0.022199 0.217866 0.037637 -0.240562 0.201864 0.141851 -0.17258 0.001531 -0.042909 0.324236 0.223899 -0.074221 0.114524 -0.111816 -0.203779 -5.56E-4 9.49E-4 0.064272 -0.138968 0.319295 0.06201 -0.199139 -0.045103 -0.398784 0.018883 -0.162062 -0.096735 0.146943 0.219521 0.200112 -0.10443 -0.082885 0.118705 0.302408 0.223971 0.204992 -0.246011 -0.084553 0.136903 0.151063 -0.135692 -0.237604 -0.02402 -0.240199 -0.062761 0.348348 0.109942 0.077061 0.087976 0.270381 -0.036612 -0.077313 -0.00608 0.330057 -0.059785 -0.099797 -0.157146 0.043588 0.147408 0.039936 0.150335 -0.207374 0.017395 0.039849 -0.132257 0.035891 0.070067 0.110729 -0.053438 0.127416 0.058813 0.243841 -0.208055 -0.048359 0.286118 -0.264218 0.049365 -0.013238 0.036302 -0.291121 0.114033 -0.206061 -0.192565 0.149269 -0.144185 0.288981 -0.255237 0.026664 -0.12128 -0.214725 -0.178191 0.225598 0.114523 0.173723 0.192164 0.046034 -0.039162 0.135725 0.353373 -0.328274 0.117844 -0.24889 -0.209724 0.487858 0.028616 -0.071175 -0.075206 -0.073801 -0.090924 0.182272 -0.138134 0.057894 -0.235161 0.198244 -0.245225 -0.033849 -0.090185 0.056481 0.099957 -0.20572 0.006836 -0.084422 0.014828 -0.095649 -0.258848 -0.056859 -0.101208 0.228989 0.218327 -0.149399 -0.126484 -0.020348 0.084376 -0.03197 0.051471 0.021652 0.109587 -0.068035 0.327533 -0.163618 -0.023082 -0.191033 -0.123822 -0.063726
madhouse 0.118416 0.001689 0.026027 -0.051616 0.198834 -0.029369 -0.201682 -0.274452 -0.10956 -0.024297 -0.102907 0.060667 -0.086085 0.191378 0.104111 -0.161242 0.230039 -0.321509 0.127311 -0.099161 -0.031886 -0.059051 -0.065911 0.044111 -0.152361 -0.320749 -0.02912 0.011755 0.048276 0.019823 -0.075296 -0.055235 0.123214 -0.222964 0.167639 0.214972 0.197161 -0.148208 -0.090243 -0.336992 -0.1868 0.144289 -0.011235 0.136918 -0.22531 -0.032897 -0.019866 0.119106 0.075091 0.413166 0.453804 0.227894 0.082964 -0.18292 -0.282059 0.065337 -0.0845 -0.151444 0.09751 -0.033741 -0.010735 -0.184845 0.088996 0.142312 -0.018286 0.206676 0.054858 0.29446 0.168883 -0.19855 0.01431 0.024778 0.030974 0.486471 0.234443 0.047473 -0.251315 -0.266121 0.353636 -0.156217 0.11873 0.077881 0.025199 0.03651 -0.033536 -0.240895 0.291653 0.02746 -0.10227 0.372604 0.03034 -0.066111 -0.013546 -0.047362 -0.111611 0.166861 0.025804 -0.113013 0.121419 0.280737 0.273474 -0.078225 0.016201 -0.109647 0.313454 0.172994 -0.147847 0.060387 0.271873 0.111378 -0.170014 -0.044553 0.039408 0.116198 -0.397442 0.098781 -0.114157 0.360205 0.33923 0.076326 -0.058666 -0.066296 -0.243882 0.113268 0.276535 -0.031032 0.038966 0.080476 0.086921 0.215527 0.077364 -0.220686 0.186922 0.104357 0.020815 -0.224815 -0.040586 0.099499 0.222007 -0.23388 0.218699 0.183063 -0.345806 -0.228789 0.052239 0.016879 0.041172 -0.002834 -0.115511 -0.269108 0.123011 0.249892 0.050325 0.115048 -0.010613 0.093721 0.106723 -0.054049 -0.135363 0.001383 0.008468 -0.103099 -0.209533 0.169913 -0.185457 0.01193 -0.01272 0.042103 -0.014488 0.114233 -0.016613 0.18191 0.08005 -0.109753 0.040752 0.127963 0.408857 -0.025324 -0.026363 -0.076832 0.051643 0.175245 -0.035924 0.032279 -0.009233 -0.353501 -0.135088 -0.518244 0.173681 -0.7451 -0.061011 0.112939 0.008064 -0.149222 0.05283 0.39233 -0.112682 0.314703 0.09716 -0.165445
video 0.185418 0.182782 0.131907 -0.275593 -0.144727 0.129773 0.114821 0.093491 -0.03589 0.251426 0.052049 0.015488 0.108653 0.012415 -0.323208 -0.256276 0.318207 -0.217933 0.293224 -0.244117 0.043396 -0.01471 0.01137 -0.096028 -0.106771 -0.042909 -0.121621 -0.283119 -0.423862 0.234499 -0.044747 0.026661 0.022439 -0.102447 -0.107615 0.127343 0.175268 -0.195461 -0.11025 -0.009825 -0.125169 -0.101443 0.168302 -0.014446 -0.116506 0.167846 -0.101083 -0.024032 0.222685 0.606236 0.129808 -0.176377 -0.08441 -0.107686 0.171147 -0.023709 0.065525 0.111422 0.011975 -0.402053 -0.285434 -0.366647 -0.047824 0.166143 0.078032 0.20411 -0.013003 -0.098901 0.188272 -0.039835 -0.156665 -0.023815 0.232104 -0.144303 -0.347364 -0.239282 0.270602 -0.258985 0.353525 -0.010268 0.097282 -0.085439 0.204201 -0.151892 0.104227 -0.169672 0.16231 -0.221591 -0.13762 0.266038 0.088868 0.431702 0.018051 -0.29615 -0.207371 -0.308077 -0.114074 -0.275197 -0.011901 -0.012256 0.098404 0.291036 -0.129219 -0.064972 -0.233886 -0.280171 -0.02117 -0.231536 -0.322867 -0.051044 -0.124202 0.096417 0.302263 0.044967 -0.13881 -0.216251 0.098183 -0.026678 -0.094592 -0.29619 0.021331 -0.041149 0.087472 0.101308 0.477267 0.164931 0.004727 -9.94E-4 -0.210966 0.161808 0.224228 -0.097582 -0.089892 -0.216891 -0.14033 -0.086798 -0.151967 -0.12791 0.025392 -0.271799 0.088312 -0.256371 0.264895 -0.204646 -0.20899 0.119027 -0.008632 0.029226 0.054439 0.105723 0.437816 -0.111582 -0.325531 0.189476 0.299535 0.186278 0.321356 -0.082715 -0.202526 -0.223013 0.093951 0.02429 0.180992 -0.031152 -0.306006 0.06063 0.026766 -0.03151 0.135256 -0.322153 -0.162441 -0.030149 -0.165728 -0.297626 0.196336 0.083137 -0.030839 0.286437 -0.090825 -0.077726 -0.236754 0.373922 -0.366395 -0.262636 -0.170963 -0.173954 0.251908 -0.21927 -0.174572 0.003344 -0.14466 0.09154 0.067892 0.020414 -0.0702 -0.4344 0.216343 0.072348 0.203311 0.017516
defeating -0.11493 0.351729 0.185569 0.184496 0.007913 0.163111 -0.184597 -0.090729 -0.228108 -0.211001 0.0922 0.311845 0.067893 -0.136946 -0.14465 0.204389 -0.102887 -0.319734 0.49904 0.199685 -0.201162 -0.059856 -0.013949 -0.059863 -0.158848 0.326248 -0.13993 -0.062365 -0.041215 -0.205517 -0.204994 0.088407 -0.015498 -0.034229 0.258819 -0.047066 0.087521 -0.176931 -0.219002 -0.350236 -0.178108 -0.062322 0.304683 -0.088478 0.164844 -0.39841 -0.164332 -0.112557 0.015076 -0.054881 -0.294328 0.39373 0.38036 -0.123639 -0.361892 -0.102095 -0.200841 -0.071171 -0.145802 0.298148 -0.300052 -0.093944 -0.009642 0.084633 -0.1601 -0.167452 0.209008 0.250108 0.046876 0.285363 -0.054277 0.146883 0.172757 0.046868 0.555421 0.028234 -0.124048 0.146837 0.172265 -0.036772 -0.325485 0.037626 -0.095077 -0.070676 -0.19091 0.062188 0.155587 -0.364654 0.261332 -0.048487 0.062163 0.153605 0.192538 -0.110186 -0.059044 -0.03407 -0.173112 -0.105284 -0.160657 0.169986 -0.034106 0.260211 -0.504929 -0.014014 0.086254 0.20227 0.074311 0.220939 -0.519849 0.169371 -0.32824 -0.166265 0.052979 0.109139 -0.421398 0.21797 -0.023274 0.177968 -0.190351 0.222453 -0.033469 0.214878 0.228026 0.101822 -0.131819 -0.450612 0.177128 0.406951 0.573475 0.224878 0.33666 0.137133 -0.303723 0.384558 -0.183342 -0.251955 0.060729 -0.100657 -0.042545 -0.141572 -0.175266 0.282257 0.548978 -0.043117 0.152234 -0.026974 0.106007 0.114985 0.269373 0.249211 0.037607 0.126749 0.148567 0.036698 0.188556 0.234761 0.030014 0.131696 -0.229407 -0.040984 -0.091779 -0.041928 0.010459 -0.470611 -0.050526 -0.243224 0.025097 -0.304528 -0.030255 0.386545 0.14975 -0.129626 -0.109833 0.062958 -0.064236 0.029725 -0.146227 -0.077425 -0.302427 0.215422 -0.460791 -0.309936 0.068947 0.469895 -0.281406 0.045662 -0.020261 -0.230737 0.15702 0.113838 0.038718 0.166992 0.184867 0.202168 0.027283 0.022722 0.120705 -0.327563 0.033622 0.376466
death 0.014876 0.016405 0.200008 0.084801 0.032309 -0.011438 -0.169991 0.205706 0.080618 0.219935 0.229205 -0.026724 -0.058889 -0.067739 0.039988 -0.244276 0.002323 0.063833 0.25887 0.02042 0.001295 -0.244113 -0.042571 -0.340054 -0.232184 -0.158049 -0.179533 -0.03632 0.369993 0.034053 0.203673 0.036757 0.083747 -0.228151 0.008307 0.596382 -0.094766 -0.391641 0.054754 0.030803 0.237844 -0.346681 -0.012546 0.164949 0.110745 -0.123022 -0.121271 -0.095383 0.315297 0.257609 0.034827 0.027978 0.151504 -0.094564 -0.299943 -0.043152 0.287292 0.009969 0.185818 -0.015756 0.336246 0.219279 -0.180563 0.18419 -0.036143 0.237833 -0.159168 -0.182245 -0.034331 0.06809 -0.109414 -0.246246 0.177638 0.035253 -0.144404 -0.066348 -0.309377 0.317221 0.156322 -0.311026 0.063429 -0.142852 0.270049 0.02259 -0.019337 -0.036073 0.04563 0.316364 -0.3769 0.227036 -0.163713 0.077837 -0.160513 0.121401 -0.061934 0.122559 0.29577 0.005037 0.113163 -0.197813 0.046476 -0.182435 -0.275989 -0.302244 0.155942 0.282467 0.456877 -0.415814 0.131041 0.245789 -0.691381 0.047476 -0.014436 0.04473 0.129882 -0.11688 -0.253975 -0.104974 0.231401 -0.574291 -0.170338 -0.285421 0.257358 0.043636 -0.084224 0.203315 0.068454 0.153941 -0.016369 0.047895 0.228923 0.049285 -0.217671 0.48501 0.279335 -0.281229 0.026465 -0.147091 -0.007514 0.09281 -0.0572 0.214573 -0.014337 0.054176 -0.101673 0.19572 -0.172754 -0.028053 -0.131618 0.326498 -0.069824 0.350949 -0.096056 -0.146437 -0.184774 0.038895 0.267559 0.167316 -0.117334 0.344677 0.064071 -0.114819 -0.431783 -0.07506 -0.026425 0.205276 0.010386 -0.09935 -0.193217 -0.075343 0.188978 0.07201 -0.014739 -0.043782 -0.031252 0.061441 0.026803 0.016643 0.232605 -0.11098 0.058033 0.003852 -0.588136 0.240641 0.008319 -0.105634 -0.083271 0.206653 -0.455425 0.38426 0.212981 -0.171336 -0.223569 0.180354 -0.143286 -0.107737 0.033292 -0.027514 -0.082843 0.107206
image 0.04132 0.220273 -0.092311 0.109509 -0.099093 0.020154 -0.033445 0.025132 0.027875 0.032619 0.117881 0.004761 -0.067372 -0.389435 -0.133245 -0.336678 -0.092826 -0.119135 0.18513 -0.140121 0.049768 0.050931 0.079084 0.20521 0.099807 -0.185857 -0.162339 -0.290523 -0.089706 -0.014645 0.038657 0.116528 -0.085039 -0.120875 5.62E-4 0.191484 -0.161592 -0.053373 0.169334 -0.120146 -0.167204 0.09046 0.205986 0.029755 0.020571 -0.039882 -0.061677 -0.053193 -0.098002 0.201946 0.15029 0.061011 -0.143491 0.020698 0.212894 -0.237063 0.123148 0.001644 0.041981 -0.484376 0.046355 0.068039 0.058843 -0.083787 0.009761 0.062142 0.021229 0.112184 0.092119 -0.069177 0.124956 0.080418 0.02164 0.188228 0.01665 0.137967 0.12244 0.191693 0.184649 -0.144382 0.180351 -0.045665 -0.026569 -0.137617 0.166258 0.154234 -0.096563 -0.085111 -0.224272 -0.037255 -0.048876 0.169585 0.043253 -0.026224 -0.349089 -0.302951 -0.189959 -0.332192 0.148519 -0.325987 0.073204 0.052469 -0.052828 -0.417313 -0.12567 -0.089053 -0.114267 -0.096601 -0.180928 -0.039315 -0.298362 0.185023 -0.023213 0.017935 -0.240368 0.030622 -0.117516 0.109279 0.229221 -0.234301 -0.004788 -0.036584 -0.097023 0.20399 0.426431 0.228663 0.0732 0.071322 -0.260326 5.17E-4 0.229534 0.033975 -0.033991 0.069173 0.086061 -0.082723 0.088924 0.118193 0.027706 0.030055 0.088511 -0.007521 0.010784 0.275118 -0.119677 0.008836 -0.147381 -0.01545 0.080908 -0.027331 0.422881 0.111024 -0.053961 0.061665 0.273593 0.221513 -0.050486 0.012288 0.047839 0.077718 -0.057196 -0.175972 -0.088647 -0.114632 -0.109406 0.142226 0.317783 -0.01195 0.108572 -0.075556 0.080298 -0.086863 -0.124196 -0.151033 -0.110933 -0.127795 0.16429 0.111013 0.023811 -0.061824 -0.218651 0.089986 -0.021029 0.050784 0.081395 -0.321495 0.041178 -0.21947 0.096629 0.03162 -0.081811 0.024415 -0.118959 -0.200714 -0.145352 -0.12682 0.09767 0.013361 0.23416 -0.062262
theater -0.080169 0.061852 -0.019296 -0.076441 0.257534 -0.114636 0.042499 -0.265987 0.155094 0.228642 -0.073633 -0.020787 -0.13445 0.038782 0.114796 -0.042194 0.308571 -0.071436 -0.081756 0.097023 0.03127 0.123664 0.15216 0.04853 -0.327737 -0.250542 0.049664 -0.137624 0.144094 -0.011319 -0.194318 -0.051992 -0.161989 -0.130077 0.010703 0.179897 0.204606 -0.195392 0.085225 0.029844 -0.133925 -0.098378 0.105089 -0.046378 -0.345202 0.093787 -0.062764 -0.020125 -0.355012 0.08361 0.280305 0.391982 -0.02211 -0.168007 -0.131259 -0.079922 0.027603 0.302433 0.009999 -0.100842 -0.145414 -0.291261 0.146068 0.093063 -0.197665 0.02747 0.118087 -0.133549 0.037181 0.102636 0.136057 0.034124 -0.012636 0.244089 0.025024 -0.068758 0.063592 -0.166711 -0.054151 -0.164916 0.132339 0.229608 0.119925 0.054991 -0.015103 0.089312 0.160953 -0.001649 0.088235 0.11078 0.173955 0.197623 -0.05031 -0.046815 -0.042243 -0.427454 -0.242749 -0.111618 0.180982 0.040049 0.043045 -0.036522 0.035649 0.013023 0.150072 5.1E-5 -0.265089 -0.05762 0.100829 -0.063611 -0.24994 0.034026 0.168398 -0.014205 -0.120469 0.051619 -0.047949 0.008179 -0.21997 -0.086503 0.131601 0.231289 -0.143558 0.061105 0.177703 0.126011 0.225463 0.309618 0.250181 -0.070587 0.022207 0.129882 0.08749 -0.338813 0.136263 0.03022 -0.279856 -0.114705 0.146075 -0.225586 0.149977 0.15916 -0.053543 -0.089881 -0.297456 -0.087246 0.191586 -0.276635 0.065263 -0.104351 0.334049 0.103465 0.094194 -0.019864 0.103945 0.20992 0.230399 0.056851 0.270198 0.012357 -1.25E-4 0.216231 -0.184889 0.112581 -0.195914 0.103603 0.130886 0.102896 0.001681 -0.070601 -0.250193 0.093179 0.151893 -0.300182 -0.115729 0.138319 -0.018233 -0.162378 0.142206 -0.05694 0.029316 0.321612 -0.096521 0.047971 0.124521 0.133031 -0.138626 -0.114622 -0.088749 -0.267485 -0.186374 -0.249858 0.025068 0.122883 -0.200706 -0.135745 0.090463 0.020016 -0.011868 -0.13681
number -0.324552 -0.068378 0.450332 -0.118577 0.191985 -0.039651 -0.053986 -0.173699 -0.238555 -0.168942 0.022621 -0.121499 -0.029555 0.034915 -0.092725 -0.129051 -0.166099 0.165952 -0.22019 -0.127075 -0.146774 -0.171588 0.101183 -0.011127 -0.04178 0.213434 -0.262952 -0.118753 0.019913 -0.041047 0.104656 0.12253 0.232009 0.005678 -0.219577 0.025294 0.409456 0.143193 -0.333625 0.100432 -0.295761 0.016927 0.242335 0.163327 -0.123597 0.047345 0.018018 0.009563 0.197087 0.227032 -0.236482 -0.055536 -0.104126 -2.32E-4 0.221139 -0.137856 0.482814 -0.203347 0.108595 0.178825 0.012026 0.083334 -0.278041 -0.151231 0.344111 0.348618 -0.047236 0.232491 -0.137879 0.213806 -0.226776 0.140542 -0.15074 -0.064162 -0.076171 0.004884 -0.108316 0.057992 0.074889 -0.430038 0.285112 0.085273 -0.134651 -0.213509 0.040533 -0.157371 -0.031323 0.024304 0.073018 -0.033282 -0.242317 0.027226 -0.071862 -0.011053 -0.077267 -0.149398 -0.183356 0.067064 -0.068721 0.037863 0.149161 0.076142 0.30032 -0.224047 0.152512 -0.018675 0.296004 -0.359662 0.10099 0.346828 -0.636485 0.046864 -0.045879 -0.104822 -0.092607 -0.121878 -0.213541 0.117858 -0.274882 -0.194115 0.151716 0.003 -0.154178 -0.04743 0.024046 0.273732 -0.017677 0.032255 -0.148667 0.275412 -0.010472 -0.164289 -0.253377 -0.154664 -0.186385 0.126365 -0.005397 -0.011971 -0.193138 -0.090513 0.063173 0.30897 -0.116554 0.189447 -0.395558 0.126189 -0.248363 0.04812 0.07771 -0.267253 0.30257 0.112779 -0.075961 0.143673 0.286266 -0.602902 0.121797 0.206278 -0.161005 0.193656 -0.110796 -0.141899 -0.088711 -0.080146 -0.089094 0.064127 0.017819 0.133534 -0.149636 -0.160142 -0.004447 0.172502 0.080614 -0.026679 0.016599 -0.200439 -0.051027 -0.160762 -0.18255 -0.217478 0.017114 0.070615 0.015649 0.261653 -0.011056 -0.261747 0.069483 0.199128 -0.053202 0.129497 -0.073622 0.194542 0.206117 0.194193 0.019721 -0.060457 -0.023674 0.070536 0.084023 -0.114363
astronomer 0.345377 -0.272838 -0.073425 0.011007 0.063802 -0.224268 -0.589717 -0.187024 -0.327553 0.397402 0.574721 0.101202 0.094707 0.103834 0.239226 0.300223 -0.055665 -0.540604 -0.293836 0.298478 -0.704585 0.16581 -0.632672 -0.149956 -0.232893 0.220415 0.129241 -0.354443 -0.080719 -0.014218 0.05758 -0.07384 0.262619 -0.12566 0.212438 -0.24997 0.177661 -0.3392 0.01664 -0.031336 -0.137196 -0.314174 -0.575436 0.39449 -0.167251 -0.050885 0.030167 0.061375 -0.60313 0.584456 0.104895 0.222748 0.415519 0.30543 -0.101179 0.169495 0.11138 0.167374 0.094097 -0.263752 -0.070126 0.198634 -0.003846 -0.092007 -0.191201 0.382906 0.053903 0.197757 -0.155705 -0.280268 0.199639 0.292993 0.205548 -0.06826 0.504921 0.066281 -0.111488 0.085378 -0.266416 -0.37426 -0.299787 -0.203264 -0.309455 0.077641 -0.101609 0.247196 0.117779 -0.014752 0.141597 0.064788 0.154508 -0.172866 0.104967 -0.027573 0.238965 -0.421102 0.011159 0.211543 -0.193624 -0.222623 0.458464 -0.082851 -0.585958 -0.150182 -0.227939 -0.159247 -0.324355 0.210958 0.07462 -0.085503 -0.282181 0.179538 0.258818 -0.100339 0.12028 -0.118139 0.06169 0.219812 0.278013 -0.724103 0.026227 -0.269929 -0.168069 -0.184903 0.495617 -0.167093 0.045048 -0.176649 -0.015179 -0.169196 0.519608 -0.17705 0.224313 0.123322 0.480299 -0.045292 0.460472 -0.266012 -0.249323 -0.010527 0.111058 0.318289 0.529042 -0.035084 -0.210784 -0.157947 -0.066476 -0.415282 -0.210946 0.118835 0.19028 -0.018282 0.121713 0.163098 0.192106 0.31995 0.091797 0.264076 0.040569 -0.267448 -0.08366 -0.115187 -0.380964 0.323375 -0.171688 0.119126 0.34383 -0.094516 -0.027015 0.029873 0.161313 -0.108298 0.334902 -0.177681 0.205715 -0.137904 0.440785 -0.263355 0.267999 0.028379 -0.220921 -0.318015 0.291442 0.03797 0.004051 -0.08282 -0.194329 -0.138554 0.165382 -0.250372 -0.031542 -0.06699 -0.836925 0.097936 -0.15111 -0.224587 -0.021592 -0.254065 0.344582 0.391945
project -0.019126 -0.062276 0.03958 -0.37336 -0.096112 -0.020374 -0.205136 -0.005116 0.299925 -0.050844 0.100657 -0.241313 0.06239 -0.072841 -0.047711 0.049648 -0.016224 -0.050513 0.191908 0.208294 0.079235 -0.017807 0.089186 0.018634 -0.233247 0.044777 -0.06255 0.04198 -0.026558 0.11715 0.06688 0.019046 0.179792 0.085914 0.224561 -0.206502 -0.090652 -0.276419 -0.055828 0.212361 -0.18576 -0.041777 -0.019718 0.046443 0.120109 0.212282 -0.086588 0.018061 -0.03928 -0.023324 0.044895 0.042177 -0.078359 0.048738 -0.10565 -0.152935 -0.058736 0.311238 -0.152577 -0.181008 0.15365 -0.00821 0.171302 0.236572 0.01464 0.234904 -0.095752 -0.062967 -0.135534 -0.127671 0.237949 -0.055534 0.373991 0.224902 0.066675 0.27476 0.012189 0.162623 -0.148923 -0.30901 -0.186622 -0.017799 0.162766 0.194896 -0.034616 0.217786 -0.006453 -0.278284 0.023932 0.07627 0.15761 -0.115558 0.138306 -0.049211 0.010987 -0.212357 -0.080464 -0.204682 -0.001702 0.053474 0.100071 -0.158511 0.09689 0.051088 -0.172324 0.173347 -0.31278 -0.162896 -0.184672 0.269573 -0.117432 -0.04169 0.351651 0.074651 0.105823 0.359173 -0.119723 -0.052518 -0.125221 -0.032061 0.035301 0.125177 -0.058652 -0.007112 -0.006393 0.035274 -0.257951 0.113283 -0.172956 -0.263367 0.135978 -0.139999 -0.125596 -0.136229 0.06356 0.025994 0.120804 0.169126 -0.147586 0.034006 0.040743 0.213471 -0.148702 -0.050451 0.053351 -0.118788 -0.091678 0.069956 -0.030179 -0.112806 0.255188 0.021888 0.084793 0.123478 0.06748 -0.152728 0.017352 -0.181733 0.161963 -0.049431 0.090276 -0.28403 -0.107435 -0.003965 -0.127488 0.09571 0.029453 0.315876 -0.191902 -0.128305 -0.313146 0.111249 0.051724 -0.10233 0.050593 -0.055052 0.017705 -0.044603 0.003437 -0.140376 -0.135837 -0.087139 0.053496 -0.017351 0.035984 0.023574 0.057644 0.062595 0.089681 -0.055262 -0.057835 0.047619 -0.009498 -0.031558 0.027416 -0.092487 -0.130347 0.17158 0.11877 -0.052727
dawn -0.101619 0.325099 -0.511201 0.076086 0.232729 -0.228641 -0.084008 -0.052179 0.206762 0.233892 0.052233 -0.036383 0.066187 -0.082737 -0.404389 0.079375 0.072831 -0.112393 0.230233 -0.005023 0.029513 -0.121714 -0.208239 -0.282496 -0.4168 0.035689 -0.014383 0.182361 0.112132 0.126021 -0.102973 0.454942 -0.079718 -0.314516 0.036369 -0.043892 -0.070321 0.158879 0.478327 -0.066116 -0.147593 -0.050984 -0.17428 -0.160898 -0.116613 -0.275247 0.041684 -0.257962 0.130381 -0.148285 -0.068554 0.066752 0.25047 -0.134906 8.33E-4 0.350911 -0.273616 -0.316661 0.068017 0.286798 -0.062187 0.237436 -7.1E-4 0.255332 -0.30657 -0.007507 -0.062963 0.189488 0.251916 -0.231489 -0.438006 -0.005954 -0.164107 0.044595 -0.004215 0.021712 -0.178655 0.197044 0.328367 -0.129405 -0.116618 -0.016858 0.242875 -0.33956 0.049938 0.116374 0.547265 0.131514 -0.342274 0.028068 -0.411454 -0.153074 -0.417494 -0.323332 0.19469 -0.120085 -0.105952 -0.038723 -0.03953 0.134043 0.040793 -0.488292 -0.308657 0.044094 -0.124308 0.181022 0.019902 0.137411 0.307152 -0.059948 -0.257902 0.341717 -0.186161 -0.025492 -0.078261 0.04501 -0.024241 -0.010479 0.1337 -0.280545 0.308833 0.061733 -0.168257 -0.047562 0.110352 -0.182582 0.16615 -0.007252 0.273836 0.025477 0.044303 -0.348974 0.196658 0.06188 -0.080127 0.01276 0.250728 -0.106597 -0.1411 0.034412 0.455273 0.173912 -0.208122 0.092857 -0.078773 0.150857 -0.034356 -0.050024 0.002986 -0.182405 0.201079 0.200782 -0.129979 0.186934 0.091749 0.142814 0.202574 0.197459 -0.298385 -0.153486 0.062374 -0.305183 -0.145844 -0.001396 -0.048703 -0.118389 0.146888 0.166625 -0.288621 -0.069216 -0.268606 0.165354 -0.281053 -0.204683 -0.265714 0.249038 -0.156708 -0.283867 0.102562 0.064206 0.037721 -0.111403 -0.206981 -0.211233 -0.114538 0.041736 -0.107952 -0.270642 -0.104042 -0.10948 -0.168849 -0.053359 -0.475822 0.125475 -0.005401 0.127784 -0.212384 -0.207634 0.151236 -0.213278
ear 0.174386 0.301556 -0.063742 0.053648 0.043395 -0.199347 -0.133571 0.144248 0.097378 -0.26727 0.05128 -0.113185 -0.03327 -0.378045 -0.152621 -0.339005 0.106247 -0.053142 0.087981 -0.081503 -0.122371 -0.197883 -0.209417 -0.07433 0.45659 -0.217215 0.080842 0.165556 0.115176 0.002783 -0.133094 0.171771 0.031582 0.099716 -0.382087 -0.004789 0.030836 -0.083961 0.026527 -0.079788 -0.123798 -0.066111 0.24919 0.248835 -0.18864 -0.047709 0.010813 0.041491 -0.227165 0.116152 0.456572 -0.351008 -0.071692 0.350731 0.170634 -0.245279 0.071556 0.171358 -0.150176 -0.511431 -0.141531 0.093709 -0.107405 0.111266 -0.156418 0.0457 -0.411954 0.116438 -0.267678 -0.243226 0.222941 0.217334 -0.122634 0.34902 -0.180333 -0.195311 0.188166 -0.165881 -0.021638 0.31505 0.224681 -0.092849 -0.530085 -0.157803 0.046614 0.041539 -0.132479 -0.00355 -0.23902 -0.077579 -0.22079 0.105378 0.274084 -0.055747 0.002633 -0.087292 0.198174 0.001551 0.111253 -0.295624 -0.059241 -0.05655 -0.025001 -0.137203 0.259972 0.04081 -0.018944 -0.281363 -0.379336 -0.181129 -0.387104 0.035526 0.092576 0.128854 0.309551 -0.242805 -0.174111 -0.216464 0.361071 0.08472 -0.143856 -0.047705 -0.089568 0.236583 -0.048818 -0.343427 -0.196534 0.063261 -0.043352 0.052349 0.234642 0.108566 -0.01699 0.069476 0.1025 0.17775 -0.282631 -0.062561 0.055382 0.124973 -0.00496 -0.112346 -0.158459 -0.002941 -0.10189 0.084278 -0.077511 0.327856 0.176134 0.370416 0.086545 -0.349721 0.017814 0.442552 0.142699 0.268347 0.035034 0.191865 -0.168151 0.155065 -0.178452 -0.124102 -0.251739 -0.132894 0.159345 -0.04584 0.032127 0.044187 0.15317 0.040384 0.153454 0.066611 0.189093 -0.045059 -0.310139 0.011205 0.141869 -0.467963 0.139916 -0.135705 -0.140018 -0.2804 -0.183386 0.221326 -0.066352 -0.128354 -0.05322 -0.294224 -0.174683 0.106517 0.083517 -0.179877 -0.159922 -0.341862 -0.35237 -0.110645 0.137375 0.026863 -0.12212 -0.210777
voyage -0.049153 0.217238 0.177114 -0.347325 -0.28897 0.095746 -0.369717 -0.053402 -0.184924 0.37295 0.432097 -0.022509 0.178675 0.136012 -0.448039 0.20121 0.135592 -0.111073 0.13992 0.721601 -0.118851 -0.195666 0.104141 0.124182 -0.163111 -0.118197 -0.29386 -0.029151 -0.17806 -0.248505 0.136555 0.183246 0.300301 0.099654 -0.004687 -0.070635 0.090572 0.481356 0.177174 -0.166791 -0.344674 -0.379454 0.046545 0.11191 0.027607 0.29811 0.091137 -0.033287 -0.056471 0.04811 0.039792 0.411502 0.025562 -0.524878 0.184477 -0.178522 0.379174 0.251794 0.142289 0.005468 0.043076 0.329134 0.122945 0.192884 -0.13396 0.0726 -0.168266 0.38258 0.21483 0.197834 0.19931 0.094435 0.219642 0.234948 0.164492 -0.156554 0.046379 0.073663 -0.079813 -0.132433 -0.32006 0.04251 0.386763 0.316918 0.401855 0.415814 -0.204478 -0.085147 -0.207732 0.322671 -0.269195 -0.180408 0.191336 -0.243097 0.253832 0.073844 0.005672 0.259725 -0.233224 -0.022323 0.076856 -0.322073 0.126522 0.02224 0.084048 -0.102603 -0.382854 0.078574 0.098205 -0.25531 -0.257931 0.077402 0.047287 -9.12E-4 0.083529 0.306595 0.269654 0.101129 0.321493 -0.348455 0.192691 0.203219 -0.460248 0.085219 0.15123 -0.095745 -0.210521 0.246275 0.201446 -0.649832 0.286933 -0.035271 -0.081633 -0.295474 -0.079491 -0.05465 -0.072952 0.129396 -0.162659 0.163216 0.118449 -0.126284 -0.297159 -0.009224 0.156197 0.209068 0.133603 0.118411 0.172251 0.288275 -0.030299 0.278382 0.299388 0.124571 0.008984 0.323555 -0.13439 0.062964 0.084527 -0.095422 0.181543 0.116134 -0.075678 -0.329873 0.00617 -0.008609 0.345029 0.108931 -0.191597 -0.138136 -0.100862 -0.156758 0.0413 -0.177073 0.108056 -0.139427 0.087293 0.244477 0.438556 -0.27816 0.229052 -0.268033 -0.112226 9.25E-4 -0.232175 -0.025646 -0.078398 0.039281 -0.347225 0.071544 -0.420115 0.389504 -0.416891 -0.171574 0.024163 0.186542 0.021939 -0.154114 0.352142 -0.209514
valor 0.528455 0.052818 -0.144339 -0.097752 0.165372 -0.532144 -0.14521 -0.264419 -0.321382 -0.159607 0.269981 0.221483 -0.391494 -0.314016 -0.205515 -0.42887 0.117226 0.026694 -0.015066 -0.173993 -0.325859 -0.048107 -0.203016 -0.030581 -0.028629 -0.456514 -0.071127 -0.099763 0.288688 0.190211 0.753187 0.240795 0.030461 -0.34749 -0.125627 0.006117 -0.553283 -0.452951 -0.326262 -0.09531 -0.165363 -0.420328 0.507231 0.215681 -0.324539 -0.290785 0.222283 -0.494979 -0.438055 0.305097 0.194522 -0.216277 -0.100719 -0.445911 -0.365303 -0.112666 0.280072 -0.071872 -0.405651 0.079918 0.178234 -0.275999 0.144626 0.0874 0.087353 0.073949 0.072199 -0.447699 -0.076851 -0.301787 0.353695 -0.290315 -0.064489 0.507815 0.598832 0.023511 0.100188 0.036943 0.380044 -0.1906 0.021323 0.340876 0.067876 -0.528607 0.22276 0.376276 0.051228 0.054395 -0.181391 0.084008 -0.125911 0.436751 0.651378 -0.424745 -0.469405 -0.006893 -0.423899 0.235472 0.142204 0.089189 0.269581 0.203776 -0.468806 0.009051 0.484959 0.085674 0.310979 0.165703 0.002038 -0.035053 -0.112265 -0.2227 -0.276266 0.33465 0.383245 -0.003099 -0.108308 0.259504 -0.514622 0.31076 -0.190938 0.073097 -0.068212 -0.156786 -0.076391 0.199509 0.15224 0.135583 -0.365531 0.277085 -0.195466 -0.196551 -0.432984 0.341466 0.301563 -0.295597 0.147371 -0.009497 -0.218544 -0.002853 -0.080705 0.34173 -0.277425 0.073835 0.19271 0.058016 -0.051725 -0.10102 0.437946 0.236534 -0.069793 0.192416 -0.069138 -0.135704 -0.440284 -0.240901 -0.200202 0.178087 0.560295 -0.017599 -0.276221 0.218141 -0.427795 0.005388 -0.179281 0.378944 -0.134936 -0.24988 0.313062 -0.02343 0.066801 -0.154178 -0.436774 -0.09531 -0.500172 -0.1895 0.105133 0.256623 0.035055 -0.303692 -0.104437 0.045645 0.070207 0.127543 -0.019015 -0.359421 -0.036166 0.157115 -0.080804 -0.100506 -0.104379 -0.013628 -0.269526 0.1303 -0.279643 -0.249808 0.02497 -0.304673 0.087268 -0.310175
butter -0.083455 0.522535 0.156434 -0.350395 -0.556259 -0.398174 -0.094957 0.237264 -0.35801 0.568894 -0.07305 -0.257182 -0.068257 -0.241729 0.661057 -0.13813 -0.012417 0.264034 -0.249849 -0.555447 -0.175371 -0.132093 -0.136155 0.250324 0.331944 -0.010831 -0.207731 -0.182294 0.415202 0.573607 -0.26945 0.201466 0.284184 0.159706 0.101152 4.17E-4 0.229987 -0.048059 0.336003 0.303817 0.080535 0.324161 -0.002016 0.431423 -0.354459 -0.007602 0.289913 0.067098 -0.004365 -0.091529 0.056229 -0.294311 -0.188031 -0.384797 -0.077061 0.354788 -0.201985 -0.003249 0.161915 0.064896 -0.376655 -0.005044 0.183993 -0.072922 -0.758567 0.233503 -0.00258 0.95502 0.134181 0.121617 -0.185828 0.087575 -0.804464 -0.026393 0.250507 -0.427991 -0.379645 -0.171718 -0.130905 -0.075021 0.07713 0.315309 -0.138125 -0.463056 0.071897 -0.135027 -0.136698 -0.261458 -0.011085 0.063193 0.140269 -0.057023 -0.305333 0.333873 -0.238053 0.111033 0.110837 -0.320902 0.151118 -0.265887 0.056173 -0.191155 -0.001248 0.076023 0.261383 -0.032411 -0.162397 -0.177069 -0.326967 -0.194573 -0.207249 -0.099057 0.139 0.316212 0.246262 -0.300485 0.096601 -0.061964 0.099099 0.399242 -0.136771 -0.31509 -0.261519 -0.501337 -0.331124 0.32766 0.505195 0.211595 -0.076557 -0.332136 -0.270164 -0.380792 0.270923 0.809711 -0.094707 0.727598 -0.298296 -0.096592 -0.143477 -0.109889 -0.123161 -0.696299 0.182927 0.056537 -0.282562 -0.228231 0.328399 0.283804 0.249239 0.194929 0.327659 -0.268732 0.071522 0.168546 -0.132393 -0.449869 0.31705 0.181301 0.495127 0.309574 0.208826 -0.329684 0.158672 -0.419078 -0.21192 -0.262686 -0.405064 -0.31874 0.007309 -0.157239 0.342982 -0.145737 -0.238952 0.101486 0.218402 -0.15847 0.350329 -0.393666 0.402047 -0.111869 0.025502 0.00693 -0.271706 0.100627 0.15844 0.060271 0.426129 -0.082222 -0.599764 0.125421 0.557111 -0.138771 -0.379811 0.449274 -0.15368 0.674546 0.439484 0.298407 0.186429 -0.680232
gin 0.050642 0.23812 -0.013406 -0.243992 -0.269132 -0.077581 -0.285949 0.011156 -0.065434 0.212351 -0.198909 -0.061716 -0.237626 -0.005783 0.300585 -0.23797 0.473975 0.023157 -0.144196 0.062859 -0.121442 -0.117466 -0.088679 -0.110458 -0.010009 -0.264596 -0.391953 -0.042547 0.695164 0.050457 -0.223695 0.249041 -0.173933 -0.089461 0.1607 0.031535 0.333264 0.281029 0.044631 -0.117369 -0.012487 0.012147 -0.050548 -0.017976 -0.229762 0.177697 0.243388 -0.177664 -0.078308 0.105867 0.166481 -0.15671 -0.089774 -0.429577 -0.041774 0.261574 0.086577 -0.310896 0.045001 0.163614 -0.263128 -0.033299 0.449658 0.148864 -0.185964 0.098987 0.164926 0.573148 0.459406 0.092583 -0.104922 -0.25502 -0.253752 0.31442 -0.132651 -0.366005 -0.142691 -0.232752 0.074457 0.008046 0.003989 0.203726 -0.200868 -0.423661 -0.084545 -0.198712 0.035093 -0.079841 -0.095305 0.043365 0.070691 0.103577 -0.108651 0.278609 -0.448445 -0.097505 0.001743 -0.122764 -0.241553 -0.037232 -0.074724 -0.06231 -0.175602 0.056717 0.182143 0.034298 -0.546877 -0.191535 -0.227301 0.076945 0.022285 0.092721 -0.21735 0.257876 -0.194811 -0.069336 0.324685 0.44448 -0.079846 0.104936 -0.262883 0.058233 -0.0276 -0.063994 0.016972 0.042371 0.370587 0.01225 -0.278756 -0.152544 -0.188152 -0.090743 0.235613 0.277788 0.068954 0.324136 0.103792 -0.142289 0.429019 -0.012482 -0.146091 -0.292254 -0.004162 -0.126756 -0.283009 -0.004383 -0.116915 0.23511 0.195763 -0.115738 0.067913 -0.13523 0.128488 -0.134288 -0.029701 -0.210702 -0.003584 0.012526 0.124911 0.15014 0.200496 -0.31939 -0.268008 -0.327192 -0.264606 -0.233794 -0.427723 -0.252223 -0.114776 -0.241414 0.13064 -0.115086 -0.04189 -0.076609 -0.157587 0.036982 -0.01597 -0.361767 0.473285 -0.033146 0.121461 -0.087908 -0.105499 0.124714 -0.235484 -0.024592 -0.001593 -0.396213 0.111086 -0.242659 0.284391 -0.348131 -0.28714 0.193293 -0.05029 0.245959 0.185791 0.194479 -0.026261 -0.330062
reservation -0.347726 -0.163037 0.096847 -0.065111 0.028335 -0.043383 -0.244765 0.015762 0.002096 0.009258 -0.061332 -0.055632 0.226648 0.013645 -0.206389 0.017677 0.472161 0.124674 -0.105671 -0.008363 -0.09955 0.22801 -0.366554 -0.264198 -0.210801 -0.219985 -0.185725 -0.115836 -0.530418 0.360854 -0.023548 0.299155 -0.045428 0.464842 -0.00808 0.208347 -0.027526 0.411447 0.284582 -0.154657 -0.509526 -0.171445 0.16518 0.274495 -0.401161 -0.281719 0.159644 0.122272 -0.300611 -0.109545 0.118838 0.105451 0.188273 -0.340494 0.216227 0.150569 0.079374 0.210245 0.028741 0.139304 -0.043288 -0.249339 -0.244282 -0.058364 -0.188288 -0.333014 0.174644 -0.006939 0.1488 0.162741 0.075108 0.054187 -0.152819 0.292844 -0.266643 0.176429 -0.074391 -0.114579 0.008979 0.063884 -0.06237 0.385756 -0.113553 0.099662 -0.086916 0.188671 -0.004891 -0.042905 -0.02237 0.189272 0.123391 0.172697 0.008281 -0.091201 0.145217 0.254425 -0.033417 -0.010526 -0.150856 0.196088 0.386976 -0.14134 -0.134168 0.201678 0.076705 -0.113548 0.054395 -0.1952 -0.05414 0.090205 -0.262381 -0.212792 0.28652 -0.107037 0.121733 0.033503 0.384308 0.192854 -0.037301 -0.179765 0.167637 0.055663 0.03395 0.042094 -0.133991 0.078409 -0.051892 -0.056354 0.184979 -0.319286 0.056096 -0.108713 -0.056915 -0.070128 -0.062041 0.125702 -0.030312 0.201358 0.15257 0.183019 -0.181328 -0.059394 0.002226 0.268775 -0.259894 -0.073599 -0.067904 0.289319 -0.023753 -0.116749 0.234871 0.035375 0.125045 0.238408 0.208476 -0.049381 0.202849 -0.128026 -0.214388 0.071165 0.192397 -0.055557 0.006353 0.067612 -0.177213 -0.042639 0.010034 0.028491 -0.096744 -0.252536 -0.223063 0.023001 0.235932 -0.134924 0.082781 0.035725 0.009844 0.024095 0.016564 -0.119258 0.097953 0.177479 0.12958 -0.411996 -0.267408 -0.084614 -0.087556 0.344904 0.002647 -0.084827 -0.20202 0.121888 -0.051238 -0.167675 0.00707 -0.268066 -0.225128 -0.002734 -0.139741 -0.232333
wealth -0.072025 -2.57E-4 0.011069 0.087224 0.158922 -0.097586 -0.021426 0.004632 -0.053227 -0.008912 -0.06574 -0.240511 0.048374 -0.059076 -0.06129 -0.163416 -0.143324 0.039186 0.179809 0.055403 0.099125 0.205312 0.143291 0.043248 0.120053 -0.034138 -0.069804 -0.049892 0.572123 -0.302752 0.091962 -0.090103 0.246621 0.089612 0.368221 -0.193922 0.049298 0.080291 0.196821 0.275871 -0.27208 0.003826 0.488803 0.256854 0.166785 0.308291 0.330251 0.074055 0.042677 -0.236121 0.176113 -0.111269 0.252564 0.160634 -0.1296 0.019231 0.111881 0.232124 0.032173 -0.1774 -0.093061 0.01712 -0.112943 0.067648 -0.014117 -0.256134 0.375217 -0.005988 -0.185934 -0.196701 0.239735 -0.053481 -0.170113 0.333741 0.004126 0.184642 0.141037 0.015619 0.332177 -0.59265 -0.042978 0.139821 -0.061972 0.060156 -0.039155 -0.052676 -0.101013 0.044528 -0.239055 -0.068186 -0.200497 -0.07493 -0.260737 -0.020207 0.049264 -0.26337 0.00502 -0.113892 0.193068 0.427158 -0.169798 0.137574 0.003092 -0.079704 0.126477 -0.067275 -0.092794 -0.160174 -0.362524 0.011929 -0.274813 -0.255938 -0.309993 -0.275184 0.165721 -0.036183 -0.014103 0.25438 -0.051865 0.191255 -0.043933 0.146963 -0.244531 0.076618 0.061233 0.415639 -0.134296 0.062436 -0.172048 -0.194717 -0.086296 -0.037274 -0.206271 -0.006224 -0.078569 -0.2907 0.09567 -0.124058 0.008507 0.088984 -0.066005 0.424466 -0.109573 0.198855 -0.125068 -0.024884 -0.032708 -0.099134 0.16068 -0.086217 0.211593 0.074549 0.005102 -0.004394 0.174033 -0.174774 -0.157954 -0.106356 -0.151439 0.308411 -0.068973 -0.01566 0.059761 -0.111713 0.305245 -0.072129 -0.049619 -0.141096 0.139546 0.123994 0.067434 0.03127 0.343356 -0.33385 0.319546 0.142339 -0.05005 0.368732 0.047298 0.029755 -0.221455 0.163109 -0.31397 -0.203625 -0.034623 -0.239027 -0.043411 -0.246595 0.316212 -0.357917 -0.027434 -0.165189 -0.147516 0.149843 0.003394 0.091494 -0.304957 0.069991 0.210727 -0.259299
eat -0.14976 0.348745 0.051763 -0.28964 -0.444739 -0.043394 0.008853 0.155122 -0.170709 0.054201 -0.135859 -0.218243 -0.520413 0.223685 -0.070294 -0.004416 0.215559 0.044396 -0.239554 -0.100634 0.006748 0.149763 -0.031632 -0.014411 0.072929 -0.014898 0.210297 0.229648 0.048831 0.220647 -0.103348 -0.106341 -0.144569 0.027771 -0.01134 -0.019383 -0.008821 0.206048 0.470542 0.283537 0.087667 -0.160117 -0.276562 0.064529 -0.142676 -0.292754 -0.068278 -0.058369 -0.218005 -0.029257 0.214291 -0.060486 -0.048229 -0.416846 0.016223 0.175653 -0.27144 0.032646 0.145683 0.245613 -0.683541 0.007167 0.139704 -0.098774 -0.339712 0.20189 0.106754 0.463182 0.213722 0.015639 0.216939 0.098903 -0.522409 0.014904 0.071365 -0.279764 -0.177975 0.023628 -0.101509 -0.022102 -0.010761 0.152456 -0.0182 -0.315441 0.102748 0.112627 0.127367 0.194879 -0.098597 -0.040207 0.040786 -0.049756 0.185802 0.311999 -0.016724 0.081048 0.197398 0.002449 -0.047673 -0.051948 -0.23009 -0.521007 0.122555 0.097833 0.434368 0.23378 -0.002408 -0.228884 0.0495 -0.244592 -0.168288 0.207478 -0.016306 0.102069 0.172128 -0.082709 0.133511 0.231895 -0.183844 0.555687 0.146505 -0.329067 -0.047524 -0.215202 -0.251164 0.055805 0.294537 0.05205 -0.297422 0.002564 0.021388 -0.218103 0.191914 0.124013 0.040344 0.229688 -0.250505 -0.228755 0.049762 -0.036522 0.092019 -0.294108 0.221019 0.035644 -0.36867 0.276379 0.100024 0.399545 -0.050608 0.208314 0.350785 -0.310454 0.26946 -0.070331 -2.83E-4 -0.263502 0.467698 -0.223941 -0.091354 -0.172263 0.218872 -0.248699 0.222994 -0.112355 -0.149284 -0.18994 -0.115652 -0.493851 0.038027 -0.167324 0.07682 -0.091665 0.18729 0.056083 0.067798 -0.068739 0.441521 0.053397 0.227487 -0.013762 0.121854 -0.042371 -0.145024 0.220341 0.145236 -0.057224 -0.043996 -0.399454 -0.141999 -0.189993 0.110925 -0.11417 -0.008702 0.12186 -0.009241 0.346941 0.290547 0.219314 0.062318 -0.110772
soap 0.107356 0.612867 5.54E-4 -0.094547 0.152245 -0.411957 -0.274808 0.096687 0.043658 0.5735 -0.031129 -0.221984 -0.322164 0.06011 0.246865 0.451173 0.418785 -0.307887 -0.235577 -0.04727 0.077367 -0.086706 0.199032 -0.09676 0.16542 0.044123 0.113771 -0.196581 0.048621 -0.208729 -0.076946 -0.027262 0.06676 -0.003166 0.04338 0.006508 0.182498 -0.319373 0.178394 -0.174572 -0.139932 -0.163093 0.395704 -0.187064 -0.280572 -0.011901 -0.009327 0.45097 -0.363437 -0.174913 0.266358 -0.296887 -0.320552 0.125951 0.088429 0.432782 -0.250574 -0.283044 0.120104 -0.371201 -0.194569 -0.262064 -0.007225 0.246398 -0.114759 0.047445 -0.021966 0.579898 0.02395 0.116936 -0.071283 -0.118739 -0.22996 0.016378 0.320145 -0.185693 -0.098654 -0.323965 0.08407 0.580165 0.262753 -0.127806 0.159951 -0.220113 0.235567 -0.158135 0.011285 -0.107482 -0.209637 0.243315 -0.019182 0.680433 0.060143 0.249988 -0.385671 -0.437997 -0.249475 -0.412654 0.258226 0.102935 -0.055973 0.16722 -0.304879 -0.032835 0.169384 0.414435 -0.470165 0.003135 0.365049 -0.348425 -0.275334 0.014229 0.21122 0.033277 0.036498 0.052481 0.23317 0.194452 0.371571 0.381917 0.164281 0.093713 0.067008 -0.259334 0.146622 -0.246574 -0.05701 0.240949 -0.210722 -0.17376 0.082619 0.243205 -0.081241 0.098434 0.255005 0.198698 -0.20804 -0.047372 0.035153 -0.34158 0.332208 -0.517451 -0.056028 0.17748 -0.295257 0.249683 -0.029972 -0.143536 0.183819 -0.233836 0.245186 0.006024 0.059238 0.202361 -0.069913 -0.336061 0.25372 -0.485663 0.141875 0.301822 0.073159 0.356209 0.108228 -0.05179 -0.184207 -0.20416 0.172617 -0.063163 -0.142939 0.294601 -0.392298 -0.001988 0.059662 -0.353069 0.215064 -0.027778 0.181599 -0.257756 0.355093 0.243868 -0.371361 -0.015152 -0.089488 0.247116 -0.203211 0.217044 0.176225 -7.9E-4 -0.07855 -0.251905 0.180757 -0.168509 -0.176733 -0.058029 -0.148101 0.023945 -0.003669 0.195856 0.081149 -0.319096
discovery -0.132801 -0.150704 0.221957 -0.251058 -0.009245 -0.269002 0.059877 0.018688 0.162251 -0.103288 0.026086 0.047129 0.113991 -0.220631 -0.334962 0.172198 0.041294 0.019075 0.166948 0.102069 -0.333104 0.161673 -0.022124 -0.111337 0.148792 0.060126 -0.201584 -0.091856 0.160043 0.123958 0.238266 0.161928 0.148697 -0.088736 0.145558 0.100318 -0.210814 -0.270826 0.221424 0.245693 -0.077703 -0.042103 -0.072826 0.405856 0.018675 0.188137 -0.354498 0.020055 0.38308 0.148357 -0.058668 -0.018402 0.080489 -0.188203 -0.044488 -0.064772 0.130614 -0.039687 -0.001343 -0.312685 0.036771 0.209421 0.220956 0.288141 -0.334893 0.18182 -0.117492 0.079222 0.236027 -0.109657 -0.006696 0.056455 0.144177 0.061916 0.068003 0.018696 -0.031255 0.08793 0.087933 -0.354699 -0.109456 -0.214092 0.070825 0.050526 -0.073884 -0.132504 -0.045286 -0.166149 -0.190663 0.146665 -0.18724 -0.324456 0.00862 -0.090575 -0.134682 -0.139689 -0.151295 -0.186583 -0.259899 0.039752 0.22476 0.043131 -0.255727 -0.207385 0.023416 0.084289 -0.033759 -0.293482 -0.019147 0.165565 -0.208018 0.038228 0.120957 -0.194624 0.257302 0.250082 -0.314783 0.172197 0.386601 -0.16685 0.168749 -0.020927 -0.067051 -0.200846 0.147056 0.106129 -0.18845 0.085217 -0.214528 -0.085752 0.077578 -0.137226 -0.043998 0.046189 0.166066 -0.086179 0.165053 0.289335 -0.228238 0.314601 -0.120968 0.382363 -0.113365 0.142299 -0.158845 0.191169 -0.390511 0.013494 0.111354 0.084663 0.17339 -0.015007 -0.194142 0.222007 -0.104531 0.035196 0.018819 0.002873 0.22205 -0.054799 0.061871 -0.212936 -0.085102 -0.00788 -0.185507 0.095646 0.312827 0.095585 -0.321863 -0.027415 -0.007362 -0.013286 -0.127416 -0.321628 0.221613 0.005158 -0.106099 9.14E-4 0.181179 0.006393 -0.18287 -0.135284 -0.014333 -0.116665 -0.246287 0.170445 0.096895 -0.091213 -0.197729 0.237912 0.220271 0.343167 -0.290552 0.040161 -0.11513 0.004598 -0.292953 -0.109395 0.377316 -0.123114
Jerusalem 0.360123 0.022552 0.078461 -0.331586 0.264684 0.027668 -0.289911 -0.364878 0.413888 0.062597 -0.19527 0.44508 0.049708 -0.597004 -0.081635 0.008157 -0.383081 0.139646 0.630414 0.097569 0.086048 -0.249052 0.0723 -0.215578 -0.05244 0.394751 0.468688 0.150528 0.176879 0.190997 -0.18128 0.091333 -0.129756 -0.113115 0.110413 0.359214 0.165767 -0.259467 0.451142 -0.30509 -0.422095 -0.456061 0.197989 -0.081184 0.031549 -0.490356 -0.095342 0.218143 -0.363693 -0.055434 0.108516 0.239917 -0.378663 -0.23557 -0.386363 0.319376 -0.331914 0.296719 -0.275504 -0.429106 0.373201 0.190006 -0.039702 0.160938 0.243741 0.159325 -0.430989 -0.32477 0.117197 0.246113 0.291616 0.501295 0.074881 -0.339835 -0.439894 0.146841 -0.517437 0.029136 -0.081978 -0.164296 0.193259 0.355574 -0.103547 0.050765 -0.321124 -0.273428 -0.073538 -0.395005 0.026022 -0.265519 -0.004906 0.108606 -0.507151 0.371027 -0.154857 -0.009396 0.196385 0.073861 0.294567 -0.127556 0.08325 -0.039461 -0.416975 0.127624 -0.045158 0.450408 -0.077256 -0.045072 -0.108282 0.057389 0.067876 0.484345 0.128044 0.094292 -0.354527 0.067025 -0.001103 -0.483209 0.125793 0.058442 -0.281538 -0.093254 -0.241298 -0.493111 -0.160464 0.426875 -0.170206 0.304745 -0.2089 -0.084029 0.063937 -0.550719 -0.309624 -0.347912 0.32898 0.157961 -0.436266 -0.241041 -0.078779 -0.308842 0.088229 0.227454 -0.327557 0.32969 0.275969 -0.376911 -0.126913 0.320581 0.226897 -0.614185 0.078249 0.18692 0.046099 0.387269 -0.326952 -0.132695 0.134978 0.144106 0.14156 -0.444052 -0.049627 -0.018418 -0.03713 -0.044676 -0.066929 -0.023308 0.153122 0.321563 0.224528 -0.137399 -0.115255 -8.73E-4 -0.216754 0.227182 -0.20521 0.161864 -0.417428 0.4239 -0.399548 -0.391896 0.116768 -0.416997 -0.163624 0.086771 0.433174 -0.024552 -0.174119 0.001735 -0.00428 -0.189097 -0.131171 -0.325441 -0.004821 0.13847 0.06412 -0.042186 -0.428249 0.020739 0.237281 -0.447126
hospital 0.298282 0.393322 0.129958 0.012715 -0.093692 -0.255672 -0.140901 -0.039623 0.304951 -0.049088 0.287628 0.094147 0.064411 -0.192872 -0.136546 0.262928 0.085385 -0.028573 0.223731 0.114347 0.035049 -0.245569 0.00856 -0.175569 -0.283525 -0.228453 -0.213548 0.15736 -0.191835 0.214399 0.08658 0.143671 -0.022451 -0.237818 -0.52105 0.081503 0.1082 -0.292536 0.110001 -0.12364 0.133838 0.052064 -0.173304 0.117308 0.021536 -0.047276 0.102843 0.032003 -0.189413 0.107857 0.062051 0.040133 0.07661 0.163067 -0.296722 -0.38844 0.155042 -0.035187 0.008553 -0.216838 0.085534 -0.079201 -0.187321 0.289591 -0.045167 0.319751 -0.261875 0.235813 0.194346 -0.201251 0.185437 0.22773 0.207653 -0.011701 -0.010011 0.504815 -0.29453 0.173286 0.046022 -0.230245 0.283788 0.100328 -0.075204 -0.122836 -0.08038 0.033325 -0.193793 0.0536 0.286685 0.099135 0.063201 0.01219 0.167619 0.113402 -0.008441 0.255437 0.135821 -0.148458 0.089883 0.225469 0.124991 -0.236258 -0.102046 0.005488 0.147143 0.097078 0.164937 -0.231744 0.015653 0.441184 -0.374358 0.138295 -0.140344 0.239831 0.115854 -0.091018 0.381448 -0.1131 0.021274 -0.049485 -0.15714 0.059711 0.178746 -0.197719 -0.230812 -0.295059 0.064416 0.105185 0.058832 -0.148355 -0.009052 0.190545 0.495444 0.004194 0.096142 -0.034988 -0.041881 0.251453 0.104511 -0.116504 -0.117813 -0.127383 -0.275923 -0.009847 -0.266613 0.158373 -0.266862 0.044213 0.001767 -0.01373 0.127299 0.021451 0.080812 -0.056837 0.158616 -0.08569 0.209513 0.044601 -0.47092 0.139871 0.307829 0.371352 -0.248916 -0.067713 0.054103 0.345147 0.064418 0.220736 -0.140345 0.137158 -0.194579 0.497697 0.303222 -0.337285 -0.2333 0.223495 0.087492 0.093189 -0.057792 -0.014529 -0.044151 -0.015297 -0.420348 0.097262 0.258928 0.1553 -0.385437 0.267792 -0.057633 0.052363 -0.052076 -0.21398 -0.173401 -0.172501 -0.022522 0.090206 0.176621 0.155064 -0.162939 -0.278774
computer 0.287925 -0.025088 0.145678 -0.167959 -0.055557 -0.041066 0.166876 -0.191977 -0.256476 0.165737 0.030625 -0.017613 -0.18521 -0.065835 -0.14434 -0.067661 0.354993 -0.008719 -0.101226 -0.124027 -0.024896 0.328372 -0.013707 -0.114776 -0.142281 -0.045573 0.10142 -0.30854 -0.220231 -0.056647 0.278692 0.065359 -0.060884 0.10574 -0.102751 0.096845 0.133262 -0.134347 -0.056807 0.061457 0.040327 0.111784 0.017476 0.197953 -0.298552 0.186821 0.056501 0.01757 0.141944 -0.117099 0.2191 -0.075256 0.08369 -0.110913 -0.096095 0.145739 0.26648 0.34479 0.002007 -0.073944 -0.302996 0.042935 -0.134113 -0.058621 -0.242544 -0.057056 -0.039974 -0.091644 0.334315 -0.165644 -0.078718 0.036401 0.147775 0.194424 -0.287959 0.253448 0.208454 -0.238309 -0.044289 0.051575 0.179158 -0.259605 -0.037062 0.081517 -0.076989 -0.154296 -0.101962 -0.135586 0.01262 0.089908 0.228934 0.132873 -0.025635 -0.455033 0.040735 -0.308162 -0.046388 -0.054599 0.071646 0.121827 0.111853 -0.177164 -0.246919 -0.453542 -0.133476 -0.335176 -0.022138 -0.200804 -0.3547 -0.024096 -0.373379 0.118488 0.170668 0.07126 0.142947 -0.031196 -0.026306 0.046646 0.073461 -0.275129 -0.032546 -0.053298 0.067252 0.48817 0.276924 -0.135858 -0.062002 -0.160038 -0.149075 -0.123119 0.292924 -0.041066 -0.130792 -0.206858 -0.200046 0.19762 -0.031228 -0.100176 -0.057267 -0.212506 -0.175439 -0.226856 0.188758 0.130352 -0.345783 0.321899 0.196017 0.181206 0.073546 -0.014163 0.428378 0.044208 -0.457371 0.344949 0.431049 0.036524 -0.010518 0.048865 -0.17075 0.050773 0.23048 -0.241789 0.17685 -0.017378 -0.173664 -0.112307 -0.043617 -0.088998 0.118756 -0.199339 -0.314821 0.350619 -0.20112 -0.452441 0.075816 -0.025828 0.289754 -0.153512 -0.011618 0.033763 -0.27259 0.304 -0.051151 -0.266086 0.237901 -0.017474 0.056502 -0.067151 0.081952 -0.329288 -0.078714 -0.059528 -0.043347 -0.125382 -0.22149 -0.202204 0.149133 -0.199425 0.137282 -0.051834
queen -0.029902 0.278582 0.235818 -0.101784 0.041764 -0.156824 -0.042546 0.015634 -0.050322 0.388486 0.103018 0.076285 -0.134832 0.03387 0.050906 0.093165 0.355185 0.088896 -0.177019 0.032533 -0.091025 4.22E-4 -0.114721 -0.017384 0.179429 0.322874 0.086378 -0.226711 0.030266 0.043344 0.039414 -0.299893 -0.054621 -0.136627 -0.005701 0.104513 0.267209 -0.218291 -0.018391 -0.395277 -0.463219 -0.205273 0.096968 -0.111157 0.098398 0.101391 -0.219933 -0.056712 0.018122 -0.06727 0.578618 0.517005 0.024523 0.026476 -0.241616 -0.137079 0.098588 -0.141071 0.144534 0.073512 -0.104761 0.135565 -0.029389 -0.036913 -0.044803 0.122199 0.164521 0.446087 0.144845 -0.092503 0.076571 -0.222019 -0.407833 0.036733 0.15485 0.153563 0.062966 0.136531 0.137784 0.236246 0.185482 -0.217042 -0.036901 -0.205445 0.303793 -0.092688 0.090717 0.046635 -0.016498 0.092037 -0.123476 0.309016 -0.258182 0.262379 -0.156323 -0.436719 -0.175155 0.154205 0.038761 -0.216626 0.210688 0.171058 -0.152596 -0.145947 0.236785 0.386319 -0.032516 -0.128465 0.104749 -0.072946 -0.372671 -0.031385 0.296022 -0.228559 -0.098016 -0.056343 0.175304 0.103 0.028352 -0.19026 0.189786 0.042241 0.095793 0.006576 0.203742 -0.04577 -0.050689 0.066727 0.258517 -0.365485 0.035817 -0.053974 -0.051469 -0.038775 0.491151 -0.257082 -0.131039 -0.257051 0.085013 0.033894 0.265643 0.300603 -0.249667 0.00744 0.097985 0.325778 -0.202477 0.073389 -0.210005 -0.08226 0.111209 0.075713 0.34687 -0.05084 0.111364 -0.210991 -0.061286 -0.04494 0.165828 0.064158 -0.228814 -0.02506 -0.023188 -0.27913 0.062101 0.019766 0.206475 0.165835 -0.03097 -0.024861 -0.145781 -0.058798 0.149924 -0.21058 -0.13868 -0.151932 0.05921 0.166268 0.209629 -0.049374 -0.081246 -0.133517 -0.126555 0.012395 -0.089005 -0.149195 -0.082957 -0.195962 0.251039 -0.024326 0.112959 -0.173274 -0.127486 -0.08616 -0.111502 -0.01617 -0.371521 0.305575 0.129819 0.33442
wizard -0.092409 -0.191447 0.251885 0.071272 0.31424 -0.057071 0.337907 0.264408 -0.06496 0.536176 0.040736 -0.189179 -0.301659 -0.139793 0.336997 -0.088512 0.394921 -0.172882 -0.128729 -0.197842 0.001988 0.235679 -0.074113 0.220407 0.060666 -0.121987 0.020801 -0.120822 -0.176741 -0.095478 -0.317041 -0.091717 -0.039477 -0.230972 0.014427 0.096288 0.479849 0.02346 0.18687 -0.375132 -0.4188 -0.113028 0.251795 0.188105 -0.07734 0.233452 -0.201867 0.010431 0.115857 0.094299 0.460799 0.073382 0.204598 0.201578 -0.112622 0.096275 0.424519 0.170568 0.341106 -0.198935 -0.071282 0.089803 -0.176552 -0.007988 0.122163 0.418872 -0.222013 0.141678 0.078872 0.058189 -0.275503 0.011539 -0.079303 0.189826 -0.044691 -0.201441 0.191377 0.342236 -0.091021 -0.022674 0.023622 -0.208126 -0.222005 -0.178176 -0.053949 -0.137184 0.161424 -0.128681 0.13691 0.441683 0.136677 0.087597 0.443062 0.05012 -0.033166 -0.350186 -0.172567 0.080912 0.161729 -0.160132 0.070547 -0.229844 -0.269153 -0.173144 -0.0484 0.432046 -0.536035 -0.228686 -0.296791 0.10865 -0.484633 0.048002 -0.048552 -0.139626 -0.112722 -0.049955 -0.075966 -0.254634 0.13918 0.047255 0.090093 0.021517 -0.275516 0.073428 0.248392 0.236642 0.166564 0.30978 0.048329 -0.102275 0.314263 -0.182374 -0.323998 0.052999 0.093774 -0.363518 0.215812 0.074314 0.151213 -0.122828 0.13103 -0.076549 0.325417 -0.492894 -0.224759 0.140132 0.184633 -0.225779 0.047467 -0.247305 0.022671 0.205771 -0.402265 -0.194265 0.336909 0.108858 -0.083403 -0.225065 0.211674 0.337559 0.083585 0.065364 -0.133904 0.210437 0.14411 -0.100012 0.198123 0.064753 -0.068933 0.117033 -0.122459 -0.013899 0.181716 -0.073513 0.204582 0.032059 0.090742 -6.55E-4 0.242947 0.011233 -0.2264 -0.152409 0.043181 0.307714 -0.149239 0.071002 -0.173231 -0.346398 -0.249571 -0.048277 0.037229 0.056203 0.122927 0.012571 -0.543585 0.271039 0.134769 0.11587 -0.080056 0.05461
oil 0.178615 -0.151545 -0.398235 -0.023526 0.077024 -0.114936 -0.250528 0.170332 -0.010083 0.058505 -0.106052 -0.110657 -0.024515 0.27719 0.312002 0.174522 -0.084039 0.316672 0.501428 0.176301 0.149304 -0.135039 0.244414 0.024683 0.379759 -0.25915 -0.04654 -0.242218 0.567326 0.413691 0.602862 -0.2095 0.378856 0.392039 0.278697 -0.362512 0.092928 -0.189509 0.276046 0.371613 -0.121102 -0.233372 0.096175 0.366421 -0.214966 0.281566 0.277853 0.06903 -0.086908 0.112124 0.165752 -0.374383 -0.041073 0.195066 -0.181474 -0.093703 -0.024378 -0.00393 -0.270709 0.077873 -0.141042 0.102893 -0.227179 -0.087857 -0.229733 -0.187074 0.063818 0.18675 -0.048007 0.179531 -0.11982 0.258889 0.203178 0.344178 -0.208733 0.195186 0.077559 -0.095305 -0.239885 -0.25729 -0.219044 -0.379857 0.0772 0.150612 -0.123562 -0.112945 -0.170359 -0.248526 -0.132603 0.121285 -0.385891 0.015409 -0.284014 -0.070341 0.167658 -0.27429 -0.298344 0.1095 0.305808 0.260852 0.002247 0.109212 0.155534 -0.026102 -0.206763 -0.01577 -0.308598 -0.116062 -0.145135 0.33851 -0.377381 -0.146512 0.25733 -0.107621 0.292807 0.276235 -0.100605 -0.105396 0.269843 -0.17599 -0.024172 0.06587 0.06816 -0.283679 -0.148986 -0.11284 0.167735 0.360141 0.164066 -0.051967 0.254895 -0.192611 0.120886 -0.064348 -0.159173 0.459603 -0.199368 -0.067054 -0.224688 0.041303 0.165254 -0.169137 -0.051146 0.182157 -0.513472 -0.217838 0.074166 -0.085159 -0.010896 0.017519 0.694286 0.109955 0.079224 -0.38175 -0.290734 -0.336227 0.160707 -0.202748 0.090692 0.064442 0.322321 -0.015571 0.06652 -0.47981 -0.153648 0.21017 -0.0827 -0.075474 0.039837 0.15539 0.131275 -0.383121 -0.03231 -0.351455 0.107355 -0.004291 -0.540852 0.085211 0.116245 -0.137144 -0.477133 0.050316 0.114921 0.089555 -0.157264 0.368539 0.128231 -0.096377 -0.084589 -0.107214 0.120737 -0.359787 -0.191293 0.234473 0.530582 0.261535 -0.598767 0.243751 0.209215 -0.233113
currency 0.237762 -0.173906 0.326965 0.435482 -0.076223 -0.095988 -0.24992 0.051435 -0.019273 6.75E-4 0.391531 0.088563 -0.015716 -0.134025 -0.079007 0.137616 0.23156 0.0923 -0.055819 0.421604 0.349665 -0.186448 -0.254207 -0.035924 0.049593 -0.346312 -0.126186 -0.130843 0.070073 0.262186 0.212427 0.167153 0.203476 0.122136 0.064629 -0.196345 0.12979 0.362213 -0.034784 0.150275 0.038395 -0.097969 -0.038595 -0.040082 -0.294568 -0.007343 0.251523 -0.138041 -0.257739 0.013436 0.154717 0.174644 0.178832 0.235627 0.197755 0.35483 0.100334 0.420636 0.296471 -0.382887 -0.046838 -2.86E-4 -0.049081 -0.539657 0.376912 -0.082263 -0.080466 -0.248422 -0.132793 0.007 -0.128382 -0.08569 -0.148551 0.167433 -0.316302 0.417223 -0.226743 0.242476 -0.216331 0.014262 0.153042 0.062423 -0.088569 -0.032507 -0.415015 -0.128204 -0.08227 -0.037543 -0.197768 -0.037143 0.00709 -0.072879 0.067369 -0.126615 0.034007 -0.094734 -0.260475 -0.31397 -0.076208 0.222899 -0.273691 0.506084 0.153231 -0.485494 0.390909 0.260208 -0.126285 0.118818 0.278972 -0.019118 -0.127625 0.002764 -0.357136 -0.069659 0.200435 -0.241188 -0.143953 0.075919 0.195349 -0.047924 0.03454 -0.257185 0.150116 0.020801 0.030411 -0.144736 0.300845 0.014519 -0.020229 -0.387735 0.583501 -0.384008 0.160087 -0.164026 0.269777 -0.445823 -0.058783 -0.235911 -0.301931 0.05074 0.049521 0.191343 -0.142065 0.305181 -0.228608 -0.327219 0.247234 0.167856 -0.144937 0.233392 0.32183 0.535088 -0.340056 -0.188639 0.4222 -0.07649 0.221518 -0.066606 0.078984 -0.131832 0.18266 0.05893 0.545604 -0.396617 0.166272 -0.060966 -0.371405 -0.079961 0.172344 0.105918 0.115726 -0.456249 -0.272501 -0.152092 0.171598 -0.089314 -0.144623 -0.314831 -0.03846 -0.153609 -0.080737 0.069307 -0.016816 -0.030445 0.015233 0.033518 0.159528 -0.096801 0.332834 -4.36E-4 0.177522 -0.134867 0.343508 -0.312254 0.475148 0.27499 -0.081361 -0.172507 0.195335 -0.303312
laundering -0.135249 -0.252413 -0.590152 0.287001 0.262399 -0.055888 -0.034921 -0.276461 -0.147818 -0.831894 0.044466 -0.140416 0.744782 -0.091321 -0.583998 0.049438 0.275725 -0.870799 0.134558 -0.301795 -0.004878 -0.295577 -0.701447 -0.813017 0.366793 -1.42E-4 0.204166 0.153677 0.229353 0.047268 0.548944 -0.074384 -0.230258 -0.085646 0.317516 -0.17488 -0.121809 0.138846 -0.75139 0.44164 0.15335 0.037918 0.14558 0.026843 0.396805 0.239432 -0.230481 -0.178892 -0.122679 -0.547762 0.312754 0.121168 -0.417846 -0.009576 -0.235674 -0.199572 -0.42395 -0.056471 -0.010328 0.218048 0.375786 -0.03496 0.160879 0.053619 -0.277983 0.408241 0.562199 -0.217415 0.28384 0.136281 0.516417 0.321521 0.035684 0.31496 -0.244103 -0.31519 -0.125182 -0.248226 -0.028293 -0.340285 -0.632394 0.011689 -0.047112 0.38419 -0.245308 0.078439 -0.760318 -0.188488 -0.311455 0.28627 0.2475 0.510024 -0.568811 -0.38232 -0.003093 -0.143075 0.130128 0.002871 0.56043 0.184373 0.234055 -0.234806 -0.673367 0.035591 -0.180451 -0.539005 -0.458298 0.392135 0.261378 -0.13093 -0.339434 0.227649 -0.273856 0.262457 -0.076831 0.311187 0.218208 0.411341 0.363283 0.271684 0.10944 -0.181994 -0.178457 -0.027725 -0.102211 -0.351931 0.189248 -0.141504 -0.597747 0.171722 -0.317201 -0.198595 -0.347759 -0.235905 0.201364 -0.123646 -0.124867 -0.201529 -0.020254 -0.003006 -0.527175 0.768344 -0.117239 -0.075007 -0.08589 0.487531 0.285135 0.471028 0.594788 0.301327 0.442902 0.262355 -0.230878 0.11414 0.173667 -0.415668 -0.187137 -0.657013 0.254138 0.618983 -0.265692 0.405888 0.414946 -0.416084 0.636065 0.039923 -0.942784 -0.119383 0.494384 0.879482 -0.06917 -0.396162 0.087975 -0.167993 0.166396 -0.117588 -0.178441 0.264263 0.402308 -0.593891 -0.643321 0.077142 -0.078073 -0.263324 -0.330353 0.330792 0.095647 0.047337 -0.218595 0.03309 0.426348 0.176551 0.568864 -0.083674 -0.311025 0.537188 -0.141969 -0.386354 -0.014303 -0.282306
midday 0.257873 0.398736 0.023814 0.207162 0.394399 -0.068687 -0.184477 0.042004 0.375034 -0.568651 0.191641 0.607119 0.062318 0.31405 -0.126124 0.427141 0.0809 -0.029226 0.366728 0.273216 0.391668 -0.075081 -0.340577 -0.128981 -0.534286 -0.490877 -0.244354 0.002838 -0.027176 0.367023 -0.241545 0.339895 0.331692 0.022518 -0.34423 0.128263 0.076554 0.137445 0.26618 -0.30967 -0.114221 -0.022442 -0.211801 0.036183 0.0589 0.048802 0.068866 -0.130278 0.151365 -0.476368 -0.052155 0.169228 0.312535 -0.395754 -0.214626 0.613123 -1.002261 0.160887 -0.069084 0.063337 -0.083054 0.3487 -0.522943 -0.363745 0.006101 -0.222865 -0.428667 0.261443 0.030874 0.183405 0.095187 0.098142 -0.311161 -0.188767 0.09381 -0.257111 0.081856 0.137672 0.067767 -0.28162 0.298562 0.072477 0.005103 -0.560464 -0.245769 0.329938 0.490805 -0.012506 -0.398666 0.439854 -0.332329 -0.461663 -0.263158 -0.405115 0.094272 0.053461 -0.119705 0.198087 0.068722 0.03131 -0.031752 -0.330901 -0.376418 0.068013 0.025449 0.42979 -0.016364 -0.112673 0.025591 -0.63086 -0.131733 0.298375 -0.048858 0.251732 0.024741 0.198864 -0.082969 0.035261 -0.156037 -0.395915 0.154669 -0.068 -0.514091 -0.486641 -0.315102 -0.238613 -0.116888 0.191742 0.38234 0.193357 -0.010009 -0.245091 0.221027 0.019181 0.040803 0.206793 0.126017 0.104763 -0.370248 -0.331039 0.167156 -0.115026 -0.392848 0.24013 -0.270831 -0.053441 0.00302 -0.065766 -0.219368 -0.136181 -0.39598 -0.076794 -0.198744 0.122176 0.177608 0.489006 0.102329 0.197309 -0.134968 -0.68079 0.114057 0.08859 -0.124457 -0.439356 -0.147464 -0.268756 -0.249041 -0.106977 -0.502654 0.024168 -0.11283 -0.210509 -0.369768 0.020821 -0.258266 0.368607 -0.205903 0.029001 -0.188201 0.559605 -0.205385 0.533079 -0.197059 -0.058641 -0.708545 0.44572 0.270502 0.046876 0.013192 -0.301334 -0.001899 -0.482036 -0.09417 0.227321 0.066694 0.182439 -0.025977 0.188259 0.143203 -0.010926
Arafat -0.380019 0.532688 0.443558 0.008686 0.291011 -0.024742 -0.153189 -0.342822 0.19825 0.548136 -0.221032 0.450239 0.366918 0.309029 -0.28377 -0.406358 -0.569876 -0.173367 0.781185 0.765312 0.134537 0.106739 -0.281996 -0.061676 0.234494 -0.249658 0.255805 0.32055 0.149382 0.070783 -0.055149 -0.665681 0.483952 -0.375559 0.271248 0.196915 0.433728 -0.002688 0.092481 -0.469238 0.154319 -0.170501 0.070466 -0.173431 -0.220482 -0.128017 -0.341326 -0.119791 0.085982 0.006165 0.084887 0.169498 0.373815 0.212199 -0.243425 0.06733 -0.313458 0.121347 -0.357356 0.177156 -0.226083 0.767134 -0.222342 0.055131 0.309039 0.062693 -0.416217 0.116903 0.40173 -0.252192 -0.064568 0.264499 -0.01084 -0.214803 -0.559917 -0.009204 -0.29118 0.22588 0.100616 -0.163188 -0.543863 0.18663 0.104373 -0.506339 0.097952 0.023223 -0.49063 -0.089854 -0.249776 -0.336674 -0.126622 0.220778 -0.056735 0.402092 -0.477719 -0.065732 0.320802 -0.265082 -0.077635 -0.266394 0.301567 -0.006479 -0.772167 0.282303 -0.142277 0.584268 0.34193 -0.030681 -0.032697 0.428122 -0.067787 -0.007159 -0.145784 -0.202761 0.624946 -0.081623 -0.082058 -0.320419 -0.104573 -0.018685 -0.241904 -0.282646 0.169907 -0.105254 -0.582874 0.499408 0.202061 0.602438 -0.046008 0.06873 0.234675 0.031179 -0.026435 0.443719 0.514969 -0.112125 -0.127283 -0.345166 -0.148677 -0.232891 0.078771 0.142184 -0.073107 -0.49755 0.682109 0.248189 -0.042647 -0.137882 0.044823 -0.255649 -0.42883 -0.080649 -0.140664 0.737902 -0.469007 0.279647 0.54518 0.08761 0.118632 -0.079046 -0.218703 0.171465 -0.1392 0.022479 0.074268 0.168213 0.049287 -0.258908 -0.091954 0.042427 -0.131878 0.328143 0.243352 -0.162991 0.225586 0.048111 -0.617086 -0.014321 -0.007229 -0.09227 0.154497 -0.057075 0.277936 0.212419 0.338491 -0.210332 -0.215188 -0.129821 -0.014656 -0.64748 -0.041169 -0.408146 -0.602114 0.31489 0.369166 -0.491062 -0.218459 -0.361582 0.022033 -0.581391
man -0.076449 0.204956 -0.065632 -0.135014 -0.08421 -0.206833 -0.078054 0.207382 0.169122 0.134968 -0.089511 -0.096321 0.102267 -0.06488 -0.038499 -0.035871 0.103089 0.108345 -0.127536 -0.052087 0.202427 -0.010099 -0.279323 -0.267445 0.173851 -0.500056 -0.165404 -0.097399 0.099373 0.277869 -0.160106 0.233718 0.015697 -0.250511 -0.076833 0.051471 0.139221 -0.167825 -0.014517 -0.32497 -0.00389 -0.1935 0.112072 0.027088 -0.073554 0.272802 0.035317 0.279786 -0.177652 0.339798 -0.112369 -0.041148 0.09338 0.156851 -0.240128 0.00927 0.1278 -0.095885 0.440959 0.064662 -0.013546 0.27967 -0.430109 -0.223262 0.427756 0.528746 -0.055831 0.192109 0.088778 -0.007875 0.079774 0.250233 0.194118 -0.053015 0.022194 0.023779 0.0404 0.268601 -0.103393 -0.061727 -0.078888 0.220951 -0.087732 -0.189786 0.052167 0.066718 0.187732 0.007549 -0.104749 0.187568 0.033749 0.357149 0.124229 0.151657 0.012339 -0.255915 -0.099046 0.168047 -0.118193 -0.099207 -0.073077 -0.115328 -0.246843 -0.267637 0.031355 0.095633 0.050869 0.01729 -0.031906 -0.01335 -0.479184 -0.089776 0.224272 0.145951 0.069572 -0.15573 0.099633 0.132031 0.061103 -0.037531 -0.088058 -0.008953 -0.014506 -0.007967 -0.057569 0.173415 -0.014853 -0.072453 -0.11567 -0.085035 0.215373 0.005903 0.18645 -0.167976 0.077608 -0.186754 0.192913 0.181632 0.210743 0.108999 0.013764 0.166156 -0.189311 -0.227866 -0.094946 0.295065 -0.065442 -0.015506 0.226242 -0.011902 0.211266 0.034896 3.1E-4 -0.091742 -0.034888 -0.111565 -0.042454 -0.404104 -0.082202 0.259312 0.266874 -0.137523 -0.25354 -0.013772 -0.049904 0.314075 0.048684 -0.034259 -0.155579 0.305242 -0.076055 0.354266 -0.128858 -0.075425 -0.221781 -0.209531 0.156613 0.253976 0.094238 -0.337522 -0.282397 -0.467321 -0.189505 -0.23362 0.011255 -0.291465 0.011878 -0.291519 -0.156596 -0.085605 0.274377 -0.084169 -0.018844 0.11318 -0.206642 -0.088607 0.13374 -0.107573 -0.094076 0.095706
keyboard -0.132186 0.200411 -0.206945 -0.15981 -0.028012 0.0044 0.013796 -0.198794 -0.081733 0.219674 -0.013055 -0.033541 -0.050237 0.125233 0.046924 -0.259693 0.093706 -0.082795 -0.272045 0.051148 -0.268596 0.034796 0.089491 0.043323 -0.039977 -0.185326 0.035487 -0.140968 -0.257561 0.287019 0.145168 0.0749 0.144272 0.311841 -0.243549 -0.016698 0.32349 -0.042206 0.030463 -0.451279 -0.256245 0.026235 0.411916 0.21978 -0.315633 0.034399 -0.057048 0.124601 0.057619 0.166286 0.282861 0.010529 -0.041693 -0.134537 0.240649 0.011275 0.307788 0.237108 -0.377266 -0.034801 -0.446741 -0.171895 -0.115061 -0.101339 -0.164067 0.086217 -0.173115 0.063322 0.274536 -0.056713 0.056253 -0.189851 -0.028046 0.136429 -0.542551 0.054865 0.177015 -0.02133 -0.007328 0.334831 0.330546 -0.263655 -0.225665 -0.121011 -0.117819 -0.262887 -0.09547 -0.294189 -0.26569 0.05192 0.07667 0.212742 0.033134 -0.450496 0.001739 -0.497233 0.101874 -0.228296 0.03484 -0.292827 0.453955 -0.181318 -0.238381 -0.548123 -0.108051 -0.193966 -0.130349 -0.018788 -0.566412 -0.208231 -0.383207 0.12717 0.312131 0.321904 0.09214 0.125889 0.114135 0.003586 0.049344 -0.018085 -0.038496 0.064068 0.134166 0.085175 0.213142 -0.195164 0.067982 0.079976 -0.177194 -0.08611 0.016103 -0.174261 -0.144336 -0.288149 0.085965 0.064147 -0.027765 -0.106125 0.227414 -0.519427 -0.104392 -0.430833 -0.001937 -0.039048 -0.157736 0.216926 0.05857 0.292502 0.043171 -0.082537 0.409703 0.017023 -0.093349 0.383451 0.414564 0.361028 0.253039 0.079294 0.19515 0.086163 0.26211 -0.057354 -0.134858 0.126973 -0.048933 -0.217061 -0.159775 0.044436 0.46234 -0.216065 0.036109 0.361638 -0.078425 -0.090663 -0.065868 -0.419201 0.09871 -0.353835 0.122157 -0.113847 -0.149993 0.403026 -0.133116 0.189078 0.118681 -0.308681 0.062036 -0.181428 0.027664 -0.369256 -0.015215 -0.179859 -0.001946 -0.472823 -0.310741 -0.002418 0.102936 0.007267 -0.01162 -0.346128
announcement -0.207164 -0.016108 0.03071 -0.070741 -0.215283 0.073951 -0.309132 0.260041 0.155875 0.092184 -0.100861 0.285825 0.331468 -0.378259 -0.242901 -0.102924 -0.063905 0.114856 0.312713 -0.105485 0.102256 -0.106381 0.030454 -0.015326 -0.074463 0.104476 -0.172607 0.241635 -0.208492 0.348064 -0.153611 -0.014163 -0.042432 0.100895 -0.090237 0.136744 -0.175334 -0.076106 -0.084796 0.146984 -0.228957 -0.080105 -0.295692 0.033191 0.198475 -0.041243 -0.048954 -0.108893 0.240466 0.145482 -0.194721 -0.43062 -0.360089 0.032587 0.108302 0.233811 0.180283 -0.012896 -0.267861 -0.40912 0.15027 -0.003572 0.436464 -0.075036 -0.360964 0.048436 -0.01456 0.034164 -0.013424 0.06306 0.197421 -0.171558 -0.10534 -0.097456 -0.016455 0.302024 -0.286117 0.257514 0.237381 -0.414705 0.10064 -0.028233 0.142424 0.219154 0.096713 0.112333 0.087304 -0.066155 -0.113103 0.047194 -0.216877 -0.106334 -0.157415 -0.093922 -0.081805 -0.079652 -0.042321 -0.40329 -0.264091 -0.125087 0.319279 -0.353807 -0.034813 -0.231739 -0.028964 0.293699 -0.095053 -0.268489 -0.188718 0.329026 0.009201 0.238145 0.077822 -0.216087 -0.089579 0.036494 -0.143104 -0.060681 0.279353 -0.406079 0.070237 0.132122 -0.145417 -0.291497 0.069106 0.026737 0.059682 0.35108 -0.062991 -0.268469 0.472919 0.195369 -0.145468 0.064906 0.134527 -0.260355 0.100956 -0.043054 -0.325316 0.020978 0.17075 -0.140694 -0.229257 0.183998 0.084619 -0.160862 -0.26944 0.059168 -0.060377 0.005804 0.11504 0.227104 -0.285983 0.214082 -0.024096 0.001994 0.064011 0.311616 0.038877 0.025925 0.021451 -0.142758 0.256453 -0.25983 -0.091172 0.373826 0.325278 0.230485 -0.167392 -0.068352 -0.261065 -0.346376 -0.226674 0.298068 -0.593291 0.105682 0.062975 -0.049851 -0.50726 0.223582 -0.055126 -0.126515 0.018441 -0.270056 -0.324475 0.253729 0.022542 0.04523 -0.255088 -0.136335 0.275778 0.194053 -0.03971 0.327845 -0.100536 -0.287718 0.005712 -0.047007 0.365677 -0.089315
racket -0.018672 0.444843 -0.108147 -0.108949 0.27694 -0.222824 0.063485 -0.022162 -0.326064 -0.216674 -0.335512 0.041009 0.198243 -0.175291 -0.335606 0.194789 0.267109 0.310512 0.257649 0.142319 0.074509 -0.228248 -0.404109 0.078113 0.495816 -0.072063 0.021279 0.14238 0.101234 -0.205323 0.021675 0.113214 -0.04054 0.225836 -0.009336 -0.047633 0.300649 0.202231 -0.173123 -0.149459 0.226438 -0.231648 0.144003 0.084367 -0.227443 0.06863 -0.019387 -0.079361 0.208391 -0.127608 0.299097 0.039471 -0.051364 0.419185 0.149385 -0.352723 0.00609 0.160751 -0.066005 3.32E-4 -0.167361 -0.211251 -0.236781 0.004799 -0.207473 -0.024119 -0.127369 0.230566 0.070253 -0.01825 -0.249017 0.241114 -0.292522 0.109136 -0.036492 -0.291685 0.118359 0.098999 0.172437 0.076368 0.015467 0.016067 -0.113976 0.087858 -0.009116 0.191977 0.245278 0.111375 1.94E-4 0.026144 -0.020615 0.003798 -0.045825 -0.40843 0.135723 -0.069018 -0.106852 -0.041047 0.191273 -0.129086 -0.057698 -0.10112 -0.064061 -0.209303 0.04287 0.033801 -0.281265 -0.131502 0.106909 -0.193118 -0.282684 -0.221321 0.306574 0.241765 0.147958 0.007697 0.232465 0.130432 0.346974 0.242913 -0.270879 0.072706 -0.20278 0.445816 0.108481 -0.207511 -0.068079 0.035438 0.159555 -0.049296 0.13162 -0.114669 -0.074158 0.362943 0.156803 -0.357482 0.005693 -0.133793 0.173606 0.087091 0.006059 0.198597 -0.138823 -0.046536 -0.189131 0.166396 -0.009156 0.403276 0.314602 0.101754 0.389366 0.224754 -0.08926 0.393761 -0.041338 0.071113 0.006927 -0.114117 0.175202 0.362067 -0.020319 -0.22206 -0.132723 -0.102933 0.129851 -0.261182 -0.218358 -0.131208 0.21719 0.077754 0.18199 0.414896 0.331714 -0.107235 -0.426387 -0.181938 0.038931 -0.139989 0.458168 -0.145137 -0.19313 0.066703 -0.055679 -0.152892 0.020294 -0.106194 -0.082546 -0.175633 -0.157155 -0.07357 -0.156999 0.022853 -0.113627 -0.231363 -0.056487 -0.133199 0.049645 0.141678 -0.076368 0.324536
Maradona 0.286755 0.27164 0.011562 0.126618 -0.121735 -0.074958 -0.007262 -0.162152 -0.220968 0.01495 0.181984 -0.286792 0.225864 -0.109601 0.030705 0.15383 0.152079 0.084566 -0.020697 -0.252478 0.027072 -0.237017 -0.096787 0.062965 -0.099982 -0.040643 -0.194412 -0.126805 0.096504 0.120695 -0.023755 -0.153858 0.48646 -0.209445 0.129568 0.442025 0.079577 -0.093625 -0.020843 -0.580928 -0.243238 -0.233433 0.551231 -0.043083 -0.131712 0.192152 -0.019244 0.189843 0.372365 0.185216 -0.13259 0.279391 0.321612 0.091609 -0.05886 0.214602 0.305701 -0.09987 0.06665 -0.306994 -0.556449 -0.052637 0.192699 -0.400784 -0.463423 0.043767 -0.10949 -0.197106 0.244612 0.22467 0.052271 0.155751 -0.205251 -0.423313 -0.157042 -0.053667 -0.086965 -0.513566 -0.092533 -0.133595 0.011672 -0.590319 -0.21463 0.395644 0.163333 -0.011708 0.054085 0.00726 6.49E-4 0.159628 -0.010331 0.151283 -0.051043 0.100649 -0.283529 -0.106339 3.2E-5 0.07667 0.185291 0.14676 0.240349 0.251983 -0.050244 -0.171068 0.468708 0.321217 -0.224255 0.093041 -0.048051 0.478212 -0.034693 -0.00638 0.573475 0.217306 -0.01795 -0.335823 0.048312 0.04761 0.364913 -0.019501 0.011787 -0.28211 -0.187355 0.157364 -0.051286 0.342047 -0.150645 0.169135 0.246257 -0.206018 0.079 -0.14889 0.189031 0.427143 -0.316459 -0.425219 0.347439 -0.323913 -0.324676 -0.144444 0.792288 0.22154 -0.223372 -0.541963 0.048522 0.175646 -0.145153 0.38396 0.267255 0.351739 -0.260064 -0.015365 0.454866 -0.090111 -0.135628 0.262986 0.20188 -0.111818 -0.062038 -0.012404 0.239526 0.082121 0.179765 0.131742 0.067351 -0.115545 0.121836 -0.401681 0.460518 0.151438 -0.248709 0.210387 -0.110932 0.093066 -0.347457 -0.128466 0.118123 0.13222 0.312321 -0.223874 -0.418571 -0.25566 -0.244168 -0.300175 -0.142416 -0.088741 -0.103258 -0.198877 -0.130239 -0.15294 -0.091321 -0.283519 -0.233955 -0.121764 -0.069815 0.132103 -0.085259 0.03677 0.115462 0.230828
anxiety 0.269532 -0.144852 -0.240749 0.134367 0.29239 0.205258 -0.254975 -4.95E-4 -0.304787 -0.182276 -0.165847 -0.10222 0.05563 -0.255528 0.144506 -0.449599 0.135786 -0.088988 -0.164604 0.155854 -0.063047 0.023405 0.138794 -0.45994 0.326934 -0.006377 0.123006 0.350612 0.313921 -0.376592 -0.060899 0.221692 -0.277737 0.002481 -0.031507 -0.044184 -0.419854 0.050844 -0.014519 -0.033617 0.174935 -0.090104 0.176258 0.194929 0.157945 -0.077741 0.413135 -0.128246 0.059284 0.447125 0.439096 0.008074 0.286174 -0.021707 -0.189408 -0.01245 0.242447 -0.237094 -0.283945 -0.072036 0.266585 0.056076 -0.156301 0.350334 -0.244142 -0.17508 0.039855 0.139935 0.18618 -0.186056 0.261092 -0.137051 -0.332172 0.236189 -0.135288 0.068475 0.032297 -0.109092 0.173385 0.05439 0.044655 0.134186 -0.038934 -0.128547 0.087708 -0.122024 -0.046595 -0.081697 -0.09898 -0.284681 -0.058612 -0.174748 0.012104 0.109262 -0.256884 0.049095 0.092899 -0.19376 0.063901 0.051286 -0.086314 0.170667 0.372457 0.043851 0.186665 0.066817 0.06618 -0.313692 -0.101389 0.080131 -0.368884 0.042703 -0.044186 -0.01975 0.167383 0.036727 0.061426 0.237965 -0.006709 0.207205 -0.141954 -0.020988 -0.206139 -0.103849 -0.196895 0.247104 -0.01486 0.076742 0.126854 0.030294 0.495222 -0.055804 -0.207237 -0.159096 -0.004801 0.131025 0.064881 -0.051859 0.08368 -0.065098 0.321623 0.121678 -0.409362 0.090114 -0.082783 -0.110063 -0.069736 0.031695 -0.114186 0.439183 -0.005224 0.295842 -0.151891 0.061393 0.202325 0.397868 0.191971 0.086909 -0.334543 -0.038216 -0.029478 0.067233 -0.153906 0.026851 0.166874 0.043846 0.057078 0.19477 0.093108 -0.35652 0.236759 0.076852 -0.087202 -0.037375 -0.003906 0.044363 0.242365 -0.266757 0.164606 0.170565 0.041324 0.046642 -0.536892 0.222007 0.176878 0.200105 0.12364 -0.193163 0.295793 -0.070702 0.123998 -0.38139 0.138351 0.348896 -0.112361 -0.189492 0.088481 0.050629 0.207691 -0.248946
jazz -0.030999 0.075636 0.021596 0.028899 0.320304 -0.376842 -0.148252 -0.18458 0.112898 0.666595 0.170966 -0.008387 -0.054062 0.249252 0.230133 0.026572 0.139932 -0.110816 0.031636 -0.028461 -0.411294 0.008714 0.127397 0.030116 -0.005649 -0.019131 0.345438 0.07275 0.045296 0.135611 -0.136652 -0.122658 0.10541 -0.251852 -0.234794 0.124923 0.58354 -0.103594 0.015534 -0.243726 -0.110657 -0.262862 0.334835 -0.12738 -0.270319 0.040593 -0.173252 0.276102 -0.15445 0.41463 0.118801 0.361426 0.361488 0.068877 -0.069692 -0.037548 -0.165766 0.109029 -0.022486 -0.019851 -0.49335 -0.139363 0.020461 0.105569 -0.047597 0.052411 0.03898 0.079071 0.104351 -0.220755 0.350152 -0.403828 -0.072176 0.275831 -0.014298 -0.208544 0.240306 -0.113682 -0.144187 0.021403 0.043623 0.058562 -0.004177 -0.067557 0.127379 0.034154 -0.078329 -4.66E-4 -0.169677 0.194699 0.012806 0.172451 -0.021355 -0.318678 0.010451 -0.416252 -0.084934 0.033461 0.381041 0.085177 0.315035 -0.20405 -0.178645 -0.137741 0.214265 0.096548 -0.412739 0.158671 0.063815 -0.106191 -0.350494 0.199505 0.122719 0.05892 -0.045995 0.157221 0.042656 -0.162057 -0.133656 -0.128539 0.010949 0.464248 -0.34421 -0.052465 0.268762 0.491026 0.361844 0.033644 0.221784 -0.089955 0.027539 0.176574 0.0415 -0.314284 0.349907 -0.155341 -0.085806 -0.075678 0.196394 -0.172792 0.091405 -0.099773 -0.042328 -0.323615 -0.08366 -0.177751 0.335297 -0.278814 -0.136973 0.114426 0.115705 0.135887 0.06386 0.070965 0.214659 0.039317 0.110213 0.190364 0.357037 0.104071 -0.11904 0.049222 -0.13078 -0.273773 0.056792 -0.286334 0.135187 0.294076 0.041401 -0.060386 -0.089535 0.111236 0.471934 -0.271936 0.065806 -0.049703 -0.024512 -0.223369 0.532021 0.069252 0.164472 0.264249 -0.095568 0.671816 -0.050854 -0.040894 -0.088587 -0.21643 0.070486 -0.308275 0.217335 -0.207701 -0.229185 0.199474 -0.451464 0.007039 0.258553 0.122596 0.253034 -0.107646
gain 0.161289 0.172497 0.061855 -0.142413 -0.232681 -0.044884 -0.116182 0.012476 -0.149393 -0.219216 0.072699 0.023645 -0.157337 -0.012778 -0.307279 -0.232813 -0.001925 -0.028873 -0.024055 0.166039 -4.9E-5 0.423421 -0.142777 0.257737 -0.131545 -0.291507 -0.108891 -0.013316 0.08754 -0.264601 0.266608 -0.108034 0.005735 -0.108354 0.073202 -0.223928 -0.08462 -0.013386 -0.429343 -0.245436 -0.086109 0.010795 -0.050605 0.147403 -0.062561 0.116354 0.276022 -0.175445 0.098877 -0.235393 -0.208689 -0.093417 -0.163879 -0.068479 -0.116367 0.050417 -0.070694 -0.235997 0.148231 -0.158725 -0.346979 0.174494 -0.020142 -0.184276 0.103081 -0.042241 -0.114158 -0.242013 -0.160578 -0.142542 0.212143 -0.037479 0.060759 0.096274 -0.275489 0.200156 -0.293485 -0.087337 -0.250195 -0.124187 -0.172604 0.04613 0.122088 -0.155371 -0.173513 0.165101 0.006982 -0.102802 0.05503 0.110388 0.084004 -0.19481 -0.186103 0.027232 0.081311 -0.238331 -0.014434 -0.279738 -0.284761 0.336113 -0.122997 0.058133 0.026669 -0.230534 -2.8E-4 0.315656 0.081868 -0.32757 -0.00342 -0.25798 -0.160454 -0.118116 -0.021355 -0.048712 0.01328 0.181547 -0.011914 0.134929 -0.184766 0.227927 -0.101483 0.073354 -0.067657 -0.00558 0.0129 -0.095801 0.106555 0.129324 0.03163 -0.185769 0.028367 -0.191427 0.23183 -0.206946 0.10133 -0.114162 0.315084 -0.2495 0.268021 -0.193683 0.170889 0.242991 0.17022 0.358553 -0.17558 0.151767 -0.301777 0.222354 0.163442 0.194406 0.162064 0.070111 0.068092 0.195652 0.164217 0.01192 0.020032 -0.127449 -0.168877 -0.259281 0.130221 0.328737 0.019878 0.001512 -0.024379 -0.184895 -0.123377 -0.305718 -0.012649 0.0936 0.309292 -0.394976 0.066619 -0.074327 0.143305 -0.149096 -0.234056 0.298104 -0.301417 -0.118386 0.134497 0.259319 -0.198608 0.108387 0.038806 -0.171399 0.113859 -0.111974 0.044744 -0.240105 0.015374 0.097542 0.374237 0.100895 -0.030259 -0.230501 0.006679 0.051963 0.374547 -0.082662
history 0.141791 -0.117978 -0.016082 -0.269941 0.095833 -0.108131 -0.202831 -0.252983 -0.101775 -0.019984 0.019024 -0.130444 -0.013552 -0.113049 0.108892 0.081222 0.156042 0.023028 0.068372 0.046638 -0.228381 0.245689 0.218375 0.433827 -0.04879 0.115906 0.018247 0.0544 -0.029975 -0.228739 -0.025087 -0.007882 0.040464 -0.203415 0.057371 0.23917 -0.018147 -0.150648 0.007142 0.075173 0.13053 -0.235903 0.081077 -0.007754 -0.282211 -0.019496 -0.124653 -0.095244 -0.114923 0.359905 0.315888 0.350708 0.137289 0.036107 0.083583 -0.008011 0.066913 0.075015 -0.101991 -0.143626 0.177942 0.029435 0.12865 0.040777 0.156455 0.022462 0.13457 0.01937 -0.121206 -0.205315 0.09567 0.071461 -0.06803 0.400906 0.102337 0.164741 -0.028683 0.002333 -0.12536 -0.028579 0.133082 0.246598 0.092452 -0.161044 0.0487 -0.150895 -0.046433 -0.019785 -0.149362 0.321831 -0.135727 -0.025326 -0.058593 -0.084127 -0.106664 -0.119443 -0.173842 0.071747 -0.067791 0.099585 -0.170014 0.260499 0.047186 -0.19749 0.17054 -0.07017 0.197763 0.041669 0.107026 0.044449 -0.45091 -0.144199 0.2743 4.58E-4 -0.26336 0.109027 0.018892 0.143496 -0.257171 -0.083212 0.070031 -0.0193 -0.206436 0.017593 0.086414 0.335064 -0.040383 0.264607 -5.77E-4 -0.046324 0.065666 -0.046915 -0.160468 0.276826 -0.133376 -0.145739 0.102978 0.062172 -0.090348 -0.164086 4.06E-4 0.079781 0.00236 0.149987 -0.223341 0.089599 -0.127487 -0.016806 0.2299 0.11967 0.137215 0.179272 -0.079511 0.209139 0.220524 -0.021002 -0.173849 -0.121293 0.048912 0.179519 -0.086043 0.106398 -0.233345 0.08833 -0.197729 0.165523 0.11152 -0.071221 0.090422 -0.070174 -0.218662 -0.27653 -0.028564 -0.111199 0.16469 0.141093 0.24072 0.216274 0.249249 0.062247 -0.13594 -0.140488 -0.063572 -0.007689 0.038611 -0.006558 0.068935 -0.175028 0.077 0.11223 0.010761 3.65E-4 -0.213346 0.264876 -0.153081 -0.163275 0.113135 -0.123544 0.193044 -0.05838
bird -0.014867 0.31194 0.397883 0.072933 -0.030994 -0.249147 -0.148079 -0.13317 0.039838 0.162867 0.088592 -0.277182 -0.211953 0.190988 -0.361809 0.09082 0.16082 0.032208 -0.244825 0.139538 0.086629 -0.220046 -0.45256 0.366697 -0.055244 0.068277 -0.278886 -0.267816 0.362397 0.260328 0.076049 0.155757 0.317167 0.075341 -0.229786 0.076851 0.128829 0.077076 0.602232 0.138251 -0.077827 -0.090956 0.011656 0.218838 -0.049863 0.189762 -0.086167 -0.023457 -0.281076 0.03294 0.298371 -0.237495 -0.113319 -0.133889 -0.015863 -0.089035 -0.079943 0.236851 0.695195 -0.026493 -0.183413 0.048711 -0.175556 0.135787 -0.222837 0.139824 -0.252678 0.322689 -0.005646 -0.33222 0.183442 0.096489 -0.283694 0.009586 -0.005075 -0.164062 0.219398 -0.114469 -0.068332 0.041716 0.023993 0.157071 -0.027821 -0.123943 0.203821 -0.02947 0.133764 0.238789 0.08264 0.157532 0.192119 -0.196263 -0.145185 -0.013857 -0.139466 -0.156942 0.134017 -0.081585 -0.192567 0.076504 -0.094411 0.031712 -0.101067 0.008936 -0.01114 -0.159954 -0.057457 -0.350003 0.146009 -0.187233 -0.224057 0.144513 0.141416 -0.091026 0.259091 -0.411316 -0.164438 -0.031311 -0.243928 -0.142126 0.26681 -0.234684 0.123374 0.182322 0.221953 -0.007411 -0.228272 -0.038087 0.0543 -0.013073 0.399671 -0.382468 -0.278051 -0.057831 -0.071398 -0.008182 0.027084 0.173697 -0.045579 -0.082878 -0.105099 -0.088463 -0.187736 0.063817 -0.320178 0.105949 -0.138971 0.341142 0.370586 0.293901 0.044179 0.052397 0.275174 0.081482 0.020947 0.177458 0.395919 -0.015956 -0.06824 -0.153616 -0.2115 -0.269759 0.003823 0.050226 0.219897 -0.122918 -0.032814 0.006996 -0.240432 0.028438 0.040052 0.105646 -0.08879 -0.119213 -0.118193 -0.152976 -0.070663 -0.103781 0.389241 -0.053709 -0.037304 -0.487107 0.089425 0.20251 6.16E-4 0.016194 -0.056105 -0.196951 -0.015721 0.288542 -0.136406 0.259164 -0.21655 -0.145606 -0.238719 0.222058 0.203167 0.417062 0.381552 -0.260832
possession 0.291561 -0.294443 -0.089218 -0.211624 0.145493 -0.200463 -0.129647 -0.00751 -0.122436 -0.306689 -0.438848 -0.119618 0.12701 -0.231945 0.027409 -0.251321 0.130308 -0.383603 0.10723 -0.098291 -0.485174 -0.058234 -0.254178 -0.162844 -0.129116 -0.073349 -0.184715 -0.315974 -0.060388 -0.096794 0.306486 0.241492 -0.215167 0.175038 0.331437 -0.198941 -0.182672 -0.019129 -0.221707 -0.108052 0.22674 0.202233 0.025376 -0.069939 -0.1788 0.065413 -0.155562 -0.280837 0.309975 0.061806 -0.223597 0.348859 -0.195312 0.04656 -0.140833 -0.381202 0.047565 -0.089824 0.247599 0.222774 -0.277691 0.250772 0.282254 -0.205614 -0.08649 0.25209 0.034195 -0.039568 0.435366 0.152065 -0.015138 0.1613 -0.066875 -0.031685 -0.481373 -0.087256 -0.119288 -0.114246 -0.37647 -0.071143 0.041372 0.294548 0.034554 0.162569 -0.294329 -0.19066 -0.188733 0.031362 -0.252769 -0.114175 0.020255 0.33244 -0.422325 -0.366109 0.084014 -0.076989 -0.082039 -0.220996 0.01606 -0.102753 0.005249 -0.03499 -0.215879 -0.184197 0.177402 -0.050073 -0.023847 0.243233 0.059706 -0.05958 -0.356362 0.20701 -0.265475 0.425395 -0.198964 0.203245 0.353963 0.50178 0.157751 -0.141122 0.371385 -0.207179 -0.0632 0.159607 -0.14749 0.11654 0.148119 -0.101116 -0.189026 0.11728 -0.065324 0.013442 -0.142221 0.136688 0.361644 0.115265 0.313187 0.118925 -0.098438 -0.090459 -0.02238 0.318724 -0.004335 -0.193045 -0.178717 0.35536 -0.022484 0.553201 0.387925 -0.233781 0.13655 0.471722 -0.137693 -0.070164 -0.010358 -0.175345 -0.032087 -0.379693 -0.027997 0.293604 -0.163646 0.100915 -0.070988 -0.101435 0.203873 0.025869 -0.277846 -0.269375 0.073111 0.021451 0.124032 -0.048092 -0.120026 0.017175 -0.294112 -0.20883 -0.188924 0.302399 0.301148 -0.296638 -0.401168 0.375051 -0.299757 0.262089 -0.02199 -0.334622 -0.152553 -0.149144 -0.272946 0.368716 0.431993 0.289455 -0.322102 0.296891 -0.380636 0.159902 -0.11526 -0.193862 0.277534 0.231388
chemistry 0.320865 -0.045585 0.069329 -0.159298 -0.110108 -0.306368 -0.168028 -0.147722 -0.151378 0.031958 -0.289552 -0.092573 -0.081284 0.091473 -0.016307 0.223653 0.191296 -0.400422 -0.063614 0.168505 -0.318853 0.134356 0.108964 0.13295 0.177795 -0.011581 0.12632 -0.070231 0.221856 -0.423664 -0.121658 0.039052 -0.020074 -0.17484 0.15636 -0.343192 -0.094839 -0.362993 0.209411 0.083096 -0.165566 0.21832 -0.064778 0.08261 0.136262 0.001101 -0.260112 -0.045639 -0.05104 0.018107 0.267308 0.06177 0.368024 -0.186754 -0.168691 0.005276 0.075066 0.237656 -0.214883 -0.214846 -0.296836 0.225871 0.035411 0.169597 0.104147 0.086119 0.071567 0.169839 -0.037029 -0.326001 -0.011364 0.006414 0.076999 0.265711 0.080077 0.085178 -0.225178 -0.0968 -0.314322 0.071661 0.195034 -0.277245 -0.175561 -0.065465 -0.274341 -0.165697 -0.078671 -0.237473 0.134834 0.055483 0.097808 -0.161759 0.075529 -0.049839 -0.176107 -0.246801 0.013799 0.12288 -0.223191 -0.155676 0.262843 -0.020059 -0.257676 0.05859 0.16371 -0.116195 -0.105574 0.115015 0.134618 -0.149071 -0.59774 -0.009672 0.307885 -0.101879 0.422298 -0.104326 -0.039618 0.358629 0.178016 -0.167042 0.042965 0.07971 -0.214327 -0.023972 -0.28728 0.166892 0.145078 -0.090104 -0.121435 -0.122497 0.126655 0.179847 -0.143313 0.127638 0.454838 0.08443 0.176359 -0.173722 -0.080848 -0.073961 0.09736 0.151564 -0.012959 -0.098826 -0.293883 -0.093863 -0.010003 -0.124435 -0.027147 0.435037 -0.019041 -0.213965 -0.150494 0.232369 0.02688 0.141421 -9.18E-4 0.194337 0.226437 -0.132986 0.105615 -0.425602 -0.117433 0.327944 -0.029432 0.00474 0.039217 0.016547 0.346905 -0.127224 -0.281063 0.180599 0.340708 -0.447035 0.121751 -0.100137 0.376774 -0.098592 0.222794 0.115638 -0.047005 0.050204 0.123021 -0.202783 0.19162 0.201102 0.153915 -0.131852 0.017991 0.216553 0.337851 0.026975 -0.094458 0.11923 -0.041522 -0.134681 0.072026 -0.007353 0.469507 -0.059401
yen 0.71253 0.680912 0.405255 0.258568 -0.141368 -0.344421 -0.156092 0.5765 0.11323 0.189211 0.21666 0.362265 -0.218244 0.476075 -0.216536 -0.07157 0.4461 0.374167 -0.125576 0.589834 0.321183 0.676528 -0.434557 0.034534 -0.039645 -0.513378 0.211228 0.070515 0.255496 0.360279 0.429733 -0.050902 0.044294 0.632751 0.327518 -0.553345 -0.178137 0.898602 -0.233236 0.199876 -0.019831 0.177071 -0.115199 -0.209582 0.145679 0.196384 0.168065 -0.156207 0.665687 0.280562 0.473116 0.014385 -0.239999 0.156747 0.238496 0.461259 -0.344532 0.26169 -0.175929 -0.456258 0.186589 0.263459 0.165764 -0.53008 -0.205998 -0.29465 0.479315 0.172361 0.143665 0.062947 -0.138069 -0.05987 0.549713 -0.141808 -0.303395 0.509332 -0.117361 0.550402 -0.13988 -0.439179 -0.435709 -0.382772 -0.387849 -0.110867 -0.580862 -0.386953 0.038926 0.2819 -0.467543 0.346294 -0.208343 -0.287603 0.053716 -0.246494 -0.012892 -0.396466 0.234083 -0.390588 0.336502 -0.041841 0.220636 0.382104 -0.208296 -0.475083 0.018132 0.963124 -0.464125 0.235397 0.169179 -0.130199 -0.034819 0.283278 -0.162152 0.319022 -0.126773 -0.02728 -0.105642 -0.202632 -0.061509 0.288733 -0.349536 0.020488 -0.216611 0.3515 0.1312 -0.729261 0.02487 0.005921 0.351057 0.102983 -0.270406 -0.311771 0.772691 -0.157444 0.344698 -0.703954 -0.04813 -0.064797 -0.634872 -0.09678 0.108357 0.492528 -0.508384 0.130036 -0.160453 -0.255634 0.220509 -0.103263 -0.443123 0.874756 0.340424 -0.039822 -0.093315 -0.145665 0.430902 0.570908 0.210462 0.187026 -0.193267 0.05122 0.097017 0.359854 0.295287 -0.391002 -0.00401 -0.080255 -0.492476 0.198856 -0.479415 -0.164998 0.225732 -0.554819 -0.655742 0.21244 -0.003938 0.278647 -0.413674 -0.298033 0.341472 -0.202806 -0.6881 0.217635 -0.145111 0.042735 0.588825 0.203528 0.143221 0.050645 -0.220811 0.057139 0.368231 0.1455 0.624565 -0.466018 0.298528 0.103426 0.088713 -0.029785 0.237064 -0.039616
library 0.124514 0.31593 0.23465 -0.393867 -0.028151 0.230839 -0.195213 -0.355331 0.077493 0.239402 0.018245 -0.029341 0.075018 -0.171042 -0.062192 0.024285 0.342392 -0.06398 0.147504 -0.083495 -0.240695 0.234498 0.12141 0.069923 -0.272153 -0.047643 -0.18951 -0.117555 -0.118869 0.024 -0.167162 0.022383 0.10658 -0.188479 0.062773 0.0039 0.113169 -0.174137 0.116162 -0.047508 -0.099733 -0.011398 0.07261 0.096952 -0.1368 0.03633 -0.196212 0.059798 5.7E-5 -0.019595 0.203293 0.116957 -0.014958 -0.237861 0.018841 -0.059557 0.165227 0.307538 0.159075 -0.362685 0.024967 -0.315866 -0.043707 0.198058 -0.165912 0.165503 0.018458 -0.098388 -0.061937 -0.020818 0.045493 0.182243 0.093784 0.154556 -0.315469 0.178132 0.045952 -0.241295 0.213073 -0.150548 0.013023 0.150511 -0.138541 -0.025008 -0.032513 0.082081 -0.01937 -0.02356 0.093292 0.243946 0.030164 0.067846 0.132638 -0.276169 0.051702 -0.253038 0.148239 -0.212742 0.171031 0.027341 -0.040779 -0.056266 -0.125161 -0.110705 -0.086191 -0.047244 -0.378567 -0.141008 -0.139708 0.062409 -0.30873 -0.004528 0.175376 -0.093071 -0.054059 0.072945 -0.048777 0.271312 -0.233626 -0.241865 0.175451 -0.061614 -0.089974 -0.018953 0.19346 0.166823 0.163727 -0.00203 -0.207834 -0.018214 -0.075119 0.124339 -0.024646 -0.120748 -0.001863 0.126391 -0.210424 0.119753 0.202101 -0.134315 -0.237135 -0.148536 0.209932 0.062774 -0.264411 -0.161069 -0.196225 0.099035 0.055881 -0.202907 0.271908 0.019331 -0.053474 0.066797 0.360343 0.10119 0.084959 0.025762 -0.001632 0.027963 -0.17046 -0.009972 -0.272716 0.032386 -0.044352 0.093792 -0.063357 -0.083085 -0.043535 -0.045611 -0.290332 0.074499 0.046063 -0.41952 0.193605 0.236851 0.084047 -0.139575 -0.046848 -0.148067 0.127547 0.213528 -0.30809 -0.153262 0.112065 0.053787 -0.195854 -0.006747 0.16863 -0.285317 -0.175174 0.086045 -0.047199 -0.03146 -0.020629 -0.121967 0.080276 0.047411 0.146678 -0.185369
virtuoso 0.145469 0.183403 0.094278 -0.241736 0.216093 -0.507013 -0.166475 -0.015074 -0.121308 0.465519 0.047249 0.013139 -0.15575 0.334168 0.051449 -0.332415 -0.034987 -0.100093 0.014806 0.167908 -0.433437 -0.178113 0.293951 0.247647 0.11293 -0.177645 0.209067 -0.092113 0.230154 0.197725 0.130547 0.085753 0.298957 -0.041425 -0.062924 0.05554 0.428243 0.051298 0.023862 -0.38111 -0.053653 -0.151014 0.236446 0.109164 0.061072 0.114612 -0.491299 0.17717 -0.219935 0.571863 -0.023729 0.318769 -0.091547 0.222258 -0.249413 -0.153749 0.201223 0.17954 0.055846 0.061597 -0.221896 -0.052759 0.044407 -0.086624 -0.164595 -0.08611 0.115972 0.284057 0.047169 0.211131 0.065819 -0.116455 0.155917 0.21912 0.036217 0.088651 0.079177 0.031738 -0.058033 -0.016988 -0.101005 0.093194 -0.203483 -0.041748 0.030893 0.006836 0.235421 0.021479 -0.187752 0.118315 0.156556 0.015264 -0.033391 -0.335086 0.045481 -0.134309 0.030263 -0.187228 0.315118 -0.186803 0.646323 0.017931 -0.211647 -0.21556 0.195242 -0.061328 -0.306408 0.417084 0.114326 0.140041 -0.427962 0.172035 0.072486 0.089556 -0.067922 0.181287 0.37043 -0.06651 0.128563 -0.193934 -0.140884 0.262958 -0.021764 0.266746 0.323916 0.436946 0.22892 0.049821 0.22422 -0.113723 0.121018 -0.057324 -0.168593 -0.163674 0.199051 -0.503028 0.015174 -0.127122 0.091281 -0.096176 0.058132 0.06495 -0.093676 -0.262681 -0.150397 0.015628 0.304437 -0.147229 -0.096189 -0.007394 0.28964 -0.372507 -0.186277 0.100882 0.004491 0.29543 0.038216 -0.093612 0.306355 0.104361 -0.087622 -0.005631 -0.124147 0.035928 -0.040712 -0.082907 0.059314 0.209552 0.246962 -0.073765 0.005769 0.010017 0.366042 -0.057008 -0.180886 -0.267796 -0.244997 0.028877 0.38374 0.228589 -0.268947 0.164905 -0.150136 0.415605 -0.199518 -0.058949 0.196966 -0.302734 0.04538 -0.57766 0.151767 -0.081098 -0.389187 0.308673 -0.326529 -0.181125 0.282445 0.287549 0.253068 0.077237
psychiatry 0.240484 -0.700636 0.135056 -0.267455 0.392992 -0.357867 0.052205 -0.51194 -0.555343 0.302329 0.090128 -0.013834 -0.158258 0.145682 -0.052626 0.705031 0.317388 -0.426813 0.36031 0.640758 -0.318156 0.204255 -0.091249 -0.434755 -0.363682 -0.191162 -0.226494 -0.038394 0.016385 -0.217867 -0.154874 -0.451376 -0.370797 -0.232151 0.2127 -0.172077 -0.358222 -0.716645 0.016888 -0.075127 0.491139 0.427331 -0.472218 -0.295682 -0.29094 -0.280391 -0.133099 -0.260966 -0.496154 -0.014947 0.536333 0.367593 0.26501 0.58144 -0.554919 -0.004083 0.603975 -0.287233 -0.254659 -0.477649 -0.265059 0.285281 0.055436 0.420682 -0.155416 0.709261 0.225549 0.423822 0.323225 -0.109429 0.205468 0.289076 0.418748 -0.089332 0.146511 0.368249 -1.050602 -0.251786 -0.054871 -0.352177 0.251011 0.02735 -0.107334 -0.614679 -0.522322 -0.456043 -0.116794 0.035556 0.253456 -0.413441 0.015875 -0.500455 -0.072826 -0.328507 0.197859 0.116219 0.158872 0.021053 0.33105 0.111373 0.291798 0.017048 -0.205019 0.199394 0.160569 -0.165891 0.189177 0.332187 0.270061 -0.049412 -0.343821 0.066556 0.321814 -0.206115 -0.30352 -0.127431 0.489754 0.549675 0.441764 -0.514856 0.569476 -0.462622 -0.167977 -0.031973 -0.080657 -0.208537 -0.298152 0.017966 -0.201663 -0.066784 0.098688 0.367694 0.03411 0.614227 0.264165 0.194058 0.02422 -0.314818 0.049706 -0.579203 0.478019 0.029948 0.089547 0.046703 -0.671626 0.098904 -0.272508 -0.516392 -0.199567 0.145799 -0.471364 -0.065017 -0.23629 0.250212 0.995686 0.443186 0.008076 0.387825 -0.234381 0.05414 -0.36398 -0.118225 -0.242077 0.514464 -0.3288 0.531492 -0.257951 -0.00988 -0.13297 0.071035 0.046678 -0.126408 0.109107 -0.392272 0.029519 -0.397003 0.240485 -0.12334 0.262023 -0.01001 -0.711664 0.040002 -0.098773 -0.251229 1.051418 0.125036 -0.170804 -0.310639 0.821964 0.24402 0.014889 0.120217 -0.476306 0.236698 -0.286657 -0.23565 0.168494 -0.290147 0.711141 -0.203186
