432 200
president -0.160346 0.214154 0.037873 0.107807 -0.046503 0.076961 -0.059991 -0.007827 -0.210305 0.204857 0.16281 0.177301 -0.037591 0.198611 -0.114281 -0.017452 0.296013 -0.266805 -0.138202 -0.075655 0.181856 -0.128626 0.062617 -0.143672 -0.09292 -0.223176 0.29528 0.158798 -0.182922 -0.114862 0.397153 -0.014793 -0.080115 0.121149 0.003432 -0.143694 0.236392 0.111094 -0.079408 -0.036777 0.016598 -0.033762 0.081932 -0.35693 0.01952 -0.036471 0.055971 -0.107373 0.066675 -0.186483 0.074987 0.19221 0.008398 0.047745 0.146269 0.020295 0.139538 0.087313 0.285073 -0.199813 -0.111063 -0.175124 -0.166918 0.177607 0.042186 -0.001282 0.08744 -0.122638 0.412712 -0.260596 0.330191 0.022566 -0.101152 -0.239439 0.341042 -0.09326 -0.062376 0.273792 -0.146992 0.022389 -0.093608 0.294159 0.216661 0.261834 0.205177 -0.040081 0.087503 -0.245722 0.154278 -0.112338 0.283511 0.41308 0.339037 0.03422 0.269849 0.178634 -0.323822 -0.115885 0.04392 -0.054716 0.126459 -0.231265 -0.093344 0.262672 -0.004297 -0.304466 -0.455084 0.077103 -0.023495 0.109609 0.096245 -0.104073 -0.017959 -0.080348 -0.1035 0.281736 0.301219 0.09228 -0.051395 0.130288 -0.056024 -0.030086 0.300922 -0.324456 -0.003849 -0.068345 -0.132091 0.159185 0.007705 -0.18132 0.144195 0.174054 0.306809 0.088783 -0.063437 0.160619 0.035269 0.317091 0.118444 -0.514313 0.086917 0.120094 -0.207078 0.119256 0.118365 -0.062778 0.154515 -0.126055 0.143696 -0.11182 -0.08134 -0.225556 0.199684 -0.11402 -0.205484 -2.75E-4 -0.302768 0.353977 0.117292 0.262282 -0.132301 -0.61347 0.116777 -0.330726 0.13223 0.006875 -0.065986 -0.138096 0.028761 0.092614 0.139873 -0.134691 0.116115 0.099201 0.055934 0.292046 0.082566 0.183663 -0.252597 -0.435727 -0.19967 0.184771 0.366295 -0.140168 -0.343113 0.431301 -0.343823 -0.155439 0.177318 -0.061306 -0.029307 0.071548 -0.072554 0.408653 0.040028 0.050623 -0.128882 -0.050361 -0.11193 -0.293735
monk 0.070891 0.049216 -0.152067 -0.049811 0.136567 -0.004323 -0.019326 -0.108988 0.008032 -0.053835 -0.124608 -0.048537 -0.036263 0.076945 -0.044375 -0.172182 -0.097993 0.1575 -0.019612 0.086013 -0.065256 0.089862 -0.074822 0.189372 0.100644 -0.030216 0.110721 -0.200855 -0.036075 0.002198 0.017028 -0.062219 0.018509 0.151428 0.046296 -0.102181 0.148513 -0.082586 -0.166816 0.017871 -0.026014 0.039448 0.101895 -0.072371 -0.009723 0.041667 -0.098585 -0.129201 -0.075745 0.0941 -0.039845 -0.012933 -1.17E-4 0.012706 -0.300734 0.035359 0.234544 0.067674 0.060602 0.016246 0.159081 -0.090063 -0.20992 -0.160465 0.012301 0.108407 -0.090538 0.230311 -0.015006 -0.076146 0.036263 -0.253704 -0.00627 0.026615 0.178543 -0.068377 0.080415 0.107092 -0.01293 0.153183 0.011597 -0.042486 -0.086239 0.131793 0.025251 0.104349 -0.076432 -0.088522 0.018536 0.087423 0.082101 -0.041175 -0.005323 -0.008105 0.013743 -0.052532 -0.089195 -0.074732 0.170815 0.095092 0.232063 -0.092409 -0.157428 0.030692 0.142881 -0.041206 -0.053134 0.067655 0.05374 0.067104 0.138818 0.026394 -0.067165 -0.086904 0.066448 0.063287 -0.078959 -0.040359 0.235547 0.153065 -0.036627 0.059174 0.091299 -0.016697 0.005141 0.054338 0.040456 0.012436 0.123318 -0.265428 -0.055507 0.130894 -0.092731 0.241971 0.119617 -0.121914 0.019702 0.092112 -0.0497 -0.044905 0.122024 -0.004112 -0.151916 -0.061236 0.109377 0.110736 -0.04418 -0.054316 0.031825 -0.039963 0.070224 -0.077515 -0.034639 0.020323 -0.165484 0.173669 -0.084434 -0.078973 0.022749 -0.022794 0.001798 0.041455 -0.024969 -0.142099 -0.098276 0.02295 -0.005185 0.092894 -0.236054 0.079226 0.147232 -0.073943 0.001066 0.120147 0.0136 -0.042631 -0.050349 -0.070835 -0.040923 -0.068963 -0.059186 0.050689 0.23842 0.07304 -0.087634 0.076092 -0.180694 -0.171392 -0.256232 -0.124557 -0.028835 -0.09292 -0.127253 0.291 -0.015342 0.136361 0.04028 0.064249 0.104348 0.106075
chance 0.075535 0.347873 -0.027369 -0.12248 -0.394646 -0.107663 0.191214 0.087576 -0.152402 -0.211376 0.204506 -0.038859 -0.026861 -0.041444 0.161265 0.183895 0.223285 0.094675 -0.219399 -0.276595 -0.277479 0.154117 0.18329 0.008972 0.077394 0.135997 0.111813 0.053192 -0.133763 -0.196833 0.020682 0.025636 -0.037023 0.068007 -0.117698 0.016215 0.156159 0.049042 0.11138 0.277414 -0.207362 -0.09275 0.022352 0.305062 -0.033129 0.026997 -0.138304 0.144114 0.19402 -0.048797 -0.216245 -0.175279 -0.202282 0.284058 -0.161792 0.423724 0.243114 -0.2422 0.244198 -0.353702 0.065058 -0.074969 -0.228187 -0.037293 -0.330213 -0.316722 0.206105 0.072183 0.049717 0.019359 0.123535 0.252682 0.004382 -0.091453 0.367594 0.195015 0.109939 0.15267 0.265265 0.178592 0.039721 0.222319 -0.162664 0.067673 -0.135808 -0.124837 -0.056438 -0.073432 -0.005094 0.206743 -0.035015 -0.093531 0.432342 -0.207602 -0.027764 -0.202629 -0.251993 -0.188532 0.144557 -0.258478 -0.051675 0.207632 -0.232544 -0.425808 -0.181121 -0.121746 -0.004742 -0.163447 -0.023743 -0.069273 3.27E-4 -0.21811 -0.241204 0.621185 -0.099682 -0.265968 -0.093638 0.078522 -0.058242 -0.09317 0.018082 -0.009984 0.242659 0.152151 0.516173 -0.087057 -0.115747 0.317577 0.01369 -0.363574 -0.058679 -0.252653 -0.010136 0.34751 -0.354274 0.052978 0.346608 -0.469917 0.02585 0.081012 0.237658 0.192106 0.101058 -0.274538 0.251705 0.161649 0.130571 -0.133655 -0.169255 -0.249269 0.021517 -0.195334 0.073386 -0.454956 -0.084027 -0.303875 0.186024 -0.026545 -0.134155 0.007206 0.036266 -0.176148 -0.267891 -0.086393 -0.240589 0.13253 -0.093705 0.055174 0.166972 0.068755 -0.369892 0.123061 -0.352241 0.188923 -0.110104 0.114954 0.094903 0.021409 -0.103595 0.011003 -0.155249 0.263915 -0.001347 -0.020883 0.274102 -0.150772 -0.135205 0.00288 -0.051729 0.261928 -0.105265 -0.183001 -0.195579 -0.142186 -0.036178 0.139074 0.176205 -0.285765 0.177678 -0.167857
party -0.012785 0.034486 0.127161 -0.141261 0.048142 0.043031 -0.080645 -0.371655 0.018579 0.048934 0.349791 0.09586 0.038067 -0.027337 0.143606 -0.162077 -0.255049 -0.04621 0.041204 0.038773 0.022289 -0.035877 -0.083919 -0.168371 0.162519 0.169747 0.198269 -0.085768 0.064493 -0.384072 0.35164 -0.195428 0.003573 -0.140841 0.016292 0.011762 -0.03749 0.40431 -0.097746 -0.330665 -0.132123 -0.242399 -0.0637 -0.025094 0.217325 0.117558 -0.263174 0.421346 -0.270299 -0.248087 0.10799 -0.176787 0.185731 0.321166 0.12434 -0.055998 0.243099 0.306705 -0.161737 -0.363773 0.077324 -0.087917 -0.077413 -0.064417 0.010947 -0.065752 -0.251066 0.103163 0.132515 -0.11802 0.128287 -0.045835 0.136843 0.164012 0.035212 0.002385 0.013571 -0.127879 -0.090557 0.180862 -0.011656 0.136451 0.019214 0.027797 -0.14966 0.112159 0.127827 0.014156 -0.052242 0.306178 0.157448 -0.188961 0.041975 0.054626 -0.035751 0.083432 -0.017003 0.174773 -0.117594 0.315711 -0.05151 -0.092332 -0.45688 -0.439499 -0.227593 -0.191343 -0.345768 0.395136 0.318732 0.145226 0.137506 -0.073537 -0.089175 -0.106286 -0.062464 -0.002825 6.5E-4 0.060419 -0.232569 0.104077 -0.078699 -0.063721 0.128961 0.097532 -0.005923 0.110759 0.115166 0.39132 0.105484 -0.178243 -0.106861 0.004204 0.362574 0.522757 -0.209549 -0.006041 0.188935 -0.00834 -0.233672 -0.067466 0.272444 -0.056884 -0.042173 0.181447 -0.089807 0.096246 -0.313303 -0.359575 0.035355 -0.238004 -0.145088 -0.068309 -0.091211 0.069331 -0.140162 -0.008115 -0.381845 -0.235247 0.193174 0.24911 -0.044278 -0.14269 -0.210367 -0.231297 -0.063629 -0.237872 0.140351 -0.04702 -0.328888 0.260586 -0.128646 0.308803 0.109384 -0.038892 -0.055298 -0.118017 -0.244264 0.078142 -0.103991 -0.147569 -0.249041 0.183032 0.050245 -0.046182 0.027989 -0.182622 -0.16571 -0.060175 -0.421344 0.130364 0.055227 -0.089276 0.197902 0.014232 0.174983 0.0652 0.093932 -0.296871 0.079365 -0.087275
psychology 0.248833 0.18108 -0.081725 0.089197 0.345766 0.120287 -0.091579 0.008763 0.375594 -0.095387 -0.459552 -0.008847 -0.091961 0.01003 0.023777 0.27113 0.072473 0.05151 -0.006084 -0.221599 -0.112435 -0.048919 -0.097336 -0.152636 0.1358 -0.192935 0.082627 0.119322 0.105693 0.226441 -0.045854 0.1524 -0.078268 -0.071777 0.023848 -0.168748 -0.081527 0.080215 -0.095646 -0.019674 0.138361 0.087954 0.088342 -0.066945 0.071198 0.051363 0.076148 -0.144963 -0.180007 0.151079 -0.069709 0.300201 -0.089227 -0.083958 -0.314809 -0.016276 -0.038223 0.182304 0.040695 -0.23523 0.079017 -0.015889 -0.18171 0.250078 -0.071522 0.028213 0.283184 0.15645 0.09492 -0.068352 0.102271 0.03057 0.005768 0.18301 0.294054 -0.03442 -0.096967 -0.082693 0.237338 0.110076 -0.100716 -0.010503 0.107042 0.052706 -0.002643 -0.025928 0.168306 0.16176 7.55E-4 0.047317 -0.026032 -0.078019 0.060872 -0.222291 -0.142945 -0.035943 -0.133046 -0.113604 0.315187 0.256147 0.270274 -0.14727 -0.216803 0.110843 -0.182554 -0.354532 0.084941 -0.108312 0.159979 -0.127602 0.065683 -0.136979 -0.229617 0.111161 -0.125586 0.069906 0.102622 0.022709 0.127919 0.088693 0.055635 0.174828 0.023825 -0.07185 -0.143103 -0.00336 0.017012 0.191307 -0.134483 -0.214614 -0.218744 -0.182625 -0.123655 0.268207 0.103909 0.036177 -0.140145 0.387057 0.005889 -0.152106 0.322374 0.113633 -0.022799 -0.04805 0.114298 -0.109045 -0.147018 0.091419 0.045534 -0.012132 -0.073957 -0.087438 -0.190768 -0.043618 0.024099 0.043677 -0.024863 0.130081 0.036794 -0.252791 -0.002261 -0.003911 -0.256288 0.276885 -0.01214 -0.160794 0.184014 0.350802 -0.09871 0.021567 -0.262685 0.147469 -0.014773 0.101027 -0.04688 0.008519 0.229469 -0.110759 0.113179 0.142188 -0.113153 -0.010172 0.013033 0.087208 -0.044663 0.067045 0.011378 -0.161916 0.125383 0.011883 0.153323 -0.083785 0.237999 0.046312 -0.086983 0.114997 0.077872 0.139771 -0.073459 0.255416
government -0.231209 -0.1341 -0.241333 0.056467 -0.128514 -0.003455 -0.093817 -0.047446 -0.357821 0.058097 0.254643 0.050603 0.037323 0.193299 -0.104908 0.158289 4.27E-4 -0.06085 0.210097 -0.06146 0.213069 -0.242577 0.180211 -0.097215 0.041599 0.108883 0.149627 0.058268 0.15322 -0.138263 0.206024 -0.285917 -0.087491 -0.301681 0.123241 -0.219407 0.061576 0.501891 -0.07981 -0.089361 0.015112 -0.009555 0.070592 -0.003832 0.168654 -0.134446 -0.028628 0.083802 -0.015286 -0.245778 0.202452 -0.006673 0.102706 0.187331 0.242428 0.151142 0.072187 -0.142323 -0.059261 -0.289684 0.11594 -0.127833 0.045278 -0.060831 0.104041 0.029508 -0.228688 0.044457 -0.325141 -0.043655 0.199291 0.218015 -0.019546 0.090957 0.014843 -0.082035 0.132839 0.031274 0.070787 -0.154503 0.186336 0.073014 0.073599 0.15644 -0.021181 0.194831 -0.085297 0.011637 0.230276 -0.05555 0.308692 -0.117835 -0.134651 0.313507 -0.088309 0.137539 -0.180322 -0.235154 -0.092539 -0.026291 0.13043 -0.019501 -0.19065 0.039359 -0.042436 -0.215374 0.044008 0.170171 0.281648 -0.197021 -0.006831 0.384456 -0.129699 0.209945 0.114877 -0.092092 0.114298 -0.121908 -0.103039 -0.130753 0.1044 -0.196437 -0.10439 0.10757 -0.287349 0.028685 -0.061056 0.129081 -0.11431 -0.154546 0.037513 0.119949 0.01157 0.200242 -0.119417 -0.163677 -0.15161 0.071275 -0.285511 -0.526466 -0.020286 0.081612 0.304478 -0.157997 0.243683 0.039331 -0.081679 -0.135271 -0.135653 -0.050637 0.112449 -0.118099 0.150085 0.112847 0.240264 0.104176 -0.28916 -0.055899 -0.238138 -0.045665 -0.07806 -0.252189 0.030251 0.042874 0.193855 0.086234 0.223343 -0.241762 -0.109374 -0.087624 -0.005157 -0.127529 0.053529 -0.090279 0.026641 -0.035951 -0.309666 0.036778 -0.073005 -0.392971 -0.285792 -0.196662 0.139094 0.064607 -0.096509 0.071766 -0.037051 0.225254 -0.14431 -0.030276 -0.074041 -0.149283 -0.021432 0.245835 -0.112909 0.215276 0.217499 0.022777 -0.090337 -0.104083
madhouse 0.044628 0.001172 0.003254 -0.005773 0.01408 -0.021316 -0.017882 -0.017048 0.022435 0.003927 -0.047113 -0.010152 -0.032871 0.008335 0.001046 -0.013889 0.004436 0.022981 -0.043327 -0.012305 0.003811 0.007448 -9.7E-4 0.015776 -0.010032 0.004618 0.007854 -0.020215 -0.013878 0.001507 -0.013803 0.011004 -0.012414 0.040732 0.001353 -0.019915 0.018379 0.001739 -0.018193 -0.016146 0.039339 0.004195 0.012805 -0.02005 -0.034858 0.003491 -0.001335 -0.007737 -0.002942 0.007246 -0.003503 0.031648 -5.15E-4 0.021283 -0.026546 0.007941 0.00882 0.002507 -0.028232 0.023252 0.004782 -0.028607 -0.012912 -0.004499 0.00583 0.009314 -0.009262 0.002088 0.026011 -0.024095 0.01204 -0.01544 0.013868 -0.005559 0.042774 0.004401 0.003923 0.019381 0.017058 0.026219 0.011258 0.011193 0.001466 0.034954 -8.74E-4 0.038206 0.018834 -0.017693 -0.036107 0.013788 0.02096 0.009228 -0.007937 -0.009675 -0.019424 0.004732 -0.012813 -0.006403 0.029422 0.047809 -0.001759 0.003945 -0.005241 -0.002509 -0.022845 -0.009561 0.003752 0.003544 0.007063 -0.010417 0.001902 -0.039296 -0.035746 0.022865 -0.014267 -0.033597 0.006296 0.001718 0.024334 0.025596 -0.042024 -0.016374 -0.011955 0.019733 0.01853 -0.019037 0.007129 0.007838 -0.004351 -0.027228 0.004156 0.009456 -0.040404 0.019515 0.008886 -0.009274 0.015826 -0.015627 0.009833 0.003976 0.024919 -0.030282 -0.034282 -0.015274 0.020169 -2.9E-5 0.028543 -0.004113 0.001089 -0.019109 -0.026417 -0.026275 0.018952 0.032703 -0.022825 0.009139 -0.024752 -0.013062 -0.004093 0.016039 -4.02E-4 0.023632 -0.014226 -0.029002 0.01755 0.00867 0.021202 0.040536 -0.010241 -0.008157 -5.67E-4 -0.047246 -2.0E-5 -0.012002 0.006604 -0.040614 -0.001085 -0.020633 -0.002559 -8.38E-4 -0.009796 0.007351 -0.01047 0.020772 -0.030671 -0.001697 -0.040659 -0.009784 -0.004045 -0.027943 0.029518 -0.002226 -0.02092 0.023159 -0.00637 0.013403 0.00931 -0.006122 0.036506 0.020034
video 0.141514 0.248604 0.115889 0.3374 0.355516 0.073574 -2.29E-4 0.385258 -0.030496 -0.289593 -0.595163 -0.265791 -0.241319 0.075043 0.051846 0.141898 -0.380477 -0.158054 -0.120575 0.253739 0.03445 0.071368 0.360726 0.252315 0.083033 0.496208 -0.201652 -0.10165 0.201578 -0.164027 -0.094702 -0.224074 -0.094281 -0.127605 -0.238286 -0.186833 0.072827 -0.231925 0.107478 0.313058 0.085085 0.07794 0.245753 0.089351 -0.081681 -0.245418 0.027251 -0.128891 0.049945 0.176068 0.04833 -0.02862 -0.293798 -0.246878 0.054246 0.318278 -0.062171 0.044702 0.098456 0.091194 0.042982 0.121903 -0.246302 0.326739 0.014149 0.377388 0.133508 -0.229153 0.105094 -0.209244 0.014399 -0.177546 0.36713 -3.4E-5 0.006544 0.104613 -0.057891 -0.122402 0.070048 -0.02211 -0.063414 -0.235864 -0.362151 0.444904 -0.14318 0.033853 0.168703 0.288194 -0.154895 -0.15536 -0.116672 -0.237519 -0.153699 -0.202394 0.039663 0.02308 -0.305216 -0.25372 0.040935 0.059922 0.08416 -0.249112 -0.011592 -0.190491 0.458105 0.37465 0.022166 -0.23423 -0.197803 -0.129032 0.549465 -0.052399 -0.023161 -0.115926 -0.269287 0.004649 0.355957 0.413374 -0.015082 -0.146741 -0.182556 -0.217828 0.072069 -0.175013 -0.177427 -0.283909 0.162245 -0.116263 -0.016013 -0.240639 -0.005227 0.172601 -0.078421 0.252094 0.188252 -0.270052 0.245197 -0.122877 -0.345404 -0.306904 -0.094174 0.043938 -0.150554 -0.145136 0.187139 0.035639 0.205593 0.010683 -0.036301 -0.127449 -0.131258 -0.287009 0.38183 0.094922 0.2358 0.21246 -0.009748 0.031097 0.227815 0.171249 -0.063079 -0.215726 -0.115722 0.101294 -0.062067 0.240309 0.150228 -0.189405 0.106553 0.138282 -0.118325 -0.090266 0.015472 0.167347 0.200891 0.032928 -0.015531 -0.04251 -0.33533 -0.046616 -0.184241 0.137901 -0.291687 -0.231694 0.083819 -0.292187 0.133559 0.020211 0.280881 -0.112171 -0.165864 -0.087062 -0.207093 -0.070376 0.106399 -0.389284 0.178956 -0.018984 -0.452548 0.160422
defeating 0.023986 0.201183 0.086829 -0.001379 0.052587 0.293982 0.144869 -0.091463 -0.072588 0.119148 0.270942 0.00139 -0.043226 -0.031934 -0.181377 0.096281 0.10279 -0.248643 0.126878 -0.160567 0.013895 0.102912 -0.129648 -0.05441 0.004782 0.252069 -0.082187 0.079212 -0.065416 0.006369 0.149401 0.120193 -0.036533 0.071412 -0.038747 0.015893 0.256135 0.050944 -0.014082 -0.101138 -0.168334 -0.138147 0.03096 0.072186 0.004956 0.053588 -8.92E-4 0.057587 -0.224145 0.172525 0.059947 0.199607 -0.094201 -0.045312 -0.02098 0.106255 0.005233 0.074915 0.038543 0.051042 0.204469 -0.05109 0.08291 -0.317567 0.181592 0.198774 0.102843 -0.110893 0.230798 -0.214051 0.019395 0.067985 -0.017948 -0.078664 0.330731 0.049945 -0.054866 0.072958 -0.021828 0.098336 0.301486 0.211749 0.087966 0.305417 0.076199 0.229492 0.125581 -0.164332 -0.215096 0.106542 -0.052124 -0.073694 0.05741 -0.23351 0.069458 -0.105339 -0.139997 0.340015 -0.11265 0.183294 -0.010523 -0.119764 0.125633 0.190581 -0.041171 0.154797 -0.006819 -0.073296 -0.020331 0.14003 -0.062494 0.149168 0.09506 -0.123256 0.00897 0.031611 -0.052566 -0.042417 -0.090659 -0.128343 0.087712 0.034263 0.088491 -0.215373 0.099161 -0.042522 0.044335 0.113604 0.147743 0.143503 -0.05834 0.066095 0.036901 0.327123 0.109199 0.024537 0.321813 -0.008487 0.262252 -0.267601 0.06892 -0.166282 -0.300204 -0.059529 0.021643 0.217433 0.288717 -0.250562 -0.137351 -0.339339 -0.195033 0.072225 -0.165608 0.111628 -0.172547 -0.058042 -0.186008 -0.023826 0.063533 0.009486 0.187532 -0.037003 -0.060126 -1.73E-4 0.152451 0.062313 -0.150474 -0.015095 -0.124799 0.145776 0.064281 -0.051358 0.151806 0.077078 0.112269 -0.184392 -0.160987 0.212581 0.163331 -0.175688 -0.109632 0.107521 -0.141545 0.1055 -0.139966 0.150796 -0.169627 0.110249 0.255212 -0.136506 0.165051 -0.055899 -0.135804 0.054382 0.05541 -0.077447 0.016587 -0.115059 -0.206675 0.156244
death -0.133246 -0.014864 0.167532 0.215136 0.28736 -0.139741 -0.193986 0.10931 -0.007372 5.16E-4 -0.276171 -0.058031 0.206809 -0.056696 -0.049876 -0.200128 -0.092381 0.138933 -0.355187 -0.004548 -0.107479 -0.016599 -0.208552 0.058498 -0.465043 0.103677 0.132926 -0.076241 -0.157391 0.166459 0.055489 -0.058539 0.023961 0.472184 -0.179023 0.011886 0.154741 -0.164382 -0.030388 -0.107593 0.061231 0.068731 0.042826 -0.174805 -0.052051 0.335641 -0.227734 -0.25391 0.131501 0.020302 -0.348042 0.062867 0.290791 -0.207999 -0.127066 -0.18078 -0.042522 -0.128868 -0.09413 0.189817 0.415175 0.213441 -0.055936 -0.580706 0.07189 -0.23597 0.216489 -0.0384 -0.099075 -0.249719 0.115339 0.084966 0.118826 -0.392524 0.18373 0.30531 -0.249413 -0.213224 0.021557 -0.120785 -0.374594 0.292062 0.020316 -0.371858 -0.229058 0.155241 0.187901 0.093707 -0.289742 0.522732 0.380605 0.120893 -0.217239 0.012885 -0.086422 0.164909 0.150678 0.018825 -0.211773 0.15168 -0.056557 0.122397 0.065278 0.199719 0.075541 0.261962 0.185444 -0.061526 0.207822 0.03844 0.212409 -0.183396 -0.350814 0.138455 -0.356051 -0.522028 -0.091295 0.250293 -0.131999 -0.16903 -0.150977 -0.018317 -0.062322 -0.111391 -0.053851 -0.297903 -0.024037 0.325628 -0.035555 -0.18301 0.031766 0.00607 -0.100012 0.314504 -0.074937 -0.157881 0.330653 0.264455 -0.071548 0.103161 -0.287825 -0.136087 0.122313 0.045822 -0.034311 0.321518 -0.175725 -0.387043 0.118093 0.105628 0.382111 -0.030917 -0.16127 -0.224555 0.044169 0.013766 -0.038318 -0.029561 0.314383 0.032065 -0.096584 -0.037744 0.031059 0.197275 -0.041249 0.306178 -0.038819 -0.22701 0.037212 -0.074162 -0.025158 0.436672 0.215166 0.140754 -0.137482 0.083954 -0.139104 0.362885 0.368215 -0.174983 -0.327073 -0.153768 0.182116 0.014882 -0.025546 -0.182202 -0.356126 -0.083816 -0.451961 -0.293692 -0.122548 -0.208758 -0.206287 0.367043 -0.043311 0.13438 0.4094 -0.131019 0.444809 -0.004305
image 0.147424 0.309819 -0.251269 0.13822 -0.130492 -0.222532 -0.192326 -0.023353 0.069009 -0.095906 -0.231333 -0.269766 -0.18976 0.056029 0.108714 0.154898 0.244649 0.057295 -0.17171 -5.3E-4 0.192785 -0.055333 0.102333 -0.104907 -0.009118 0.136847 0.075685 -0.045976 -0.125435 0.065525 0.144763 -0.124626 0.105715 -0.073624 -0.009969 -0.208145 0.011613 -0.163202 -0.125275 0.239317 0.327439 -0.216262 0.102256 -0.04946 0.14537 -0.157455 -0.1548 -0.0056 -0.024562 0.066329 0.020004 0.103875 0.445742 0.090621 -0.174719 0.039125 0.15059 -0.045024 -0.302609 -0.124825 -0.036044 0.172524 -0.289746 0.185505 -0.02767 -0.137355 -0.130215 -0.202494 0.091508 -0.120789 0.2 -0.013249 0.037399 0.029867 0.263583 -0.255768 0.050347 -0.227811 0.033876 -0.055265 -0.102759 0.169575 -0.115941 0.079422 -0.041403 0.147387 0.070387 0.109572 -0.143628 -0.02815 0.269828 0.095342 0.050101 -0.116032 -0.25354 -0.192016 -0.140973 0.009737 -0.06212 0.11474 -0.197315 -0.078694 -0.087453 -0.188299 0.137613 -0.011657 -0.125593 -0.233407 0.152059 0.221188 0.009707 -0.166498 -0.137774 0.036554 -0.104693 0.060023 0.044224 -0.003037 0.041045 0.163889 0.037068 0.020115 0.129619 0.024475 -0.138083 -0.176723 -0.044216 0.049397 -0.088607 0.042352 0.039604 -0.034569 -0.194978 -0.113082 -0.161248 -0.080642 0.326191 0.127861 0.07738 -0.149835 -0.096355 -0.020409 0.100187 -0.173044 0.102198 0.004699 -0.091319 -0.171441 -0.367352 -0.28107 0.00626 -0.02432 0.047013 0.194306 -0.043489 0.264099 -0.021417 -0.003869 0.060789 -0.034717 -0.157297 -0.0798 -0.103079 -0.133175 0.018044 -0.01129 0.024057 0.04868 -0.044259 0.078709 -0.297817 0.202063 0.024087 -0.031463 -0.119968 -0.060967 0.254882 -0.116457 0.140404 0.01635 -0.519981 0.028558 -0.134286 -0.224162 -0.04598 -0.095425 -0.020723 -0.197104 0.136939 0.029958 0.175031 -0.02016 -0.090138 0.211643 0.214899 -0.064917 0.011283 0.112849 0.008945 -0.174941
theater 0.249606 0.178519 0.05976 -0.208839 -0.007478 0.082906 5.9E-5 -0.197654 0.134703 0.04947 -0.339328 -0.151556 -0.087605 0.117204 0.118211 0.118025 -0.061271 -0.195076 -0.290061 -0.273294 -0.078892 -0.06887 0.117343 0.111105 0.112247 0.06044 0.083977 -0.239642 0.073772 -0.013587 -0.175534 -0.232126 0.12709 -0.116723 -0.023694 -0.192658 -0.049704 -0.104835 -0.082317 -0.103667 -0.02299 -0.184237 0.223229 -0.17583 -0.232548 -0.08707 -0.055708 -0.17495 -0.052914 -0.099103 -7.32E-4 0.031532 -0.229908 0.096823 -0.018723 0.102005 -0.083789 -0.049235 -0.372961 0.206022 -0.266403 -0.147376 -0.288594 0.284801 -0.082358 -0.087624 -0.037818 -0.135605 0.183234 -0.107001 0.085503 -0.198954 -0.086626 0.048514 0.245116 0.024888 -0.044124 0.21243 -0.153602 -0.021039 -0.068049 0.043003 0.098515 -0.037921 0.011774 0.146744 -0.05829 0.195063 0.018847 -0.024022 0.151416 0.05991 -0.083251 -0.161466 -0.202782 0.355805 0.119454 0.053424 0.37043 0.124512 0.061853 -0.221529 -0.065628 -0.294108 0.002975 0.078317 -0.08634 0.188726 -0.098978 0.047306 0.287861 -0.223117 -0.06519 -0.037816 0.008319 0.292129 -0.018301 -0.209242 -0.106478 0.196648 -0.111785 -0.021109 0.183322 0.10049 -0.066137 -0.022144 -0.089271 -0.167056 0.236451 -0.057315 -0.065531 -0.157505 -0.188821 0.30253 -0.167207 -0.20554 0.079193 0.199279 -0.149169 -0.035219 0.096295 -0.184157 -0.180345 -0.013098 0.159057 0.118245 0.050006 0.207673 -0.039758 0.026912 -0.055711 -0.236302 0.097015 0.251868 -0.028016 0.041484 0.074033 -0.226403 0.114277 0.064073 0.045213 -0.024214 -0.140542 0.091939 0.128063 -0.189984 0.268686 0.311859 -0.010644 0.063872 -0.056434 0.147381 0.050197 0.141453 0.318593 -0.124711 0.018035 -0.158759 0.146955 -0.079187 0.060306 -0.28306 -0.201383 -0.042205 0.16933 0.218303 -0.100184 -0.216445 0.001829 0.025292 -0.021438 -0.043443 -0.026171 -0.020437 0.136857 0.120016 -0.105788 0.025163 0.164437 0.164227
number 0.195385 0.281476 -0.323561 -0.229748 0.105162 0.018827 0.14359 0.002445 -0.30244 -0.195724 -0.33791 -0.274824 -0.004849 -0.084827 -0.195413 0.337626 -0.098199 0.012246 -0.094284 -0.401863 0.290183 -0.258371 -0.009617 -0.020715 -0.026355 0.236046 -0.19754 0.061366 0.09297 -0.213342 0.124952 -0.011 0.348686 0.002391 0.038462 0.048191 -0.128437 -0.123597 0.185854 -0.035066 0.337852 0.288856 0.281252 0.048795 0.076219 -0.259999 -0.218544 -0.129879 0.089603 0.169992 -0.064987 0.209877 -0.108639 0.002609 -0.238279 0.073239 0.225371 -0.065259 0.175611 -0.133783 0.21918 -0.061877 -0.186619 -0.020136 -0.044727 0.123482 0.011292 -0.107521 0.011834 -0.251025 0.036265 0.366261 0.275843 -0.129892 -0.259678 -0.294825 0.224039 -0.039265 0.266305 0.323926 -0.368266 -0.220385 -0.173298 0.197584 0.020602 0.162408 0.135849 0.037876 0.399262 0.039178 0.176249 -0.057528 -0.484451 0.003139 0.128674 -0.146053 0.041699 -0.116408 0.058505 0.020562 0.089022 0.113388 -0.285177 0.303133 0.136166 0.150236 0.226918 -0.180868 0.175327 0.087832 -0.222883 -0.17967 0.088669 0.110659 0.018232 -0.272195 -0.228328 0.329664 -0.060191 -0.108172 -0.040375 -0.209221 0.188798 0.079611 0.030818 0.198073 0.335302 0.042919 -0.080566 -0.375274 0.25084 0.038427 -0.064333 0.17312 -0.019317 0.251424 -0.184947 0.073231 0.042617 -0.076784 -0.092386 -0.106146 -0.040862 -0.166697 0.395957 0.214163 0.108635 0.218048 -0.025489 0.199678 0.307474 -0.175311 0.240882 -0.063749 -0.051418 -0.161107 0.010042 -0.243792 0.091518 -0.158516 -0.358845 0.173197 -0.119439 0.116184 -0.109806 0.168442 -0.21559 -0.137087 0.109257 -0.038104 -0.121362 -0.216862 0.099669 -0.119048 0.154322 -0.010339 0.123424 0.076632 0.096382 -0.160489 -0.281534 0.105394 0.092997 0.07823 0.084673 0.150422 -0.092262 -0.137777 0.008221 0.509065 -0.129004 -0.344321 -0.271773 -0.235815 -0.032446 0.429265 0.138316 -0.197294 0.102115 -0.358383
astronomer 0.049349 -0.023801 -0.02039 3.56E-4 0.004499 0.038358 0.00987 -0.04296 0.096379 0.035572 -0.078292 -0.024776 -0.029024 -0.033531 0.022505 0.061948 -0.003919 0.005916 0.03109 -0.04755 -0.074448 -0.022476 -0.109545 0.030054 -0.013329 -0.004673 0.054194 -0.079992 0.064818 0.019663 0.038885 0.02668 -0.050246 -0.003453 0.033233 -0.008822 0.122884 -0.005497 -0.055308 -0.074874 0.026508 0.060488 0.043782 0.069505 0.035433 0.063843 -0.031617 -0.119713 -0.046736 0.164588 -0.033534 0.172009 0.063029 0.091131 -0.204219 0.067398 0.087101 0.030093 -0.014452 0.022014 -0.018248 -0.031694 -0.087047 -0.046512 0.07637 0.098433 0.078106 0.061216 0.018789 -0.094378 0.084001 -0.044915 0.043391 0.010823 0.14926 0.011609 -0.021166 0.085856 -0.031565 0.043775 -0.012549 0.080608 -0.01431 0.124101 0.072649 0.063642 0.115011 0.075805 -0.098063 0.094978 0.141712 0.04441 0.180525 -0.062579 0.029967 0.023373 -0.058692 0.004518 0.155054 0.07426 0.109251 -0.239464 -0.073311 0.021486 0.006359 -0.078777 0.00563 5.59E-4 -0.008698 0.048959 0.035293 -0.049318 -0.062362 -0.037818 3.6E-5 0.049705 0.109564 0.11076 0.074953 0.133232 0.043468 0.061428 0.045941 -0.062114 0.008832 0.078026 -0.018319 0.006517 0.002822 -0.027083 -0.05601 0.01608 -0.072071 0.075742 0.123879 -0.010284 0.016681 0.120879 0.095242 0.021758 -0.064434 -0.112416 -0.03105 0.059414 -8.23E-4 0.011423 -0.003842 0.013446 -0.072599 -0.049168 0.005243 -0.053568 -0.034273 -0.139477 -0.024708 -0.018024 -0.053784 -0.04162 0.076293 -0.026432 0.069778 0.139657 -0.036225 0.00888 0.001081 -0.044879 0.077198 0.05193 -0.035477 0.036398 -0.03998 0.002849 0.058938 0.134117 0.049484 0.052062 0.006624 -0.054867 0.027293 0.052481 0.029956 0.05491 0.027439 0.072874 -0.038387 0.056123 -0.108032 -0.110188 -0.024729 -0.073663 -0.010956 0.031883 0.004981 0.137802 0.069861 0.038984 5.67E-4 0.077034 -0.03846 0.142529
project 0.00737 -0.116618 -0.166653 0.08915 0.027415 -0.069853 -0.2066 -0.143821 -0.039576 -0.042241 -0.016518 -0.085829 0.196375 0.226496 -0.040844 0.052916 -0.059179 0.084243 0.041781 -0.354065 0.221558 -0.118517 -0.084982 -0.098707 -0.022601 0.097253 -0.08315 0.071838 -0.056453 0.070004 -0.114044 -0.298107 0.034651 -0.285208 -0.076933 -0.111225 -0.119329 0.291393 -0.199223 0.0647 0.103827 -0.192542 0.349039 -0.001611 -0.231833 0.097161 0.251995 -0.218252 -0.1081 0.020153 0.196756 0.035196 0.081478 0.125067 -0.144906 0.22764 -0.006069 0.074747 -0.25661 -0.246629 -0.075647 -0.067854 -0.172607 0.396859 -0.173005 -0.032505 -0.050082 0.213329 0.001926 0.034239 0.335448 -0.078365 0.224956 0.149712 0.108175 0.082206 -0.186679 0.338083 -0.083925 -0.212927 -0.104151 0.209528 0.023428 0.114254 0.122575 0.098837 0.066439 0.035034 -0.097692 0.019509 0.074471 0.136069 -0.088896 -0.170381 -0.230842 0.23869 -0.134044 -0.058589 -0.100708 0.162823 0.089516 -0.015529 -0.085494 -0.075902 0.072607 -0.059194 0.195959 0.062844 0.117966 0.059148 -0.05969 -0.069396 -0.080713 0.190221 -0.154653 -0.079628 0.03007 0.180472 -0.149567 0.046571 0.05376 0.102221 0.033856 0.101208 0.153761 0.033279 -0.096001 -0.339724 -0.139606 0.044152 0.080333 -0.242657 -0.2218 0.155519 -0.037788 -0.038979 -0.213008 0.059273 0.078367 0.035422 0.068027 -0.012624 -0.087859 -0.073561 0.039062 0.110595 0.049526 0.03523 -0.133406 0.003317 0.059265 -0.009773 0.117778 0.044796 -0.070198 0.217972 0.03104 0.030372 -0.126663 -0.081371 0.208793 -0.237057 -0.03167 0.103696 0.021393 -0.158351 0.091372 0.265547 0.03669 -0.181305 0.066926 -0.168765 0.24048 -0.298581 -0.095455 0.162034 0.185085 -0.151105 -0.020504 0.010767 -0.175143 -0.128578 0.204011 -0.085228 0.161075 -0.067791 0.227144 -0.076339 0.049125 -0.268295 -0.201168 -0.068333 0.065938 -0.052714 0.108277 0.132129 -0.009431 0.0599 0.121984 -0.014533
dawn -0.183673 0.233688 0.404661 0.518779 0.359415 0.06943 -0.180604 -0.187715 0.105669 -0.081771 -0.21919 0.106202 -0.035693 -0.111209 0.080946 -0.291855 -0.176316 -0.092362 -0.042907 -0.075788 0.018243 0.434504 -0.033034 0.044281 0.057305 -0.061143 0.23186 0.073379 -0.017463 0.115428 -0.144326 -0.124398 -0.084367 0.199644 0.05335 0.169733 0.159981 0.006626 0.31327 -0.139111 0.043787 -0.036505 0.104984 0.002882 0.001655 0.051411 0.123862 0.181727 0.302386 -0.118534 0.230392 -0.02547 -0.292754 -0.129515 0.091528 0.239429 -0.024002 0.221484 -0.127556 0.066422 -0.047204 -0.014665 -0.27324 -0.21349 -0.073508 -0.159526 0.310174 0.074811 -0.127093 -0.002386 -0.088023 0.050263 0.065058 -0.131758 0.097261 0.10217 0.193702 -0.061232 -0.112969 0.132112 0.199531 0.038142 0.145008 -0.004832 0.32232 -0.018972 -0.151541 -0.051084 0.167528 0.43752 -0.388813 -0.140176 -0.340113 -0.141903 -0.116324 0.05283 -0.11991 0.153171 -0.138358 0.182374 0.133303 0.077237 0.054405 0.052622 -0.048213 0.184716 0.141208 0.304788 -0.163794 0.155434 -0.328116 0.166297 -0.210698 0.077278 -0.040577 -0.010097 -0.053848 0.142374 0.198204 0.004624 -0.149636 -0.041984 0.043601 -0.121403 -0.282681 -0.15081 -0.119201 0.07247 0.045203 -0.256839 -0.07733 0.157069 -0.224536 -9.75E-4 -0.086708 0.214267 -0.049143 -0.135347 0.046059 -0.012488 0.047114 -0.004798 -0.026403 -0.241457 0.060508 -0.10357 -0.045796 0.019808 -0.106782 0.258603 -0.135196 0.022592 -0.156322 0.066598 -0.127597 -0.218408 -0.067295 -0.225028 -0.065928 -0.083216 0.016435 -0.045291 -0.057214 -0.266813 0.095227 -0.124754 0.170427 0.033872 -0.176728 0.041291 -0.194486 0.029387 0.045846 0.066463 -0.027108 -0.164523 0.082998 -0.077787 -0.112721 -0.497355 0.044532 -0.110892 -0.057738 -0.007684 -0.144137 0.124808 -0.458275 0.048018 -0.214889 0.052295 -0.055385 0.168721 -0.157579 -0.11313 -0.081442 0.167887 0.08056 0.18045 0.043788 0.281222
ear -0.094858 0.102757 0.029585 0.257802 0.001581 0.019779 -0.152785 -0.082799 0.183279 0.047449 -0.33471 -0.426845 -0.294449 -0.070087 0.121674 -0.145246 -0.247388 -0.03922 -0.157645 0.004571 -0.05705 0.007774 -0.050741 0.077825 0.301582 0.203838 0.095366 -0.12187 -0.040666 0.019006 0.01639 -0.034749 -0.11894 0.292105 0.027878 0.068509 0.068713 -0.036198 -0.122708 0.219261 0.141444 -0.009523 0.14945 0.132976 0.05748 0.12674 -0.130582 -0.051222 -0.015821 -0.036379 -0.128764 0.004814 0.198152 -0.01231 -0.140772 0.07916 0.07424 0.183542 -0.154175 0.089993 -0.086419 -0.08877 -0.062723 -0.140832 0.067234 -0.311958 -0.198213 -0.067282 0.270515 -0.222738 -0.272642 -0.185267 0.073012 -0.044405 0.045571 -0.060975 0.020179 -0.219901 0.18189 0.168248 0.045873 0.062323 0.129405 -0.163064 -0.079266 -0.005915 -0.063779 0.010218 -0.157 -0.173159 0.082037 0.136605 0.155983 0.127787 -0.096299 -0.092959 0.018014 -0.111238 -0.017751 0.163328 -0.19702 0.118453 -0.070296 -0.101811 -0.185169 -0.307062 0.119714 0.269177 -0.044741 0.075605 -0.087708 -0.187659 -0.246763 0.157621 0.064766 -0.290988 0.051276 -0.034007 0.306447 0.074485 -0.032012 0.134608 -0.024393 -0.130593 0.028057 -0.167063 0.194223 0.284905 0.122648 -0.130033 -0.087641 0.002571 -0.109123 -0.226058 -0.038947 0.057917 0.20328 0.079006 -0.089426 0.283988 -0.005604 -0.136348 0.123658 0.071507 -0.012167 -0.137716 -0.031572 -0.060463 -0.060179 -0.21642 -0.017392 -0.218206 0.2286 0.100496 -0.22241 0.246295 -0.051863 0.055877 0.029581 -0.09114 0.059747 0.310012 0.076664 -0.025496 0.255504 0.098916 -0.01152 -0.239274 -0.05639 0.186593 -0.096505 0.076525 -0.217509 0.316254 0.053155 0.22554 0.111698 -0.207796 0.028266 0.049962 -0.076355 0.046578 0.106411 -0.230617 -0.109454 -0.075902 -0.100964 -0.133525 -0.225514 0.082594 -3.38E-4 0.046441 -0.197238 0.046988 -0.038405 -0.044327 0.299527 -0.061314 0.176819 -0.101473
voyage 0.127769 -0.063601 0.056883 0.089885 -0.005437 -0.145103 -0.206224 -0.167294 -0.053684 -0.048086 -0.074703 -0.139508 -0.02598 0.008849 -0.056141 -0.153127 -0.039397 0.017191 -0.102651 -0.215101 -0.084707 0.08258 -0.143824 0.070143 0.111371 0.23323 -0.05199 -0.149627 -0.079441 0.0684 -0.164111 -0.028857 -0.24779 0.021805 -0.025725 -0.014595 0.02589 0.123584 0.00323 -0.0879 0.157989 -0.111825 0.248582 0.130611 -0.031473 0.145754 -0.022272 -0.195432 0.058868 0.021669 0.055399 -0.060194 0.07765 -0.020181 -0.034917 0.042201 -0.061844 0.068336 -0.055911 -0.085631 0.054084 -0.024468 -0.005146 -0.117409 -0.05125 -0.222602 0.015818 -0.060667 0.042949 -0.054759 -0.03848 6.98E-4 0.173999 0.035056 0.142056 0.125846 0.031118 0.03027 -0.027144 0.145949 0.044252 0.11133 0.078361 0.051879 0.031415 0.101897 -0.131622 -0.146726 -0.040738 0.067242 -0.102839 0.119333 -0.145444 -0.12739 -0.110603 -0.085743 0.038452 -0.044302 -0.017682 0.076572 -0.015813 0.035517 0.13522 0.007707 0.049747 -0.048753 -0.016013 -0.015281 0.032457 0.213013 -0.151804 0.076143 -0.060621 -0.091348 0.019059 -0.151189 0.119492 0.06847 0.144357 -0.084467 -0.051445 -0.012919 0.089311 0.061774 -0.016942 -0.159413 0.075762 -0.098426 0.037736 -0.102558 0.017348 0.15022 -0.168174 0.144779 -0.014624 -0.016272 0.232175 -0.086911 0.016223 0.018664 0.007774 -0.037509 -0.007755 -0.078519 -0.009607 0.191438 0.186007 -0.131527 -0.118489 -0.129891 -0.102009 0.028186 0.087213 0.059089 -0.207374 -0.05468 -0.017739 -0.128265 0.134221 0.074424 -0.028811 -0.1279 0.004365 0.003185 0.093619 0.005491 0.069263 -0.072454 0.099623 0.080862 -0.220293 -0.040181 0.014518 -0.086966 -0.039018 -0.067661 -0.100144 -0.142988 -0.042105 -0.022955 0.0092 -0.032685 0.081769 -0.03246 -0.013393 -0.016941 -0.108004 -0.125793 -0.021865 0.011873 -0.00914 0.071642 -0.176141 0.209477 0.063599 0.131243 0.113085 0.12962 -0.031322 0.055986
valor 0.029078 0.041606 -0.021862 -0.049064 0.050504 -0.04955 -0.003358 -0.075971 0.025809 0.016655 -0.033337 -0.013974 -0.061565 0.077756 0.003631 0.043255 1.18E-4 0.013841 -0.072593 -0.044474 0.018992 -0.007619 -0.009732 0.018569 0.033507 0.027607 -0.007651 0.009645 0.001432 -0.068721 -0.023832 -0.047449 0.007072 0.085849 0.026733 -0.105095 0.005114 0.027542 0.002833 0.016941 0.045971 0.018933 0.044972 0.006138 0.04427 -0.002319 -0.039841 -0.01225 6.31E-4 0.009803 0.041187 0.086316 -0.010095 0.002393 -0.053789 0.010784 0.021746 -0.004384 0.001403 0.012378 0.045413 -0.038766 -0.037463 0.01622 -0.020059 -0.016649 -0.060093 -0.004954 0.065314 -0.046871 0.093099 -0.009889 0.005182 0.035577 0.050234 -0.053925 -0.007026 -0.015481 -0.022159 -0.035619 -0.025472 0.062208 0.079434 0.018807 -0.048421 0.038777 0.006857 -0.045318 -0.02535 -0.012992 0.033763 0.014859 -0.046196 -0.031843 -0.043085 -0.01162 -0.019094 0.063564 0.030819 0.055092 0.088311 -0.070052 0.027179 -0.005477 -0.01365 -0.032066 0.046099 -0.047311 -5.23E-4 -0.032333 0.03255 -0.063663 0.021841 -0.014619 -0.056886 -0.009156 -0.070039 0.029582 0.052596 0.00227 -0.059537 -0.088182 0.015086 -0.039428 0.016294 -0.04702 0.001489 0.083774 0.057713 -0.02023 -0.009863 -0.005821 -0.075185 0.101823 -7.8E-4 0.014925 0.010592 -0.032768 -0.023022 0.005309 -0.052972 -0.043316 -0.055468 -0.051522 0.034214 0.047229 0.002214 -0.026377 -0.012956 -0.070406 -0.059239 -0.012465 -0.003347 0.065034 -0.051048 0.029456 -0.030469 0.038878 0.01959 -0.014299 -0.047448 5.57E-4 -0.116057 0.002022 0.090066 -0.044428 0.049765 -0.034578 -0.038549 0.087933 0.007618 0.035289 0.05706 -0.042937 0.013274 -7.26E-4 0.00397 0.043437 0.007825 0.048922 0.015082 -0.057502 -0.030264 0.088948 -0.039052 0.04976 -0.020004 -0.008012 0.006171 0.045322 0.041467 -0.077741 -0.016118 0.016577 0.039475 -0.049132 0.099835 0.008564 0.090596 -0.023187
butter 0.26 0.124692 0.140116 0.031314 0.058015 -0.012597 0.051673 -0.074077 0.194737 -0.31957 -0.282819 -0.240246 -0.152891 -0.024531 -0.065112 -0.179411 -0.02413 -0.227147 -0.223723 -0.129009 0.057142 -0.012845 0.059186 0.133808 0.352434 -0.167077 -0.244813 -0.127764 -0.129344 0.142226 -0.11258 0.164518 -0.162102 0.064236 0.128653 -0.110054 0.219255 -0.068848 0.108619 0.158546 0.175536 -0.149974 0.132333 0.251754 -0.083307 0.296525 0.091063 0.081075 -0.029161 -0.004786 -0.109388 -0.263091 -0.300341 0.101278 -0.121115 -0.037846 0.081879 0.052261 -0.309503 0.234614 -0.034228 0.051507 -0.320622 0.080882 -0.020889 -0.195191 -0.121319 0.034351 0.157336 -0.224238 -0.118305 0.074822 0.151301 0.227727 -0.002316 -0.194762 0.075057 -0.152686 0.392386 0.030535 0.1451 0.049568 0.052919 -0.014706 0.01354 0.006127 0.141694 0.05837 0.180971 -0.168387 0.034047 0.02862 -0.091589 0.164016 -0.080009 0.058998 0.024344 0.020018 0.411536 0.313744 -0.208604 0.123479 0.284024 -0.044745 -0.113427 -0.094284 -0.124223 0.241249 0.112032 -0.470165 -0.163251 -0.36141 -0.110301 0.249147 0.254682 -0.272395 -0.105075 0.07604 0.06493 0.019794 -0.145213 -0.19583 -0.040606 -0.082089 -0.225771 -0.15068 3.52E-4 0.126931 0.120272 -0.07516 -0.130945 0.06062 -0.334011 -0.013335 -0.121265 0.095008 0.106823 -0.151506 0.079927 0.226681 0.334414 -0.279857 0.139233 -0.114702 0.138862 -0.169929 0.065988 0.369606 0.330207 -0.006931 -0.081525 -0.247307 0.045927 0.096689 0.064682 0.156236 0.101311 0.041313 -0.165256 -0.197777 0.035705 0.192832 0.125527 -0.029763 0.002092 0.176198 0.173064 0.009247 0.105544 -0.014145 0.062557 -0.255675 -0.291989 0.092191 -0.002026 -0.27206 0.104994 -0.172676 0.071753 0.224676 -0.098649 0.092041 0.047836 0.193256 -0.068896 -0.229525 -0.008186 0.020357 0.004429 -0.094421 0.261445 0.091835 -0.078897 0.104081 -0.094471 0.138576 0.100106 0.208878 0.259479 -0.167927
gin 0.044586 0.110071 -0.012006 0.059906 0.10767 -0.025601 -0.018266 -0.035891 0.12537 -0.063412 -0.066213 -0.104492 -0.176974 0.114776 -0.014233 3.16E-4 -0.048224 -0.06057 -0.133905 0.013547 0.086805 -0.019905 -0.043941 0.124174 0.190045 0.01741 0.047457 -0.093355 -0.085713 0.004468 -0.118705 0.016978 -0.093254 0.072461 0.171842 -0.145551 0.119759 -0.061316 -0.063166 -0.034142 0.01945 0.058608 0.102135 0.033166 -0.113491 0.05405 -0.005895 0.03954 -0.055958 0.078587 0.038823 -0.022277 0.020392 0.063943 -0.085801 0.080721 0.069704 0.078282 -0.00996 -0.047631 -0.101514 -0.01135 -0.218374 0.00162 -0.044238 -0.030587 -0.081254 -0.030489 0.057198 -0.096149 -0.05367 -0.002376 -0.038637 -0.046129 0.066133 -0.018273 0.109058 -0.042431 0.03535 0.05311 0.055321 -0.056102 0.087615 0.07787 -0.029714 -0.001288 0.018086 0.095751 -0.014476 -0.003651 0.088831 0.020269 0.066408 0.068898 -0.106906 -6.75E-4 -0.166205 0.083907 -0.003852 0.133028 0.033794 -0.086742 0.025461 -0.034708 -0.058408 -0.052411 -0.016556 0.137339 -0.028936 -0.152049 0.035151 -0.083636 0.017615 -0.017016 0.007612 -0.026528 0.017743 -0.053154 0.042035 0.013451 -0.057926 -0.052247 -0.043351 -0.05187 0.021827 -0.00907 0.079735 0.045681 0.053389 -0.036143 -0.003296 -0.028465 -0.207582 -0.001271 -0.003641 0.004433 0.087365 -0.055643 0.037029 0.055172 0.199206 -0.111214 0.039253 -0.030258 -0.005372 -0.163874 -0.001961 0.038854 0.007887 -0.03285 -0.123856 -0.085901 0.050559 0.098202 -0.048701 -0.066739 -0.075577 0.007173 -0.055266 0.019289 0.01608 0.083028 -0.035341 0.031542 -0.098428 -0.135877 0.063365 0.004874 0.009072 0.014096 0.083899 -0.090435 0.043365 0.046882 0.108644 -0.147981 -0.063729 -0.096553 0.023493 0.02889 -0.065382 0.11995 -0.079711 -0.012254 -0.07056 -0.03901 -0.026935 -0.060233 -0.049598 0.048096 0.042365 -0.016385 -0.052004 0.121244 -0.033339 0.051808 0.155843 -0.025944 0.076215 0.01459
reservation -0.006542 -0.021173 -0.082743 -0.009605 0.158778 0.024762 -0.171845 -0.246949 -0.029398 -0.139598 -0.240335 -0.171324 0.098798 0.130895 -0.06519 0.003278 -0.112699 0.034143 -0.071687 -0.079801 0.027716 -0.106995 -0.017074 0.065398 0.095017 0.108045 -0.109364 -0.095303 0.038795 0.003222 -0.146592 0.13616 -0.132545 -0.015995 -0.069547 -0.005637 -0.013076 0.129906 -0.05592 -0.010824 0.083998 0.070665 0.035289 0.167672 -0.213504 0.140135 0.094771 0.061245 0.064174 -0.068494 0.117812 -0.167416 -0.003106 0.039931 0.149832 0.083234 0.091394 0.048651 -0.209271 -0.019656 0.062996 0.088854 -0.14403 0.088408 -0.22785 0.038038 0.002447 -0.047774 0.048578 0.008851 0.045777 -0.163808 0.097959 0.03254 0.034048 0.016258 -0.054791 -0.055574 -0.00828 0.186438 0.055648 -0.016694 0.170689 0.004276 -0.109247 0.274247 -0.043481 -0.089687 0.010637 -0.016721 -0.075339 0.023043 -0.204764 -0.206006 -0.094408 -0.021978 -0.011485 -0.02313 0.105118 0.056834 0.072362 -0.090022 -0.005555 -0.086997 -0.032069 -0.004679 0.072058 -0.016522 0.068188 0.118668 0.090389 0.144469 -0.167438 0.215824 0.00653 -0.024216 0.034839 -0.052777 0.097255 0.043009 -0.050411 -0.076206 -0.022928 -0.093217 -0.029152 -0.001954 -0.006932 0.146122 -0.09544 -0.005034 0.006068 0.077194 -0.215875 -0.109026 -0.082841 -0.166878 0.117078 -0.086353 -0.100824 0.031479 0.04253 -0.016706 -0.103936 -0.020001 0.069915 0.046466 0.018356 0.015987 -0.04462 -0.060931 -0.032553 -0.077211 0.177522 0.015697 -0.012939 0.148027 -0.044024 -0.11186 0.041717 0.090998 0.008557 0.068873 -0.114502 0.104358 0.075608 -0.114694 0.019661 -0.022779 -0.061435 0.187483 -0.088585 -0.130278 -0.039937 -0.040153 0.0208 -0.071425 -0.11964 -0.190033 -0.145114 0.011949 -0.195802 0.124017 -0.11194 -0.102631 0.061459 -0.063635 -0.115455 0.004079 0.028813 0.032168 0.00762 -0.173793 0.023839 0.012658 -0.104957 -0.08013 0.221469 -0.059503 0.115095 -0.018954
wealth 0.123046 0.249821 -0.031177 -0.047031 0.009889 -0.331887 -0.101316 0.041601 -0.062276 -0.301082 -0.145586 0.045294 -0.100782 0.065452 -0.059453 0.299248 0.180737 -0.053849 -0.158144 -0.165923 0.269514 -0.021489 0.285174 -0.165566 0.109734 -0.086129 -0.199586 -0.018706 0.353432 -0.105612 0.109365 -0.217232 -0.010057 -0.385147 0.202753 -0.040403 -0.114461 0.154299 0.029577 0.250782 0.508723 -0.069612 0.076257 0.002687 -0.097328 0.076329 -0.076536 -0.118454 -0.133154 -0.031563 0.122862 -0.049797 0.334009 0.267723 -0.187083 0.135079 0.160103 0.148834 0.004031 0.23693 -0.083336 0.111166 -0.146869 0.119913 0.208273 -0.291352 -0.264259 0.222565 -0.137469 0.209977 0.261872 0.122843 -0.571824 -0.066414 0.045232 -0.282467 -0.227504 -6.35E-4 0.401819 -0.204839 0.149787 -0.139352 0.008859 -0.081539 0.033429 0.120107 0.105731 0.066008 0.188945 0.042927 0.323979 -0.30944 -0.031836 0.004824 -0.364433 0.248192 -0.321976 0.032489 0.039987 0.35385 0.148363 -0.024435 0.049131 0.208602 -0.160241 -0.044475 0.089431 0.006468 0.272174 -0.238905 -0.045932 0.052572 0.218806 0.262857 -0.099762 -0.132366 -0.112003 -0.157118 -0.039664 -0.090729 0.104377 -0.082193 -0.036571 0.290079 -0.177032 -0.006207 0.049746 -0.10791 -0.327428 0.008183 0.107929 -0.151393 -0.01286 0.100842 -0.240973 -0.029253 -0.094632 -0.195743 -0.08907 0.102768 -0.211522 -0.009117 0.12499 0.055716 -0.05521 0.050028 0.173194 0.250487 -0.23698 -0.526306 0.175793 -0.175086 0.047094 -0.065528 -0.337139 0.26914 -0.153276 0.193886 0.148608 0.084932 -0.079432 -0.039126 0.123337 0.234912 -0.227036 0.078175 -0.237038 -0.087817 -0.002522 0.083268 -0.179609 -0.200937 -0.067307 -0.311293 0.053474 -0.239401 -0.322546 -0.017415 -0.016119 0.001691 -0.129519 0.123146 -0.318972 -0.284127 0.010539 -0.1603 -0.045762 -0.024309 0.174972 0.025971 0.122617 -0.002801 0.174231 -0.137198 0.185174 0.049694 0.123355 -0.038355 0.236484 -0.59326
eat 0.383843 0.292847 0.089566 0.120362 -0.038885 0.08924 0.303522 -0.211534 0.290805 -0.01256 -0.274238 -0.300639 -0.164298 -0.015455 0.016089 -0.116099 -0.134511 0.245079 -0.023672 -0.194065 -0.160534 -0.10274 0.465273 0.112894 0.253692 -0.298084 0.090954 0.073953 -0.107184 0.156867 -0.162276 0.34043 -0.034067 -0.081214 -0.003135 -0.025127 0.206457 -0.11024 0.120973 0.137636 -0.094416 -0.164151 -0.105005 0.219696 0.172741 0.295633 0.039209 0.230718 0.150646 -0.006835 -0.019069 -0.176089 -0.405695 -0.038322 0.075679 -0.231761 -0.004012 0.044393 0.172411 0.165555 -0.187602 -0.253956 -0.054952 0.07216 -0.138745 0.255427 -0.078057 -0.105399 -0.246889 0.006199 -0.162131 -0.099627 -0.018039 -0.018329 0.143395 0.022371 0.306173 -0.186676 0.348983 0.030798 0.324896 -0.199663 0.039492 -0.077862 0.21437 0.004991 -0.02662 -0.073883 0.018619 -0.035049 -0.058439 0.263125 0.078121 0.635371 -0.141526 0.096048 -0.007414 0.009262 0.285466 -0.075265 0.392162 0.141007 -0.012058 -0.228101 -0.285801 -0.082593 0.020641 0.351679 -0.280998 -0.194157 0.073926 -0.011784 -0.153562 0.238889 0.150142 -0.01504 -0.021073 -0.013592 -0.189664 -0.001079 0.020731 -0.137859 -0.096913 -0.037547 -0.174643 -0.114468 -0.211864 0.089228 0.121997 0.083039 -0.287655 -0.175757 -0.306583 -0.25947 -0.458228 -0.103249 0.296185 -0.006647 0.128857 0.13744 0.180083 -0.014656 0.015245 0.064634 0.011197 -0.394665 -0.275533 0.650424 0.366129 0.093385 -0.15344 -0.056871 0.003884 0.230991 0.073529 0.016334 -0.011986 0.013402 0.040983 -0.124767 -0.156441 0.142819 -0.064856 0.117235 0.171536 -0.055726 -0.080271 -0.248275 -0.12488 0.201071 0.014723 -0.221931 -0.427558 0.180887 0.13533 0.147316 0.145729 -0.203822 0.121175 0.027787 -0.374335 0.159552 0.103885 0.017976 0.173715 0.025156 -0.044199 0.014041 -0.10668 -0.034643 -0.145206 0.020227 -0.124043 -0.048404 -0.114968 0.114482 0.28804 -0.162217 0.152182 -0.101023
soap 0.157793 0.013316 -0.132805 -0.018386 0.153629 -0.318741 -0.045333 -0.055788 0.086381 0.058528 -0.114103 -0.215657 -0.203424 0.283322 0.001958 -0.108571 -0.103257 -0.00249 -0.214415 -0.116404 0.029803 -0.064501 0.04146 0.10937 0.450635 0.051082 0.07086 -0.150164 0.098704 -0.054059 0.094441 -0.055173 0.147019 -0.055333 0.018756 0.040874 0.254922 -0.301022 0.042038 0.136503 -0.15547 -0.101884 0.243229 0.212591 -0.02691 0.082929 -0.017869 -0.08337 -0.010702 -0.033173 0.171882 0.136973 -0.125563 -0.024834 -0.075934 0.012546 0.095711 -0.043417 -0.084899 0.045513 -0.040132 -0.269864 -0.119224 0.022392 -0.017979 -0.090914 -0.06799 -0.09179 0.05798 -0.242444 0.143172 -0.281895 0.001487 0.117209 0.025742 -0.255421 8.25E-4 -0.173897 -0.097879 -0.059239 0.140885 -0.136372 -0.059772 -0.201296 -0.015848 0.229042 0.002948 -0.040594 0.072946 -0.062052 0.129126 0.225166 -0.173885 -0.044813 -0.21739 0.18097 -0.128446 0.208559 0.373463 0.281923 0.191409 -0.135327 0.004856 -0.028802 0.019539 0.098199 -0.149002 0.201843 -0.001887 0.139265 0.03409 -0.214133 -0.069776 0.042757 -0.065765 -0.212601 0.038074 -0.078279 0.204703 0.072002 -0.042602 0.113424 0.205892 0.068505 -0.139413 -0.115774 -0.076765 -0.145979 0.178701 -0.112738 0.097349 -0.127533 -0.119165 0.084277 7.98E-4 -0.066678 0.239748 -0.097164 0.09776 0.261802 0.14181 -0.027032 -0.113199 -0.199136 0.198955 -0.272844 0.138629 -0.090766 0.141579 0.02816 -0.253724 -0.340499 -0.257671 0.086442 -0.328506 -0.009554 0.085912 0.060042 0.042926 0.133091 -0.053853 0.002157 -0.087853 -0.076949 0.277689 -0.131047 0.195589 0.108545 0.043327 0.186076 -0.0774 0.023241 0.175911 0.155815 0.073085 -0.062964 0.109488 -0.101297 0.048447 -0.058202 -0.086977 0.167213 -0.095069 -0.155176 -0.095459 -0.214771 -0.020858 0.028469 0.201902 0.06045 0.010868 0.045372 -0.107967 -0.012815 0.110298 0.080272 0.095655 0.082571 0.100312 0.094005
discovery -0.082736 -0.014247 -0.304587 0.229786 0.056715 -0.293566 -0.072037 -0.175573 -0.006125 0.158807 -0.547327 -0.238164 0.342358 0.101883 0.020497 0.003181 0.09148 0.055665 -0.115489 -0.120704 0.087755 -0.146644 -0.106852 -0.193888 0.082991 0.227845 -0.177576 0.002896 -0.082711 0.002904 -0.062401 -0.243231 -0.092897 -0.042563 -0.035843 -0.01446 -0.05948 -0.026096 0.23105 -0.039033 0.446505 -0.028145 0.169514 -0.067829 0.034126 0.107989 -0.067866 -0.158394 -0.116643 0.080915 0.168053 -0.006171 -0.028397 -0.089954 -0.335956 -0.046679 0.262298 0.031251 0.098229 -0.090806 0.054482 0.196261 -0.23142 -0.042369 -0.08981 -0.100233 0.266333 0.306692 -0.210054 -0.331043 0.380244 0.154084 0.123124 0.22097 0.094199 0.061453 -0.049518 -0.124446 -0.033503 -0.276911 -0.019799 0.109179 -0.103769 0.071744 0.181412 0.080452 0.317314 0.067041 -0.146399 -0.125648 -0.019819 0.036297 -0.351804 -0.049747 0.037305 -0.047352 0.116572 -0.161063 -0.003615 0.040404 0.021422 0.129772 -0.003228 -0.016473 0.252706 0.032115 -0.147826 -0.027207 0.055138 0.196539 -0.07513 -0.080316 -0.045468 -0.032694 -0.161546 -0.080754 -0.024939 0.126337 0.195932 0.061838 -0.202436 -0.031953 0.08551 -0.042311 -0.17419 -0.11096 0.014593 0.035562 -0.031337 0.024537 -0.115768 -0.208376 -0.151563 0.114241 -0.158019 -0.02069 -0.022917 0.079145 0.066666 -3.23E-4 -0.115329 -0.117954 -0.113094 -0.324398 0.099694 0.113252 -0.302736 -0.081761 -0.051816 0.056562 0.068347 -0.077906 0.16552 -0.285846 -0.123291 0.047156 0.00194 -0.006665 -0.004193 -0.01248 -0.113376 -0.020973 0.136784 0.047454 0.059104 0.154089 0.305569 0.133521 0.022217 -0.178132 -0.261073 -0.19189 0.120816 -0.216143 -0.204379 -0.082518 0.094071 0.105483 0.057044 0.187121 -0.023005 -0.033925 0.008397 0.021868 0.019794 -0.065076 -0.103618 0.09878 -0.094815 -0.02727 -0.023302 -0.061882 -0.111078 0.181421 -0.010113 -0.069216 -0.025033 0.212388 0.175308 -0.190771
Jerusalem 0.135927 0.047903 -0.320708 0.057239 0.070958 0.167565 -0.394328 -0.200679 -0.00941 0.26378 0.338746 -0.177348 0.538531 -0.035284 -0.130637 0.04316 0.071175 0.226417 0.007698 0.077598 -0.29075 0.077797 0.013513 -0.222367 -0.136376 -0.093457 0.327884 -0.046394 -0.092426 -0.036137 -0.237677 0.040299 0.054547 0.164478 0.078064 0.140076 -0.080767 0.399029 -0.151295 -0.221054 0.174434 -0.466344 0.403488 -0.424948 -0.189254 -0.104823 0.478957 -0.190966 -0.03578 -0.319613 0.04906 0.07719 -0.02727 -0.224186 -0.129697 0.129122 0.185292 0.602836 -0.176738 -0.066508 0.064196 0.227577 0.126986 0.030061 0.090073 -0.133288 0.055521 -0.04746 -0.066996 0.097286 -0.063072 -0.213214 0.13219 -0.006895 -0.105858 0.124623 0.077777 -0.076414 -0.089762 0.257086 0.07317 0.141432 0.279964 0.091065 -0.344706 -0.011997 -0.06714 0.222486 0.116757 0.1744 0.406982 0.100817 -0.459381 -0.010398 -0.191954 0.106532 -0.137008 0.069401 0.010789 0.048251 0.317439 -0.374139 -0.250328 0.304403 0.158879 -0.388324 -0.024598 -0.015724 0.101206 0.272765 0.203418 -0.106613 -0.167233 0.217918 0.05927 -0.027781 -0.357914 -0.037109 0.102705 -0.085041 0.02291 -0.527127 0.022365 0.041704 -0.183867 -0.37332 -0.380446 -0.052099 0.065409 0.01148 -0.024679 -0.090895 -0.292303 0.11816 -0.028712 -0.065111 -0.045065 -0.166702 0.263012 -0.376963 -0.102852 -0.118527 -0.33471 -0.083471 0.376043 -0.160779 -0.115562 -0.162969 -0.379876 0.062933 -0.121414 -0.017805 -0.228347 0.252632 0.029659 0.418355 0.074172 -0.14941 0.166028 0.032621 0.250582 0.033367 0.422033 0.098188 0.345284 -0.184066 -0.065643 -0.080305 -0.173551 -0.075984 0.190821 0.193485 -0.122517 0.080917 -0.207385 0.23224 -0.247772 -0.202226 0.181602 -0.418959 0.448338 -0.113721 -0.020371 0.165851 0.165831 -0.177362 -0.413956 0.277084 -0.010983 0.046443 0.211633 0.03904 0.232827 -0.146166 0.312111 -0.078534 -0.137073 -0.145616 0.095199 0.358306
hospital -0.277507 -0.176324 -0.174998 0.417969 -0.135911 0.135818 -0.145707 -0.109991 0.562787 -0.003583 -0.177995 -0.463962 0.329917 0.14334 0.365639 -0.058186 0.191177 0.205669 -0.04151 -0.065327 0.023295 0.172175 0.191957 0.264701 -0.311835 -0.431142 0.080455 -0.033384 0.080344 0.019401 -0.426507 5.77E-4 -0.196629 0.123164 0.039571 -0.123395 -0.124011 0.218785 -0.113375 0.160913 0.572187 0.218882 0.06667 0.174843 -0.0402 0.148464 0.047772 -0.161295 0.01446 0.329721 -0.043118 0.09373 0.209994 0.090802 -0.031526 0.407467 0.176242 0.326277 1.57E-4 -0.2217 0.056678 -0.106723 0.111726 -0.097687 -0.091345 0.104959 -0.22269 0.191671 0.053101 0.099755 0.167422 -0.209994 0.3368 -0.374806 0.350193 0.21258 -0.021634 0.186334 -0.210396 0.19092 0.025696 0.193289 0.16108 -0.047727 -0.062118 0.091451 -0.223135 0.192143 0.113764 0.269589 -0.245821 -0.012482 -0.1576 0.009544 0.092615 -0.175334 0.254433 0.112966 0.080699 -0.058518 -0.150494 -0.085522 -0.301181 -0.054712 0.118689 -0.379782 0.312979 0.427233 0.036466 0.229676 0.190274 0.068973 -0.432807 0.100462 -0.277827 -0.360311 -0.025408 0.072411 0.347673 0.014735 0.19255 0.109982 -0.150822 0.227229 0.148827 0.009612 -0.013257 0.501617 0.256608 0.185721 -0.103678 0.035576 0.237895 0.133201 -0.063875 -0.464641 -0.152848 0.335256 -0.303824 -0.222913 -0.037524 -0.076901 -0.164263 -0.200204 0.050194 0.354592 -0.339429 0.383249 0.069832 0.351233 -0.023953 0.235379 0.065544 0.126507 -0.056427 0.056893 0.233073 -0.178704 -0.118621 -0.016586 -0.419433 0.204874 0.153372 0.182713 0.067593 -0.02319 -0.186642 -0.156055 0.166529 -0.045469 0.162657 0.011973 -0.204759 0.341865 0.052309 -0.053128 0.046381 -0.043425 -0.132739 -0.224014 -0.071117 -0.327455 0.297798 0.141697 -0.045615 -0.203933 -0.273113 0.126624 -0.162481 -0.054182 -0.269186 -0.150419 -0.064107 0.10475 -0.126691 0.069853 0.385921 0.233649 -0.027294 -0.026986
computer 0.023345 -0.083793 0.04583 0.297617 0.385288 -0.066797 0.06244 0.372723 0.200197 -0.293257 -0.74376 -0.2148 -0.449007 -0.046517 0.017883 0.012026 0.04732 -0.171746 -0.04026 -0.176856 0.112548 0.180662 0.184329 0.026862 -0.017245 0.255492 -0.284366 -0.076141 0.034681 0.12388 0.200301 -0.152622 -0.178577 -0.257451 0.115126 -0.262882 0.041168 0.307007 -0.235794 0.276053 0.139282 0.095132 0.336682 0.097188 -0.158725 0.103147 0.130748 -0.133325 0.165587 -0.122915 0.242997 0.012204 -0.231947 -0.046801 -0.190176 0.203705 0.011045 0.264366 -0.136434 -0.104178 0.095767 0.259991 -0.174367 0.334809 -0.171466 0.208191 0.043448 -0.04807 0.134771 -0.067983 0.053455 -0.181652 0.007036 0.200381 0.141924 0.112058 0.09528 -0.226937 -0.123618 0.30422 -0.139004 -0.129359 0.127132 0.148007 -0.034339 0.209796 0.252692 0.11379 -0.132294 -0.225649 0.014172 -0.206607 -0.14666 -7.28E-4 -0.289703 -0.037035 -0.21316 -0.196555 0.16871 0.181692 -0.170605 -0.271749 -0.07728 0.08145 0.281636 0.098788 0.02378 0.061806 -0.142854 0.267889 0.43607 0.240478 0.04447 -0.046907 -0.221832 0.007304 0.110252 0.114252 0.032685 -0.195372 0.114288 0.109274 -0.20832 0.022744 -0.238357 -0.022845 0.118618 0.261885 -0.095772 -0.002995 -0.019954 0.233003 -0.080337 -0.05322 0.138036 -0.187105 0.170579 -0.118081 -0.171159 0.044453 0.007518 0.02108 0.066542 -0.002308 0.034314 0.024441 0.015597 0.047712 0.001854 0.129632 -0.071106 -0.26887 0.252805 -0.13183 0.146068 0.386427 -0.08222 0.092836 0.046681 0.27435 0.12543 0.044021 -0.090855 0.229236 0.238702 0.121161 0.082306 -0.059758 0.082307 0.323382 -0.15078 -0.45204 -0.034059 -0.038303 0.004366 -0.071855 -0.049924 -0.128467 -0.2128 0.16066 -0.201169 0.2163 -0.088076 -0.192628 0.307077 -0.196548 0.163764 -0.090587 0.046464 0.012524 -0.317058 -0.115879 -0.070708 -0.040678 -0.006516 -0.168365 0.238896 0.032436 -0.247726 -0.171801
queen 0.111869 0.149983 0.038437 -0.076779 0.110155 -0.083411 -0.169369 -0.076559 -0.017179 0.004059 -0.151718 -0.184244 -0.079448 0.197278 -0.058573 0.042443 -0.002198 0.013893 -0.050401 -0.093372 0.054609 -0.212861 -0.161363 0.168381 0.097575 0.131759 0.091972 -0.229563 -0.033803 -0.049565 -0.014634 -0.132966 -0.132647 0.030879 -0.004962 0.006706 0.072962 -0.063766 -0.221797 -0.026359 0.054106 -0.246334 0.007657 0.011119 0.058647 -0.065498 -0.197825 -0.21791 0.088745 -0.077559 -0.076381 0.067889 0.023972 0.129218 -0.26411 0.018015 0.184378 0.172866 -0.124854 0.015191 -0.028678 -0.090761 -0.121738 -0.159778 0.12771 -0.062829 0.036279 0.131288 0.132387 -0.142262 0.188589 -0.303138 -0.01644 0.099483 0.177651 -0.122919 0.053779 0.067712 -0.075023 0.058885 0.001262 0.043114 -0.087337 0.081294 -0.036031 0.14988 -0.0071 -0.030827 -0.106873 -0.047681 0.202709 -0.085274 0.126133 0.089446 -0.205073 0.104556 -0.106102 -0.163412 -0.048124 0.147906 0.027398 -0.098637 -0.060068 -0.220715 0.022112 -0.11419 -0.123527 0.176657 -0.1506 -0.0189 0.070581 -0.253848 -0.150109 0.119263 -0.001385 -0.106798 -0.162719 -0.007965 0.115774 0.299924 -0.051436 0.089469 0.134502 -0.002085 0.04888 -0.237579 0.027684 -0.053479 0.190542 -0.074688 -0.108064 0.010538 0.006768 0.264314 -0.176847 -0.090177 0.059775 0.021197 0.066538 -0.066649 -0.082532 -0.151613 -0.064757 -0.033882 0.18606 0.11569 -0.007366 -0.274822 0.01934 -0.054742 0.050172 -0.251898 -0.093242 0.042622 0.02143 0.024889 -0.010944 -0.116598 0.118094 0.072095 -0.104581 0.068573 0.019243 0.036766 0.254964 0.037077 0.00878 0.06347 -0.023628 0.176875 0.020537 -0.043149 0.100308 0.043955 -0.041615 0.008698 0.205983 -0.041883 0.054854 -0.046036 0.028379 0.162725 -0.059278 -0.007508 -0.211561 0.272692 -0.17168 -0.157396 -0.059019 -0.026526 -0.036697 -0.133173 -0.089856 0.22416 0.083426 0.008541 -0.071745 0.050612 0.186894 0.221252
wizard 0.031666 -0.030686 0.029917 -0.019301 0.048921 -0.102544 -0.057793 0.086901 0.071296 -0.015745 -0.043233 -0.140219 -0.090576 0.108466 -0.027638 -0.099272 0.025995 0.081781 -0.038946 0.019911 0.085665 0.00469 -0.093507 0.07185 -0.012571 0.039248 0.105332 -0.064156 0.033717 0.083958 0.035426 -0.102486 -0.031333 -0.011849 -0.048136 -0.036725 0.073381 -0.0698 -0.057907 -0.107712 0.042914 -0.003902 0.096863 0.023169 -0.020929 0.058578 -0.024525 -0.063941 -0.036028 -0.017473 -0.034894 0.076381 -0.002018 0.095544 -0.170799 0.048618 0.064976 0.052594 -0.016952 -0.006326 -0.053047 -0.006071 -0.084496 -0.100745 0.005308 0.093899 -0.035801 -0.026352 0.065577 -0.059863 0.080707 -0.17879 -0.066266 -0.071161 0.095464 -0.007772 0.073724 -0.042528 0.006223 0.012011 -0.023495 0.009396 -0.018976 0.043656 0.024116 0.027218 0.058374 0.115198 -0.010726 0.009582 0.061053 0.064141 0.128432 0.115476 -0.036666 -3.33E-4 -0.043481 -0.048049 0.052644 0.050345 0.058543 -0.0605 -0.104029 0.04412 0.040354 -0.030694 0.063539 0.029111 -0.113726 -0.029026 0.093459 -0.153873 -0.110652 -0.12001 -0.048873 -0.022293 0.0195 -0.02366 0.035812 -0.05585 -0.034357 0.081122 0.08016 -0.085841 -0.005171 -0.020331 0.109211 -0.005746 0.075109 -0.006241 0.015237 0.078315 -0.116966 0.124599 -2.95E-4 -0.055963 0.028734 0.050572 0.03597 -0.005657 -0.103617 -0.036588 -0.096186 -0.02035 0.070367 0.018557 0.071616 -0.114039 -0.021855 -0.014103 0.008643 0.008435 0.010306 0.013166 -0.108454 -0.04058 0.031902 0.017693 -0.051237 0.050372 -0.012006 0.03248 -0.067098 -0.035942 -0.039692 -0.039394 -0.037612 0.064352 -0.004953 0.042183 -0.022353 -0.130969 -0.035975 0.04289 0.146754 -0.066411 0.060654 -0.020092 0.061584 -0.003979 -0.116443 0.040684 0.033426 0.050354 0.008493 0.012125 -0.016861 -0.053699 0.008884 -0.023955 -0.008979 -0.070356 -0.073896 0.126976 0.058852 0.012677 0.018247 0.026854 0.012808 0.016528
oil 0.145501 -0.214875 -0.158343 0.155807 0.415692 -0.238903 -0.225918 -0.229522 -0.286536 -0.399435 -0.052233 0.397316 0.02845 -0.139427 -0.239565 -0.197934 0.162698 -0.263332 -0.43834 -0.045857 0.239627 -0.03181 0.245133 0.153629 0.254606 -0.072397 -0.555895 0.726468 0.149175 0.439597 -0.203129 -0.280683 0.252125 -0.17674 0.263849 -0.115543 0.096925 0.109457 0.398141 0.197596 0.351475 0.11315 -0.528822 -0.10158 -0.118126 0.044673 0.055552 -0.140072 -0.331301 0.175829 0.053725 -0.226109 0.070784 0.107936 0.261024 -0.145164 -0.014457 0.231504 0.055467 0.119743 -0.224076 -0.100536 0.034362 0.279998 -0.307179 -0.159978 -0.288225 0.319268 -0.093272 -0.317907 0.160386 -0.120922 -0.22834 -0.045499 0.239679 -0.331187 -0.103142 0.032921 -0.114443 -0.385711 0.0799 0.089591 0.249481 -0.055094 -0.298378 -0.399368 0.237785 0.109179 0.260555 0.285441 0.098713 -0.153392 -0.053708 -0.268614 -0.256323 0.588342 -0.290046 -0.066178 -0.004359 0.071271 -0.083023 -0.151448 0.013418 -0.167302 0.335176 -0.046289 -0.012977 0.154244 0.140123 0.021335 -0.285145 -0.115223 0.17777 0.061395 0.046126 -0.203862 -0.507368 -0.198727 -0.177891 0.31636 0.174999 -0.42655 -0.046472 -0.169067 -0.366123 -0.206207 -0.120922 -0.06132 0.193953 -0.284561 0.332456 -0.319031 0.089239 0.213414 0.156616 -0.032029 -0.040473 -0.367792 0.075796 0.154068 0.101269 -0.388461 0.214061 -0.272566 0.054606 0.222612 -0.035999 0.38873 0.007779 -0.157184 -0.40538 0.061956 0.227259 -0.337445 -0.42619 0.206309 -0.297575 -0.072338 -0.233669 0.05308 0.194609 0.146209 0.080517 0.037249 -0.054542 -0.082346 0.081656 -0.12748 0.251937 -0.437952 -0.155825 -0.570621 -0.091095 -0.450349 0.262816 -0.194103 -0.250021 -0.445978 0.236975 0.121251 0.40448 0.049737 0.157478 -0.052677 -0.01037 0.08894 -0.018958 0.401062 -0.262214 -0.236272 -0.043218 0.306175 -0.180852 0.190436 0.152145 0.050182 0.197313 -0.103738 -0.006964 -0.420326
currency -0.030842 0.087215 -0.098118 0.020534 0.23372 -0.257003 -0.376366 -0.084951 -0.05442 -0.469954 0.1675 0.264374 0.37509 -0.353041 -0.048269 0.139735 0.387897 -0.231561 0.245916 -0.033165 0.309211 -0.152631 0.389607 -0.022857 -0.118674 0.166899 0.231293 0.021033 0.369795 -9.49E-4 -0.082645 0.244941 -0.14621 -0.398134 0.289575 -0.298857 0.29793 0.465464 -0.225123 0.167872 0.346564 0.067891 -0.319246 -0.066433 -0.078974 0.327124 -0.138686 -0.141675 -0.231943 0.069049 0.035321 -0.151463 0.18857 0.116485 -0.070917 -0.132974 0.134465 -0.279997 -0.049477 0.059601 -0.208669 -0.061345 0.231127 -0.011259 -0.101381 -0.150338 -0.487623 -0.204453 -0.071101 0.075996 0.139512 0.183562 -0.317046 -0.033834 -0.087687 -0.146957 -0.018862 -0.152128 0.071626 -0.090177 -0.289795 -0.103505 0.157157 0.029522 -0.129824 0.104356 0.033552 -0.001675 0.144335 0.090749 0.035176 -0.20941 0.080316 -0.203808 -0.077238 0.349883 -0.438482 -0.061529 -0.142846 -0.1671 -0.268339 0.067609 0.060486 0.183835 0.06926 0.020239 0.114781 -0.001476 -0.031458 -0.125093 -0.038326 -0.3575 0.22563 -0.12932 0.188619 -0.058198 -0.200509 -0.366081 0.075629 0.017438 0.26752 -0.354266 -0.165501 0.075564 -0.111161 -0.35183 0.255697 0.253952 -0.270961 -0.332743 0.191319 -0.152309 -0.080286 0.153833 -0.225398 0.096455 -0.409757 -0.542182 -0.135011 -0.105333 0.198362 -0.235971 -0.007875 -0.235772 -0.089206 -0.176724 0.103608 -0.232836 0.198109 -0.171351 0.123426 -0.305644 0.121476 0.004976 -0.231202 -0.163052 -0.436549 0.106973 -0.02517 -0.003826 0.008456 -0.345817 -0.048631 0.24887 0.241907 0.082422 0.223739 -0.203536 0.049293 -0.044378 -0.321417 -0.175308 -0.191021 -0.226572 -0.35936 -0.348408 -0.128911 -0.107189 0.016476 -0.095557 -0.267403 0.324497 -0.010707 -0.00522 0.012258 0.165302 0.156228 0.220299 -0.082478 -0.622989 0.092864 -0.080955 -0.106056 0.257547 -0.249125 0.191163 0.040827 -0.201574 -0.056475 -0.023179
laundering 0.197924 -0.294434 -0.231045 -0.018911 -0.315134 0.28438 0.068698 0.610105 0.137024 0.226705 -0.330166 0.410019 -7.25E-4 0.50826 -0.109944 0.142087 0.066491 0.083216 0.145119 0.076411 0.122228 -0.237215 -9.27E-4 -0.138594 -0.184046 -0.474675 -0.154595 -0.241916 0.352273 0.217255 -0.09219 -0.287885 -0.070837 0.351204 0.023579 0.00539 0.101395 -0.127351 0.225846 0.35875 0.259225 0.171445 -0.081286 -0.240421 -0.137028 -0.246155 0.045382 0.014673 0.22847 -0.242065 0.085159 -0.007285 0.134006 -0.263624 -0.144188 0.05903 -0.11124 0.016512 -0.323039 0.219499 -0.032217 0.005325 -0.11339 0.19969 -0.141205 -0.162082 -0.359352 0.039824 0.133081 0.197533 -0.003606 0.156858 0.032605 0.007573 -0.298908 -0.099033 0.044828 -0.458577 -0.061881 -0.437677 0.128674 -0.176814 0.216278 -0.063751 -0.378933 0.058672 0.100995 0.070891 -0.032833 0.151342 -0.130814 -0.002862 -0.015687 0.438641 -0.139377 0.207804 -0.04732 0.269399 0.259886 0.46368 0.20171 0.108609 0.091864 0.66555 -0.188303 -0.186921 0.303804 -0.004818 0.219557 -0.008606 -0.203101 0.242749 -0.257095 0.040035 0.032863 -0.182681 -0.115987 -0.147497 0.101154 0.008646 0.110286 -0.392615 -0.249741 -0.03227 0.119876 -0.058039 -0.076315 0.084509 0.024261 0.030003 -0.009505 -0.011366 -0.169565 -0.17544 -0.060614 0.182354 0.114878 -0.045564 -0.152276 -0.114001 -0.184856 -0.36586 0.204452 0.075578 0.155641 0.273128 0.097773 0.168728 -0.212941 -0.101922 0.079914 0.288287 0.451312 0.227478 0.099346 0.213142 -0.297096 0.170907 -0.121514 0.067314 0.021839 0.042369 0.230084 0.050502 0.056961 -0.004837 0.222303 -0.19699 -0.365877 0.25198 0.452955 0.251199 -0.121027 -0.333407 -0.260225 -0.281026 -0.619138 0.331776 0.253892 0.051787 -0.088407 0.098258 -0.190965 -0.072582 -0.264364 -0.084836 0.308968 0.02698 -0.133245 -0.183619 -0.093185 -0.022589 -0.286694 -0.077614 -0.226867 0.101829 0.708837 -0.176077 -0.044434 -0.285157
midday -0.148381 0.112572 0.139757 0.316058 0.169947 0.085618 -0.271592 -0.197705 0.283711 -0.074333 0.022344 0.015701 0.196089 -0.277197 0.246927 0.011169 0.131564 0.03064 -0.195762 0.325461 -0.069222 0.399696 0.218566 0.248007 -0.107796 -0.103034 -0.261205 -0.070417 0.181194 0.142539 -0.165098 0.065507 -0.188385 -0.11871 -0.058186 -0.057361 0.123663 -0.12131 0.165295 -0.100228 0.397288 0.193456 -0.185327 -0.373618 -0.307297 -0.314056 0.503334 0.027131 -0.409203 -0.157 0.061733 0.105745 -0.493789 0.113468 0.012569 0.020764 -0.386647 -0.057316 -0.235348 0.129788 0.094399 0.098451 0.234906 0.082783 -0.435015 0.151196 0.133728 -0.130898 -0.0457 0.128087 -0.061615 0.018676 0.078136 -0.308264 0.235194 -0.062703 0.360866 -0.057304 0.067618 -0.060554 0.047882 -0.114251 0.130111 -0.056372 0.027997 0.044474 -0.037941 -0.068273 0.171806 0.674197 -0.299059 0.082999 -0.208493 -0.006242 -0.101142 0.074762 -0.082671 0.194213 -0.224048 0.286126 -0.003176 0.182469 0.107343 -0.313004 -0.118717 0.424468 0.157276 0.263027 -0.150924 0.282047 -0.042528 0.112241 -0.254616 0.137347 0.224175 -0.034884 0.015135 0.198134 -0.261969 0.08347 0.142973 -0.051161 -0.27824 0.068748 -0.066158 -0.108493 -0.065136 0.294081 0.036528 -0.23262 -0.052588 0.102535 -0.079942 0.247301 -0.172296 0.194564 0.054803 -0.396915 0.040746 -0.171404 0.178426 -0.024453 -0.025179 0.087878 -0.102039 0.021197 0.181382 0.058997 0.051744 0.015748 -0.344967 0.24497 -0.129527 0.184219 -0.176279 -0.102514 0.175079 0.109211 -0.07356 -0.35981 -0.172397 0.126457 0.118374 -0.054908 0.263648 -0.152379 0.08148 0.304483 -0.030123 -0.237433 -0.07553 0.253052 -0.28768 0.107903 -0.15421 -0.07561 -0.198504 -0.112182 -0.042579 0.080075 0.169144 -0.226505 0.136429 0.001782 -0.108554 0.06076 -0.12785 0.056158 -0.112103 0.080585 -0.086656 -0.021105 0.0448 -0.152932 0.006624 -0.060948 -0.086093 0.018409 0.004336 0.275132
Arafat -0.048394 0.099336 0.109325 0.068439 0.075426 0.005395 -0.015614 -0.050257 0.092659 0.119721 0.114144 -0.019297 -0.035658 0.036295 0.089817 -0.071083 -0.049286 0.047977 -0.015029 0.103449 0.010577 0.085808 -0.047366 -0.100442 0.077423 -0.165909 0.142568 -0.082034 -0.080989 -0.074573 0.121081 0.092155 -0.112743 0.110877 0.164797 -0.032732 0.022448 0.027424 -0.044352 -0.271058 -0.018575 0.085524 0.199939 -0.113503 0.058945 0.0504 -0.070051 0.025865 0.089148 -0.030769 -2.9E-5 0.094934 0.140197 0.039395 -0.082457 0.01815 0.170243 0.12989 -0.114458 0.038155 0.086295 0.038872 0.058855 -0.313013 0.103679 -0.050891 -0.014004 0.081107 -0.008355 -2.89E-4 0.024449 -0.12777 0.066778 -0.109793 0.153825 0.018721 0.072109 -0.111837 -0.046759 0.152818 0.085065 0.135786 0.073468 0.004643 -0.02763 0.065422 0.021147 0.016981 -0.095455 0.14166 0.159412 1.6E-4 0.075561 0.042385 0.001508 0.002563 -0.235581 0.058741 0.010796 0.2181 0.120449 -0.089917 -0.01123 0.111446 0.056834 0.059456 -0.034276 -0.022457 -0.00402 -0.012714 0.011569 -0.053585 0.042196 0.068617 -0.018001 -0.107092 -0.002964 0.039019 0.093693 0.122299 -0.107478 -0.071035 0.073056 -0.142469 0.097944 0.015489 0.038665 0.073584 -0.128735 -1.98E-4 -0.030074 0.12791 -0.061109 0.252675 0.098194 -0.095952 0.139209 0.126574 -0.050625 -0.076292 0.056962 -0.19071 -0.074888 0.053524 -0.065391 0.070969 0.009243 -0.132619 -0.08622 0.010342 0.031052 -0.058303 -0.159569 0.022076 -0.073214 0.043535 -0.133981 0.008613 0.044996 0.00876 -0.090074 -8.86E-4 0.112219 0.014431 0.022365 0.155834 0.035638 -0.126485 -0.197943 -0.04662 0.06598 0.083111 -0.027456 0.123434 0.111227 -0.109173 -0.132948 -0.133598 -0.056936 -0.188784 0.115825 0.114586 0.032951 0.16946 0.016046 0.12636 -0.155255 -0.051585 -0.119191 -0.096816 0.05798 0.040911 -0.146193 0.155518 0.144937 -0.0165 0.011434 0.034014 0.04691 -0.019659
man 0.145448 -0.1516 0.025519 -0.156184 -0.057436 -0.223868 -0.405706 0.010165 0.157461 0.150009 -0.250523 -0.180778 -0.019407 0.072759 -0.073331 0.079402 0.066382 0.440321 -0.136413 -0.029503 0.172084 -0.098588 0.061787 0.248276 -0.461703 -0.069196 0.204298 -0.449072 0.007235 -0.118079 -0.168506 -0.316376 0.165321 0.238742 -0.140588 -0.095325 0.436507 -0.223119 -0.089388 0.060528 0.267324 0.09137 -0.214787 0.010343 -0.03917 -0.207871 -0.185837 0.146929 -0.111486 -0.027179 -0.10274 -0.038101 -0.063736 -0.048361 -0.368149 0.2923 0.388436 0.244702 0.137446 -0.172488 0.035158 0.160138 -0.218423 -0.230077 -0.256958 0.176507 -0.158904 0.417118 -0.084888 -0.12186 0.020084 -0.273428 -0.046276 0.011466 0.304841 -0.309896 -0.072623 -0.175898 -0.092125 -0.097863 -0.101102 0.100054 0.073203 -0.003025 -0.025414 -0.010853 0.010826 0.096049 -0.14028 0.195508 0.434846 -0.072436 -0.014054 0.292364 0.308829 -0.023432 -0.169176 0.078102 0.193786 -0.051298 0.014749 0.041291 -0.394867 -0.182199 -0.034266 0.212427 0.209728 0.096839 0.225737 -0.374329 0.126683 0.009162 -0.199168 -0.07547 0.087149 -0.235733 -0.053723 0.073154 0.277768 -0.059411 -0.095358 0.26302 0.123105 -0.037515 0.239742 -0.162007 0.071693 0.006383 0.136935 -0.170078 -0.100429 0.278525 0.073941 0.010785 -0.164366 -0.069056 0.249204 0.168911 0.184198 -0.188137 -0.371093 0.051438 -0.116363 0.058328 0.089782 0.355109 -0.135208 -0.460708 0.130071 -0.041721 0.174612 0.31044 0.260607 -0.044461 -0.148428 0.20503 0.073703 -0.152772 0.042061 0.102289 -0.0146 0.183325 0.081617 -0.228538 -0.241352 0.103901 -0.023676 0.069142 -0.208161 0.275938 -0.136571 -0.11859 -0.189149 0.408121 0.133749 0.072003 0.012228 -0.265319 0.00376 -0.369236 -0.042737 0.097077 0.215158 -0.223798 -0.179426 -0.023573 0.151176 -0.137129 -0.293011 -0.180532 -0.124014 -0.351666 1.3E-4 0.260126 -0.197825 -0.030894 0.04938 0.400177 0.00765 -0.074616
keyboard 0.166758 0.176663 -0.055636 0.124878 0.17016 -0.121446 -0.23646 0.056915 0.106947 -0.147678 -0.256858 -0.398051 -0.328649 0.100917 -0.128632 -0.091014 -0.057708 0.003366 -0.093059 -0.126996 0.038421 -0.101938 0.035071 0.063815 0.274878 0.15846 -0.095722 -0.241673 0.072799 0.143246 -0.058304 0.021434 -0.033405 0.038207 0.118639 -0.241578 0.247074 -0.085147 -0.047444 0.140778 -0.050286 -0.034866 0.188377 0.307582 -0.063217 0.151666 -0.036121 0.0793 0.070492 0.128952 -0.029167 -0.008778 -0.025228 0.072516 0.032393 0.057214 0.21267 0.069434 -0.084819 0.062294 -0.240097 0.148328 -0.341219 0.061945 -0.069647 -0.057642 -0.089488 -0.066047 0.270818 -0.192023 -0.074764 0.006696 -0.010914 0.021 0.121264 -0.116064 0.072961 -0.145706 0.109336 0.051786 -0.003476 0.09719 -0.002248 0.150476 -0.060348 0.185087 0.114666 0.086451 0.023563 -0.120032 -0.033038 0.036349 -0.029193 -0.031937 -0.168609 -0.011372 -0.055241 -0.129076 0.160267 0.278594 -0.056908 0.023424 -0.018924 -0.104986 0.025451 0.004739 -0.029804 0.132662 0.001172 -0.106542 0.070804 -0.116535 -0.129084 0.097058 0.06259 -0.234753 0.063554 -0.051249 0.301588 -0.089602 -0.031109 0.105234 0.023041 -0.098262 -0.059329 -0.072862 0.11827 -0.08176 -0.073785 -0.049387 0.062223 -0.078846 -0.270776 0.019226 0.030431 -0.12191 0.151947 -0.21135 0.033875 0.157475 0.12701 1.5E-5 -0.083236 -0.132866 -0.041294 -0.22775 0.107489 -0.011781 -0.038898 0.084154 -0.138035 -0.208668 0.212367 0.045134 0.135074 0.198765 -0.072371 0.152909 0.101222 0.085434 0.043439 -0.035081 -0.184042 0.061345 0.227102 -0.085463 0.123975 -0.066574 -0.002761 0.183782 -0.095484 -0.312783 0.071844 0.146162 0.147492 -0.082498 0.006288 -0.060118 -0.098413 0.116245 -0.380867 0.296056 -0.076744 -0.093722 0.055058 -0.173579 0.057378 -0.230004 -0.030185 0.042869 -9.6E-5 0.045856 0.065914 0.032864 0.035355 -0.003233 0.061098 0.024927 0.014647 0.08539
announcement -0.453937 0.08024 -0.310932 0.296434 0.048006 -0.15345 -0.262819 0.098236 -0.442719 -0.015534 -0.063404 -0.139062 0.850533 -0.092472 0.175465 0.047035 0.183807 -0.373341 0.091691 0.211029 0.06782 -0.190237 0.035573 -0.337447 0.124496 0.208115 -0.080435 0.142107 -0.027339 -0.035012 0.13173 0.006464 -0.123099 0.014237 -0.261379 0.069475 0.06492 -0.127123 -0.094888 -0.276091 0.267986 -0.00717 0.018743 -0.288327 0.144868 -0.170882 -0.015234 -0.055438 -0.293453 -0.15329 0.093762 0.099474 0.162928 -0.110318 -0.071333 0.229202 0.150962 0.180462 -0.10344 -0.277173 0.119572 0.027427 -0.248945 -0.214137 -0.192255 -0.224573 0.168923 0.328584 -0.382127 0.005304 0.30461 -0.1481 -0.066092 0.100674 0.327535 0.054322 0.05583 0.127851 0.103564 0.119022 0.106606 0.31182 -6.94E-4 -0.063959 0.176072 -0.095227 0.061818 0.378049 0.061437 0.190091 0.010086 0.289429 -0.263779 -0.130568 0.133256 0.100061 0.199655 0.004493 -0.460884 -0.315119 0.042953 0.277341 0.13036 0.00676 0.40384 0.456829 -0.090484 -0.014279 -0.123553 0.277433 -0.115545 0.19411 0.093614 0.069209 -0.017354 -0.176172 0.420141 0.122703 -0.097667 -0.042447 -0.110421 0.172319 -0.05906 -0.15762 -0.054441 0.034966 -0.130357 0.056012 -0.084773 -0.057807 0.14744 0.097538 -0.272456 -0.020016 0.011888 0.004291 -0.129624 -0.342337 0.083912 -0.287687 -0.349159 0.018748 -0.164955 -0.175007 0.056116 -0.090114 0.097889 -0.225046 -0.260786 0.232442 -0.199713 -0.078628 0.040563 -0.114662 -0.386389 -0.102466 -0.054118 -0.121632 -0.290656 -0.137239 0.034536 0.141293 0.049568 -0.308565 0.1109 0.241824 0.230253 -0.072817 -0.007602 0.029176 -0.394945 0.129997 0.084426 -0.144748 -0.053747 0.132651 0.052007 0.188862 -0.232161 -0.459436 -0.331495 -0.017914 0.053343 -0.086704 -0.170258 -0.063663 -0.281441 -0.016413 0.22382 -0.131466 0.286225 0.104978 -0.09399 0.054075 0.203702 0.045683 -0.259671 -0.058801 0.108272 0.107694
racket 0.001568 0.063394 0.232748 0.169515 0.058253 -0.060153 -0.059186 -0.046625 0.200712 0.048574 -0.31176 -0.096931 -0.135863 0.044428 0.100301 -0.121753 -0.085011 0.024981 -0.161839 -0.113451 -0.055624 -0.013336 0.021391 0.04235 0.165603 0.043784 -0.072401 -0.086661 0.10424 -0.046514 -0.018112 0.014475 -0.160968 0.199676 0.028137 0.030662 0.047369 -0.021444 0.003192 0.09493 0.00572 -0.007721 0.050084 0.039311 0.01332 0.083708 -0.095027 -0.027655 0.050007 0.061353 0.052907 0.041687 0.167758 -0.039662 6.6E-4 0.05401 0.084783 0.033111 -0.231536 -0.024651 0.006591 -0.058731 -0.05317 -0.16144 -0.033205 -0.059334 -0.069998 0.144433 0.054965 -0.041596 -0.013317 0.069082 0.041075 -0.007241 0.138008 -0.050659 -0.022202 -0.061181 0.086101 0.052086 0.078725 0.051045 0.08312 -0.084911 -0.115875 -0.048876 0.016825 -0.052036 -0.224219 -0.021017 -0.016782 -0.091003 0.081552 0.141725 -0.094116 0.035028 -0.033602 0.057604 -0.041721 0.103721 -0.016925 0.088041 -0.040498 -0.001542 -0.03466 -0.078213 0.022759 0.085479 0.012789 0.160111 -0.110812 -0.118782 -0.152355 0.044009 0.038433 -0.148885 -0.118092 -0.03729 0.060915 -0.068233 -0.066339 0.033917 -0.023937 -0.080286 0.055335 0.01776 0.102966 0.138443 0.038402 0.036389 -0.083792 -0.084186 -0.113939 0.064352 -0.024855 -0.087403 0.151942 -0.0993 -0.001323 -0.044411 -0.128193 -0.097178 0.002546 -0.150019 0.076755 0.049764 0.092404 -0.048847 -0.049742 -0.156451 -0.038361 -0.030998 0.061562 -0.052167 -0.043556 0.165944 -0.059579 -0.04192 0.035206 -0.037253 -0.048316 0.189546 -0.033198 -0.076133 0.044625 0.101541 0.044483 -0.116564 -0.023547 0.070922 -0.015432 -0.033441 -0.044255 0.04461 -0.064648 -0.014411 0.005259 0.028862 0.092747 0.056653 -0.171654 0.042488 0.062782 -0.025692 -0.080018 0.07808 -0.015891 -0.05152 -0.062441 0.008238 0.051026 -0.028191 -0.1593 0.11009 0.131904 0.032303 0.084336 -0.051696 0.091114 -0.005963
Maradona 0.005113 0.189612 0.087865 -0.029368 0.036525 -0.016502 0.081661 -0.158618 -0.015834 0.10002 -0.026062 -0.118598 0.069776 -0.007727 0.106316 0.063952 0.016948 -0.023842 -0.028122 0.060895 0.005418 0.06869 -0.014049 0.110467 0.081616 0.130765 0.10849 -0.045259 -0.113729 -0.044696 0.11914 0.062422 -0.143976 0.034466 0.072435 0.142991 -0.023214 -0.039212 -0.13689 -0.04984 -0.191565 -0.027338 0.023816 -0.083566 0.102598 0.07032 -0.083075 -0.066303 -0.119849 0.174231 -0.048461 0.04473 -0.053003 0.005527 -0.029186 0.131842 -0.055164 0.038178 -0.18746 -0.087153 0.040154 -0.055673 0.140647 -0.084741 0.078684 0.194683 -0.077965 0.107005 0.211484 -0.056468 0.04452 0.116952 -0.149374 0.007502 0.156202 0.115162 -0.03516 -0.044206 -0.12251 -0.002518 0.090604 0.152212 -0.004139 0.071144 0.147486 -0.019985 0.108896 0.044888 -0.174491 0.069146 0.150268 0.059102 0.058704 -0.052941 -0.086175 -0.120421 0.005075 0.033179 0.179211 -0.007352 0.161535 -0.012615 -0.020349 -0.119255 0.037348 -0.119567 0.015537 0.042632 0.017131 7.8E-5 0.001831 -0.08057 -0.105625 -0.02158 0.183939 0.02951 -0.049507 -0.049378 0.118087 0.067766 -0.048417 0.020414 0.163946 -0.088183 0.015462 -0.025133 0.040578 -0.032199 0.022903 -0.114524 -0.010271 0.226347 -0.072749 0.062718 0.087858 -0.041612 0.184141 -0.012757 0.10025 -0.229742 -0.136391 -0.133187 0.117817 -0.025767 -0.028828 -0.026525 0.042134 -0.051442 0.062449 0.049159 -0.099482 0.099318 0.017605 0.077608 -0.08387 -0.077182 0.030463 -0.001852 -0.027583 -0.068674 0.030714 0.144381 -0.011498 -0.214123 0.100227 0.054512 0.050339 0.034914 0.119016 0.058056 -0.120771 -0.103627 0.054538 -0.010842 0.021047 0.106463 0.01732 0.040253 0.105852 -0.004644 -0.052001 0.094099 0.022167 -0.073968 -0.102859 0.178618 -0.058024 0.10021 -0.138943 -0.14537 -0.017781 -0.031088 -1.27E-4 0.097136 0.099793 0.049482 0.122394 0.072795 -0.130684 0.159392
anxiety 0.097596 0.27192 -0.339713 0.187988 0.097184 -0.157196 0.13015 -0.048283 0.106478 -0.105343 -0.212833 -0.07182 -0.08347 0.161194 -0.067866 -0.024765 -0.151452 -0.049182 -0.029815 -0.028835 -0.083692 -0.059925 -0.138134 -0.230792 0.331635 -0.132687 0.020745 -0.030311 0.020132 0.239663 0.229098 0.077543 -0.117942 0.264146 0.00307 -0.111771 0.110291 0.076252 0.054424 0.05097 0.193951 0.329822 0.119952 -0.035274 0.086374 -0.044222 -0.402386 0.089755 0.005827 -0.095903 -0.149881 0.082683 -0.096157 -0.21493 -0.320314 -0.127942 0.113862 0.239198 0.126359 0.160645 -0.004105 -0.065688 -0.070197 -0.116197 0.193443 -0.298227 -0.12776 0.037528 -0.025098 0.092287 0.141018 0.391686 0.142208 0.040332 0.006444 0.075041 0.08052 -0.22031 0.015299 -0.234326 0.214557 0.343539 -0.327383 -0.146757 0.001247 -0.203282 0.107696 0.01165 -0.012151 0.025196 0.069343 -0.244552 -0.024613 -0.294054 0.081551 0.059314 -0.10801 -0.03044 0.235415 0.247909 0.039971 0.325013 -0.074545 0.085532 -0.062393 -0.437685 0.001145 -0.030951 4.81E-4 -0.068859 0.212268 -0.373429 -0.114437 -0.045459 -0.008696 -0.080479 0.035911 -0.075824 0.094566 -0.134037 -0.008816 -0.298602 -0.132912 -0.050635 -0.280911 0.132389 0.193038 0.391381 0.026386 -0.109619 0.102547 -0.231384 -0.213667 -0.032771 -0.098239 0.0969 -0.128058 0.049184 -0.207535 0.22863 0.093695 -0.012258 -0.114078 -0.127255 0.153456 -0.209846 -0.198403 -0.099831 0.165938 -0.285955 0.372069 -0.080379 -0.126592 0.218702 -0.226406 0.295537 0.173266 0.054324 -0.028176 -0.18971 -0.437322 0.119097 0.028734 0.028014 0.032091 -0.146431 -0.071926 -0.117566 0.241467 -0.023718 -0.110521 -0.061127 0.172407 0.154027 -0.174346 0.050637 -0.012682 0.166136 0.331426 0.064516 0.043394 0.025318 -0.05439 -0.039912 -0.022181 -0.252365 -0.116529 0.198499 -0.064573 -0.05415 -0.066344 0.016568 0.181799 -0.011259 -0.125271 0.120653 0.176007 -0.21732 -0.094313 -0.055873
jazz 0.244679 0.274446 -0.026828 -0.182852 0.113158 -0.053648 0.018359 0.046733 0.215713 -0.116013 -0.356687 -0.213531 -0.226891 0.24269 0.071544 -0.011037 -0.115417 -0.06621 -0.212605 -0.229747 0.048469 0.055357 -0.035484 0.262696 0.287222 -0.030559 0.132331 -0.214089 0.007534 -0.055437 -0.101095 -0.165988 -0.02399 0.015103 0.107225 -0.011389 0.024853 -0.102949 0.035862 0.165488 -0.017563 -0.03039 -0.026015 -0.157979 0.008026 0.038278 0.020737 -0.157641 -0.119846 -0.099504 7.61E-4 0.045466 -0.112148 0.175861 -0.374023 0.125715 -0.135374 -0.01388 -0.287394 0.168291 -0.089928 -0.13829 -0.328387 0.11768 0.069423 0.155734 -0.020008 -0.033431 0.28051 -0.398125 0.019154 0.039331 0.015175 0.06582 0.264656 -0.197694 0.005716 0.061154 -0.126731 -0.014147 0.092035 -0.003131 -0.038714 0.104104 0.114199 0.024847 0.194971 0.171283 -0.15169 0.045886 -0.03096 -0.083891 0.174433 0.019413 -0.282586 0.182403 -0.277869 0.095598 0.170657 0.288141 -0.011754 -0.14958 0.008526 -0.119675 0.032665 0.021508 -0.093483 -0.025459 -0.117185 -0.141776 0.160582 -0.300818 -0.093716 -0.066723 0.140082 0.340332 0.044929 -0.018084 0.169302 0.009643 -0.14454 0.058349 0.103458 0.051281 0.159964 -0.113014 0.059337 -0.18971 0.100225 0.067955 -0.057061 -0.046664 -0.143914 0.181591 0.063848 -0.059735 0.212435 0.031623 0.145258 0.060872 0.098156 -0.193199 -0.125131 -0.069351 0.297127 -0.298967 0.057233 -0.124218 0.008196 -0.114747 -0.206998 -0.269284 -0.041709 0.152984 0.115013 -0.11127 0.095757 0.017667 0.15008 0.041069 -0.013709 -0.073084 -0.021641 0.118428 0.206281 -0.057928 0.055546 0.343977 -0.0115 0.219329 -0.115004 0.084672 -0.004416 -0.08762 0.425618 -0.029554 0.096215 -0.075601 0.224979 0.067742 -0.131864 0.070178 -0.153468 -0.023825 -0.295908 0.140416 -0.031651 -0.192363 -0.064604 -0.053958 0.073818 -0.082671 0.142807 0.251634 -0.102695 0.048536 -0.114987 0.226526 0.041384 0.122432
gain 0.278827 0.016857 -0.002493 -0.254013 -0.133986 0.222148 0.088413 0.001041 0.122207 -0.174468 -0.015603 0.193892 -0.029459 0.080909 -0.001153 -0.075687 0.249225 0.060236 -0.214075 -0.051259 -0.063187 -0.284818 0.227628 -0.389088 -0.368612 0.323229 0.097164 -0.023863 0.059464 0.066663 -0.081602 0.137452 -0.157195 0.128483 0.132657 -0.128117 0.150237 0.196235 0.023877 -0.144681 0.062159 -0.022418 0.057427 -0.139912 0.049124 -0.157628 -0.072488 0.020526 0.023948 0.165008 -0.0996 -0.003307 -0.031602 0.271167 -0.00839 -0.061342 0.112366 0.110783 0.359594 -0.137417 0.083544 -0.060746 -0.14482 -0.077656 -0.267465 -0.336565 -0.036479 -0.142619 -0.020566 0.060626 0.276599 -0.013715 -0.100106 0.218267 0.271512 0.33894 0.041783 -0.012125 -0.013249 0.124207 0.005213 0.14463 -0.001072 0.134746 -0.225167 0.295881 -0.147034 -0.204524 0.0054 0.148906 -0.293469 -0.331091 -0.188523 0.170814 -0.14858 -0.134164 0.083469 -0.062302 -0.279387 0.250431 -0.072033 0.197866 0.198494 -0.047701 -0.22154 0.096755 0.22843 -0.270008 0.117902 0.14024 0.172729 -0.010838 -0.186511 0.170445 -0.027693 -0.175876 -0.160339 -0.192567 0.059832 -0.163075 0.10054 -0.098288 -0.455737 0.309975 0.113403 0.050658 -0.018373 -0.091272 -0.09057 -0.162249 -0.081459 -0.110793 -0.009278 0.230004 -0.352267 0.172455 0.23523 -0.408132 -0.107278 0.127223 0.042211 -0.092417 -0.057116 -0.008198 -0.195793 0.080237 -0.045694 0.239371 0.11163 -0.248369 0.092727 -0.078316 0.036557 0.003877 -0.06712 -0.27869 0.207275 0.203621 0.243981 0.008912 -7.0E-4 -0.045518 -0.061051 -0.14823 0.062848 -1.77E-4 0.08936 -0.009768 -0.146749 0.173538 0.090527 -0.050388 0.099469 -0.194913 -0.050846 0.117955 -0.428805 -0.080554 -0.243217 0.304107 -0.073747 0.133029 -0.326938 -0.082032 0.242763 -0.466807 0.32032 0.078069 -0.090275 0.157307 -0.06495 -0.199295 0.051086 0.098276 0.025825 0.063351 0.3145 -0.087189 -0.11758 -0.287686
history 0.210635 0.263628 0.040424 -0.061817 0.306685 -0.172802 -0.039847 -0.161601 0.231744 0.051874 -0.322733 -0.076913 -0.168456 0.151672 -0.119647 0.374885 -0.013184 -0.21801 -0.107208 -0.028692 -0.428243 -0.118535 0.029629 0.039775 -0.088204 -0.032575 -0.077082 -0.191899 0.145705 0.104489 0.132771 -0.161413 -0.197752 0.034897 -0.076694 -0.006154 -0.011756 0.031856 -0.203961 0.194122 0.236987 -0.179181 -0.113202 -0.113493 0.143186 0.205437 -0.228244 -0.026205 0.084122 -0.034921 -0.061366 0.408649 -0.138702 0.124919 -0.264914 -0.035399 -0.036422 -0.301734 -0.169545 -0.024286 0.176031 -0.320766 -0.153494 0.082432 -0.04102 -0.279762 0.179927 0.020239 0.228651 -0.023357 0.114353 0.105096 0.107505 0.109714 0.364357 -0.110593 -0.161299 -0.00307 0.049385 -0.313673 -0.152457 -0.137598 -0.043582 0.010533 -0.137431 0.050535 -0.211783 0.171751 -0.277688 -0.140737 0.153556 0.052067 -0.148522 -0.174954 -0.431959 0.031016 -0.071561 -0.014342 0.005481 0.104053 0.243532 -0.191706 0.036716 -0.068443 -0.177564 -0.181678 -0.287926 -0.234883 0.081507 0.11307 0.171125 -0.071981 -0.022316 -0.041765 -0.054305 0.27079 -0.185897 -0.239156 0.020145 0.075394 0.00906 0.04798 0.029435 0.241068 -0.097689 -0.157181 0.044256 -0.137638 0.077576 0.021242 -0.213219 -0.132489 -0.034498 0.236027 -0.157237 -0.201795 0.088097 0.017259 -0.084494 -0.002942 -0.130498 -0.03952 0.017868 0.110275 -0.018068 -0.087448 0.075488 -0.354557 0.048786 -0.126104 -0.24907 -0.201687 0.023246 0.16998 -0.161696 0.033584 -0.113936 -0.032426 0.06921 0.021062 0.209507 -0.049333 -0.273589 0.126177 0.33468 0.22149 -0.021249 0.22985 0.190377 0.062204 -0.284642 -0.069819 -0.029544 -0.028288 -0.19945 -0.060226 0.045927 0.494617 0.120625 -0.057812 -0.052662 -0.376974 -0.253165 0.117078 -0.327225 0.128334 -0.101371 0.074107 0.43025 -0.042778 0.224399 -0.223266 0.019529 0.151003 0.046306 0.046593 0.002652 0.10651 -0.053255 -0.024149
bird 0.374196 -0.186338 -0.256099 0.263022 0.003699 -0.257806 -0.016479 -0.052199 0.069867 -0.134702 -0.205972 -0.116952 0.111432 -0.104145 -0.09444 0.107685 -0.167138 0.192348 0.104554 -0.032499 -0.191048 0.024241 0.049889 0.137158 -0.150417 -0.156696 -0.025376 -0.300967 0.014811 -0.09809 0.02925 -0.083704 0.015802 0.036708 -0.187521 -0.07104 0.092282 0.051465 0.249185 0.187572 0.172496 0.110538 0.067102 0.336434 -0.189237 0.188086 -0.071593 -0.225128 -0.028582 0.024281 0.159196 -0.149391 0.118786 0.091363 -0.117349 -0.086706 0.024245 0.111366 -0.088211 -0.043982 0.287482 0.017772 -0.328215 0.129525 0.14484 -0.285018 -0.037806 0.227463 0.035914 -0.09821 -0.127799 -0.089066 0.058706 -0.009881 0.090723 -0.047693 0.256835 -0.076547 0.198528 -0.313137 -0.07633 -0.063288 0.036886 -0.12353 -0.068692 -0.221695 -0.239169 -0.161936 -0.011026 -0.272949 0.018403 0.162989 -0.112479 0.161526 0.132051 -0.268012 0.183701 -0.155127 0.0173 0.205258 0.024849 0.049584 -0.324824 -0.101939 0.058076 -0.109907 0.070218 -0.185366 0.066033 0.216928 -0.190428 -0.180922 0.030363 0.061834 -0.077378 -0.141504 -0.253866 -0.09499 0.32725 -0.007802 -0.138528 0.132082 0.002535 0.083007 -0.175074 -0.216219 0.085637 0.252713 0.268484 -0.252517 0.171097 -0.152149 -0.202275 0.015165 -0.052467 -0.025741 0.225669 0.058787 -0.114083 0.304683 0.019476 -0.156512 -0.177159 -0.078003 0.110364 -0.2071 -0.118128 -0.017896 0.293853 0.246445 -0.134437 -0.18463 -0.281512 -0.107971 -0.33328 0.264313 0.179545 -0.015537 0.139731 -0.322542 -0.07625 0.114362 -0.083913 -0.01677 0.312368 0.098338 -0.128742 -0.0503 -0.001333 -0.097046 -0.045378 0.024351 0.143794 0.226723 -0.390319 -0.071813 0.215198 -0.082689 0.179903 0.055062 -0.044553 0.045967 0.149078 0.018334 -0.324561 0.002857 -0.106808 0.101563 -0.180658 0.180254 0.039346 0.018758 -0.353581 0.168393 -0.053451 0.115744 0.421194 0.230696 -0.082868 -0.119619
possession 0.224139 0.061814 0.468664 0.504047 -0.119833 -0.153472 -0.082295 0.292365 -0.170614 0.399529 -0.327374 0.169652 -0.146693 0.017955 -0.117012 0.081723 0.081831 0.319508 -0.177454 -0.112945 -0.245571 -0.004705 -0.067622 -0.403457 -0.250653 0.069164 -0.183465 -0.121203 -0.271461 0.014158 -0.031333 -0.02426 -0.006929 0.495995 -0.007835 0.083296 0.226447 0.070651 0.129229 0.04478 0.366786 0.265139 0.073929 0.091455 0.111422 0.083591 -0.144029 -0.127341 0.157672 0.129674 0.082004 0.122556 -0.112641 -0.120382 -0.262121 0.068522 0.536366 -0.058357 -0.150057 0.242447 0.151432 -0.195694 0.082894 -0.037129 -0.396307 -0.004209 -0.472241 0.330497 -0.032621 -9.02E-4 -0.422118 0.054955 0.179169 -0.150907 0.033143 -0.027079 -0.036392 -0.385563 -0.142148 -0.160895 -0.132978 -0.370114 0.313368 -0.117616 -0.014088 0.123558 0.019194 -0.028885 -4.46E-4 -0.079126 0.056008 0.095989 -7.4E-4 0.033358 -0.236572 0.013119 0.036233 0.204348 0.257388 0.237939 0.34815 0.098366 0.27025 0.357645 0.212126 0.006796 0.376888 -0.182698 0.200254 0.191245 -0.060699 -0.258309 -0.294781 0.064714 -0.134467 -0.286587 -0.288908 0.027677 0.343243 -0.157582 -0.211949 -0.098617 0.043144 -0.279249 0.216061 -0.059147 -0.145739 0.081467 -0.079381 -0.08206 -0.030351 -0.055343 0.14116 0.090874 -5.09E-4 0.109671 0.362159 -0.069662 0.293833 -0.074415 -0.157809 -0.401624 0.175158 -0.27366 -0.041186 0.27518 0.07245 0.12133 -0.219773 0.148691 -0.024182 0.213844 0.437782 -0.113879 0.131494 -0.001709 -0.283916 -0.0142 0.179926 0.018264 0.138779 0.162031 -0.090917 0.014151 0.008963 0.384068 0.212554 -0.175558 -0.063776 0.41396 -0.096357 -0.013621 -0.105083 -0.192252 0.110802 -0.244782 -0.303466 0.227118 -0.166534 -0.043695 -0.072323 0.401319 -0.19287 -0.028484 -0.260057 -0.106022 0.503596 0.024037 -0.208071 -0.024681 0.205806 0.076476 -0.272917 0.305943 -0.107727 0.209532 0.287518 -0.423458 -0.096746 -0.179207
chemistry 0.163544 0.109152 0.042937 0.008588 0.062576 -0.097256 -0.013526 0.002016 0.241597 0.059198 -0.314356 -0.189651 -0.147103 0.227971 0.017289 0.009407 0.105344 0.014995 -0.104474 -0.169853 0.010097 -0.014265 -0.142102 0.041649 0.185996 -0.150945 0.09503 0.028296 0.04555 0.045908 -0.077706 -0.001373 -0.037532 -0.188814 0.001719 0.036812 0.048633 0.049128 -0.151149 0.108716 0.2282 0.096475 0.041523 0.012085 0.002516 0.245788 -0.086969 -0.119984 -0.018616 0.106905 0.034015 0.134073 -0.239039 -0.089881 -0.248383 -0.022715 -0.06379 0.11245 -0.142587 -0.001525 0.21608 -0.071366 -0.130388 0.221461 0.093175 -0.012423 0.08657 0.110809 0.152149 0.045812 0.269193 0.056029 -0.077735 0.314399 0.326602 0.075402 0.128359 -0.004421 0.213935 0.001818 0.059879 0.180313 -0.14084 0.157993 -0.055225 0.044312 -0.111103 -0.006346 -0.141605 -0.101754 -0.164407 0.005644 0.030202 -0.078954 -0.174254 -0.006622 -0.01169 -0.027009 0.299773 0.13389 0.2388 -0.116366 0.009549 -0.125377 0.061251 -0.118574 0.072747 0.011602 0.136751 -0.035187 0.161034 -0.084658 -0.217971 0.113116 0.13016 0.012184 0.036557 -0.011498 0.255323 0.127909 0.016721 -0.105798 0.044743 0.013318 -0.145316 -0.178008 0.080548 0.223193 0.12039 -0.014235 -0.045172 -0.196196 -0.165188 0.136632 0.142278 0.006796 -0.056574 0.152649 0.014973 0.110255 0.178275 -0.002101 -0.084889 0.007019 0.014542 -0.215615 -0.187989 0.021637 0.064359 -0.02735 0.060117 -0.019861 -0.11054 0.0017 0.043419 0.215834 0.019445 0.088223 -0.067901 -0.30841 -0.009276 -0.002775 -0.29576 0.175215 0.089351 -0.116294 0.139494 0.140869 0.182503 -0.00185 -0.127385 -0.031708 0.027386 0.014617 0.077009 0.034331 -0.026876 -0.021731 0.012547 0.003389 -0.024214 -0.021758 -0.035614 0.029423 0.138439 -0.043672 -0.042894 0.01553 0.178726 0.087718 0.071207 -0.168792 0.110685 0.142129 -0.052592 0.049789 0.006454 -0.005302 0.012761 -0.004014
yen 0.164888 -0.144717 0.06437 0.319891 0.136984 -0.131471 -0.377956 -0.41352 -0.280973 0.023873 0.453697 0.089591 0.194819 -0.21179 -0.173001 0.383047 0.340718 -0.173606 0.142449 0.34756 0.647831 -0.152034 0.196546 0.192167 0.143543 0.067981 -0.3142 0.228936 0.298218 -0.095314 -0.115267 -0.032564 -0.590603 -0.421784 -0.263112 -0.820373 -0.264817 0.552888 0.069654 -0.201016 0.223444 0.208577 -0.035532 -0.227374 -0.152694 -0.53883 -0.218123 0.085349 -0.362355 -0.088237 -0.301759 -0.113819 -0.071972 0.168389 0.25867 -0.250338 -0.175057 -0.09938 0.257051 -0.033768 -0.096066 -0.004677 -0.149619 -0.236362 -0.283578 0.108089 -0.560121 0.183446 -0.247712 0.13582 -0.164242 0.398962 -0.510717 -0.024168 0.01959 0.235472 0.143603 0.200693 -0.386293 0.204193 -0.370612 -0.022112 0.361003 0.358935 -0.336162 0.006954 -0.131527 -0.133784 0.134367 0.722858 -0.17459 -0.644035 -0.161551 0.38772 0.025575 0.116354 -0.604936 -0.171159 -0.485635 0.53256 -0.252079 -0.209358 0.149618 -0.358721 0.019841 0.039467 0.276618 -0.222569 0.024615 0.157286 -0.160556 -0.239325 -0.272825 0.027564 0.516529 0.09215 -0.204176 -0.112265 0.105539 0.37198 -0.024266 0.020563 -0.633291 -0.126423 -0.24391 -0.7034 -0.013059 0.322112 0.008903 -0.335441 0.484489 -0.161693 -0.233796 0.0147 -0.170517 0.059828 0.025332 -0.764843 -0.039325 0.343327 0.097201 0.194828 -0.057108 -0.115131 -0.061999 -0.441879 0.301157 0.125044 0.475153 -0.032455 0.055052 -0.214876 -0.017261 -0.043009 -0.48442 -0.222006 -0.183502 0.248747 0.19046 -0.090961 -0.138579 -0.253446 0.068404 0.43611 0.187044 -0.159512 0.240728 -0.159058 -0.074906 -0.26726 -0.371716 -0.143968 -0.152205 -0.360996 -0.255633 -0.297456 -0.047242 -0.087279 -0.222491 0.435816 -0.165236 0.311035 0.219219 -0.116704 -0.78234 -0.348345 -0.007436 0.418919 -0.023159 -0.274566 -0.304985 0.005007 -0.453809 0.004959 -0.24022 -0.006083 -0.322732 0.511964 -0.102274 -0.061207
library -0.050104 0.297953 -0.110857 0.022818 0.153506 -0.125292 -0.284827 -0.035418 0.179836 -0.339734 -0.286195 -0.174999 -0.161186 0.153924 0.084898 0.062107 -0.001845 -0.099284 -0.178692 -0.070611 0.083179 0.110396 -0.013957 -0.01174 0.27137 0.116904 0.035568 -0.506043 0.088153 -0.200383 -0.091241 -0.040943 -0.191419 -0.110021 -0.201369 0.012723 -0.052823 0.117493 0.037283 -0.005002 0.22322 -0.141174 -0.026264 -0.117554 -0.105536 -0.13214 0.100399 -0.272289 0.088675 0.046408 0.185524 0.051733 -0.091578 -0.092245 -0.127605 -0.011258 -0.060473 0.067757 -0.223537 -0.026576 -0.078488 -0.111821 -0.201191 0.368756 -0.089434 -0.068456 0.063399 -0.166498 0.341545 -0.224383 0.069257 -0.133745 0.143905 0.033236 0.119481 0.169561 -0.055753 0.080425 -0.062806 0.034672 -0.048696 -0.166472 0.024236 -0.068645 0.067853 0.22112 -0.039393 -0.010497 -0.046941 -0.132124 -0.136189 0.084829 -0.178818 -0.216531 -0.162321 0.100663 -0.08379 -0.040039 0.198598 0.263718 0.050165 -0.358037 -0.162794 -0.207952 -0.050712 -0.142523 -0.03386 0.063315 0.095819 0.244663 0.257683 -4.13E-4 -0.026237 0.176271 -0.124919 0.046952 0.029143 0.051029 0.105733 -0.010273 0.066079 0.037055 0.192334 0.267127 -0.103786 -0.086928 0.010054 -0.165637 -0.129671 -0.123706 -0.02536 0.039023 0.045539 0.120875 0.07566 -0.092582 0.128304 0.152141 -0.290645 0.051851 0.020363 0.003677 -0.022332 0.054704 -0.127541 -0.115701 0.024553 0.016631 0.005997 -0.029371 -0.24698 -0.121095 0.339089 -0.010724 -0.002294 0.147831 0.030222 -0.080244 0.159695 0.179776 -0.048657 0.159785 -0.347875 0.076851 0.06427 -0.063607 -0.078258 0.004583 -0.059445 0.082805 -0.057347 -0.13788 0.131801 0.024586 0.108033 -0.180576 -0.039313 -0.060079 -0.090023 -0.020964 -0.170351 0.047273 -0.0537 -0.122657 -0.028296 -0.087856 -0.079218 -0.299662 0.049641 -0.132049 -0.072596 -0.1849 0.008347 0.04899 0.027497 -0.156702 0.154143 0.011553 0.121116 0.001395
virtuoso 0.117114 0.085609 -0.046103 -0.012321 0.021942 -0.042148 -0.075205 -0.020543 0.045555 0.040186 -0.11813 -0.017624 -0.027545 0.005037 0.037686 0.00378 -0.023139 -0.017815 -0.043219 -0.053979 -0.004249 -0.022478 0.094178 -0.006344 0.107405 0.081963 0.03899 -0.093181 0.004364 -0.009094 -0.019381 -0.006294 -0.065045 0.070986 0.072131 -0.054378 0.089499 -0.044754 -0.012702 -0.031208 -0.036222 0.024418 -0.004321 -0.020119 -0.006327 0.04677 -0.038456 0.009667 -0.042741 0.027675 -0.005057 0.074974 -0.006675 0.010663 -0.08695 0.084461 -5.6E-4 0.121703 -0.163724 0.039415 -0.049087 -0.010269 -0.087734 -0.019557 0.040245 -0.027884 -0.017708 0.016328 0.141207 -0.038762 -0.030758 -0.101656 -0.040346 0.057306 0.089803 -0.05559 -0.03984 0.036203 4.83E-4 0.050025 0.110813 0.060259 -0.019974 0.109494 0.01522 0.09024 0.013901 0.063192 -0.130044 0.058959 0.02339 0.022473 0.061775 0.031797 -0.072857 -0.002745 -0.04492 0.015322 0.064843 0.122242 -0.061973 -0.047783 0.013505 -0.023152 -0.041329 -0.03947 -0.065796 0.050633 -0.026418 -0.028318 0.049345 -0.09604 -0.084506 3.6E-5 0.070961 -0.050644 0.028021 -0.011799 0.116304 0.049825 -0.129131 -0.041111 0.034369 -0.079917 0.067002 -0.017678 0.036738 -0.007124 0.005564 -0.015997 -0.050236 0.033616 -0.123898 0.019707 0.009734 -0.023498 0.08261 -0.029091 0.098323 0.092201 0.056591 -0.066689 0.010722 -0.049199 0.026929 -0.004482 0.108254 -0.049027 0.038571 -0.082701 -0.014164 -0.079346 0.01875 0.046615 -0.068933 0.009579 -0.002089 -0.002011 0.039725 0.022708 0.019493 0.037165 -0.01961 -0.022533 0.052671 0.065028 0.016323 0.056121 7.19E-4 0.072087 0.004982 -0.005635 0.01563 -0.001125 0.08297 -0.102576 0.028278 -0.078089 -0.054278 0.023028 -0.147673 0.038888 -0.014007 0.003495 -0.057045 -0.006899 -0.027183 -0.05194 -0.054188 -0.017382 0.015922 0.004892 -0.101157 0.059866 0.058199 0.036223 0.041869 0.046666 0.03312 0.048048
psychiatry 0.101121 0.107987 -9.34E-4 0.041097 0.183112 0.046038 -0.06208 -0.057036 0.244048 -0.001519 -0.179781 -0.011601 0.029463 0.024373 0.039792 0.168064 0.047747 0.042555 -0.004695 -0.145369 -0.022704 0.073004 -0.092405 -0.023963 0.156032 -0.149259 0.148892 0.081346 0.080879 0.083922 -0.061322 0.013567 -0.017262 0.045451 0.030863 -0.129963 0.017709 0.156401 -0.050701 -0.106612 0.224606 0.061326 0.129432 -0.053559 0.022443 0.036929 0.025972 -0.190563 0.006123 0.168141 -0.090992 0.288513 -0.045567 0.033205 -0.246689 0.058771 0.034935 0.08372 -0.058551 -0.075638 0.037184 -0.033535 -0.152422 -0.026334 0.008523 0.007514 0.204175 0.081815 0.05524 -0.025536 0.113718 -0.061551 0.030925 0.003628 0.282721 0.030727 0.039398 -0.013745 0.085728 0.214397 -0.057807 0.057616 0.108746 0.085233 0.066625 0.029109 0.172855 0.058492 0.057264 0.138716 0.009597 0.051644 -0.034919 -0.094332 -0.110423 0.04827 -0.08239 -0.027479 0.280451 0.178334 0.172913 -0.133368 -0.101665 0.105506 -0.016047 -0.136131 0.114226 -0.048675 0.141791 0.010424 0.075492 -0.095135 -0.127452 0.089238 -0.208774 0.014923 0.081319 0.03495 0.158193 0.142389 0.096824 0.078238 0.071416 -0.118365 0.03424 -0.049197 0.029191 0.151635 -0.016064 -0.12529 -0.048185 -0.009112 0.001446 0.201126 0.067164 0.105383 -0.065498 0.275969 0.040822 -0.103767 0.128248 0.105482 -0.052454 -0.05209 0.016222 0.123691 -0.007617 0.057817 -0.008833 -0.072741 0.07114 -0.051555 -0.093894 -0.050547 -0.110551 -0.106708 -0.037412 -0.041287 -0.016571 0.007076 -0.036689 -0.018058 -0.077752 0.124843 0.01376 -0.058541 0.074716 0.246445 -0.003276 0.08384 -0.085246 0.210366 0.018896 0.111465 0.012867 -0.050915 0.064666 -0.165396 0.050042 -0.019311 -0.007016 0.022793 -0.068201 0.118436 -0.099758 0.008268 0.006531 -0.122994 0.032946 -0.055095 0.124799 0.023215 0.06203 0.028907 -0.024141 0.060858 0.075044 0.104892 -0.032157 0.054389
change 0.13473 0.076741 0.060638 -0.190819 0.005222 -0.167202 0.177654 0.096981 0.016125 0.280562 -0.423832 -0.013946 0.15031 0.385828 0.041014 -0.093608 -0.077307 -0.16924 -0.114308 -0.271176 -0.156689 -0.313033 0.186385 -0.154065 -0.084292 0.349583 0.151691 0.192096 0.245862 0.279717 0.075025 -0.174545 0.4282 -0.28464 -0.239291 -0.022589 -0.054234 -0.015106 -0.091317 0.021431 -0.27414 -0.486425 -0.025397 -0.079555 -0.248322 0.121555 -0.327069 -0.063899 0.047201 -0.486748 -0.007588 -0.143449 -0.10735 0.071177 -0.447631 -0.061659 0.073341 0.087805 0.235064 0.084542 0.14521 -0.203639 0.233504 -0.182017 -0.178404 0.001847 -0.025839 -0.145671 -0.236806 0.088035 0.127494 0.229596 -0.216531 0.43461 0.215265 -0.107096 0.233785 0.161456 0.395066 -0.179683 0.099512 0.239178 -0.139151 -0.17534 -0.126534 -0.111447 -0.130495 -0.041256 -0.0977 0.234953 0.166114 0.125895 0.361038 -0.183941 -0.024226 -0.021793 -0.046467 -0.0469 -0.119955 0.352125 -0.211958 0.086036 -0.117937 0.040373 -0.107731 -0.251691 0.030882 -0.003874 0.036857 0.566535 -0.114517 -0.182634 0.210374 -0.145354 -0.063821 -0.029547 -0.1956 0.33747 -0.1068 -0.184302 -0.061808 -0.365418 -0.267083 -0.042559 -0.089333 -0.084153 0.176896 0.089106 -0.004872 0.357355 0.076895 0.058242 -0.083396 -0.039164 -0.171352 0.26785 -0.237377 0.060286 -0.1803 -0.156762 -0.080329 0.082414 -0.110523 0.005025 0.109197 -0.110979 -0.00943 0.033554 0.069093 0.115759 0.184095 0.002394 0.127111 0.048689 0.001914 0.046635 -0.129516 0.196952 -0.032012 -0.367228 -0.060662 -0.192145 -0.347731 0.135546 0.302435 -0.03701 0.159104 -0.090292 0.098036 -0.356458 -0.557301 -0.146108 0.012222 -0.020196 -0.254757 0.04714 0.208646 -0.065294 -0.181747 -0.160916 0.118494 0.241344 0.162797 -0.00643 0.236573 -0.115453 0.069709 -0.008419 0.213021 -0.29551 -0.244263 -0.389334 0.200601 0.275136 0.110145 -0.157701 0.040861 -0.169734 0.146104 -0.328127
