418 200
president 0.050449 0.022634 0.037907 0.312736 0.267748 0.176716 0.012037 0.261463 0.023931 -0.398928 -0.168875 0.354771 0.19579 0.052627 0.156594 0.191735 -0.03128 -0.135582 -0.183213 -0.148437 -0.307658 -0.273896 -0.051825 -0.055393 0.424476 -0.204621 0.185762 0.191039 -0.177793 0.211773 0.486553 0.156405 -0.002525 0.065315 -0.058977 -0.032412 0.189921 -0.047839 0.168028 -0.056916 -0.122479 0.016105 -0.106685 -0.023624 0.167947 -0.151532 0.469116 0.215907 -0.439782 -0.345943 0.523114 0.313025 0.092565 -0.100001 -0.174886 0.084738 -0.307337 -0.125438 -0.012862 -0.139211 -0.110465 -0.458351 -0.055317 0.275274 0.032644 -0.397318 -0.517973 0.32229 -0.023957 0.116013 0.322497 -0.239778 -0.035708 0.023611 0.435652 0.60794 -0.170626 -0.242526 -0.117811 0.008104 -0.005453 -0.149293 -0.279162 -0.256134 -0.08402 -0.207272 0.002197 0.32049 -0.111078 -0.448707 0.131463 0.623862 -0.140877 0.153436 -0.265053 -0.327817 0.181719 -0.160934 0.15857 -0.002304 0.322377 -0.293561 0.470366 -0.089646 -0.212552 0.055203 -0.245899 0.559292 -0.084977 -0.086591 0.297439 0.393276 -0.376955 -0.142662 -0.2303 0.062493 0.09477 -0.358314 0.061413 -0.252038 0.437988 -0.004242 0.367163 -0.392576 0.068695 -0.266616 -0.250305 -0.08126 -0.237799 0.296382 0.058956 0.009096 -0.151786 0.087711 0.120564 0.028038 -0.118862 0.323346 -0.320063 -0.036546 -0.246677 0.230084 0.178804 0.098453 0.094477 0.116187 0.179453 0.062999 0.253735 -0.501949 -0.110047 -0.056381 -0.179679 -0.191949 0.076939 0.30397 0.076316 0.21708 -0.160801 0.011755 0.299988 -0.52859 -0.18244 -0.157284 -0.052883 -0.249428 0.335142 0.060326 -0.384303 0.132613 -0.522658 -0.206246 -0.023042 -0.478672 0.290784 0.276503 0.202052 0.048909 0.136609 0.259124 0.161349 0.01911 0.472034 0.499372 -0.244048 -0.141112 -0.239103 -0.233202 0.322149 -0.163141 -0.696781 0.290423 -0.020282 0.034611 0.104491 -0.289013 -0.04114 -0.396714 -0.035272 -0.074529
monk -0.230894 0.094673 0.126112 0.017459 -0.020824 -0.088064 5.72E-4 0.027699 -0.168715 -0.026117 -0.194153 -0.045501 -0.134786 0.330276 0.221498 0.144338 -0.230459 0.004827 -0.034538 -0.175095 0.101918 0.03272 0.232511 -0.005007 0.044625 0.049894 -0.118299 -0.284528 0.285907 -0.049271 -0.159656 -0.239112 -0.108795 -0.041408 0.081648 -0.079389 0.180344 0.071972 -0.237594 0.004674 0.043563 -0.155057 0.021172 0.056943 0.038941 0.044606 -0.077212 0.060323 0.071652 0.207633 0.271141 0.200998 0.293553 -0.140637 -0.2365 -0.239098 -0.176337 0.025652 0.135004 -0.063721 0.316996 -0.055877 0.318632 -0.167326 -0.001493 0.094704 -0.146381 -0.080901 -0.188022 -0.018538 0.368672 -0.006552 0.013078 -0.186529 -0.102278 -0.06531 -0.008003 -0.195847 -0.089938 -0.065208 -0.039312 0.204433 0.100937 -0.049281 0.166335 -0.082103 -0.032202 0.142941 -0.161794 -0.006933 0.077862 0.045192 0.107058 -0.060277 -0.050063 -0.089989 -0.002343 -0.060182 -0.184146 0.034295 -0.050078 -0.009884 -6.1E-5 0.348022 0.371775 0.064052 0.067936 0.062163 -0.272965 -0.025329 0.15713 0.063837 -0.144105 0.258087 0.036022 0.137334 0.117794 -0.168131 -0.016696 0.01636 0.069928 0.067072 0.00455 0.211988 0.071898 0.043515 0.072058 0.367512 -0.016613 0.083288 0.236 -0.06512 0.295571 0.087086 0.344905 -0.116239 0.253585 0.122719 0.168222 -0.129596 0.010448 0.303355 0.079409 -0.300019 -0.335308 0.104585 -0.144407 -0.058817 0.163195 -0.08141 0.190365 -0.344285 0.117685 -0.029742 -0.025796 0.178636 -0.224344 0.078257 -0.127209 -0.088652 0.105146 -0.223763 -0.126526 -0.071376 -0.180371 0.107864 0.113097 0.246651 0.009277 0.05057 0.377314 0.12777 0.284278 0.219981 -0.088679 0.080509 0.205661 0.080168 -0.008976 -0.147469 0.062995 -0.064752 0.182128 -0.02619 -0.133339 0.014901 -0.175204 0.101201 -0.269091 -0.213594 -0.171489 -0.086533 -0.116797 -0.001024 0.063615 0.123714 0.195536 0.075507 -0.048361 -0.199892
chance 0.031771 0.028342 -0.137943 0.016796 -0.126841 0.036516 -0.512108 -0.074331 -0.135312 -0.046801 -0.099585 -0.191748 -0.280464 -0.100871 -0.031978 -0.043934 0.065576 -0.127764 -0.0989 0.024311 0.063946 0.002966 0.099812 0.075503 0.413951 0.139327 -0.234524 0.065509 0.078406 -0.035197 -0.135996 0.381489 0.036578 0.450725 -0.06324 -0.009809 0.043893 0.046483 0.130345 0.10033 -0.24794 0.330764 -0.208113 -0.075702 -0.084922 0.088065 0.114004 -0.244484 -0.048349 -0.06983 0.182742 0.001051 -0.00114 -0.333775 -0.337001 0.240212 0.295375 -0.13076 0.094125 -0.068482 0.243565 -0.019721 0.07357 -0.163128 0.116196 -0.118719 0.146859 -0.144617 0.046937 -0.099391 0.10399 -0.054969 -0.166999 7.33E-4 -0.023727 0.082983 -0.078291 0.133352 -0.007588 0.001939 -0.067412 -0.048631 -0.193878 0.158046 0.030176 -0.170011 0.208197 -0.252986 -0.093166 0.040419 -0.335436 -0.199738 -0.141803 -0.068321 0.23165 -0.073717 0.046834 0.048624 -0.043274 0.099081 -0.108918 0.234515 -0.238902 0.003231 -0.234086 -0.250638 -0.066779 -0.035477 -0.110254 -0.049195 0.066419 -0.140378 0.169473 0.174606 -0.041029 0.165924 0.217928 -0.164492 0.216071 0.39378 0.110137 0.046149 0.223547 0.179551 0.101494 0.333205 0.116708 0.192186 -0.008082 -0.235959 -0.022872 0.447052 0.29289 -0.214058 0.033616 -0.162064 -0.191401 -0.156755 0.263733 0.274741 -0.007745 -0.041257 -0.183586 -1.45E-4 -0.037375 -0.415433 -0.227439 -0.285072 0.152909 0.091567 -0.314219 0.092678 0.051364 0.104744 0.253647 0.008501 0.159806 0.493921 0.23221 9.53E-4 0.012547 -0.167049 -0.183605 0.133159 -0.211695 -0.058681 0.115965 -8.04E-4 -0.004441 0.154875 -0.492711 -0.074236 0.113194 -0.067361 -0.045622 -0.396675 -0.010774 -0.283589 0.001813 0.105519 -0.175076 -0.06038 0.236158 0.251052 -0.091849 -0.013222 0.057116 0.009305 -0.061125 -0.180519 0.132903 -0.023581 -0.10812 0.187224 0.029623 0.403643 0.294391 -0.144012 0.11675 0.086804
party 0.104792 -0.041422 0.147047 -0.432394 0.047402 0.139927 -0.024318 0.10321 0.043908 -0.208633 0.290968 -0.084072 -0.086261 0.352094 -0.254873 -0.111441 -0.129562 -0.704659 -0.139291 0.024057 -0.110671 -0.193928 -0.219507 -0.211554 0.042325 -0.004171 0.33552 0.097382 -0.045756 -0.059885 -0.325381 0.001729 0.182569 0.085804 0.357757 0.069901 0.306779 0.002344 0.269329 0.174422 0.168954 0.242921 0.194522 0.264231 -0.207302 -0.33379 -0.428482 0.023929 0.210606 -0.230191 0.443102 -0.282782 0.240618 0.144767 -0.272032 -0.021528 -0.070196 0.360744 -0.308667 0.116381 0.217536 -0.208425 0.037544 0.022487 -0.006142 0.037414 -0.17496 0.044912 0.065318 0.125197 -0.182981 0.024603 0.267865 -0.08856 0.184167 -0.285629 0.106342 -0.267553 -0.091709 0.012815 0.066841 -0.027952 0.02112 0.146553 0.300809 0.148128 0.247646 0.024149 -0.26225 -0.170758 0.093871 0.086922 0.441931 -0.107374 -0.103175 -0.202595 -0.131841 0.095339 0.171454 0.06013 0.175695 -0.039802 -0.094844 -0.073394 0.028489 -0.003827 -0.004116 0.349128 0.111282 -0.218466 0.254757 0.453864 0.311801 -0.123407 0.149068 0.46009 0.262127 -0.131656 0.497843 -0.304286 0.361263 -0.313231 -0.047843 0.079361 -0.077416 -0.139065 -0.066812 -0.021047 0.029924 0.130581 0.227576 0.036999 0.015396 -0.083338 0.12248 -0.174988 0.113889 -0.291894 -0.077134 0.140652 -0.116785 0.195692 -0.197943 0.059087 -0.229673 -0.148701 0.06635 -0.257054 0.502099 0.135204 0.352729 -0.271651 0.215046 -0.369093 -0.327967 -0.082844 0.164826 0.1649 0.071097 -0.083602 0.155911 -0.283433 -0.083153 -0.006428 0.320318 0.543261 -0.189818 -0.106419 -0.469718 0.172477 0.100067 -0.141313 -0.231819 0.102726 -0.097585 -0.055542 0.210097 0.003378 -0.11505 0.101367 0.197679 -0.219466 0.380714 0.284143 0.138211 -0.423662 -0.541174 0.18091 -0.296321 -0.298856 -0.189075 -0.053755 -0.155666 -0.055665 -0.355938 -0.260141 0.262012 -0.350381 0.099449 -0.063688
fuck -0.038957 0.024311 -0.015469 0.042482 -0.065134 0.001361 0.027307 0.056459 0.070391 0.059932 0.01626 -0.007294 -0.017842 -0.025192 0.005033 -0.051704 -0.01095 0.0105 0.013366 0.063592 -0.014113 0.038654 0.005402 -0.044087 0.013928 0.002425 0.02494 -7.9E-4 0.005651 -0.050937 -0.043541 -0.029597 -0.015921 0.049239 -0.045503 -0.055367 0.01181 0.06591 -0.038218 -0.041494 0.06076 0.0954 -0.0235 -0.077588 0.068868 0.086441 0.024541 0.045088 0.078497 0.072271 0.014251 0.009425 0.036961 -0.049647 -0.042962 0.012361 0.027255 0.001908 -0.084554 -0.028048 0.030906 0.051789 0.025825 0.006726 0.024385 -0.005877 0.047659 2.47E-4 0.045002 -0.04239 -0.042689 -0.022625 -0.004158 0.076197 -0.030659 0.014037 0.025086 0.002945 -0.041623 0.052875 -0.046049 -0.021437 0.026885 -0.122001 0.02749 0.003263 0.035187 0.001779 0.00751 -0.069852 0.057622 0.008316 -0.036603 -0.064999 0.009448 -0.050221 0.018379 1.78E-4 0.04459 0.016665 0.043752 0.027054 0.014087 0.030229 0.008567 0.018387 0.018686 -0.030506 0.02901 -0.003653 0.017937 -0.042924 0.011025 -0.029853 -0.030408 -0.019362 -0.005388 0.062735 0.043244 0.074942 0.019639 -0.001776 -0.030096 -0.032611 -0.028954 0.052649 -0.037135 -0.009039 -0.012685 0.079453 0.062314 -0.024731 0.050759 0.012707 -0.022273 0.021504 -3.88E-4 -0.072917 -0.001009 0.038563 0.014268 -0.005802 0.033895 -0.021407 -0.012332 -0.036768 0.061762 0.071402 0.049197 0.01904 0.038919 0.023614 -0.003408 0.05679 0.020465 -0.008851 -0.031102 -0.014796 0.019665 -0.006432 -0.062104 -0.015838 -0.052833 -0.004911 -0.048882 0.050699 -0.031618 0.023457 0.069154 0.041797 0.009163 0.073817 0.035899 0.005808 0.001998 0.036194 -0.024415 0.004979 -0.04165 -0.013455 -0.053399 0.013256 -0.067511 -0.01276 0.010247 0.023686 0.01544 0.03751 -0.001722 -0.017726 0.025713 -0.037935 -0.017144 -0.05344 0.034559 0.005762 0.030689 -0.011085 0.012034 0.013211
psychology -0.062494 0.010146 -0.049718 -0.307915 0.069778 -0.090136 0.281019 0.056057 -0.256875 -0.135026 0.074824 0.067803 0.090316 -0.054076 -0.052653 0.064466 -0.308744 -0.292271 0.006656 -0.023884 -0.33779 -0.068303 -0.040161 0.002894 0.189928 0.160505 0.134694 0.169147 -0.004569 0.288964 -0.286238 -0.129628 0.119288 0.408501 0.014357 -0.163498 -0.044791 -0.011775 0.20447 -0.394725 0.097023 0.254723 0.093925 0.049651 0.024142 0.064399 0.293066 -0.158784 0.010977 0.131787 -0.190276 -0.213575 0.76886 -0.032846 -0.336987 -0.04078 -0.267751 -0.039483 -0.243532 -0.108887 0.059652 0.039375 0.142922 -0.017821 0.06224 -0.08614 0.071036 -0.012893 -0.16834 -0.131543 -0.197098 0.393119 -0.116763 -0.170107 0.239752 0.387295 -0.074615 -0.058203 -0.035112 -0.09951 -0.089457 -0.297493 0.142389 0.181066 -0.097006 0.143132 -0.374821 0.022371 0.224544 -0.506564 0.003662 -0.022015 0.03232 -0.041986 0.051132 -0.06202 -0.376864 -0.097504 0.017835 -0.28357 0.269183 0.049839 -0.118123 0.02991 -0.263158 0.052487 0.049117 0.331404 0.081406 0.323539 0.365509 -0.301066 0.315906 0.018169 0.003553 -0.119588 0.555202 -0.261788 -0.252091 0.169955 0.068526 -0.079621 -0.200592 0.066199 -0.171329 0.344719 -0.024685 -0.158719 0.170128 -0.493973 0.206381 -0.252905 0.203901 0.287862 0.052143 -0.040696 -0.268203 0.542575 0.034857 -0.047557 -0.154459 -0.196487 -0.03863 -0.327438 -0.243855 -0.116242 -0.139305 0.134349 -0.002009 -0.045799 -0.224536 0.195808 -0.169773 -0.476433 0.182633 0.162809 -0.312893 -0.123753 0.066069 0.0021 0.083615 0.31876 0.066542 -0.376371 0.103115 0.173023 -0.171559 -0.101846 0.077604 -0.290158 0.091842 -0.251062 0.125365 0.085139 0.069925 0.308488 -0.226372 -0.004751 0.003729 -0.169775 -0.05079 0.12863 0.241582 0.397347 0.178038 0.081559 0.114859 0.045798 -0.15269 0.235048 0.183397 -0.140545 -0.692258 -0.127487 -0.129917 0.167743 -0.243256 0.046788 -0.088433 -0.231462
government -0.075547 0.15397 0.070779 -0.292574 -0.098677 0.062164 0.028681 0.202497 0.099609 -0.211967 0.084186 0.106996 0.152893 -0.037993 0.061342 0.074825 -0.05938 -0.271739 -0.306448 -0.032253 -0.194208 -0.362105 0.13766 -0.192754 -0.16852 0.001398 0.330552 0.147096 -0.287576 -0.24937 0.114511 0.104706 0.214693 -0.160593 0.200133 0.034262 0.217617 0.076996 0.07898 0.427369 0.214107 0.185321 -0.13922 -0.101617 0.362866 -0.022428 -0.098555 0.282621 -0.068445 -0.024009 0.292737 -0.032547 0.068396 -0.066321 0.16286 0.126364 0.025113 0.084676 0.085066 -0.002744 0.001779 -0.104626 0.14737 -0.205656 0.02332 0.102005 -0.024224 0.073874 -0.2567 0.216008 -0.011642 -0.09854 0.128045 -0.05942 0.248662 0.227864 -0.074146 -0.128016 -0.16719 0.116344 -0.136304 -0.155451 -0.174673 0.342657 -0.087319 0.278485 0.114784 -0.046645 -0.139327 -0.009669 0.059017 -0.089294 0.130762 0.162029 -0.030158 0.057091 -0.101641 0.138381 0.331225 0.101814 0.056326 -0.127917 0.200208 -0.094919 0.01722 -0.12251 -0.290788 0.365314 0.187499 -0.117372 -0.006786 0.276792 0.117874 -0.026995 -0.061254 0.335548 0.196551 -0.326173 0.366816 0.073566 0.217245 -0.467988 0.031664 -0.050793 -0.099463 0.021348 0.053013 0.082818 -0.280949 0.252395 0.023826 -0.136039 -0.15306 -0.055357 -0.02417 -0.060302 -0.018368 -0.291876 0.119244 -0.323699 -0.059719 -0.169236 -0.222126 -0.225455 0.209231 0.126616 0.182848 0.161875 0.214047 -0.171984 -0.3963 -0.286229 0.012641 0.0429 -0.204481 -0.104681 0.031403 0.263872 0.098232 0.04173 0.068525 -0.061807 0.029579 0.026954 -0.175919 0.216652 -0.004248 -0.201411 -0.072386 -0.218328 0.050859 0.015327 0.033058 -0.086005 -0.258105 -0.211013 -0.135274 -0.08557 -0.083761 -0.115145 0.209412 0.052411 -0.12985 -0.051369 -0.072284 -0.23149 0.200042 0.157472 0.092995 -0.263686 -0.358719 0.134116 0.473828 -0.176255 5.49E-4 -0.292017 0.100259 -0.278655 -0.010121 -0.350583
madhouse -0.053057 0.015901 5.89E-4 0.077973 -0.0102 -0.053599 0.014846 -0.041125 -0.061133 0.050651 0.032986 -0.103269 -0.011652 0.060102 0.027022 0.00306 -0.028378 0.029237 0.007757 0.042853 0.020426 0.034754 0.017618 0.002273 0.035299 0.033614 -8.44E-4 -0.034317 -0.031916 0.090067 -0.00729 -0.030798 0.00601 -0.017856 0.010199 0.021323 -0.064591 -0.002794 0.014173 0.033592 -0.035657 0.057173 0.008284 -0.053006 -0.001993 7.63E-4 -0.006416 0.052226 0.060666 0.044153 0.036003 -0.042778 0.00693 -0.107163 -0.02314 0.017924 -0.037501 0.017043 -0.006193 0.011924 -0.003251 0.058653 0.036049 -0.044874 -0.041374 2.12E-4 8.61E-4 -0.073103 0.023169 0.051278 0.076594 -0.030958 0.045062 0.050736 -6.69E-4 -6.31E-4 -0.002046 0.051051 -0.005209 -0.008591 -0.050298 0.050958 0.02104 0.015025 0.075257 0.032499 -0.010593 -0.046392 -0.026918 -0.077959 -0.013682 -0.056224 -0.029531 0.058223 -0.01976 -0.045446 0.044052 0.03358 -0.013382 -0.048562 0.027895 0.062366 -0.041523 0.006153 -0.024149 -0.015477 0.002287 0.030864 -0.01711 -0.018145 0.005772 -0.009545 0.050885 0.054689 0.019605 -0.0041 0.04019 -0.062489 0.043529 0.074149 -0.057952 0.016195 -7.42E-4 0.050038 -0.013294 -0.045223 0.086091 0.057944 -0.028519 0.036021 -0.021035 0.045845 0.069687 -0.027508 0.006595 -0.028115 -0.079689 -0.032146 -0.019459 0.062548 -0.035462 0.081249 0.074688 -0.05715 -0.039226 -0.062817 0.013469 0.028591 0.024349 -0.021553 0.020422 -0.022922 -0.025498 -0.035353 0.02387 0.02381 -8.03E-4 -0.008025 0.010139 -0.035136 -0.060957 -0.018008 -0.060131 0.033488 -0.028439 0.024294 0.004126 0.026116 0.028837 0.008069 -0.080044 -0.082383 0.03927 -0.006869 -0.021604 -0.008367 0.056536 -0.029818 0.024325 -0.017556 -0.066937 -0.021131 0.007845 0.027709 0.001181 -0.001301 0.008954 0.02532 0.02771 0.00997 0.104363 0.014854 -0.001196 -0.0557 0.040406 -0.025856 0.081662 0.020515 -0.006752 -0.020765
video 0.069385 0.079637 -0.151282 0.082004 0.048883 -0.124005 -0.084121 0.278736 0.388996 -0.283878 0.399835 0.139134 -0.163645 -0.386995 0.007648 -0.152113 -0.544545 -0.025575 -0.227732 -0.34949 -0.149745 -0.218877 -0.068334 0.332892 -0.030861 -0.045273 -0.248732 0.054392 0.031087 0.131869 0.127555 -0.250342 -0.1116 -0.188745 -0.053801 -0.164569 0.28972 0.233292 0.015843 0.029446 -0.222362 0.442731 -0.273321 -0.18029 -0.281437 -0.260881 0.108315 -0.130317 0.053505 0.419211 0.072913 -0.151183 -0.020567 -0.056138 -0.239872 0.11773 0.094876 -0.051219 0.098868 -0.210773 -0.125492 0.112491 0.061985 -0.182967 -0.004287 0.008268 0.223085 -0.142886 -0.141821 -0.069631 0.30349 -0.028257 0.199626 -0.020758 0.302359 -0.216605 -0.080173 0.111939 0.045573 0.24772 0.439424 -0.158507 0.12636 -0.439796 -0.227926 -0.051317 0.118342 -0.18172 -0.174587 0.016121 0.256495 -0.037775 -0.055836 -0.448281 0.120152 -0.208458 -0.087023 -0.119095 -0.083427 -0.564119 -0.068204 -0.403439 0.092461 -0.147286 0.133056 -0.20409 0.04574 -0.026702 -0.018453 -0.271228 0.190475 -0.016758 -0.135969 0.170987 0.18842 -0.139307 0.305753 -0.002702 0.030391 0.053939 0.008388 0.044294 0.171855 0.009089 0.092577 0.144141 0.218869 -0.157619 -0.077877 -0.244751 0.059473 -0.086428 0.402241 0.335524 -0.133677 0.422746 0.033761 -0.408287 -0.055174 0.058512 -0.092018 -0.213098 0.186646 0.006384 0.192288 0.198632 -0.026062 0.125721 -0.117355 0.093961 0.282427 0.139945 0.533066 -0.359174 0.20977 -0.026658 -0.179299 0.103367 -0.476433 -0.200084 -0.2114 -0.137589 -0.359041 -0.040366 0.018644 0.234127 -0.001237 0.231773 0.338105 -0.131569 -0.076565 0.409728 0.101329 -0.003547 0.376838 0.093129 -0.034351 0.052597 0.093005 0.012906 0.0338 0.460774 -0.014038 -0.037176 -0.362123 0.004892 -0.134119 -0.018347 0.060945 0.103914 0.187424 -0.647845 -0.076794 0.035195 0.242184 -0.143823 0.477615 0.218698 0.124528 -0.288598
defeating 0.474615 -0.249116 -0.094252 0.077953 0.011667 -0.004002 -0.063374 -0.279462 0.0988 0.332083 -0.082708 0.158658 -0.017114 -0.030215 -0.130716 -0.057276 0.039942 -0.002224 0.185671 -0.306746 0.463311 -0.075226 -0.114305 -0.197962 0.081414 -0.140469 0.182673 -0.396529 -0.11016 0.111223 0.026816 -0.255122 0.05324 0.31878 0.065269 -0.072595 0.169194 0.056575 -0.023564 -0.105107 -0.237242 0.213844 0.182581 0.030662 0.42486 -0.289448 0.024391 0.154265 0.158472 -0.302652 0.495678 0.323045 -0.224058 -0.299983 0.237325 0.352664 -0.215075 0.313013 -0.316256 -0.247073 -0.009118 -0.395611 -0.089725 0.308442 -0.06166 -0.055805 0.225144 -0.24788 0.160427 -0.19749 -0.141076 -0.112147 -0.205128 -0.221864 0.254418 0.111286 -0.176234 -0.289003 0.208932 -0.082107 -0.208094 -0.196322 -0.234388 0.312691 -0.162197 -0.226728 0.450432 -0.162853 0.540684 0.006171 0.266584 0.175827 -0.146238 0.09031 0.045425 -0.155291 -0.29229 -0.124439 0.070794 -0.203237 -0.031909 -0.241975 0.095672 -0.055551 0.154876 0.218898 -0.266003 -0.018163 -0.165141 -0.220751 -0.046637 -0.191381 -0.288708 -0.353662 -0.541568 0.325637 0.135205 0.172367 -0.452752 -0.471511 -0.124161 0.095932 0.245384 -0.105445 0.167221 0.144305 0.55883 0.137388 -0.057989 0.154487 0.176382 -0.192199 0.062895 -0.06148 -0.425205 -0.016555 0.418343 0.172298 0.279002 -0.044418 -0.0554 -0.01231 2.19E-4 -0.023331 -0.092616 -0.430973 -0.200566 -0.365577 0.029403 -0.086403 0.098414 0.250446 -0.183787 0.022672 0.146571 0.049056 -0.124043 -0.019605 0.102594 0.119537 0.440436 0.305825 -0.486377 -0.141665 0.632249 -0.195782 -0.025028 0.236812 -0.396139 -0.276714 0.201631 -0.003234 0.063917 -0.22376 -0.528595 -0.057855 0.208399 0.15361 -0.456871 0.082725 -0.094207 -0.49095 0.060379 0.498623 -0.286124 -0.131703 -0.182888 0.074011 0.167866 0.131991 -0.057023 -0.064941 -0.10181 0.084287 0.074209 -0.034943 0.35505 -0.18048 0.051878 -0.166323
death -0.381498 -0.139044 0.150586 -0.024961 0.355077 -0.006776 -0.379784 0.007936 -0.323659 -0.264787 0.090451 -0.044538 0.202484 -0.025393 -0.073063 -0.234764 -0.321459 -0.240049 -0.090994 0.196171 0.16786 -0.00975 0.289086 -0.216202 0.028872 0.198256 0.352067 -0.316707 0.013352 0.198829 -0.013196 -0.322678 -0.437868 0.137038 -0.083688 0.030146 0.101524 -0.134703 -0.007995 0.044016 0.317938 -0.268631 0.191306 0.186464 0.040094 -0.373572 -0.296641 0.036171 0.002495 -0.124698 -3.39E-4 0.175564 0.034691 -0.004369 0.24577 -0.160244 -0.530656 0.370393 0.054172 0.131854 0.377063 0.140546 -0.059716 -0.35267 -0.230682 0.277664 0.052005 -0.068251 -0.094391 0.1473 -0.112436 -0.119928 -0.080585 -0.023228 -0.114833 0.021285 0.099498 0.174036 0.130191 -0.196804 -0.549463 0.085944 0.361694 -0.201087 -0.00198 0.367613 0.035566 -0.577714 -0.328187 -0.304695 0.119889 0.230022 -0.176401 -0.216593 0.015033 -0.257142 -0.205843 0.027475 -0.218893 -0.260743 -0.113647 0.004541 -0.056727 0.010439 -0.064345 0.218544 -0.13475 -0.122912 0.13233 0.107879 -0.316224 -0.484866 0.324278 0.123319 -0.157603 -0.122676 0.414628 -0.160513 0.130199 0.025531 0.304586 0.21607 -0.11012 0.08048 -0.255658 0.004526 -0.213566 -0.122878 -0.181271 -0.169128 -0.072133 0.043078 0.034958 -0.073549 0.142495 0.289118 -0.012426 -0.046517 -0.19885 -0.286145 -0.445975 0.152537 -0.050829 0.14343 -0.047666 0.392553 -0.160748 -0.530855 -0.377152 -0.535043 0.247345 -0.226377 -0.031945 -0.05717 -0.051802 0.317297 -0.222003 0.189105 0.308626 -0.417492 -0.601008 0.463166 -0.289853 -0.063077 -0.164595 0.149071 0.502889 -0.191027 0.339013 0.007466 -0.191408 0.021854 0.067264 0.006724 -0.249216 -0.047271 0.129521 -0.034681 -0.167247 0.219169 0.187525 -0.213085 0.048146 0.117317 -0.32324 0.336842 0.204697 -0.284 -0.415031 -0.319359 0.097331 -0.084683 0.221436 -0.063598 0.318215 0.268905 -0.062608 -0.031303 0.041099 -0.184686
image 0.036153 0.055991 -0.048813 0.015238 0.109089 -0.069721 -0.166572 0.177015 0.047229 0.21284 0.033861 0.036262 -0.099598 -0.009986 0.266241 0.111382 0.130545 -0.160691 -0.158344 0.073898 -0.147599 -0.071972 -0.044947 -0.174798 0.098212 -0.14599 0.090253 0.026794 -0.028833 0.108883 0.181135 -0.13534 -0.069076 0.058251 -0.086127 -0.254079 -0.072296 -0.1574 -0.033043 -0.113851 0.029797 0.095323 -0.301328 -0.08903 -0.137873 -0.078837 0.054157 0.185098 0.127362 -0.195666 0.477146 -0.072834 0.104185 -0.069234 -0.106539 -0.048876 0.01212 0.163397 0.089571 0.484605 -0.117474 0.400526 -0.103632 -0.196514 0.11076 -0.040803 0.109061 -0.272927 -0.184455 -0.001555 -0.107153 -0.002485 0.036301 0.079316 0.150797 -0.142037 -0.223232 0.197867 -0.127859 -0.127415 0.070254 -0.077704 0.01413 -0.232847 0.069426 0.088213 -0.065434 -0.157746 -0.169101 0.033196 -0.068519 0.013435 0.197445 -0.017149 -0.067931 0.014531 -0.204443 -0.049831 0.148552 -0.216062 -0.02569 -0.298507 -0.132175 0.032228 0.169859 0.127732 -0.131618 0.168059 0.134064 -0.048345 0.123448 -0.133458 0.33813 0.085205 0.090283 0.044698 0.00952 -0.054588 0.278952 -0.012653 -0.056753 0.113607 0.070822 -0.130471 -0.088718 0.072128 0.21284 0.135867 -0.04927 -0.026275 0.03111 0.07653 0.028689 -0.058382 0.014785 0.121647 -0.265284 -0.083898 -0.094896 -0.045963 -0.092433 -0.100374 -0.11138 -0.283379 -0.179403 0.0909 -5.67E-4 0.046448 0.06796 -0.066532 -0.014568 -0.256273 0.349634 -0.354796 0.297222 0.093471 0.129147 0.03522 0.200664 -0.184048 -0.024654 0.041198 -0.059261 -0.058062 0.262703 -0.035404 0.075226 -0.21277 0.137461 0.180957 0.038847 0.299302 0.123182 -0.329905 -0.010235 -0.101347 -0.119049 -0.072279 -0.097602 0.091044 0.024738 0.096149 -0.083771 -0.12439 -0.085706 0.028656 -0.068145 0.021643 0.07396 0.015807 -0.142984 -0.2144 -0.286031 0.161468 -0.097746 -0.302316 0.143023 -0.045765 -0.00761 -0.291771
theater -0.024561 0.249351 0.066363 -0.188017 -0.174503 -0.137265 -0.090383 -0.28466 -0.455221 0.327089 0.030435 0.128064 -0.250357 -0.212783 0.057818 -0.057871 -0.120295 -0.563059 -0.196269 -0.042529 0.148088 0.19501 -0.303968 -0.142089 0.010187 0.065746 -0.096193 0.02588 -0.109403 0.182179 -0.281786 0.091548 -0.050366 -0.263536 0.205878 -0.040182 -0.031442 -0.211033 0.154449 0.241822 0.181678 -0.417175 -0.105589 0.011957 -0.00353 -0.214274 0.048564 0.057616 -0.037392 -0.049961 -0.005317 0.059419 0.324519 -0.251157 0.110106 -0.120905 0.135899 0.254369 -0.154431 0.185419 0.082659 0.086108 0.23688 0.380161 0.10311 0.187746 0.322822 -0.051671 0.014842 -0.337469 0.291124 0.219563 -0.165669 -0.082795 0.091225 -0.203121 -0.067355 0.07399 -0.259447 0.139939 0.188565 -0.587176 0.325347 -0.149418 0.119322 -0.20095 0.03027 0.051432 -0.140565 -0.268919 -0.095329 -0.138595 0.048167 -0.064037 -0.06212 0.164559 0.120351 0.013139 -0.147888 -0.092113 0.117774 0.415914 -0.327127 -0.468601 0.07696 -0.057625 0.29137 0.430579 -0.334395 -0.168127 0.451048 -0.291803 0.195707 -0.107045 0.004134 0.114374 0.028878 -0.224582 -0.207758 -0.135454 0.2171 0.170273 -0.102749 -0.260496 -0.091462 0.102719 0.072757 -0.138285 0.037909 0.412177 -0.124563 0.191456 0.151585 0.070223 0.185576 -0.20172 0.186351 0.354176 -0.089549 -0.052006 0.100335 0.053445 0.087252 0.00981 0.21216 0.224792 0.117639 0.278509 -0.158654 0.204306 0.143247 -0.089059 -0.044891 -0.350685 -0.05907 0.152065 0.231051 0.057524 0.1101 -0.0893 0.055321 -0.147263 0.068995 0.018508 0.092577 0.14701 -0.055335 -0.197647 0.062176 0.008028 -0.14834 0.248063 0.498199 0.184968 -0.085307 0.064515 0.324343 0.281541 0.549629 0.017267 -0.283383 0.183068 0.225851 0.235071 -0.082838 0.180425 -0.069902 0.308474 -0.26253 0.24864 -0.082073 -0.239731 -0.512249 -0.066572 0.079591 -0.20162 0.316081 0.321599 -0.080257 -0.029561
number 0.077608 0.186185 0.042007 0.251903 0.221032 -0.121508 0.036679 -0.014422 0.082595 -0.099757 -0.11658 0.118052 0.104279 -0.239184 0.28554 -0.086695 -0.305337 -0.193628 -0.265362 0.082983 -0.209543 -0.26177 -0.034872 0.011829 -0.194333 0.118471 0.095697 -0.095715 0.144012 -0.275611 0.044252 0.013721 0.095843 0.041078 0.089674 -0.157176 -0.003929 0.042997 -0.1664 -0.422853 -0.128497 0.363475 0.330191 -0.009051 -0.128557 -0.238428 -0.180895 -0.359461 0.317059 -0.167185 0.161765 -0.1083 -0.287824 -0.168391 0.085244 0.173972 0.029288 0.006478 0.085968 0.083078 -0.030636 0.093356 -0.109503 -0.310371 0.138278 -0.162124 0.261449 -0.206636 0.16111 0.075573 -0.026199 0.027531 0.008759 0.015877 -0.259686 -0.105052 0.065954 -0.065489 -0.070494 0.137565 0.102403 -0.264544 -0.387621 0.262613 -0.191031 0.053604 -0.16096 -0.100759 -0.390745 -0.130507 0.105599 0.179287 -0.115529 0.015191 0.152961 -0.11281 -0.064594 -0.123925 0.025038 -0.081632 -0.095446 -0.095263 -0.088925 -0.095493 -0.149494 -0.237049 -0.125202 0.085981 -0.087873 0.091457 -0.446198 -0.122699 0.122598 -0.076641 0.00733 0.092641 0.238263 -0.145048 -0.147933 0.307757 0.064264 0.308463 -0.184081 -0.113858 -0.086726 0.204733 -0.188905 0.344009 0.085573 -0.199687 0.026001 -0.198002 -0.169795 -0.046274 0.187199 -0.221338 -0.336461 -0.250152 -0.109074 -0.076357 0.21979 -0.075411 0.229701 -0.012241 -0.059293 -0.205161 -0.327594 0.069385 -0.240453 0.067408 0.167029 -0.06654 -0.127461 -0.079454 0.050693 0.20403 -0.100057 0.194962 0.060693 0.179574 -0.150958 0.126078 -0.329686 -0.019449 -0.31627 -0.271605 -0.182703 -0.122682 0.111492 0.096535 -0.275854 -0.069892 0.180549 -0.061376 -0.013199 -0.128627 0.132266 0.073137 -0.038033 0.219876 0.19872 -0.088159 0.036833 -0.064845 -0.267997 -0.070449 -0.044953 0.165479 -0.444409 0.44631 0.022013 0.091769 -0.049566 -0.291798 0.056289 0.10322 -0.026324 -0.020598 0.40697 -0.269875
astronomer -0.183228 0.168069 0.112289 0.162576 0.058778 -0.096 0.005716 0.014741 -0.030653 -0.301584 0.096542 0.226125 -0.008511 0.138692 0.102601 0.155008 -0.005174 0.008563 -0.081953 -7.7E-5 0.009145 0.099598 -0.021208 0.047852 0.199661 0.094118 -0.026886 -0.052849 0.10277 0.110072 -0.042779 -0.048688 -0.011201 -0.121339 -0.204162 -0.111741 0.099814 -0.063424 -0.310463 -0.093293 -0.181681 -0.154093 0.025992 -0.005251 -0.068791 0.252411 -0.01757 -0.100926 -0.053517 0.163504 -0.027463 0.034305 0.077121 -0.069016 -0.275688 -0.012968 -0.219424 -0.025612 0.12223 -0.004739 0.172841 -0.240785 0.273315 -0.057904 -0.064596 0.125572 -0.153773 -0.134012 0.085727 -0.021359 0.068431 0.218769 0.039295 -0.056263 0.134154 0.117703 -0.092263 -0.038622 -0.063537 -0.118276 -0.127409 -0.13672 0.123872 -0.097063 0.06798 -0.148876 -0.003169 -0.051737 0.052412 -0.29803 0.101379 0.024883 0.172007 0.055246 0.149828 0.050178 0.314842 0.083778 -0.072227 0.061945 0.206088 -0.166086 -0.249726 0.105271 0.039377 0.156103 -0.087025 0.122011 -0.121958 -0.127273 0.332352 0.098645 0.072829 -0.034251 -0.09731 -0.178035 0.127643 -0.100737 -0.212371 -0.058951 -0.07941 0.022025 -0.168507 -0.110473 0.233013 0.12523 -0.013952 0.184594 0.186884 0.034213 -0.077608 0.139281 0.288169 0.091647 0.343568 -0.06759 0.004363 0.179819 -0.083842 -0.269333 0.063742 0.217476 -0.066619 -0.176068 -0.03341 0.259622 0.219103 0.155419 -0.004541 -0.058686 -0.099247 0.031393 -0.012828 -0.324114 0.011452 0.014907 0.043144 0.171931 -0.084122 -0.032779 0.435302 -0.070376 -0.090493 0.062009 0.069942 -0.109142 -0.064007 0.190567 0.100386 0.01199 0.104065 -0.044882 0.123612 -0.036156 0.051226 0.147737 -0.047703 0.179403 0.052053 -0.31588 -0.051605 0.189814 0.065935 0.399463 0.037519 0.152588 0.074997 -0.148267 -0.116199 0.046427 0.107645 -0.043518 -0.204418 -0.013029 -0.079179 -0.047108 0.147906 0.036717 0.171214 -0.312859
project -0.155194 0.208793 0.007054 -0.058918 0.026401 0.085843 0.101263 -0.022358 -0.097941 0.128632 0.01477 0.212052 0.121557 -0.147977 0.099234 0.001045 -0.119628 -0.331685 -0.112878 -0.164195 0.002439 -0.001268 0.066198 0.032928 -0.245851 -0.04277 -0.052946 -0.002673 0.156515 -0.057124 0.006068 0.15825 0.239034 -0.036334 0.122713 -0.073715 -0.201306 -0.276247 0.116781 0.062259 -0.087471 0.126443 -0.173931 -0.122493 0.025783 0.073866 0.137618 0.189749 0.040066 0.038066 0.238937 -0.128415 -0.002711 0.2203 0.019415 -0.184332 0.1978 0.259788 0.087113 0.17686 0.066871 0.205469 -0.05317 0.15689 0.303822 0.201888 0.009149 0.135724 -0.169094 -0.082466 0.331887 0.19505 -0.17879 0.075923 0.183044 0.34659 0.026913 -0.001215 -0.258154 0.01848 -0.061604 -0.120189 0.339918 -0.139387 0.137491 0.015565 -0.035577 0.026626 0.163647 0.035225 0.153818 -0.144236 0.195119 0.081156 0.137577 0.12341 -0.16881 0.06796 0.118455 -0.036895 0.221794 0.241186 0.003189 -0.143271 0.074513 0.227716 -0.02548 0.310631 -0.15742 0.015373 0.163646 0.036283 0.102234 0.025351 -0.205336 0.095287 0.082709 -0.123134 0.181408 0.260101 -0.026675 0.015262 0.110748 0.187807 -0.114883 -0.032718 0.263977 -0.168775 -0.030775 -0.048449 -0.070822 -0.054372 -0.04205 0.016323 0.263706 0.164342 -0.149567 0.105593 0.179696 -0.084914 0.012024 -0.150765 0.045361 -0.15382 -0.038475 0.13146 0.070308 0.224167 0.120713 0.072918 0.024632 0.073062 0.2029 -0.249155 0.092622 -0.091598 0.086275 -0.072478 -0.111758 -0.05304 0.062462 -0.144977 0.178268 0.127555 0.41241 -0.033231 -0.111822 0.216477 0.18001 0.079495 -0.225256 0.219496 0.318602 0.121511 -0.138283 -0.177935 0.047449 -0.094616 0.024938 0.026567 0.197587 0.095224 0.229794 0.041246 0.088249 0.046167 0.154878 0.07208 -0.024563 0.047639 0.08054 0.143793 0.004984 -0.198834 0.018439 -0.020501 0.099556 0.100793 0.028272 -0.118134
dawn -0.001289 -0.005092 0.100913 0.125561 -0.174035 0.142439 -2.28E-4 -0.288768 -0.010887 0.19769 0.07147 -0.220952 -0.191168 -0.024678 -0.413725 -0.138458 -0.131094 0.289715 -0.007339 -0.084386 0.051499 -0.309919 -0.035321 -0.055364 0.111549 0.01061 0.226822 -0.09891 0.020471 0.199617 -0.014345 -0.002621 0.125414 0.111631 0.002463 0.207974 0.199834 0.200434 -0.135974 0.236702 -0.113944 0.092721 -0.127906 -0.345523 0.08764 0.143277 -0.110669 -0.391652 -0.357702 -0.032353 -0.164323 0.201192 -0.033354 -0.038275 0.079177 0.234368 0.243384 -0.311389 0.018181 -0.095306 -0.195512 -0.337766 0.064363 -0.274172 0.11197 0.539793 0.069772 0.225912 0.00397 -0.029606 -0.016317 -0.009879 0.196624 0.312968 -0.149441 -0.198583 -0.059031 -0.019155 0.042852 -0.111561 0.033497 0.132865 -0.223711 0.170984 0.25422 -0.322663 0.104421 -0.204132 -0.133206 -0.099414 -0.063585 0.379656 0.125611 -0.395045 0.425163 -0.058017 0.25478 0.191965 -0.09236 -0.1902 0.062462 0.140812 0.21527 -0.146636 0.088093 0.134196 0.094776 0.22913 -0.083269 -0.017212 0.00272 -0.186036 -0.20872 -0.159281 -0.075842 -0.027992 0.109935 -0.269486 -0.031805 -0.131919 0.058823 0.117484 -0.242872 0.174139 -0.41334 0.318029 -0.314443 0.127334 -0.093802 -0.126664 0.173828 0.12654 0.325502 0.103907 -0.04769 -0.138072 0.224351 0.329557 -0.005705 -0.383152 -0.381877 0.130762 0.034076 0.010225 -0.051463 0.393724 -0.19407 -0.259098 0.25518 0.004597 -0.09668 -0.610852 0.226896 -0.349657 -0.204917 0.069925 0.032097 -0.178284 -0.036676 -0.217201 -0.012452 -0.079346 -0.177138 -0.179231 -0.031831 -0.130583 -0.082528 -0.016879 0.096132 -0.030294 0.15682 -0.017161 0.076864 0.216333 0.113684 0.260128 0.514643 -0.085939 0.016474 -0.330724 -0.205755 -0.16789 -0.176593 0.294201 -0.22414 -0.019152 -0.211073 -0.232465 -0.234369 0.159145 -0.328696 0.174905 -0.232456 -0.142683 0.085367 -0.425724 0.098897 0.127005 -0.280037 -0.375948
ear -0.052948 0.404918 -0.461393 -0.166868 -0.277614 -0.181572 -0.191076 0.215778 -0.144795 0.226476 -0.061512 0.032656 0.16009 0.012633 0.159533 -0.004811 -0.053043 -0.308276 0.129809 -0.25713 -0.01451 0.038211 0.394576 0.108767 -0.077469 0.326912 0.049423 -0.366016 0.235591 -0.123713 0.107972 -0.355883 -0.159582 0.074435 -0.071161 0.075961 -0.144486 0.032456 0.077563 0.165495 0.246473 -0.281066 -0.155959 -0.004943 -0.226786 0.037769 -0.167413 0.269146 0.124144 -0.015359 0.126332 0.202912 0.129175 -0.181457 0.027527 -0.252622 0.11801 -0.258508 -0.433311 0.263948 0.050091 0.230371 0.283897 -0.129668 -0.020023 0.209009 -0.083402 0.070359 -0.104552 -0.007066 -0.580571 -0.122355 -0.173912 0.208709 0.196409 -0.187486 0.102264 -7.5E-5 0.021414 -0.042404 -0.445808 0.061713 0.073109 -0.152869 -0.026297 0.082587 -0.027226 -0.185883 0.080916 -0.348892 -0.531935 0.164622 0.335804 -0.133595 0.351261 0.222255 0.258499 -0.244298 0.041984 -0.147592 -0.098959 -0.301446 -0.108067 0.180065 -0.436052 0.050988 -0.162222 0.31313 -0.083769 -0.444333 -0.301914 0.020424 0.455012 0.535774 0.230651 -0.171756 -0.177683 0.054663 0.193149 0.114043 0.068911 0.41023 -0.085499 0.101566 -0.13459 -0.434383 0.011428 -0.047515 0.052627 0.184291 0.447867 0.005502 0.268685 -0.011312 0.158115 0.298129 0.080356 -0.119787 -0.176336 0.500641 -0.245172 0.030603 -0.114335 -0.413803 -0.110963 -0.201144 0.024403 -0.245124 0.02081 -0.012604 0.274142 -0.290538 0.075318 -0.197136 0.276068 -0.168975 0.173935 -0.161608 0.231861 -0.182114 -0.069744 -0.036489 -0.081465 5.71E-4 0.245561 0.093802 -0.075336 0.108383 0.139203 0.217287 0.161583 0.060584 -0.214083 -0.268978 0.247869 -0.078576 0.301598 0.003791 -0.046253 0.025989 -0.062316 0.241626 0.137537 -0.147425 -0.205512 0.195689 -0.127163 -0.376066 -0.147491 -0.29726 -0.237464 -0.094165 0.053518 0.192031 0.1824 0.186492 0.04983 -0.019706 0.080421 0.012665
voyage -0.210184 0.241981 0.095205 -0.139337 -0.12036 -0.19073 -0.316702 -0.198368 -0.050505 0.033067 0.251048 0.209581 0.316763 -0.230748 0.089756 -0.005315 -0.137204 -0.188265 -0.115458 0.017348 0.014312 0.141714 -0.080023 0.219141 -0.146409 0.266924 0.432888 -0.067881 0.405977 0.161554 0.198005 0.204644 0.046831 0.235558 -0.035026 -0.063697 0.11609 -0.090601 -0.018742 -0.339879 -0.276039 0.110496 -0.186201 -0.27404 -0.001915 0.208538 -0.081633 0.312883 0.095323 0.355898 0.196279 -0.243817 -0.188186 -0.035918 -1.01E-4 0.065628 -0.011213 0.246096 -0.277928 0.063395 0.380002 0.209621 -0.011078 0.007319 -0.002276 0.005222 0.153406 0.122752 -0.229664 -0.1318 0.099995 -0.119775 -0.221755 0.068541 -0.006296 -0.070566 -0.077492 0.001867 0.010457 0.031621 -0.147804 0.181315 0.105169 -0.181238 0.206601 -0.103596 0.275996 -0.191966 -0.099863 -0.213489 -0.200572 0.068308 -0.071927 -0.064822 0.058213 -0.106734 -0.036612 0.001377 -0.142708 -0.125958 -0.125256 0.104054 -0.196108 -0.030734 0.00354 0.167754 -0.392951 -0.019391 -0.386594 0.001973 -0.141546 7.73E-4 -0.019191 -0.010431 0.21154 0.062339 0.073174 -0.156718 0.141782 0.01335 -0.134186 0.20678 0.18348 0.200711 -0.133565 -0.157908 0.12613 -0.062587 0.236369 0.301524 0.050526 -0.070249 0.214923 0.042564 -0.019779 -0.235763 -0.123607 0.106438 -0.343114 -0.141974 0.092839 0.396369 -0.17197 -0.100478 -0.151368 0.147666 0.001956 -0.277991 0.029087 0.120683 0.218063 -0.212492 0.056129 -0.276993 0.201991 -0.27847 0.206296 -0.069 0.195287 -0.206153 0.095139 -0.219049 -0.010559 0.017663 0.189122 -0.016427 -0.073502 0.003395 0.005611 -0.031752 -0.002846 -0.016524 0.214098 -0.337399 0.008884 -0.159516 0.258419 -0.262367 0.010391 0.086142 -0.333069 -0.240862 0.02488 -0.031896 -0.116499 0.140999 -0.230731 0.006563 0.029817 -0.060473 0.109157 0.109362 -0.337318 -0.049645 0.203102 0.029258 0.09426 0.380581 0.337382 -0.092837
valor -0.210675 0.022381 0.101373 -0.150278 -0.057623 -0.119946 -0.209463 -0.076125 -0.11961 0.001266 -0.104101 -0.016793 0.163246 -0.007074 0.10672 -0.066011 0.04673 0.022385 -0.188625 -0.112055 0.051555 -0.092192 -0.085703 -0.055561 0.094693 -0.009001 0.021812 0.054549 6.22E-4 0.235195 -0.02795 -0.063684 -0.028928 0.042615 -0.00339 0.079395 0.058062 -0.124417 0.086881 -0.104888 -0.039596 0.057952 0.071335 0.028913 -0.105779 -0.060253 0.031969 -0.188074 0.117351 0.094244 0.20624 -0.092783 -0.151898 -0.140007 0.048642 0.018957 -0.090341 0.068557 -0.008777 0.093233 -0.174766 0.210952 0.030218 0.071272 -0.003896 0.049648 0.024531 0.165939 -0.012716 -0.101445 0.068675 0.129849 -0.211104 -0.110795 0.222562 0.002632 -0.068557 -0.043243 -0.072922 0.029716 0.090951 -0.050509 0.026514 0.021879 -0.120509 0.045907 0.178744 0.055026 0.01478 -0.114408 0.153816 -0.098714 0.012838 0.05223 -0.147066 -0.02787 -0.130908 -0.053479 0.018142 -0.008025 0.020183 -0.093215 0.077951 -0.070731 0.155519 -0.029754 -0.104525 0.068123 -0.096301 0.069045 -0.113394 0.092608 0.098384 -0.006102 -0.137341 0.176163 0.214205 -0.043194 0.096646 -0.077893 -0.083223 0.114647 0.01777 0.007154 0.010188 0.254062 0.010296 0.083535 0.126447 -0.15037 -0.030955 -0.083023 -0.077011 0.101001 0.079884 0.055253 0.075215 -0.018475 0.154039 -0.107219 -0.008191 0.06573 -0.104173 -0.040911 0.077 -0.148918 -0.064205 -0.159936 -0.101405 0.01152 0.137441 -0.069192 0.31492 -0.089904 0.09575 0.082351 3.7E-4 -0.023878 0.030998 -0.182712 0.073322 0.095878 -0.144683 0.054143 -0.050097 0.104544 0.050111 0.192417 0.016561 0.090375 0.130898 0.072235 0.025519 -0.149579 0.009833 -0.11114 -6.0E-6 -0.030324 0.053793 -0.008945 -0.16634 0.005203 0.065835 -0.046299 -4.0E-5 -0.15766 0.124339 0.030935 -0.115471 -0.085512 -0.154637 0.060191 0.018318 -0.155171 -0.065495 -0.205052 0.040797 0.035156 -0.013097 -0.108809
butter -0.182016 0.096873 -0.054719 0.405758 -0.054036 -0.078581 0.231877 0.392701 -0.369403 -0.205675 -0.241001 -0.336222 0.050198 -0.200986 0.04745 0.218351 0.330717 0.466343 0.189337 0.0317 -0.232427 0.079009 0.03503 0.356523 -0.082475 0.213786 0.233259 -0.200681 0.154351 -0.143527 -0.223279 -0.480336 0.714507 0.034648 0.227496 -0.310147 -0.248818 0.05984 0.28092 -0.121111 0.093605 0.116689 -0.195069 -0.088355 0.118956 0.079724 -0.016547 -0.196832 -0.162548 0.233204 -0.473176 -0.108827 0.02447 -0.404581 0.145396 0.174049 -0.0278 -0.216619 0.333987 0.208724 0.029668 0.012529 0.389123 0.138217 -0.018708 -0.191005 0.183973 -0.18584 0.019348 -0.114186 0.007999 -0.464108 -0.04559 -0.073164 0.361327 -0.311583 -0.245231 -0.17738 0.466461 -0.303283 0.182169 -0.128942 0.046728 -0.271824 0.032891 -0.425353 -0.022049 0.12435 0.193124 -0.052908 -0.598611 0.047802 -0.127699 -0.503824 0.099682 0.379477 -0.091102 -0.203462 -0.271198 -0.070012 0.316339 -0.071376 0.033277 -0.213403 -0.450437 0.124968 0.027948 0.087516 -0.196125 -0.445859 -0.151736 -0.135148 0.448501 0.370925 -9.6E-5 -0.112124 0.094738 0.201274 -0.726286 -0.224941 -0.145784 -0.036325 0.199778 -0.315576 0.172068 -0.117605 0.045187 0.056535 -0.517539 0.025974 -0.011934 0.072076 -0.245419 0.114064 -0.036891 0.253553 -0.021185 0.249757 -0.17681 0.531296 0.08922 0.142022 -0.143148 -0.319401 -0.090314 -0.195168 0.176333 0.061747 0.313154 0.136088 0.025793 -0.530445 0.13066 -0.29472 -0.178973 0.094282 -0.008196 0.084079 0.339071 0.244933 -0.017216 -0.134016 0.065978 -0.154156 0.480986 0.431032 -0.071765 0.128612 0.250421 -0.117168 0.147912 -0.040025 -0.209326 -0.170559 0.316563 0.375622 0.164355 -0.235298 -0.332353 0.445897 -0.553441 -0.286632 0.221908 -0.174651 0.027034 -0.163339 0.312159 0.013539 0.087964 0.009597 -0.024731 -0.085185 0.147988 -0.300492 -0.195551 -0.049932 0.643413 0.125263 -0.504791 -0.031564
gin -0.129283 0.189987 -0.156409 0.173266 -0.211101 -0.333995 0.112073 0.259556 -0.107943 0.074708 -0.428222 0.140636 0.159188 0.022261 0.132726 0.061061 0.074974 0.079264 0.133792 0.026888 -0.133994 0.159674 0.075906 0.097815 0.080828 0.075617 -0.231421 -0.050926 0.051006 0.138062 -0.31802 -0.360719 -0.010445 0.174778 0.01128 -0.135337 0.063158 0.160569 -0.070798 -0.160098 0.186379 -0.075911 0.013584 -0.051436 -0.168211 -0.185481 -0.180777 -0.198767 0.389069 0.187508 -0.081326 -0.231793 -0.043636 -0.137472 0.030076 0.235981 0.318704 -0.087047 -0.022267 0.189643 0.155054 0.091188 0.119771 0.052607 -0.197359 0.171732 -0.016697 0.268588 0.269631 0.241073 0.186872 0.02556 -0.081238 -0.19543 -0.014911 -0.188766 -0.249892 0.325968 0.120485 -0.167966 0.026654 0.361426 0.128084 -0.177538 0.243957 -0.234278 0.235918 0.042425 -0.188168 -0.365911 -0.011076 -0.09884 0.284662 -0.097341 -0.230573 0.159322 -0.045202 -0.394914 0.276724 -0.074097 -0.012419 0.156607 -0.100943 0.138336 -0.032561 -0.016064 0.158276 0.258471 -0.049656 -0.260073 -0.18467 -0.232318 0.021619 0.193364 0.144113 -0.055636 0.016107 0.001836 -0.141374 0.226106 -0.005373 -0.166624 0.334758 -0.066412 0.120406 -0.252445 0.061445 -0.124648 -0.029923 0.015785 -0.015434 -0.101478 0.034878 -0.027453 0.336503 -0.067298 0.227826 0.386518 -0.177985 0.271618 0.154961 0.186966 -0.243629 -0.355041 0.024254 0.06089 0.289527 -0.015576 0.15514 0.206049 0.153726 -0.204209 0.003959 -0.330581 -0.008976 0.131632 -0.022964 0.016315 0.38809 -0.088796 0.303232 -0.052635 0.061172 0.061241 0.115322 0.308137 -0.012363 0.189608 -0.05139 0.15001 0.309116 0.26431 0.208336 0.047297 0.177151 0.084248 -0.002463 -0.117181 -0.027471 0.086955 -0.352984 0.064193 0.116257 0.017579 0.026322 -0.003836 0.04378 0.031079 -0.049805 0.061051 -0.031953 -0.128687 0.064192 0.056304 -0.246645 -0.269462 0.272212 0.171579 -0.139828 -0.289117
reservation 0.025635 0.220262 -0.115101 -0.340995 8.9E-4 -0.0138 0.219644 0.112019 0.133101 -0.129032 0.201479 0.13819 0.171242 -0.189908 0.2252 0.086577 -0.195196 0.233104 -0.01286 -0.130397 0.031806 0.136152 -0.129537 -9.83E-4 -0.37598 0.229598 -0.016268 0.13922 0.039851 -0.187902 0.11218 -0.033935 -0.293803 0.279379 0.089372 0.066911 0.101661 0.019193 0.093616 -0.028836 -0.099314 -0.056877 -0.168832 0.137571 0.191347 -0.104449 -0.195054 0.194754 -0.006479 0.113195 0.13227 -0.263975 0.059783 0.100568 -0.061637 0.178809 -3.4E-5 -0.052515 0.224062 -0.119109 0.139346 0.0948 0.152567 0.430235 -0.076283 0.30942 -0.058882 -0.117278 0.04257 0.162666 0.147736 -0.079846 -0.128506 0.119241 0.18145 -0.022161 0.002732 -0.129096 -0.07194 0.235398 -0.084358 -0.024933 -0.053311 -0.030427 0.05719 -0.003527 0.129515 0.10919 -0.004414 0.023246 0.215058 -0.206893 0.093864 0.03286 0.168914 0.149578 -0.16831 0.104498 -0.078139 -0.045081 -0.19937 0.079355 0.132562 -0.150262 -0.099622 0.250474 -0.272052 -0.089488 -0.085332 -0.219005 0.343985 0.117964 -0.052622 0.082978 -0.242593 -0.093788 0.037535 -0.086783 -0.048286 0.401977 0.19522 0.193981 -0.165442 -0.171106 0.004953 -0.139544 0.131557 -0.020205 -0.16189 0.055923 0.13434 -0.031677 0.066143 -0.091183 -0.007723 -0.128859 -0.134084 0.192291 -0.102957 -0.003025 -0.036449 0.162291 -0.076188 0.001041 0.057228 -0.098567 0.202037 -0.174459 0.209233 0.093608 0.184848 -0.052247 0.265517 -0.016293 0.0355 -0.099711 -0.032126 0.068054 0.179583 0.003364 -0.093088 -0.188648 -0.114104 -0.022721 0.11478 -0.169847 -0.033997 0.232064 -0.016504 0.129599 -0.032865 0.041184 0.189414 0.048753 0.054909 -0.301565 -0.054683 0.012641 -0.012943 -0.021026 -0.248068 0.162254 0.155076 0.151937 -0.054084 -0.035293 0.079779 -0.033138 -0.239417 0.005571 0.008038 0.036898 -0.252153 -0.149538 0.034988 -0.358715 0.06478 0.241494 -0.031825 -0.05242
wealth -0.224655 0.001142 0.123919 -0.298651 -0.118937 0.10983 0.06401 0.309884 0.125163 0.19536 -0.216182 0.374328 -0.256005 0.043875 0.103201 0.19569 0.07872 0.008143 0.008063 -0.012987 -0.133161 -0.441491 0.200352 0.028201 -0.13987 0.009278 -0.037713 0.263637 0.323674 -0.312015 -0.028329 -0.136282 0.269156 0.128709 0.057268 -0.11211 0.170406 -0.163184 -0.203269 -0.330038 0.178112 -0.367665 -0.348674 -0.064361 0.093687 -0.164026 -0.064015 0.191066 0.143781 -0.120627 0.016087 -0.448566 0.356359 -0.152594 -0.306018 0.086027 0.065872 0.231968 0.147788 -0.129385 -0.028952 0.32606 -0.009108 0.041525 0.143042 -0.053208 0.120716 0.110792 0.14233 -0.205376 -0.29752 0.305284 -0.376192 0.002598 0.228156 -0.02862 0.088637 -0.030737 -0.231566 -0.170994 0.109813 -0.058405 -0.089132 -0.001993 -0.175269 -0.077493 -0.180556 0.066406 0.079555 0.049001 -0.258765 0.126106 0.257603 -0.025009 -0.130034 -0.065288 0.039782 0.215194 -0.03145 -0.243707 -0.022037 -0.021116 -0.020815 0.015767 0.294816 -0.121038 -0.123785 0.42365 0.232516 0.257653 0.112867 -0.05221 -0.096525 0.082282 -0.057716 0.293343 0.153884 -0.057137 0.311381 0.272265 0.218705 -0.168517 -0.222805 -0.203784 0.1891 0.316575 0.221091 0.091603 0.11694 -0.740008 0.170265 0.022804 -0.094524 -0.157128 -0.292574 0.458352 -0.203245 0.11651 -0.381356 -0.187174 0.02197 0.175733 -0.271711 -0.263548 0.109663 -0.274391 -0.243164 0.090289 -0.132262 -0.310808 0.25877 -0.256301 -0.148931 -0.061533 -0.039402 0.113068 0.330646 0.201673 0.213534 -0.255053 -0.068213 -0.011041 0.10826 0.602595 0.165427 0.17248 -0.049306 0.042225 0.312158 0.003874 0.186356 0.193888 0.060135 -0.099974 0.035813 -0.141756 -0.281688 -0.440373 -0.380104 0.319664 0.017476 0.255269 0.284041 -0.277621 0.348148 0.172911 0.050948 -0.122735 0.087087 -0.165957 -0.239031 -0.090312 0.189887 -0.077031 -0.180481 0.04404 -0.065234 0.033432 0.456235 -0.109683
eat -0.047884 0.021863 -0.124473 0.131101 -0.333099 0.099597 0.023601 0.185847 0.117765 0.01121 -0.117058 -0.460984 -0.046473 -0.119959 -0.013221 0.088897 0.322464 0.41532 0.211123 0.24035 -0.206821 0.07313 0.323952 0.050789 -0.06962 -0.202412 -0.153847 0.118374 -0.162528 -0.032784 -0.38442 0.148771 0.24438 0.11178 0.192708 -0.050879 -0.040911 -0.043201 0.222016 -0.175489 0.056281 0.223033 -0.059581 -0.330033 0.032249 0.20568 0.083961 -0.171788 -0.092127 0.212163 -0.025646 -0.144465 -0.063414 -0.203098 -0.493176 0.147645 0.027457 -0.172374 -0.28496 0.107534 0.094206 -0.010012 0.422727 -0.156068 -0.134391 -0.088791 -0.328682 0.007443 0.104139 0.040862 -0.154807 -0.026806 0.16065 -0.197407 -0.038679 -0.2155 0.151656 0.101448 0.291785 -0.211857 0.156402 -0.184508 0.170418 -0.072019 0.217554 -0.293003 -0.006238 0.416915 -0.14382 -0.249036 -0.294152 0.122164 0.164535 0.183607 0.206231 -0.193319 -0.199161 -0.233394 -0.21871 -0.02289 -0.117045 0.078492 0.177708 -0.143081 -0.318249 -0.333934 0.207017 0.082083 -0.367424 -0.141623 -0.103446 -0.090957 -0.036248 0.384596 -0.02911 0.179201 -0.080468 0.284599 -0.153552 0.081065 0.005451 -0.319744 -0.14748 -0.02046 -0.215258 -0.392076 -0.173417 0.09714 -0.075778 -0.1168 -0.089171 0.300903 -0.014913 -0.340687 0.03434 0.178312 -0.079602 -0.166762 -0.107024 0.494006 0.306342 -0.204159 -0.212973 -0.330782 0.035485 0.072324 0.274796 -0.274837 0.012124 0.229337 -0.087902 -0.215383 0.065914 0.165899 0.091946 0.136268 -0.128068 0.0843 0.123486 0.3736 0.143091 0.074165 -0.099319 -0.056139 0.09916 -0.032735 0.044763 0.228578 0.301749 0.01249 0.011832 -0.153984 0.076925 -0.04331 0.146349 0.318821 -0.008344 -0.184683 -0.295639 0.485062 -0.152594 -0.136904 -0.07296 -0.133695 0.117872 0.080205 0.180821 0.066321 0.203331 -0.023631 -0.180643 0.066477 -0.088417 -0.374891 0.125279 0.304934 0.447571 0.051344 -0.144562 0.076747
soap -0.297583 0.560222 0.123717 -0.11571 -0.199523 0.025387 0.125953 0.033671 0.194414 0.083457 -0.269927 -0.226237 0.190607 -0.284782 0.141353 0.112918 -0.055089 -0.091691 -0.154357 0.021775 -0.178723 0.009199 -0.214124 0.258927 0.357008 0.118427 -0.04776 0.09606 0.024437 0.165664 -0.102608 -0.165132 0.28708 0.042227 -0.277481 -0.351599 -0.088092 0.055836 0.214193 0.069678 0.537892 0.108593 -0.27223 0.177399 0.420886 0.016594 0.130589 0.14787 0.065284 0.261479 0.325086 0.167414 0.111989 -0.328717 -0.027183 -0.161593 0.025582 0.023422 0.137951 0.364142 -0.051064 0.410046 0.09385 0.094623 0.061349 0.540203 0.208656 -0.045554 0.272974 -0.114685 -0.305513 -0.192485 -0.021762 -0.106691 0.440713 -0.363449 -0.235769 0.54955 -0.005738 0.024358 0.138963 0.00753 0.058281 -0.241061 -0.037292 -0.518237 0.066445 -0.326735 -0.218974 0.222461 -0.12882 0.018878 0.063366 -0.212627 -0.085143 0.230279 -0.085421 -0.078356 0.181573 -0.081228 0.032452 0.324621 0.095997 0.08035 -0.102113 0.255797 0.084327 -0.052561 -0.294638 -0.532815 0.205376 -0.005443 -0.07999 -0.098043 0.020192 -0.034905 0.147169 0.031357 -0.643746 -0.050366 0.208582 0.138106 -0.166199 0.171908 0.028483 0.100623 -0.004581 0.18899 -0.067471 -0.108125 0.020342 0.18218 -0.005872 0.236034 0.244653 0.130144 0.032574 0.276112 0.003317 0.063114 -0.048435 -0.02555 -0.099571 -0.693476 0.023317 0.379193 -0.396938 -0.018149 0.1247 -0.001334 0.080268 -0.308799 0.21292 0.008301 0.306838 -0.010402 -0.278613 0.009493 0.190218 0.102252 -0.204617 -0.048022 -0.1201 -0.013764 0.12734 0.01934 0.054187 0.179354 0.334433 0.189317 0.201517 0.430699 0.186672 -0.039575 0.349783 0.213168 0.10343 -0.236628 0.352816 0.1006 -0.288009 -0.139794 0.235306 -0.034092 -0.11397 -0.182658 0.096719 0.179721 -0.148659 0.100504 -0.091641 -0.04913 0.004315 0.072068 -0.058845 0.207302 0.179936 0.026507 0.092825 -0.340674
discovery -0.146074 0.197699 -0.227369 0.014862 0.109063 0.087239 -0.149564 -0.026765 -0.043563 0.003262 -0.022776 0.107972 0.259666 -0.201178 0.40898 -0.15573 -0.184094 -0.161869 -0.159466 -0.192957 -0.103017 0.033868 -0.110348 0.044941 -0.416593 -0.179697 0.133312 0.323463 0.081086 0.150371 -0.186974 0.390925 -0.070369 0.027226 0.018171 -0.098157 0.072201 0.085303 -0.01788 -0.305128 -0.125974 -0.004015 -0.236576 -0.516709 0.12446 0.007138 0.023443 0.286011 0.029802 -0.069759 0.161939 -0.298417 -0.005359 0.139553 0.059081 -0.012246 -0.098173 0.034147 0.101718 0.454537 0.236237 0.185799 -0.1336 -0.273302 0.16557 8.04E-4 0.192331 0.119788 -0.19983 0.19395 0.160751 0.161419 -0.051646 0.469409 -0.178714 0.050528 -0.062993 0.108956 -0.211208 -0.156214 -0.088262 -0.297255 0.188914 -0.181963 -0.021847 -0.058394 -0.083878 -0.10748 0.106467 -0.081524 0.001703 -0.170523 0.079609 -0.11507 0.167615 0.199018 -0.263719 0.255951 -0.315255 -0.282534 0.174773 0.225782 0.235734 -0.205313 0.218302 0.400564 0.076625 -0.068803 0.041617 0.067291 -0.195726 -0.317095 -0.205437 0.116442 -0.002154 0.014471 0.484167 -0.181959 -0.108596 -0.045568 0.092714 0.069439 0.116629 -0.133333 -0.226005 -0.175274 -0.172002 0.04332 0.14097 0.070316 0.207069 -0.204674 -0.185455 -0.068988 0.270628 -0.172494 -0.229157 0.071405 -0.010927 0.021168 -0.266546 0.137414 0.024727 0.114654 -0.277981 -0.084018 -0.089639 -0.138773 -0.096023 -0.182331 0.110978 -0.274363 0.210234 -0.479353 0.034481 -0.094268 -0.192218 0.05446 -0.104026 -0.404397 0.195673 -0.141315 0.317202 -0.11303 0.187092 0.021838 -0.02064 0.297919 0.50123 -0.051495 -0.010817 -0.084895 0.250598 -0.28842 -0.238708 -0.107212 0.186554 -0.354782 -0.118636 0.106148 0.186628 0.084407 -0.105329 0.036638 -0.062262 0.06221 0.15689 -0.212487 0.179153 0.105067 0.41744 0.178125 -0.065171 0.129071 0.253572 -0.292305 0.125866 -0.059042 0.173109 0.018206
hospital -0.073281 0.167114 -0.407453 -0.05938 -0.140709 -0.038918 -0.058993 -0.219873 -0.045404 -0.06475 0.299517 0.232378 -0.095938 0.409652 -0.62432 0.307554 -0.402623 -0.227407 0.444554 -0.061652 -0.116255 0.079026 -0.341144 0.04075 0.173374 0.306045 0.073598 -0.107676 -0.177689 -0.122711 -0.207025 -0.174472 0.108668 -0.432866 0.470019 0.230475 -0.078281 -0.39855 -0.29166 0.501938 -0.241692 -0.317631 0.18225 -0.391912 -0.306993 -0.252559 -0.162411 0.147453 -0.123435 -0.04933 0.025057 0.310412 0.548248 0.110665 0.132001 0.13892 -0.139452 0.130478 -0.01993 -6.96E-4 -0.073593 0.009322 -0.452931 -0.172089 -0.308031 -0.075175 0.027799 0.094216 -0.362305 0.09226 -0.007548 -0.071971 -0.415415 0.182136 0.056367 0.143367 0.571869 -0.074827 -0.440246 0.226338 -0.215678 -0.09273 0.371364 0.310404 0.326805 -0.029222 0.092702 0.216008 -0.072208 -0.226748 -0.004761 0.204303 -0.114601 -0.158614 0.213776 0.234594 0.310985 0.123903 -0.117992 -0.054343 0.067042 -0.098236 -0.603267 0.173503 -0.094989 0.249975 -0.404875 0.484079 -0.049792 -0.247312 0.199048 -0.036491 0.264283 0.370599 0.01921 -0.240061 0.151221 -0.432267 -0.057245 0.386608 -0.067332 0.263258 -0.466342 0.050482 -0.162846 0.073067 0.174029 -0.025932 -0.277815 0.069609 -0.494984 0.280232 0.188067 0.162528 -0.213862 -0.090277 -0.103182 0.079678 -0.348396 0.161588 -0.198282 -0.259812 -0.380249 0.134384 -0.171396 0.30242 0.317444 -0.422592 -0.193868 0.362476 -0.2548 -0.432585 -0.274635 -0.288411 0.092209 0.129814 -0.072341 0.362255 0.20492 0.401814 0.085554 0.280115 0.016318 0.115918 -0.008466 -0.338265 -0.18536 -0.015246 -0.287041 0.424655 0.011611 -0.473718 0.288924 0.350227 -0.075155 0.008433 0.115003 -0.012996 0.046183 0.2367 -0.125263 0.32818 -0.153775 0.341277 -0.233854 0.113652 0.301959 -0.254258 -0.219691 0.039231 -0.154814 0.409424 -0.200327 -0.221564 0.170068 0.008887 0.344322 0.599067 -0.008152 -0.054648
computer 0.223921 0.170759 -0.425287 0.075762 0.034605 -0.053129 0.202214 0.005594 0.397861 -0.172111 0.103149 -0.12795 0.05619 0.010034 0.020835 -0.206693 -0.428609 -0.1958 0.013331 -0.369553 -0.552193 -0.195401 0.094179 0.342359 -0.371869 -0.132524 0.052649 0.258559 0.428637 0.03426 0.147834 0.070198 -0.200239 -0.211696 0.079286 -0.336863 0.025664 0.109544 0.016637 -0.079596 0.026455 -0.025507 -0.085961 -0.025956 -0.041107 -0.043122 -0.128838 -0.148927 0.440244 0.139512 0.091626 -0.142955 0.323966 0.141817 -0.115481 0.180655 0.038032 -0.097983 0.058373 -0.32732 -0.056317 0.028686 0.028848 -0.062252 -0.024819 0.317475 -0.097114 -0.045345 -0.024942 0.207395 -0.009109 0.45605 0.206715 0.289228 0.35878 -0.401441 0.157093 -0.143658 -0.007141 0.167271 0.292098 -0.158116 0.206579 -0.057789 -0.265502 -0.04409 -0.015238 -0.225815 0.12445 -0.357396 -0.010563 -0.023123 0.257906 -0.37347 0.138592 0.143108 0.17141 0.054801 0.109267 -0.26576 -0.163882 -0.324939 -0.349965 -0.285302 -0.324708 0.200498 0.036364 0.046551 -0.123484 -0.467588 0.266837 -0.189014 0.050858 0.39054 0.111217 0.055926 0.231989 0.136277 -0.049576 0.55079 -0.044859 0.258598 0.143407 -0.155501 0.210197 -0.233061 0.244367 -0.212872 -0.127089 -0.086237 -0.037204 -0.01365 0.250018 0.301306 0.086585 0.176141 0.018325 0.088829 0.311751 0.150359 -0.232392 -0.107433 0.213689 0.227589 -0.091007 0.034476 -0.007414 0.004648 -0.263097 -0.298513 0.030568 -0.088814 -0.063255 -0.252164 0.431061 -0.427896 -0.114574 -0.048317 -0.226226 -0.066552 0.048828 -0.073942 -0.335345 -0.123695 0.168162 0.131601 -0.09388 -0.010916 0.118536 0.064952 0.303237 0.199363 0.105395 -0.328173 0.391908 -0.165091 0.113071 0.178131 -0.010432 0.091266 0.054693 0.655553 -0.024495 -0.173935 -0.404466 -0.073448 -0.01845 0.17379 0.196908 0.172739 -0.134089 -0.078709 -0.122367 0.195165 0.077453 -0.083609 0.166329 0.247368 -0.018366 -0.219944
queen -0.295179 0.238225 0.29342 0.00694 -0.207734 -0.015955 -0.149449 -0.123043 -0.07082 -0.211626 -0.028425 -0.013017 0.004777 0.361576 0.322549 0.424535 0.010897 -0.16515 0.001357 0.421397 0.267464 -0.364681 -0.185426 -0.182118 0.37021 0.125186 0.158484 -0.168139 -0.023091 0.14068 -0.229747 -0.072952 -0.140114 0.247759 0.078201 0.084222 -0.219645 -0.063941 -0.273616 0.016491 0.215977 -0.315225 0.10759 -0.299864 0.082197 -0.024021 -0.632844 0.250329 0.056977 0.062703 -0.061521 0.017911 0.369272 -0.249165 -0.019123 -0.306374 -0.33674 0.324239 -0.474888 -0.073134 0.009679 -0.14564 -0.16595 0.138495 0.064713 0.175483 -0.042236 -0.210712 0.009922 -0.3675 0.026453 0.34442 -0.249945 -0.127151 0.572043 0.103953 0.2824 -0.050657 0.042104 0.351399 -0.223986 -0.27263 -8.18E-4 -0.313742 0.187816 0.021702 -0.131658 -0.188606 -0.445713 -0.017823 -0.035109 0.001485 0.15915 -0.128623 -0.115136 0.116573 -0.081942 -0.108655 0.012943 -0.185119 0.260813 0.137616 0.186963 -0.270752 -0.316886 0.019271 -0.329844 0.133451 -0.70776 0.122001 0.379195 0.079927 0.374105 0.219024 -0.019684 -0.045121 0.119188 -0.366008 -0.181378 -0.257101 0.233969 0.272727 -0.124636 -0.100886 0.08198 0.074748 -0.131169 0.156498 0.362185 0.132401 -0.173295 -0.095696 0.150013 0.227094 0.130488 -0.005275 0.022122 -0.172051 -0.368812 -0.021244 -0.043361 0.462493 -0.402508 -0.227798 0.018013 0.394501 0.015908 -0.230072 0.140597 0.130846 -0.048515 0.023251 0.146351 0.011889 -0.121945 -0.05811 0.054011 0.228386 0.374024 -0.171881 0.153624 0.160055 -0.219537 0.122983 0.007479 0.079712 -0.324214 0.255716 0.193686 0.394432 -0.225005 0.017039 0.033684 -0.052456 0.167133 -0.001962 -0.00222 -0.115549 -0.058725 0.085946 -0.050013 0.04011 -0.118617 0.170722 -0.289639 0.087119 -0.06102 0.077655 0.082489 -0.088367 -0.071596 0.196701 -0.205752 -0.010218 -0.066736 0.062465 0.427446 0.334216 0.372647 -0.162246
wizard -0.188191 0.039659 0.134152 0.04242 0.060235 -0.092393 -0.35981 0.162988 0.236566 0.03763 0.129167 0.02046 -0.146461 0.04924 0.041066 0.066637 -0.140703 -0.053256 -0.075215 0.06418 0.047217 0.163937 0.320378 -0.083517 0.057355 -0.026636 0.033553 0.058923 0.177488 0.143857 0.431193 0.012164 0.12273 0.020009 0.106341 -0.214555 0.032032 -0.286489 0.017267 -0.234403 0.160766 -0.094066 -0.108734 -0.178962 -0.134702 -0.124012 0.026809 0.074774 0.16378 0.205848 0.141223 -0.065967 0.007171 -0.172302 -0.033643 -0.141287 0.01487 -0.041602 -0.00392 0.080266 0.18889 0.029681 0.145287 -0.028546 0.203655 0.312739 -0.155439 0.136656 0.063739 -0.164851 0.016187 0.133017 -0.178744 -0.132929 0.072793 -0.069137 -0.078729 0.127437 -0.091177 0.135557 0.17406 -0.515544 0.249945 -0.24238 0.010499 -0.078962 0.050903 -0.323774 -0.093926 -0.068501 -0.073941 0.188301 -0.224266 0.064029 -0.067855 -0.016158 0.109136 -0.121326 0.096631 -0.386213 0.01961 -0.049448 -0.112904 -0.047408 -0.022883 0.071922 -0.058761 0.165756 -0.344131 0.11262 0.199029 -0.213172 0.234739 -0.025527 0.061302 -0.193797 0.305523 -0.267118 -0.355336 -0.059644 -0.03968 0.173645 -0.077981 -0.444745 0.15068 0.066568 -0.035752 -0.076901 0.193971 0.161206 -0.006192 0.024582 0.350528 -0.032478 0.20645 0.121879 0.042361 0.162345 -0.021749 -0.222004 -0.199108 0.326159 0.067709 -0.156939 0.039543 -0.094814 0.064608 -0.138666 0.142386 0.141329 0.211504 -0.362076 0.192317 7.95E-4 0.019635 0.120176 0.035538 -0.168512 0.056762 0.162724 0.018186 0.033949 0.036315 0.068525 -0.058114 0.103811 0.288743 0.055206 -0.019503 0.384306 -0.028651 0.225333 0.27226 0.051984 0.155732 0.074354 0.01817 0.126657 -0.025797 -0.073928 0.132229 -0.060101 0.101561 -0.010379 -0.037962 -0.080165 -0.144887 0.055866 -0.072536 0.115363 -0.19617 -0.152654 -0.093338 -0.057902 0.101286 -0.030346 0.237556 0.10451 0.117301 -0.111235
oil -0.586065 -0.103681 0.124845 -0.254312 0.323097 0.315246 0.446191 0.093098 -0.065009 0.202779 -0.369378 0.276367 0.064299 -0.556646 0.168421 0.083375 -0.03099 -0.258165 -0.098095 -0.250593 -0.002049 -0.235279 -0.536491 0.293528 -0.370309 -0.013613 0.322515 -0.00583 -0.18601 -0.026779 -0.117281 0.237762 0.511616 0.109124 -0.089241 0.28263 0.066754 -0.064443 0.060923 -0.171517 -0.19729 -0.104809 -0.53287 -0.241978 0.43253 -0.020851 -0.057343 0.248691 -0.38284 -0.184919 -0.134932 0.081078 -0.097321 0.166782 0.375927 0.247711 -0.126148 0.158115 -0.055154 -0.04025 0.34491 0.11223 0.198708 -0.065461 0.006259 -0.174111 0.119398 -0.020264 -0.082964 -0.179509 -0.086693 -0.143539 -0.414237 0.10931 -0.117987 -0.351561 -0.088305 -0.261049 0.24297 -0.129323 0.561748 0.126636 -0.219958 -0.123555 -0.015596 0.120741 0.002784 0.031445 -0.010394 -0.158051 -0.157526 -0.042975 -0.113679 -0.71977 0.451934 -0.269539 -0.135384 -0.048302 -0.305603 -0.17598 -0.020063 0.107373 -0.291265 -0.141244 0.203446 0.462061 0.045133 0.5522 0.352491 -0.210345 -0.206425 0.45607 0.124234 0.324842 -0.025613 0.064533 0.206646 0.024136 -0.143736 0.59106 -0.315795 -0.145245 0.238851 -0.252204 0.355051 -0.217088 0.065658 -0.101041 -0.149486 -0.287453 -0.184258 0.049687 -0.045856 -0.245019 -0.270828 0.576348 0.064012 -0.103553 -0.279271 -0.066668 0.260822 0.00246 -0.036745 -0.054063 0.069982 0.027076 0.155661 0.148471 -0.026042 -0.071562 0.37272 -0.02254 -0.573667 -0.184421 -0.553371 -0.462603 0.177933 0.146688 -0.086551 0.090892 0.262484 0.088987 0.063527 0.565972 0.166472 0.553145 -0.204419 0.501453 0.51101 -0.576951 -0.034847 -0.071129 0.131204 -0.267189 -0.10904 -0.201105 -0.389153 -0.221024 -0.223388 0.669625 0.020129 -0.206584 0.026408 -0.040989 0.560815 0.102518 0.149306 -0.612276 -0.081593 0.177714 -0.172723 -0.043502 0.358937 -0.248455 -0.371453 -0.177006 0.044232 -0.193513 -0.359424 -0.061549
currency 0.322868 0.100661 -0.021777 -0.123232 0.15648 -0.112745 0.031714 0.390871 0.144046 0.186017 -0.174682 0.409321 0.108341 -0.28016 -0.285827 0.144696 0.036191 -0.014979 -0.219184 0.187806 -0.198242 -0.79277 -0.071747 -0.130271 -0.544194 -0.10249 -0.023801 -0.022277 0.076377 -0.293395 0.03262 -0.07472 0.106919 0.057546 -0.58192 0.031332 -0.019879 0.140099 -0.045614 -0.113609 0.163555 -0.218092 -0.29873 -0.318561 0.277429 0.119626 0.091202 -0.096599 -0.075072 0.228034 -0.034723 0.093561 -0.082116 -0.107011 0.332679 -0.112139 -0.289007 0.180904 0.104842 -0.476633 -0.182971 0.201742 0.468087 -0.179256 -0.096456 -0.214303 0.372316 0.254396 -0.118471 0.178226 -0.243723 0.115229 0.106809 -0.032961 0.31534 -0.163643 0.209559 -0.234884 -0.06169 -0.205186 0.29858 0.419093 -0.435174 0.115692 -0.088202 0.420027 0.204524 -0.317736 -0.165927 -0.042172 -0.067435 -0.24368 -0.095619 0.059026 -0.144439 0.197017 -0.034056 0.425979 0.188229 0.00712 -0.017091 -0.293595 -0.281322 -0.335759 -0.155203 -0.123445 -0.117676 0.062053 -0.101297 -0.348022 -0.169451 0.245232 0.22252 0.251037 -0.117175 -0.1965 0.167751 -0.311998 0.064182 -0.236684 0.041641 -0.028397 -0.099887 -0.282532 -0.210339 -0.393703 0.319095 -0.144594 -0.355618 -0.378004 -0.17875 -0.048609 0.106189 -0.013693 -0.009028 -0.063827 -0.407375 -0.09754 0.051857 -0.216381 0.085176 -0.325079 -0.201291 -0.236043 0.032223 0.206456 -0.094784 0.235251 0.454214 -0.119587 0.129376 -0.184135 0.027962 -0.371292 -0.287089 0.267889 0.658341 0.358825 -0.015834 0.016018 -0.426801 -0.073206 -0.053692 0.266397 0.009354 0.128904 -0.108903 -0.573979 -0.039472 -0.225039 -0.1071 0.312233 -0.100368 -0.326251 -0.233144 0.00716 -0.300307 0.15007 0.021138 0.297813 -0.301042 -0.175609 0.115221 -0.212643 0.097311 -0.062937 -0.175771 0.372032 0.144611 0.151929 -0.506063 0.015988 0.266364 -0.127382 -0.511764 0.144328 -0.057503 -0.250363 -0.212382 -0.119466
laundering -0.539805 0.39898 -0.089973 0.438295 -0.187389 0.167181 0.308337 0.243419 -0.364196 0.065764 -0.210078 -0.118489 0.66734 -0.144851 0.23711 -0.628087 0.149661 -0.027531 -0.556627 -0.159255 -0.432162 -0.14943 0.431144 0.120426 -0.418931 0.100225 -0.061597 0.335783 -0.209793 0.420823 -0.02841 -0.460617 0.062956 -0.166291 0.082236 0.124592 0.053249 0.034214 0.118472 0.141203 0.67986 -0.15409 -0.093709 0.327166 0.314414 -0.152794 0.136911 -0.045967 0.177596 0.046402 0.452151 -0.426587 -0.044157 -0.103567 0.135858 0.137336 0.397691 0.116148 0.212663 -0.624554 -0.27004 0.321854 -0.263645 -0.478735 -0.233475 -0.317951 0.037154 0.249486 -0.022731 -0.225813 -0.037933 0.577937 0.261748 -0.119874 0.276066 0.089233 0.047719 0.058571 0.153706 0.35767 -0.0045 0.631196 0.283927 0.17297 -0.215183 0.110787 0.073797 0.171894 0.291694 0.14589 -0.387013 -0.129465 -0.365199 0.054852 -0.272285 0.691706 -0.26438 -0.237444 0.093693 0.229396 0.365721 -0.054844 -0.266365 -0.51042 0.531453 0.45804 -0.298658 -0.697311 -0.084619 -0.236461 0.069535 0.105454 -0.142643 -0.315049 -0.301458 0.153449 -0.14471 -0.063173 -0.519508 0.176616 0.41975 -0.138406 0.591879 0.045304 -0.089389 0.048633 -0.17224 -0.18632 0.356382 -0.608625 -0.609456 -0.146456 -0.477488 -6.54E-4 -0.34006 0.452426 0.036719 -0.103619 0.279488 -0.050949 -0.015924 0.251491 -0.228809 0.006064 0.695032 -0.059278 0.072258 0.038319 -0.71017 -0.549117 0.602963 -0.192041 0.251166 0.255744 -0.069088 0.035698 -0.515597 -0.225419 0.077108 0.321502 -0.280298 0.229217 -0.038283 -0.273676 -0.060325 0.233446 0.400058 -0.232288 0.204072 -0.170164 0.614597 0.068344 -0.124986 0.199273 -0.043745 -0.149596 0.061119 -0.331308 -0.069025 0.020693 -0.746027 -0.221487 0.438958 -0.57989 0.235409 -0.025692 0.463238 0.069514 0.146125 -0.474245 -0.473435 -0.077146 0.294853 -0.036782 0.169008 -0.062035 -0.650047 -0.841485 0.343837 -0.160769
midday 0.074501 0.257744 0.20142 -0.488697 0.052626 0.021944 -0.153602 -0.396885 0.273269 -0.081742 0.122149 0.413536 -0.207595 -0.128238 -0.431082 0.051446 -0.16554 0.354086 0.225676 0.075856 0.114988 0.064772 -0.289314 0.114402 -0.085929 -0.069704 0.264202 -0.029043 -0.375025 0.050554 -0.128314 -0.054852 -0.04072 0.109673 0.364583 0.123828 0.078358 -0.05104 0.248562 0.180935 0.320014 0.05175 -0.315003 -0.178361 0.097692 0.208224 0.014169 -0.221813 -0.202275 -0.090863 -0.424967 0.154932 -0.403415 -0.093565 0.153537 0.082413 -0.094857 0.300226 -0.0523 -0.480564 -0.133726 -0.199379 0.15187 0.086752 0.131593 -0.097754 0.166943 0.403985 -0.241217 -0.30506 -0.00131 -0.108216 0.050976 0.045814 -0.391125 -0.174241 0.310166 0.36572 -0.044442 -0.175532 -0.373727 -0.014523 -0.218594 0.337287 0.45582 0.411979 0.512828 -0.253117 -0.272384 0.067978 -0.122871 0.007921 0.105316 -0.883427 -0.188746 0.146949 0.523981 0.360383 0.095472 0.143148 0.511632 -0.139933 0.457756 -0.559139 -0.046099 0.28942 0.128874 0.16261 0.213252 -0.015474 -0.224001 -0.260754 -0.147754 0.549145 -0.16059 -0.013151 0.149067 -0.144338 0.031856 -0.246485 -0.142094 0.051429 -0.049768 -0.086429 -0.13547 -0.135646 0.277081 0.109273 -0.518719 -0.131887 0.043038 0.148307 -0.033936 -0.169612 -0.125877 -0.26786 0.109871 0.03337 0.215848 -0.332822 0.158192 -0.187015 0.140053 0.110516 0.247359 0.300089 0.298697 0.126861 -0.030313 0.097355 0.314629 -0.117304 0.153575 -0.083798 -0.163589 0.051912 0.151963 -0.33039 -0.142975 0.223648 0.151548 -0.279895 0.331134 0.046444 0.22249 -0.100417 -0.083183 0.00986 0.079867 -0.297966 0.08303 -0.234261 -0.117362 0.046116 0.195162 0.143136 0.128818 0.02101 0.444768 -0.138442 -0.144365 0.039198 -0.134081 0.345819 -0.175484 -0.024973 -0.337653 -0.019632 0.109647 0.289405 -0.056007 -0.241406 0.044949 0.015019 0.147371 0.022368 -0.377827 0.656049 -0.288038 -0.203811
man 0.08711 0.273317 0.048459 0.045854 0.200067 -0.174682 0.010643 0.186495 0.259957 0.109194 -0.439683 -0.145597 -0.001814 0.204199 0.090968 0.181135 -0.153546 -0.247297 -0.002737 0.106657 -0.193584 0.115635 0.016686 0.009236 0.142242 -0.241082 -0.156795 -0.259867 -0.058337 0.109532 -0.028251 -0.474712 -0.175027 -0.120397 -0.061956 0.031802 0.105639 -0.128219 -0.178056 0.030294 0.102907 0.201651 0.029281 -0.088414 0.01415 0.088213 -0.03972 0.343809 0.113179 0.038181 0.204992 0.124193 -0.103853 0.093205 0.039819 -0.140995 0.061516 -0.131413 0.10462 -0.024723 0.075504 0.031178 0.077868 -0.629623 0.011093 0.205464 0.039211 0.129784 0.051221 -0.170242 0.021336 0.057088 0.17364 0.296463 0.128874 -0.059368 0.069685 0.316328 -0.15816 -0.002422 -0.209152 0.068445 0.053349 0.206343 0.010754 0.14033 0.299773 -0.100152 0.041969 -0.164965 0.148708 -0.015185 -0.19467 -0.21478 -0.142755 -0.232316 0.137786 -0.00924 -0.103777 -0.191407 0.019893 0.114945 -0.110702 0.166405 0.118424 0.076292 -0.25938 0.24912 0.181158 -0.173194 0.181584 0.177079 0.052441 0.158304 0.069273 -0.253872 -0.058767 -0.391612 -0.213347 0.056256 -0.049041 0.316287 -0.05213 0.356016 0.05906 0.099322 0.121101 -0.017857 0.101875 0.252087 -0.24087 0.289136 0.19709 -0.123132 -0.199416 -0.182918 -0.097038 -0.055662 -0.140547 -0.147054 -0.133845 0.152251 -0.112365 -0.021594 -0.156351 -0.131818 0.295584 -0.05849 0.036677 -0.172816 0.075063 -0.272431 0.198767 0.042052 0.187633 0.127504 0.069824 0.204273 0.037372 -0.114709 0.327038 0.053521 -0.194112 0.026593 -0.189245 -0.266166 0.187118 0.247409 -0.118593 0.043998 -0.025921 -0.090746 0.242545 -0.291655 0.071539 -0.097327 0.035876 -0.165891 -0.097666 -0.167126 0.178134 0.032375 0.031837 -0.008351 -0.11501 0.161521 0.083835 0.437664 -0.093512 -0.271239 -0.117058 0.175329 -0.070487 0.081042 -0.035162 0.275968 0.248875 0.191753 -0.016212 -0.183889
keyboard 0.143002 0.037096 -0.118106 0.093546 -0.002619 -0.099444 -0.109989 -0.157049 0.103006 0.176862 -0.189032 0.04574 -0.145038 -0.09917 0.273442 -0.281595 -0.222151 0.048276 -0.112421 0.226281 -0.287688 0.038982 0.301918 0.142586 -0.027373 -0.03121 0.090834 0.17485 0.40835 0.008094 -0.150176 0.071068 -0.113886 -0.088746 -0.288672 -0.305675 0.14483 -0.117629 0.297477 -0.049673 -0.112005 0.108919 0.066886 0.110448 0.163133 0.019365 -0.042597 -0.086751 0.064154 0.325746 0.224496 -0.095168 -0.110309 -0.128325 0.217557 -0.11529 0.229717 -0.322574 0.007664 0.114336 0.199144 0.188506 0.328844 0.144505 0.054849 0.397609 -0.113943 -0.049456 0.141105 -0.041523 0.127973 -0.040048 0.198235 0.147402 0.312974 -0.153085 -0.136828 -0.163417 -0.115605 0.074933 8.51E-4 -0.142907 0.220037 -0.54622 0.059601 -0.259926 0.240264 -0.388705 0.064119 -0.417841 0.155715 0.036283 -0.02273 0.124213 -0.031612 0.384316 -0.04548 -0.077447 -0.017825 -0.312279 -0.238686 -0.043093 -0.411256 -0.296077 -0.274448 0.178909 -0.086811 0.126471 -0.316699 -0.337505 -0.034566 -0.158098 0.387029 0.184102 0.209373 -0.286893 0.038857 0.228478 -0.225722 0.177681 -0.076917 0.234854 0.058927 0.034449 0.252645 -0.14766 0.375988 0.142886 -0.173836 -0.024 0.259296 0.145154 0.333748 0.224095 -0.064329 0.33072 -0.391368 0.047655 -0.357705 0.043457 -0.040805 -0.102578 0.215131 0.136055 -0.235757 0.021722 0.037389 0.142529 0.229615 -0.139108 0.1213 -0.251266 0.021242 -0.008703 0.312198 0.021426 0.197962 0.23356 0.112379 -0.039504 -0.064953 -0.291283 -0.318961 0.376655 -0.050175 0.059669 0.005406 -0.141629 0.088463 0.026962 0.258704 -0.080069 0.213361 -0.030409 0.19425 -0.126179 0.247948 -0.136745 -0.029524 0.010986 -0.40131 0.269866 0.055377 -0.036152 -0.435587 -0.260554 0.145418 0.346359 0.08264 -0.092762 -0.059267 -0.229378 0.021863 -0.05809 -0.11375 -0.272128 0.237055 0.296161 0.129526 -0.398732
announcement -0.117365 0.149592 -0.303477 0.052915 0.235681 0.152245 -0.184572 -0.313196 0.082483 -0.090028 0.328404 0.238916 -0.044046 0.055425 0.30465 0.118245 -0.178267 -0.262672 0.016389 -0.134736 -0.038632 -0.122742 -0.256554 0.271627 -0.094007 -0.00724 -0.17789 0.10277 0.178674 -0.22701 0.45751 0.04673 -0.435575 0.127799 -0.233274 -0.194054 0.074065 0.210628 -0.140341 0.072095 0.223794 0.048336 -0.379979 -0.106286 0.068401 0.061358 -0.071161 0.24565 -0.183496 -0.047928 0.004627 0.062704 -0.29435 0.108065 0.296956 -0.124831 -0.032231 0.148221 0.300082 0.30537 -0.12238 -0.109942 0.035297 -0.034458 0.110283 -0.180178 -0.120238 -0.442295 0.004186 -0.03673 0.221426 -0.046234 -0.016803 0.346916 -0.029341 0.25467 0.125693 0.068402 -0.117476 -0.282937 0.055263 -0.134907 -0.187246 -0.106478 -0.112387 0.199322 0.216216 -0.128219 -0.198059 0.20641 0.197407 0.518688 0.282642 -0.290913 0.011122 -0.137524 0.214019 0.355885 0.144146 -0.09022 0.385957 -0.093887 0.481299 -0.114383 0.034314 0.4872 -0.100211 0.089838 0.015665 0.245083 -0.237394 -0.121937 0.109037 -0.057053 -0.059733 0.01281 0.023369 -0.444641 0.356396 -0.240781 0.153482 0.145518 0.137445 -0.281508 -0.442814 -0.236525 0.008669 0.144717 -0.249053 -0.30624 -0.008343 -0.06259 -0.231862 -0.271442 0.182947 -0.051536 0.212114 0.090886 0.175043 -0.043076 -0.190847 0.127523 0.214818 -0.161326 -0.166899 0.26446 -0.038723 -0.223766 0.168272 -0.042534 -0.265677 -0.185565 0.247283 -0.399002 -0.401857 -0.004508 -0.098812 0.289881 0.168905 -0.00675 -0.046528 0.071627 0.101112 0.043398 0.175513 -0.182641 -0.048681 -0.052573 0.195121 -0.31341 -0.432148 0.067847 0.293499 -0.178253 -0.101479 0.073467 -0.029553 -0.254205 -0.089687 0.067541 0.170415 -0.026182 -0.073022 0.134704 -0.266213 -0.102374 0.223953 -0.303013 0.191224 -0.302571 -0.005105 0.167205 0.138849 0.126491 0.257908 -0.244429 -0.004089 0.130575 -0.219447 0.145258
racket 0.073383 0.169023 -0.069178 0.052292 0.102344 -0.050085 -0.087829 -0.091432 -0.068287 0.147174 -0.156144 0.184906 -0.039815 0.036908 0.156779 -0.324794 -0.110797 0.135429 0.047772 -0.085459 0.034405 0.161347 0.128843 0.061815 -0.121092 0.058077 0.123286 -0.117994 0.079181 -0.103631 0.038916 -0.146639 -0.08427 0.157918 0.099399 -0.16672 -0.091874 -0.118482 0.072957 -0.020854 0.322326 0.219959 -0.019957 -0.098247 0.207207 -0.193174 0.072577 -4.9E-4 0.209998 -0.018954 0.507658 -0.109647 -0.045648 -0.014587 0.029017 -0.10641 0.272928 0.087034 -0.055617 -0.012701 -0.073917 0.149343 -0.05215 -0.170821 0.013763 -0.052964 0.002688 -0.052819 0.14946 0.180405 -0.244891 -0.146575 0.051855 0.017084 -0.016885 -0.00837 0.117423 -7.3E-4 0.172509 -0.067415 -0.01985 0.157146 0.166105 0.076071 -0.098663 0.039164 -0.005603 -0.345433 -0.217664 -0.283611 0.050742 -0.058755 0.094139 -0.06409 0.121544 -0.036408 0.057282 -0.0252 0.023092 -0.017224 -0.207526 -0.104997 -0.304841 -0.094156 -0.017065 0.129366 -0.113309 0.117438 -0.07598 -0.314593 -0.209959 0.004751 0.067042 0.242775 0.108153 -0.074105 0.059594 0.044544 0.052251 0.120706 -0.024028 0.172153 0.136499 0.157879 -0.09296 0.20354 -0.088462 0.055148 0.009584 0.037734 0.079868 0.044861 0.233133 0.073403 -0.052219 0.194261 0.014461 -0.156025 0.143299 -0.065726 0.008612 0.250207 -0.01002 -0.240729 0.174384 -0.217885 0.163616 -0.202387 0.019279 -0.043041 0.295161 -0.158992 -0.063101 -0.027385 -0.099832 -0.120119 0.144086 -0.031973 0.134669 -0.001536 -0.083347 0.07904 -0.050717 0.054689 -0.056981 0.216685 0.01776 -0.12606 0.077462 0.147396 0.325682 -0.032874 -0.029782 -0.304697 -0.140061 -0.088335 0.20229 -0.213477 -0.265317 -0.125215 -0.262191 -0.109644 0.191962 -0.102576 -0.188034 0.215079 0.100423 -0.007739 -0.01677 -0.163512 -0.097071 0.112221 -0.064932 0.208523 0.268701 0.014869 -7.63E-4 0.331653 -0.101809 9.68E-4
anxiety 0.070223 0.040922 -0.153467 -0.052416 0.107978 0.208111 -0.023323 0.239091 0.25873 -0.145104 0.029091 0.170442 -0.076363 0.078308 -0.358288 -0.127162 0.032946 0.292835 0.112707 0.262091 -0.131375 -0.046791 0.311561 -0.037367 0.199498 -0.155326 -0.163047 0.44884 0.123056 -0.301095 0.109168 -0.022307 -0.113741 0.38797 0.076389 0.444454 0.153914 0.093632 -0.047277 -0.313648 0.144968 -0.072324 0.02617 0.115447 0.215344 -0.072385 0.290031 0.276873 0.142147 -0.462215 -0.037131 -0.270615 0.415142 0.069471 0.067511 -0.440999 -0.124007 -0.284021 -0.090511 0.104753 0.297157 -0.036328 0.241589 -0.176695 -0.12014 -0.339853 0.224008 -0.075011 -0.204798 -0.129301 -0.321935 0.090291 -0.511753 -0.102416 0.554204 -0.434075 -0.458152 -0.227623 -0.051344 -0.018206 -0.082467 0.077638 -0.143346 -0.233867 0.062523 0.070989 0.084647 -0.213789 0.214442 -0.198184 -0.257871 -0.01553 -0.183123 0.022183 0.277683 -0.185795 -0.043995 -0.138491 -0.085453 -0.481631 -0.11429 -0.190544 -0.336208 -0.027385 0.211762 -0.123451 -0.25228 0.025675 0.455126 0.161862 0.033117 -0.074243 0.163219 0.048229 -0.228887 -0.136746 -0.106106 -0.062 0.518753 0.152323 -0.47649 -0.195073 -0.274861 0.069042 -0.012426 -0.004521 -0.050157 0.112909 -0.065195 -0.349074 0.046841 0.347564 -0.142583 -0.02626 0.032778 -0.108884 -0.052231 0.056291 -0.347888 0.033544 0.075495 -0.388417 0.304689 -0.249241 0.143243 -0.538186 -0.15277 -0.06888 -0.349172 -0.020396 0.44243 -0.157285 0.181161 -0.420759 -0.038922 0.092491 -0.245626 -0.176519 0.234787 0.071324 -0.224957 0.151652 -0.008326 -0.211525 0.142045 -0.401527 -0.276994 -0.383803 0.104991 -0.085991 0.246082 -0.466385 -0.290727 -0.014426 0.011438 0.072623 0.179022 -0.264757 -0.181046 -0.454007 0.017141 -0.361418 -0.137058 0.037763 -0.1323 -0.32625 0.154283 -0.260851 -0.099195 0.324514 0.115371 0.270816 0.316793 -0.403762 -0.043251 0.038261 0.268533 -0.127274 0.092601 -0.580709
jazz -0.333863 0.282864 0.463853 -0.190953 0.132461 -0.540388 -0.166858 0.171947 -0.365939 0.112252 0.096743 0.079301 -0.113142 0.195509 -0.096652 -0.318755 0.013376 0.174244 -0.172998 -0.006736 -0.11143 0.152726 0.099926 0.010678 0.216282 -1.56E-4 0.00723 0.028915 -0.303499 0.07848 -0.283104 -0.191799 0.010735 -0.217791 0.207452 0.142802 0.088175 -0.226808 0.274947 0.255849 0.148572 -0.253928 -0.085415 -0.046262 -0.084907 0.208363 -0.20858 -0.090458 0.057089 0.272304 -0.083231 -0.058578 -0.034381 -0.18198 0.026977 0.022331 0.017114 -0.074272 -0.333854 0.158816 0.171574 -0.037637 -0.129164 0.621766 0.144418 -0.070987 -0.057391 -0.168601 0.118598 -0.318518 0.349368 0.126635 -0.199107 -0.171948 0.394177 0.301426 0.225045 0.170473 -0.248873 0.294501 0.40785 -0.405195 -0.234776 -0.441791 -0.104077 0.067229 0.249737 -0.401237 0.028924 -0.036495 0.100367 0.103217 0.09181 -0.027999 -0.13464 0.048787 0.007778 0.192664 -0.155418 0.059266 -0.180205 0.053116 -0.078525 -0.261901 0.004665 -0.0723 -0.107627 0.177684 -0.283529 -0.137548 0.293002 -0.356011 0.194585 -0.159914 0.056796 -0.280007 0.260047 0.095263 -0.25419 -0.203871 -0.056228 0.212731 -0.049306 -0.27034 0.100283 0.227498 0.09885 -0.080507 -0.125815 0.26985 -0.078856 0.240584 -0.019572 0.241153 0.196602 -0.10484 0.069298 0.439512 0.058722 0.024939 -0.001484 0.149879 0.220065 -0.227291 0.018426 -0.095017 -0.033967 0.205256 0.048802 0.513772 0.029966 -0.028353 0.152866 0.034981 0.004296 0.052029 0.155611 0.420311 0.250805 0.10329 -0.066237 -0.215872 -0.550271 0.233791 0.062661 0.131015 0.002833 0.174542 0.040887 0.034368 0.009523 -0.13533 0.084298 0.235912 0.180832 0.054867 0.056471 0.348986 -0.114619 -0.010533 -0.236832 -0.173007 0.128232 0.064186 -0.162668 0.013035 -0.326313 0.008142 -0.008149 -0.145121 0.192506 0.117462 -0.338037 0.158501 -0.021389 -0.001044 0.508186 0.434716 -0.151695 -0.326844
gain -0.00523 0.117706 0.00549 -0.088073 -0.035133 0.246037 -0.174795 -0.164038 -0.145532 -0.256293 -0.065191 -0.104722 -0.18616 -0.153209 -0.184837 0.012643 -0.075304 -0.134018 -0.135377 -0.156044 -0.174311 -0.175155 0.061907 0.131672 -0.144662 0.114452 -0.112052 0.124329 0.35945 -0.064142 -0.213776 -0.148213 -0.047328 0.361523 -0.126968 0.041693 0.137977 -0.224618 -0.306557 -0.052687 -0.115647 0.051919 -0.093215 -0.304013 0.277054 0.073382 0.166305 0.191364 0.07931 -0.02126 0.139125 0.050186 -0.040366 0.227951 -0.091108 -0.031673 -0.082285 -0.38127 0.191228 -0.086109 0.067793 0.134387 0.013604 0.108373 -0.044439 -0.348076 -0.197495 0.172928 0.162965 0.200361 -0.044892 0.076357 -0.242396 -0.181088 -0.192379 -0.032244 -0.190819 0.027734 -0.11683 0.063769 -0.051453 0.064275 -0.049506 0.110564 -0.109246 0.288277 0.217257 -0.05292 -0.027842 -0.175704 0.160678 0.031704 0.153606 -0.17469 -0.06629 -0.141087 -0.307321 0.022023 -0.063573 0.080105 -0.409068 0.110975 -0.289929 -0.139181 0.014788 -0.112475 -0.03711 0.392707 0.019438 0.006214 -0.07316 -0.077872 -0.037171 -0.064911 0.126663 0.282091 0.072968 0.277639 0.148487 -0.309842 -0.010965 0.101261 0.193329 0.062356 0.079836 0.066928 0.404977 0.022332 -0.040391 -0.577972 -0.303063 0.220177 0.104518 -0.180065 -0.19013 0.248397 -0.17533 -0.08866 0.013779 0.104142 0.015333 -0.103506 -0.196557 0.107661 0.120048 -0.282569 -0.222471 0.06263 0.120958 -0.062352 -0.254104 0.11475 -0.136705 0.011661 0.323129 0.226768 0.193768 0.212758 0.229983 -0.003198 0.025225 0.059468 0.261067 -0.09121 0.143757 0.16018 -0.001254 -0.189352 0.356924 0.162382 0.049917 0.054748 0.049159 0.352018 0.012082 -0.281049 -0.124994 -0.360331 0.155485 0.078434 -0.135967 -0.156604 0.223672 0.114269 -0.367552 -0.431507 -0.102968 0.336881 0.193005 0.093535 -0.102519 0.051156 -0.141661 0.385284 -0.063549 0.216066 -0.096081 0.089648 0.143265 0.208062
history -0.008397 0.216731 -0.003788 -0.284658 0.09024 -0.190161 -0.090043 0.020895 -0.290137 0.136542 0.023982 -0.044837 -0.011631 -0.074474 0.05382 -0.083963 -0.195848 -0.204557 -0.466345 0.193129 -0.03496 -0.014918 0.030056 -0.155405 -0.151972 -0.111656 0.100926 0.169775 0.095776 0.445335 -0.012262 -0.289317 -0.013849 0.130688 -0.213428 -0.200762 -0.239718 -0.160253 0.001137 -0.33812 0.04685 0.33758 -0.106761 -0.03866 0.209341 -0.13708 0.235551 0.218553 -0.177057 0.321422 0.063868 0.052312 0.044267 -0.226173 0.092167 -0.233149 -0.403422 0.117068 -0.140686 -0.006653 -0.168119 0.183251 0.128532 -0.125652 0.280458 -0.212707 0.099726 0.102616 0.040688 -0.30945 -0.160517 -0.028355 0.125285 -0.026925 0.320282 -0.021243 -0.014624 -0.093368 -0.120893 -0.103298 0.35728 -0.243598 -0.005285 -0.20952 -6.24E-4 -0.198781 0.138434 0.315735 0.133725 0.206467 0.039536 -0.133815 0.24535 0.382216 0.144165 -0.132099 0.171413 0.178204 0.130713 0.401937 0.035551 -0.116475 -0.236098 0.001559 -0.105612 0.038671 -0.001268 0.179663 0.039778 0.066266 -0.18498 -0.257297 0.060216 0.115602 0.156153 -0.025427 0.329819 -0.450311 0.055955 0.302555 0.194243 -0.002095 -0.176593 -0.26337 0.147555 0.280284 0.142441 0.126564 0.237261 0.160427 0.229158 0.160229 -0.260423 0.343687 -0.305274 -0.042781 -0.097286 0.24383 -0.330174 -0.189261 -0.118521 -0.027084 0.001129 -0.081382 -0.114921 -0.074232 -0.053429 -0.015208 -0.135318 -0.243146 -0.152457 -0.09585 0.002387 -0.327597 0.566131 0.105376 0.045076 0.080208 -0.150117 -0.128979 -0.477256 0.165703 -0.102005 -0.10988 -0.017062 0.265068 -9.99E-4 -0.088346 -0.127797 0.067463 0.136168 -0.093779 0.204332 -0.053609 -0.060177 0.171893 -0.129263 0.007456 0.108757 -0.01999 -0.07594 -0.048317 0.161058 -0.092989 0.194566 0.144026 0.010811 -0.307452 0.192285 0.093858 -0.12301 0.056844 -0.385336 0.010928 -0.051746 -0.123743 0.374735 0.276353 -0.120792 0.112374
bird -0.101995 0.336923 0.015047 0.049783 0.008979 -0.274952 0.006357 -0.115074 0.048001 0.054164 0.184882 0.316117 -2.18E-4 -0.276338 0.170487 -0.419005 0.04045 0.084617 0.05257 -0.300321 -0.359386 -0.08344 0.364629 0.116445 0.038624 -0.03761 -0.160158 -0.048246 -0.326592 0.225141 0.212245 0.135993 -0.049659 0.017219 -0.302909 0.130024 0.160299 -0.379985 0.200344 0.029228 -0.028036 0.128065 0.006061 0.10046 -0.047412 0.296147 -0.161858 -0.366345 -0.090978 0.10674 0.096342 0.330162 0.204155 -0.104081 -0.37841 -0.318338 0.117854 -0.0745 -0.317993 0.395115 0.420942 -0.048475 -0.044115 -0.20184 -0.106449 0.248273 0.047706 -0.07465 0.212356 0.199802 -0.093094 -0.333059 -0.118133 -0.022664 0.287822 0.104777 0.200878 -0.152409 -0.336332 -0.383407 -0.137772 -0.014329 0.270048 -0.2072 0.270971 -0.023543 0.065752 0.059148 0.242901 0.00116 -0.259824 -0.098595 0.127538 0.00584 0.018134 -0.143456 0.008819 0.005959 -0.270458 0.082718 0.10537 0.126158 -0.083189 -0.014214 -0.347459 -0.097084 0.043603 0.132492 -0.182655 0.130037 0.100475 -0.368058 0.392301 0.172733 0.044438 -0.264932 0.336209 0.050974 -0.235256 -0.01846 -0.0013 0.145517 0.112697 0.147149 -0.388349 -0.18106 0.025671 -0.109529 -0.023773 -0.150137 -0.183153 0.0052 -0.033556 -0.149099 0.121475 -0.48312 0.021393 -0.123067 -0.149972 0.330744 0.118834 0.197842 -0.288726 -0.133068 -0.259623 -0.021302 -0.179209 -0.490025 0.170745 0.109382 0.639837 -0.162912 0.203886 -0.361166 0.164985 0.166564 -0.253405 -0.094961 -7.88E-4 -0.097246 0.085013 0.100288 -0.37027 -0.011057 0.192878 0.00234 1.17E-4 -0.027533 0.179832 0.129942 -0.377346 -4.7E-4 0.13823 -0.282294 -0.117943 0.193338 0.092686 0.034365 0.298649 -0.050063 0.169423 -0.315098 0.158249 -0.331077 0.063703 -0.052008 0.21146 0.289447 -0.498415 0.056687 0.240222 0.049236 0.242039 -0.140876 -0.08694 0.007181 0.263648 0.361547 0.075507 -0.295003
possession 0.021856 0.289116 0.121476 0.246904 0.375682 0.001817 0.009199 -0.482041 -0.442309 0.090555 -0.244276 -0.417323 0.36926 -0.240235 0.178107 -0.430545 -0.397731 -0.006861 -0.067338 0.170489 -0.504694 0.372883 -0.081515 0.038854 -0.382394 0.406483 0.026733 0.20364 0.032515 0.376029 -0.00832 -0.792347 -0.156149 0.077317 0.275295 0.068926 0.312411 0.119659 0.151299 -0.118566 -0.199238 0.025268 -0.281288 -0.226754 0.005334 -0.206929 -0.139441 0.008306 -0.029044 -0.402016 0.271379 -0.341898 -0.027255 -0.152103 0.014063 0.165745 0.123677 -0.182584 0.430016 0.05701 -0.479081 0.2804 -0.224983 -0.544458 0.261709 -0.03875 -0.041571 -0.022956 -0.072575 0.014365 -0.298059 0.269424 0.165252 0.255833 0.112905 -0.125407 0.084412 -0.163675 -0.027031 0.154297 -0.095916 0.354359 0.318853 0.12213 -0.024176 0.177513 0.08563 -0.0072 0.100294 -0.243448 -0.113547 -0.051433 -0.439573 0.189326 -0.15303 0.145121 -0.056871 0.306324 -0.202553 -0.198787 0.277907 -0.473247 -0.469529 -0.194275 -0.010836 0.317027 -0.34737 -0.171149 -0.014327 -0.370675 -0.427108 0.08911 -0.050227 0.10836 -0.476192 -0.097757 0.060041 0.107857 -0.364779 0.138844 0.152548 -0.076674 0.39193 -0.020317 0.035358 0.523226 -0.127029 -0.213187 0.120815 0.035534 -0.358247 0.542066 -0.294409 0.343473 -0.222283 0.576781 0.065641 -0.171442 0.191389 -0.045217 0.065713 0.330753 0.239804 0.104629 0.420586 -0.200808 -0.152904 -0.0475 -0.6025 -0.25864 0.453237 -0.183786 0.262579 -0.007073 0.203841 -0.124082 0.181484 0.058299 -0.04551 0.290757 -0.141375 -0.396781 -0.153595 -0.243808 -0.223142 0.665917 0.166596 -0.011085 -0.14953 -0.415321 0.228731 0.054847 -0.104853 -0.646586 -0.317894 -0.153505 0.130994 -0.251536 -0.384708 -0.099744 -0.535462 -0.466279 0.031785 -0.489792 0.138853 -0.240813 0.0371 0.05768 0.133172 0.073108 -0.243893 0.292656 -0.378816 0.276266 -0.139786 0.254516 -0.178717 -0.284536 -0.129357 -0.239062
yen 0.162264 -0.190455 0.160683 0.411436 -0.319916 -0.096071 0.131417 0.491224 -0.542812 -0.249967 -0.458438 -0.480571 -0.200349 0.002388 0.084872 -0.270973 0.362182 0.097429 -0.167707 -0.256761 0.002642 -0.476337 0.194927 0.722637 -0.408287 0.163085 0.098877 -0.230876 0.062487 -0.127462 -0.172674 0.143613 -0.11252 -0.052629 -0.15357 0.660859 0.027953 0.133441 -0.236831 0.070266 -0.269283 0.011286 -0.237216 -0.53609 0.040716 0.178462 0.058219 -0.176453 -0.291846 0.169552 0.173822 0.329408 -0.637883 -0.13154 0.558019 -0.318967 0.187539 0.507666 -0.131921 -0.308233 -0.292068 -0.354818 0.327601 -0.142293 -0.265103 0.089519 0.046654 0.153962 -0.599711 0.201561 -0.551638 -0.579693 -0.591693 -0.253265 -0.257074 -0.238101 -0.078229 0.120641 -0.071577 -0.314797 0.025873 0.301249 -0.432303 0.5499 -0.101923 0.626864 -0.161639 0.111577 -0.632928 0.025103 0.281537 0.050622 0.087736 -0.050641 0.17233 0.219319 -0.463047 0.109437 -0.06376 0.022463 -0.119666 0.032504 -0.604277 -0.9005 -0.180903 0.39492 0.136992 0.675661 -0.120378 -0.563946 -0.409919 0.182011 0.192997 0.284 0.126614 0.468157 0.261028 0.055278 -0.099461 -0.05249 -0.254834 0.283226 0.019477 0.009736 0.038189 0.360793 0.266937 0.097425 0.229115 -0.584515 -0.361596 0.129339 -0.251331 -0.044448 -0.287425 -0.230589 -0.339882 0.235379 0.339561 -0.368715 -0.365441 0.134127 0.064548 0.223762 0.209091 0.064225 -0.274406 0.37199 0.383082 -0.08286 0.204769 -0.103544 0.153614 -0.438598 -0.270249 0.393465 0.435577 0.053958 0.575271 0.250518 -0.089348 0.039564 0.375518 0.520048 0.491606 0.051212 -0.365662 -0.617317 -0.172504 -0.313695 0.092321 0.510285 -0.041525 9.31E-4 -0.085938 -0.161427 -0.208937 0.411081 0.399489 0.151337 -0.397985 0.132361 -0.383366 0.314521 -0.517818 -0.044565 0.022364 0.179521 0.301559 -0.269715 -0.562659 -0.179457 0.96239 0.169937 -0.05585 0.084307 0.18447 -0.21102 0.08946 0.05834
chemistry -0.275502 -0.064827 -0.084386 -0.091866 0.171254 -0.222874 0.10664 0.123002 0.050869 -0.015654 -0.433748 0.12411 0.135526 -0.187183 0.145337 0.164817 -0.153197 -0.110896 -0.101092 -0.004858 -0.282485 0.017511 0.221496 -0.195518 0.474521 -0.273804 0.164728 0.2224 0.243661 0.198618 -0.304164 -0.66392 -0.039037 0.294288 -0.110684 -0.004794 -0.084315 -0.146369 0.084985 -0.274728 -0.331504 -0.030407 0.377077 -0.337727 0.052626 -0.032939 -0.152737 0.047709 -0.049373 0.214367 -0.10564 -0.146351 0.570192 -0.299049 -0.178758 0.11957 -0.307383 0.202779 -0.109672 0.03943 0.039601 -0.093129 0.325639 0.263597 -0.114373 -0.078584 -0.109941 0.119787 -0.16739 0.02204 -0.056837 0.167907 0.156036 -0.159668 0.270989 0.105106 -0.216037 -0.251214 0.038282 -0.051353 0.179758 0.191044 0.258136 -0.029047 -0.116783 -0.209212 7.82E-4 0.189879 0.515703 -0.184485 -0.223925 -0.195766 0.111276 -0.012988 0.294247 0.034482 0.076055 0.166735 0.159509 -0.108285 -0.002409 0.208594 -0.156219 -0.2728 -0.223687 0.337222 -0.248111 0.194158 0.024835 0.140366 0.126724 -0.116586 0.229326 0.173432 0.109066 -0.06025 0.380473 -0.225914 -0.039807 0.147005 -0.11129 -0.112898 -0.05419 -0.142444 -0.050815 0.03417 0.126031 -0.151572 0.003262 -0.026464 -0.192172 -0.13933 0.050882 0.223599 -0.10152 -0.077112 -0.058886 0.38955 0.062079 0.336031 0.139378 -0.026851 -0.099701 -0.437621 0.065212 -0.198562 -0.166382 0.161952 -0.169381 -0.264899 -0.106811 0.067895 0.402762 -0.388239 0.266513 0.026075 -0.342384 -0.206797 -0.196073 0.093752 0.097453 -0.159669 0.075287 0.004016 0.03818 0.113733 -0.166316 0.064193 -0.042358 -0.119207 0.195 -0.102111 0.036514 -0.041763 0.396425 -0.137041 -0.102071 0.028511 -0.128875 -0.138611 0.031473 0.208022 0.086593 -0.061998 0.244633 -0.053145 0.208357 -0.261208 -0.029232 0.00264 0.128517 -0.215647 -0.171219 -0.207809 0.063829 -0.018287 0.262247 0.014574 0.226883 -0.242391
library 0.029125 0.470129 -0.146195 -0.311767 0.507935 -0.060834 0.216289 -0.053484 -0.187401 0.015176 0.337527 -0.074271 -0.00195 -0.058034 0.09969 0.492015 0.06936 -0.231585 -0.471806 -0.104316 -0.189909 0.060303 -0.272199 -0.041292 0.221609 -0.056952 0.422993 0.343605 0.067823 0.019954 -0.121942 -0.239538 -0.092534 -0.080228 -0.020852 -0.25938 -0.211307 -0.062553 0.169329 0.282208 0.092004 -0.058331 -0.3877 -0.391594 0.026378 -0.415848 0.088046 0.196099 0.120114 0.052077 -0.041932 0.039571 0.143813 0.213158 0.055081 -0.010048 0.074822 -0.344793 -0.006647 0.0043 -0.303892 0.085461 0.030661 0.062043 0.167466 -0.071586 0.074148 0.067518 0.098658 0.075143 0.221583 0.105601 0.159344 -0.07627 -0.087295 0.116419 0.213729 0.057296 -0.18572 0.312261 0.124229 -0.241514 0.328688 -0.204331 0.274967 -0.115417 -0.08995 0.207144 0.045946 -0.147843 0.37083 -0.015166 0.235426 -0.385724 -0.009535 0.248706 -4.22E-4 0.052301 0.130739 -0.123806 0.046198 0.076763 -0.209848 -0.130024 -0.235842 0.025241 -0.186032 0.49525 -0.203865 -0.043552 0.384221 -0.071469 0.1084 0.026202 0.073981 0.050296 0.15414 -0.542713 -0.091519 0.239575 -0.020782 0.171462 -0.251553 -0.214515 -0.052189 0.320145 0.397585 -0.017694 0.082382 0.030829 0.154487 -0.191424 0.324474 0.074504 -0.018182 -0.09157 -0.10661 0.214228 -0.218435 -0.031382 -0.465445 -0.167541 -0.053911 0.030735 0.134255 0.056896 0.207799 -0.090409 0.019908 0.028071 0.350344 -0.33972 0.080353 -0.322935 0.428502 -0.123841 -0.059791 0.061254 -0.188384 -0.181095 -0.132707 0.024095 0.067691 -0.00444 -0.061797 0.222495 -0.096709 -0.104718 -0.227278 0.21557 -0.003979 0.24533 0.203758 0.196406 0.097221 0.137453 -0.035721 0.044254 0.371797 -0.081036 -0.133575 -0.027507 0.085029 0.097882 -0.103199 -0.020471 -0.111829 0.012507 -0.015724 0.268971 -0.04647 -0.073853 -0.282579 0.056088 0.189438 -0.363355 -0.105769 0.249775 -0.109515 0.018981
virtuoso -0.082223 0.128633 -0.091298 -0.057988 -0.013766 -0.216257 0.046286 0.031164 -0.053209 -0.012776 0.072087 0.064073 -0.088341 0.178723 0.040134 -0.035217 -0.039634 0.092659 -0.114228 -0.114947 -0.052059 0.046323 0.010916 0.097882 0.21817 -0.053431 -0.046175 0.014269 -0.014622 0.069483 0.097082 -0.258528 -0.030297 0.007718 -0.094954 -0.068876 0.111205 0.011923 -0.006276 -0.139097 0.112231 0.019961 -0.077329 0.059963 0.039114 -0.102484 -0.023655 -0.016109 0.093806 0.231592 0.278358 -0.113068 0.144134 -0.094576 -0.044634 -0.06489 0.043258 0.046785 0.004057 -0.016327 0.060502 0.104158 0.178501 -0.047439 0.100631 0.043343 0.048278 0.005133 -0.036974 0.019236 0.131267 0.054159 -0.14478 0.007813 0.135525 -0.101948 -0.149539 0.058173 0.032065 0.090221 -0.01187 -0.020663 -0.072565 -0.135129 -0.122815 -0.081919 0.115076 -0.152768 0.126437 -0.105291 -0.087703 -0.014397 0.009273 0.005174 -0.186247 -0.014716 0.008114 0.017936 0.048629 -0.166489 0.006907 -0.013569 -0.130216 -0.04558 0.084186 -0.044176 0.025537 -0.115843 -0.296527 -0.027606 -0.018353 -0.122348 0.239299 -0.020769 0.084372 -0.034963 0.003553 -0.068649 0.100955 -0.263274 -0.125637 0.030495 0.112259 -0.075165 0.072144 0.034977 0.104163 0.087022 0.029016 -0.097471 -0.00491 0.104289 0.268895 -0.01748 0.113066 0.036102 0.137862 0.101639 -0.028044 -0.150266 -0.019278 0.081825 -0.010036 -0.255865 0.020336 0.057065 -0.008647 -0.009901 0.100762 0.158267 0.162015 -0.141776 -0.077279 -0.128128 0.033809 0.075203 -0.1597 -0.039036 0.133452 0.012274 0.020407 -0.07257 -0.160079 0.185934 0.10064 0.031893 0.137136 0.120268 -0.057264 0.083105 0.12299 0.145891 -0.068641 -0.029325 -0.006889 0.166208 0.101814 -0.078749 0.08027 0.051725 -0.085359 -0.14972 0.211137 0.176748 -0.09753 -0.037418 0.0225 0.018698 -0.118716 0.02707 0.012358 -0.189607 0.024861 0.007961 -0.038734 0.013546 0.048898 0.301795 0.092235 -0.246276
psychiatry -0.233678 0.185448 0.109346 -0.204777 0.153528 -0.056751 0.425151 0.021749 -0.228012 -0.057353 0.405798 0.173545 0.15424 0.024789 0.168782 -0.007453 -0.099463 -0.181411 0.106199 -0.3348 -0.305294 0.190567 -0.153021 -0.13587 0.324125 0.09034 0.288554 0.033315 -0.196826 0.138494 -0.097307 -0.029095 -0.042829 -0.176105 0.080153 -0.220293 -0.001229 -0.087513 -0.129236 -0.177939 -0.26734 -0.087942 0.037851 0.08441 0.252291 -0.19326 -0.038898 -0.221425 0.107192 -0.057531 -0.063582 -0.00606 0.428784 0.06529 -0.015866 -0.086824 -0.2962 -0.01389 -0.100509 0.002172 -0.132233 -0.08322 -0.04865 -0.008896 -0.0324 0.060646 -0.166658 0.359109 -0.192908 -0.102312 0.012044 0.194659 -0.047659 -0.058017 0.228183 0.176273 0.070263 -0.421282 0.033142 0.002908 0.084398 -0.016156 0.241089 0.164241 -0.128297 0.00403 0.05361 0.229443 0.10098 -0.381428 -0.196395 -0.019475 0.211366 0.138933 0.127253 0.125192 0.203956 0.117372 -0.120018 -0.267301 0.216761 -0.015275 -0.149426 -0.00268 -0.094265 0.157807 -0.26004 0.084415 -0.11296 0.146743 0.104098 -0.16319 0.428015 0.057199 -0.041405 -0.087221 0.340223 -0.23097 -0.477019 0.347911 -0.028529 -0.026895 -0.125192 -0.109429 -0.161263 0.151907 0.181559 -0.042775 -0.01822 -0.40758 -0.187099 -0.203976 0.095771 0.399006 0.052587 0.228859 0.030315 0.473876 0.054504 -0.243123 -0.381396 0.085344 -0.18971 0.03276 -0.054538 0.115973 0.012681 -0.357753 -0.16526 0.060952 -0.042623 -0.185643 -0.246827 -0.43037 0.016957 0.16022 -0.156577 -0.049049 -0.288149 0.021018 0.002771 0.149618 0.060222 -0.145586 -0.238342 -0.127148 -0.058059 -0.046224 -0.170135 0.04892 0.197585 -0.195107 -0.084909 0.146355 0.047946 0.092076 -0.093958 -0.006767 0.099171 -0.122103 -0.0573 0.190351 0.065094 0.034855 0.073962 -0.209023 0.338509 -0.070485 -0.297191 0.168985 0.096016 0.082806 -0.625165 -0.002916 -0.004836 0.283293 -0.031676 0.239864 0.077584 -0.310505
change 0.219086 -0.222614 -0.29436 -0.149955 -0.105857 -0.118952 0.167172 0.318118 -0.10929 -0.272981 0.178726 -0.075764 0.084982 -0.021 0.279557 -0.097644 0.006386 -0.128281 -0.216865 -0.140767 -0.182832 -0.035094 0.01292 -0.042828 -0.043545 -0.172189 0.031174 0.343348 0.051133 0.265463 -0.120921 0.163442 0.0341 0.248358 0.113311 0.085316 0.135043 -0.270991 0.293996 -0.378733 -0.152553 0.429873 -0.01897 -0.397864 0.085247 -0.0577 -0.162661 0.10305 0.016524 0.403298 0.345419 0.072778 -0.035575 0.104905 -0.159066 -0.381627 -0.016533 -0.05798 0.002574 0.385406 0.012456 0.369137 0.263271 0.378277 -0.013518 -0.101479 -0.027949 0.089712 0.159457 -0.205626 -0.277432 0.347333 -0.174548 -0.122404 -0.285913 0.090392 -0.121014 -0.136172 0.311851 -0.204849 -0.326908 0.05632 -0.231235 0.038262 0.017091 0.480579 -0.119261 -0.179745 -0.063928 0.086802 -0.149452 0.093995 -0.036089 0.050503 0.026057 0.122654 0.050766 -0.138816 0.178132 -0.055971 -0.193993 0.029783 -0.260069 0.03354 -0.236485 -0.002583 0.333323 -0.485439 0.01259 -0.113948 0.323882 0.125431 0.18385 0.152951 -0.218869 0.250625 0.220682 -0.146507 0.183566 0.062788 0.196475 -0.191542 0.248747 -0.187476 -0.086904 0.101207 -0.072736 -0.106687 -0.046489 -0.00633 -0.086046 0.082 -0.010643 0.094417 -0.054991 -0.013326 0.13365 -0.098749 -0.03004 0.21166 0.216577 -0.220157 0.097068 -0.358136 -0.112992 -0.003725 -0.44042 0.126928 0.269861 0.162374 -0.264652 -0.180144 -0.106504 -0.203609 -0.221085 0.062837 -0.141546 -0.306596 0.127669 0.034853 -0.218828 -0.230084 -5.86E-4 0.038517 0.132236 -0.07957 0.157761 0.236857 -0.08959 -0.226968 -0.106879 0.171895 0.021911 0.02654 0.230837 -0.237404 -0.132218 -0.248974 -0.221785 -0.103425 0.165831 -0.040006 0.327415 0.212823 0.249595 0.033189 -0.043588 0.116223 0.130256 -0.103636 0.016129 0.177984 -0.190707 0.107542 -0.136269 0.235464 0.169694 -0.081007 0.055059 -0.019778
entity 0.178141 0.113467 0.002681 -0.593689 0.07251 -0.206762 0.288791 0.033208 -0.159042 0.140759 0.046708 0.262459 0.171363 -0.127457 0.24477 -0.00391 0.011159 -0.324168 0.084425 0.04836 -0.323057 0.125237 0.192007 0.316469 -0.035668 0.056424 -0.129126 -0.241539 0.152495 -0.022507 0.164564 0.118678 0.270441 0.122083 -0.152842 -0.073385 -0.092839 0.161173 -0.050523 0.019668 0.079568 0.150635 -0.148199 0.058382 0.157644 -0.178876 0.131154 0.215519 0.043658 -0.176977 0.377145 -0.138871 0.225084 0.071357 0.173991 -0.006118 0.401225 -0.292983 -1.34E-4 -0.074446 0.016823 0.447931 0.025712 -0.144697 0.314997 0.110653 -0.252895 0.235361 0.099479 0.388489 0.16574 0.054883 0.179477 -0.034779 0.108108 0.201259 0.262858 -0.033556 -0.140344 0.402175 -0.041694 -0.022555 0.12644 0.053172 0.093742 0.140484 0.149194 -0.397121 0.375718 -0.068293 0.071788 0.094689 0.06917 0.087336 -0.230308 -0.158405 -0.113808 0.582612 0.06434 0.108928 0.100117 -0.275187 -0.183743 0.075804 0.104372 0.284795 0.003222 0.234449 -0.154798 -0.19565 0.248722 0.090965 -0.052859 -0.196356 0.021368 0.183721 -0.097594 -0.294706 0.227931 0.20967 -0.015784 -0.070794 -0.16555 -0.200762 0.162674 -0.40531 0.259265 0.11025 0.046878 -0.388212 -0.005608 -0.10119 -0.38982 0.006244 -0.0842 0.11502 -0.088716 0.12718 0.262673 0.122662 -0.282164 0.077996 -0.31896 0.215722 -0.145159 0.036486 0.041456 0.206516 0.162597 -0.18364 -0.371932 -0.078893 -0.142848 -0.230389 0.067889 0.116105 0.07323 0.009841 0.122634 -0.183271 0.163165 -0.189644 0.044763 0.144697 0.173682 -0.18118 -0.144272 -0.105404 0.398872 0.152742 -0.325942 -0.239861 0.181661 -0.014233 -0.16112 0.039767 -0.148861 0.06327 0.025137 0.151615 -0.290695 0.258707 -0.069231 0.126507 0.083254 -0.340158 0.380066 0.352849 -0.045245 -0.067214 -0.158157 -0.086704 0.006548 0.072124 -0.273207 -0.092868 0.019176 0.184493 -0.068167 0.164654
tool -0.121234 -0.029853 -0.229905 -0.028427 -0.094339 0.004928 0.103083 0.062967 -0.091079 -0.160561 -0.083612 0.169662 0.213612 -0.091196 -0.083803 -0.065849 0.011828 0.012775 -0.013345 -0.085416 -0.326475 0.355978 0.031252 0.354107 -0.187572 -0.247916 -0.277081 0.036761 0.542215 0.03506 -0.172725 0.036811 -0.046289 0.235782 -0.051698 -0.123221 -0.128734 -0.080449 0.032351 -0.004148 0.097196 0.21836 -0.04015 -0.142343 -0.060636 -0.07688 0.152018 0.075877 0.176786 0.050596 0.406623 -0.276201 -0.054068 -0.050253 -0.039096 -0.168506 0.280615 -0.09889 0.030213 0.015958 -0.235502 -0.011746 0.072033 -0.012534 -0.029726 -0.013088 -0.147336 0.06738 0.062524 0.473282 0.156208 0.404208 0.161214 0.13466 0.010507 0.068662 -0.180833 0.215544 -0.052111 0.075438 0.398514 -0.194725 0.36982 -0.139282 -0.053565 0.08858 0.0984 -0.347447 0.176243 -0.18055 0.142308 0.084345 -0.053276 -0.069879 0.084366 0.146135 -0.157798 0.022835 0.128691 0.159748 0.108618 -0.366329 -0.113745 -0.215759 0.21202 0.195801 0.056135 0.022123 -0.238542 -0.151662 0.184568 0.260251 0.479707 0.041984 -0.21215 0.008583 0.475309 -0.020898 0.219813 0.111438 -0.153079 -0.478517 0.010474 0.276753 -0.11173 -0.278343 0.142184 -0.042145 -0.083967 -0.088497 0.209991 -0.054682 0.202719 0.18505 -0.021524 0.181 -0.117404 0.045899 0.323302 0.247008 -0.095343 -0.225981 -0.09384 0.017839 -0.230959 -0.19213 -0.159836 0.273767 -0.120005 0.40856 -0.078233 -0.070876 0.005245 -0.487984 0.316686 0.192711 0.136122 0.129616 -0.068405 -0.037618 -0.251917 -0.034095 -0.040229 -0.006105 -0.196233 -0.161707 -0.156077 0.035313 0.111032 -0.056673 -0.024887 -0.054321 0.112384 -0.100978 0.217857 -0.190663 -0.036578 0.162883 0.130616 0.056138 0.183914 0.193237 -0.052951 0.109789 0.080122 -0.01505 -0.159505 0.226362 0.027209 -0.169246 0.193204 -0.14674 -0.128725 0.111929 -0.326053 0.118802 0.129729 0.282418 0.029035 -0.197921
